tree
version=v4
num_class=1
num_tree_per_iteration=1
label_index=0
max_feature_idx=19
objective=binary sigmoid:1
feature_names=vol_ratio ret1 ret3 ret5 ret20 atr_pct range_pct close_pos rsi14 dist_ath300 hi20_break bb_pct ema20_dist ema50_dist vol_std20 dow is_bull is_bear mom_consist vol_trend5
feature_infos=[1.300203:30] [-0.309535:0.43092799999999998] [-0.394565:0.76378900000000005] [-0.39587899999999998:1.4882089999999999] [-0.81923100000000004:3.8331050000000002] [0.0060000000000000001:0.5] [0.025000000000000001:0.59999999999999998] [0:1] [0:99.893401999999995] [0:0.99956299999999998] [0:1] [0:1] [-0.5:0.5] [-0.5:0.5] [0:0.29999999999999999] [0:6] [0:1] [0:1] [0:1] [0.41714200000000001:20]
tree_sizes=3389 3465 3457 3444 3437 3468 3421 3461 3457 3455 3465 3434 3447 3452 3440 3437 3435 3469 3465 3463 3470 3440 3448 3453 3452 3440 3467 3471 3461 3447 3457 3473 3462 3453 3444 3447 3445 3450 3466 3453 3462 3464 3424 3439 3464 3455 3444 3434 3460 3441 3446 3443 3460 3467 3425 3444 3465 3458 3448 3466 3431 3472 3454 3453 3443 3411 3442 3420 3461 3457 3426 3414 3457 3439 3426 3437 3425 3436 3436 3427 3443 3445 3420 3432 3448 3447 3429 3460 3441 3449 3451 3434 3457 3453 3456 3426 3453 3437 3438 3432 3418 3479 3419 3441 3445 3439 3471 3461 3426 3474 3457 3436 3448 3445 3436 3450 3430 3442 3450 3441 3432 3453 3428 3454 3422 3430 3418 3436 3435 3439 3421 3417 3458 3435 3440 3425 3461 3446 3426 3436 3417 3432 3443 3439 3456 3424 3445 3424 3459 3427 3428 3397 3467 3428 3433 3466 3447 3445 3463 3433 3448 3434 3464 3432 3449 3438 3440 3467 3461 3439 3432 3434 3440 3451 3449 3453 3465 3438 3442 3457 3443 3450 3472 3465 3436 3465 3448 3410 3449 3425 3455 3480 3452 3459 3424 3441 3448 3434 3456 3451 3451 3406 3432 3421 3429 3428 3436 3437 3443 3445 3444 3449 3425 3423 3445 3441 3440 3415 3474 3445 3447 3412 3447 3456 3447 3427 3447 3450 3432 3426 3455 3432 3436 3424 3450 3455 3459 3453 3398 3433 3440 3438 3445 3444 3440 3418 3428 3436 3432 3465 3436 3459 3439 3475 3420 3458 3406 3462 3451 3424 3463 3450 3443 3420 3452 3440 3445 3435 3434 3417 3412 3425 3448 3427 3454 3444 3454 3430 3423 3437 3448 3455 3459 3446 3463 3425 3445 3434 3423 3412 3415 3446 3460 3448 3446 3439 3432 3439 3455 3429

Tree=0
num_leaves=31
num_cat=0
split_feature=5 1 8 5 7 12 1 0 17 9 1 9 8 12 0 7 18 14 1 14 1 9 13 8 7 18 13 19 6 13
split_gain=148.081 91.3373 30.8056 31.9269 21.6249 14.651 14.7119 13.9807 20.6332 13.1831 12.9104 12.2072 11.1041 10.9843 10.2116 9.86805 9.79969 9.46815 8.82269 12.3162 8.64515 8.2542 8.18377 8.66393 7.37558 9.94476 8.9949 12.0289 7.30067 7.31496
threshold=0.087443500000000021 0.027976500000000005 82.210587500000017 0.047747500000000005 0.46257000000000009 -0.023935999999999995 0.017450500000000004 2.2603140000000006 1.0000000180025095e-35 0.13126750000000004 0.039151500000000006 0.059549000000000012 44.622258000000009 -0.0019739999999999996 2.5138540000000007 0.89145800000000008 0.70000000000000007 0.010423000000000002 0.06557650000000001 0.027893500000000005 0.13336950000000003 0.33542100000000002 0.20267500000000002 85.201288000000019 0.96603650000000008 0.70000000000000007 0.16166650000000002 2.6526140000000002 0.095958000000000016 -0.041986499999999989
decision_type=2 2 2 2 2 2 2 2 2 2 2 2 2 2 2 2 2 2 2 2 2 2 2 2 2 2 2 2 2 2
left_child=1 4 3 7 -1 28 21 8 -3 15 14 -2 -12 -10 -9 -5 -13 -8 19 -4 -17 -7 23 -19 25 -14 27 -26 29 -6
right_child=11 2 18 9 5 6 17 10 13 -11 12 16 24 -15 -16 20 -18 22 -20 -21 -22 -23 -24 -25 26 -27 -28 -29 -30 -31
leaf_value=-0.32968461120493203 -0.36771285294311185 -0.29758888902452746 -0.24886422983290127 -0.29405268577735899 -0.26676089842166795 -0.30300527028461283 -0.33200564486129652 -0.23566461504673045 -0.21808668542165671 -0.30747118477376711 -0.30240390455293337 -0.34147916304001485 -0.25574754430617275 -0.27242696265149002 -0.28465085704250181 -0.27701368457026004 -0.2975115139067106 -0.28733341423862302 -0.24167513291852985 -0.29068791642645259 -0.22754330509541992 -0.33316674194789286 -0.32499902451114626 -0.24146555072623796 -0.23730077639223257 -0.28124339538571808 -0.21074821512808387 -0.28529484252696147 -0.23311220334774715 -0.30611817084743409
leaf_weight=50.68735733628273 35.995369702577591 99.415782988071442 42.851630598306656 94.518453776836395 34.771037399768829 308.04200738668442 12.488189488649367 11.75359010696411 12.977922409772871 97.701717764139175 14.93685409426689 62.196080982685089 126.3510936498642 32.812105715274811 112.14883893728256 48.973292112350464 15.916319936513899 231.64367169141769 75.908602774143219 29.873708188533783 10.7741242647171 24.486646056175232 13.712521791458128 10.7741242647171 38.199167847633362 54.85008716583252 15.426587015390394 19.834183305501938 9.794658422470091 17.875251621007919
leaf_count=207 147 406 175 386 142 1258 51 48 53 399 61 254 516 134 458 200 65 946 310 122 44 100 56 44 156 224 63 81 40 73
internal_value=-0.288532 -0.28473 -0.274483 -0.278409 -0.298206 -0.295802 -0.298196 -0.271538 -0.284797 -0.2931 -0.266645 -0.343622 -0.260505 -0.257026 -0.280004 -0.283998 -0.33252 -0.289493 -0.253599 -0.266044 -0.268093 -0.305226 -0.28742 -0.285295 -0.258047 -0.263465 -0.244683 -0.253704 -0.27275 -0.280124
internal_weight=1767.69 1653.58 939.308 790.674 714.275 663.588 601.147 538.706 145.206 251.968 393.5 114.108 269.598 45.79 123.902 154.266 78.1124 268.619 148.634 72.7253 59.7474 332.529 256.13 242.418 254.661 181.201 73.4599 58.0334 62.4409 52.6463
internal_count=7219 6753 3836 3229 2917 2710 2455 2200 593 1029 1607 466 1101 187 506 630 319 1097 607 297 244 1358 1046 990 1040 740 300 237 255 215
is_linear=0
shrinkage=1


Tree=1
num_leaves=31
num_cat=0
split_feature=5 1 5 7 2 7 3 1 13 9 4 5 5 13 8 0 17 5 1 6 8 7 1 13 13 0 1 9 3 6
split_gain=137.974 77.5834 27.7986 23.2851 19.2209 17.1343 17.4344 15.7961 11.5435 11.2023 14.4985 9.63813 12.7275 8.84494 8.98249 8.72794 11.8031 8.71537 8.60175 8.41488 9.3276 9.19192 8.31096 8.03726 7.80592 7.46996 7.24864 8.90493 13.5025 9.74423
threshold=0.080732500000000013 0.031831500000000006 0.044123500000000003 0.39369100000000007 0.051172500000000003 0.96822850000000005 0.070021500000000014 0.090457000000000023 0.17181450000000001 0.15652550000000001 0.0023645000000000007 0.020271500000000005 0.040296000000000005 -0.041986499999999989 80.818396000000021 2.0164605000000004 1.0000000180025095e-35 0.066791500000000018 -0.019230999999999995 0.12427650000000003 60.199128500000008 0.62500050000000018 0.042375000000000003 -0.04413799999999999 0.16821600000000003 1.4182735000000004 0.017155000000000004 0.11304350000000002 -0.019240999999999998 0.075810500000000017
decision_type=2 2 2 2 2 2 2 2 2 2 2 2 2 2 2 2 2 2 2 2 2 2 2 2 2 2 2 2 2 2
left_child=1 3 7 -1 -4 17 -7 9 -9 15 23 -5 13 -13 25 16 -3 22 -14 21 -21 -2 -6 -11 -8 -15 27 -20 -29 -30
right_child=19 2 4 11 5 6 24 8 -10 10 -12 12 18 14 -16 -17 -18 -19 26 20 -22 -23 -24 -25 -26 -27 -28 28 29 -31
leaf_value=-0.044215444889675638 0.0090684721389296119 -0.0092383596578569684 -0.014019773020950827 -0.029080738341493391 -0.022694994959537307 -0.021890604314824771 0.018522636855965415 0.025033620285243065 0.072754799481652657 0.021044705466154067 0.018987933461118205 0.02792021647140738 0.023664072886588089 -0.026150989935628234 0.021068260858781586 0.028641209225685645 0.043775265279142758 -0.023993610065801606 -0.008456236964842467 -0.0792093989414141 -0.042751054836654777 -0.04294981759512137 0.012725825696411392 -0.029359265094803973 0.054522953233886985 -0.00052795679860156975 -0.0043015905708780377 0.0025425728028391384 -0.054057898621912494 -0.0024216648557949024
leaf_weight=39.435108304023743 9.9813788980245572 36.470278844237328 102.2935349047184 38.854572683572769 19.334152147173882 12.973582759499548 23.526068359613419 25.076409354805946 25.618698492646217 10.54612661898136 86.687060743570328 30.178428173065186 16.167610228061676 31.073907509446144 44.591695860028267 255.18388850986958 14.743888065218924 25.960254177451134 74.530526429414749 33.216676384210587 37.180474430322647 56.932244092226028 115.4386321157217 31.627924725413322 41.830052047967911 336.14118553698063 113.79900170862675 20.561951100826263 48.843653902411461 11.238734304904936
leaf_count=162 41 149 418 159 79 53 96 102 104 43 353 123 66 127 182 1039 60 106 305 137 153 234 471 129 170 1374 465 84 200 46
internal_value=0.000251195 0.0042995 0.0150536 -0.00674692 0.00411803 0.0118791 0.0310542 0.0227352 0.0491494 0.0196587 0.00728983 -0.00481792 -0.00352142 0.00179186 -0.000122902 0.0248607 0.00602357 0.00253453 -0.0117573 -0.0478862 -0.0599538 -0.0351903 0.00764445 -0.0167551 0.041564 -0.00269619 -0.0138864 -0.0209156 -0.0324303 -0.0443991
internal_weight=1770.04 1632.73 827.311 805.416 341.356 239.063 78.3297 485.954 50.6951 435.259 128.861 765.981 727.127 441.985 411.807 306.398 51.2142 160.733 285.141 137.311 70.3972 66.9136 134.773 42.1741 65.3561 367.215 268.974 155.175 80.6443 60.0824
internal_count=7230 6665 3372 3293 1393 975 319 1979 206 1773 525 3131 2972 1806 1683 1248 209 656 1166 565 290 275 550 172 266 1501 1100 635 330 246
is_linear=0
shrinkage=0.05


Tree=2
num_leaves=31
num_cat=0
split_feature=5 7 12 5 5 9 12 5 7 3 14 11 9 11 9 5 14 0 4 14 9 19 19 14 8 13 8 5 11 9
split_gain=101.508 26.6245 30.7356 26.2893 16.0358 16.1991 16.4706 15.3513 13.0769 12.8439 11.0041 10.9061 10.6253 10.2221 20.2585 11.0087 10.0673 10.3638 17.1062 12.9002 11.4755 9.79951 11.0501 8.76653 10.0498 8.62931 9.57087 8.90763 8.17432 8.15934
threshold=0.087443500000000021 0.48296350000000005 0.067239500000000021 0.064362000000000016 0.040101000000000005 0.13232600000000003 -0.023935999999999995 0.020271500000000005 0.99035700000000004 0.026538000000000003 0.017823000000000002 1.0000000180025095e-35 0.050008500000000004 0.8489000000000001 0.31014850000000005 0.10195850000000002 0.016509000000000003 2.2760575000000007 0.28595450000000006 0.03978750000000001 0.013745000000000002 3.4825030000000003 0.93582500000000013 0.046838000000000012 67.485414000000006 0.22818000000000002 90.103473500000021 0.050495500000000006 0.21913100000000005 0.039355500000000009
decision_type=2 2 2 2 2 2 2 2 2 2 2 2 2 2 2 2 2 2 2 2 2 2 2 2 2 2 2 2 2 2
left_child=1 -1 4 8 7 10 -7 -3 16 -8 -6 -12 -13 15 -15 -2 -4 18 20 -19 -18 22 -9 -5 -25 -10 27 -27 -14 -23
right_child=13 2 3 23 5 6 9 21 25 -11 11 12 28 14 -16 -17 17 19 -20 -21 -22 29 -24 24 -26 26 -28 -29 -30 -31
leaf_value=-0.023367267537320054 -0.017441564312785329 -0.022220706188467679 0.053507254239010121 -0.041409456571219423 0.04393533424158072 0.0081708155621154962 -0.041336036003003715 -0.015245698294924226 0.021808859216561022 -0.012494807609758199 0.02987042212432113 -0.031561820216645907 -0.035977098665734536 -0.051647138475263234 0.015817991347007551 -0.069423021460297288 -0.045419497674396285 0.020974509057785494 0.031032995977130492 -0.0047272411740748215 -0.0023643170306858535 0.018369367237795507 0.010913616564801526 -0.033123584318322748 0.010602461257193625 0.083096042593737915 0.0075231654188970334 0.030677107312507942 0.0094435712239898332 -0.029801672443968415
leaf_weight=87.601105213165283 12.766656547784804 50.483713015913963 14.756138458847998 20.781094759702682 14.902275934815405 44.334621116518974 74.53652523458004 44.306305155158043 88.355724826455116 80.069462701678276 23.010957807302475 33.259531334042549 11.7332376986742 32.505118280649185 16.919058039784431 50.376319512724876 21.312221020460129 254.72963052988052 28.655125349760056 60.397316172719002 56.515006944537163 12.252592295408247 454.34067656099796 19.530357539653778 40.165323421359062 20.059203639626503 10.644566029310225 13.598793908953665 63.596337452530861 31.112542867660522
leaf_count=360 53 207 60 85 61 181 306 181 359 328 94 136 48 135 70 210 87 1036 117 246 231 50 1853 80 164 81 43 55 260 127
internal_value=0.000378435 0.00346715 0.00494797 0.0133086 -0.000841573 -0.00940371 -0.0186953 0.00415041 0.0170916 -0.0263993 0.00321361 -0.00139769 -0.00802367 -0.0455827 -0.0285522 -0.0589131 0.0129124 0.0114916 -0.00199428 0.0160485 -0.0141546 0.00660665 0.00858928 -0.0134399 -0.00370319 0.0308389 0.048848 0.0619173 0.00236891 -0.0161912
internal_weight=1787.61 1675.04 1587.44 649.501 937.939 345.443 198.941 592.496 569.024 154.606 146.502 131.6 108.589 112.567 49.4242 63.143 436.365 421.609 106.482 315.127 77.8272 542.012 498.647 80.4768 59.6957 132.658 44.3026 33.658 75.3296 43.3651
internal_count=7304 6836 6476 2644 3832 1414 815 2418 2315 634 599 538 444 468 205 263 1777 1717 435 1282 318 2211 2034 329 244 538 179 136 308 177
is_linear=0
shrinkage=0.05


Tree=3
num_leaves=31
num_cat=0
split_feature=5 1 5 9 7 2 1 1 5 6 9 14 9 2 14 7 13 19 3 13 5 5 9 6 18 13 11 14 1 11
split_gain=105.722 60.4048 27.448 22.5271 16.6837 16.6051 14.3302 9.3136 13.4903 9.32137 11.1934 9.18597 9.64116 9.15663 14.2675 10.2435 8.74571 8.71366 8.60874 8.41363 8.15571 7.9897 7.90422 7.82052 7.74518 7.60083 8.41014 13.1658 8.67749 9.49427
threshold=0.087443500000000021 0.031831500000000006 0.044309000000000008 0.13126750000000004 0.46257000000000009 0.10896200000000002 -0.037739999999999989 0.0054740000000000006 0.030803000000000004 0.031803000000000005 0.14974900000000005 0.037486500000000013 0.16439500000000004 0.11517550000000001 0.058004000000000007 0.97234950000000009 0.14936550000000001 0.83009150000000009 -0.010485 0.11266800000000002 0.047531500000000011 0.037726000000000003 0.059549000000000012 0.098423000000000024 0.70000000000000007 0.079513500000000001 0.49341950000000007 0.023241500000000002 0.045461500000000009 0.91213250000000012
decision_type=2 2 2 2 2 2 2 2 2 2 2 2 2 2 2 2 2 2 2 2 2 2 2 2 2 2 2 2 2 2
left_child=1 4 5 13 -1 17 -6 8 -8 10 19 23 -13 14 -4 -15 -7 -3 -10 21 -20 -9 -2 -5 -24 -19 -27 -28 -29 -30
right_child=22 2 3 11 6 16 7 9 18 -11 -12 12 -14 15 -16 -17 -18 25 20 -21 -22 -23 24 -25 -26 26 27 28 29 -31
leaf_value=-0.034250056544333649 -0.066850555816812304 -0.029965462546062638 0.0058199230358249691 -0.012774291723725623 0.053898632414996366 0.016760356116072021 0.010765344333846511 -0.035081336036305692 -0.0020007752171021121 0.0011017615705887051 0.0074566089666553625 -0.07631282394550018 -0.021957165841743818 0.0088011248269059573 -0.056861634438774511 0.040726965339424159 0.048332828907074951 0.009981306535750023 -0.018528902358892974 0.011215432425346845 -0.045983859125768328 0.0061889496348465113 -0.046823101861763597 0.032540685880996879 -0.0087437893238732616 0.040638029717628088 0.036371582507373816 -0.023422551810667016 -0.0032444868968547857 0.044190522783418187
leaf_weight=53.051209837198257 35.629128202795982 10.507754161953924 124.96636687219143 50.743243008852005 10.104310795664786 32.820041492581367 38.853844806551933 74.050777822732925 39.162624672055244 410.29662115871906 44.459516778588295 10.220492288470266 40.424492612481117 66.498031228780746 9.7895472943782789 40.382482796907425 66.12823973596096 216.26852639019489 69.75734044611454 15.675258129835127 44.181800678372383 13.933901265263556 60.346083149313927 11.720361948013304 17.147971779108047 52.991433724761009 48.63295005261898 22.138052508234978 27.645343869924545 17.057576164603233
leaf_count=220 151 43 510 208 41 133 159 303 160 1677 182 42 166 271 40 163 267 879 286 64 182 57 253 48 71 215 197 90 112 69
internal_value=-0.000586923 0.00259568 0.0119256 0.00131412 -0.00714032 0.0195429 -0.00524914 -0.0060456 -0.0155466 -0.00277964 -0.0135313 -0.017102 -0.0329265 0.00993459 0.00126633 0.0208636 0.0378606 0.0149571 -0.022224 -0.0225329 -0.029175 -0.0285455 -0.0473586 -0.00427161 -0.0383969 0.016184 0.0241467 0.0165788 0.00217768 0.0148556
internal_weight=1775.59 1662.46 848.935 354.745 813.527 494.19 760.476 750.372 191.956 558.416 148.119 113.109 50.645 241.636 134.756 106.881 98.9483 395.242 153.102 103.66 113.939 87.9847 113.123 62.4636 77.4941 384.734 168.465 115.474 66.841 44.7029
internal_count=7259 6784 3453 1448 3331 2005 3111 3070 787 2283 606 464 208 984 550 434 400 1605 628 424 468 360 475 256 324 1562 683 468 271 181
is_linear=0
shrinkage=0.05


Tree=4
num_leaves=31
num_cat=0
split_feature=5 6 7 5 6 4 0 7 0 8 11 19 0 8 2 6 13 7 5 7 6 5 4 19 9 9 5 7 9 4
split_gain=109.767 24.5586 26.5295 23.8101 29.9326 14.7132 13.5954 12.2097 11.5705 11.4906 11.3596 11.1907 11.0605 11.0201 10.9214 10.8142 9.94252 9.87502 9.64841 9.11219 9.8971 8.89319 7.97092 8.63024 8.01257 15.1131 9.29047 9.2324 11.7298 11.1899
threshold=0.087443500000000021 0.16294700000000004 0.48296350000000005 0.047747500000000005 0.035492000000000003 0.07159900000000001 2.2603140000000006 0.79603600000000008 1.440806 47.076768000000008 1.0000000180025095e-35 3.5282690000000003 1.4801755000000003 75.689496000000005 0.097274500000000014 0.050007500000000003 -0.027891499999999996 0.22253650000000003 0.050213000000000008 0.67806350000000004 0.061923000000000006 0.034601500000000007 0.060193500000000004 2.6526140000000002 0.39076700000000003 0.22419000000000003 0.036048000000000004 0.71977000000000013 0.18980250000000001 -0.032247499999999991
decision_type=2 2 2 2 2 2 2 2 2 2 2 2 2 2 2 2 2 2 2 2 2 2 2 2 2 2 2 2 2 2
left_child=1 2 17 4 9 8 19 14 -6 16 -5 22 -11 -12 -3 -15 -4 -1 -17 -7 -21 -13 23 24 25 27 -27 29 -29 -10
right_child=-2 7 3 10 5 6 -8 -9 11 12 13 21 -14 15 -16 18 -18 -19 -20 20 -22 -23 -24 -25 -26 26 -28 28 -30 -31
leaf_value=-0.069492435050452758 -0.04582207266014153 0.050634647841254148 -0.00044386043546036858 0.026576500213904876 -0.024486673185531233 -0.021998918759093211 0.024163677445572601 0.047325726761247904 0.061732199709862337 -0.029322054795689757 -0.013181674311600451 0.009815429656254919 0.0031529768741627227 -0.033910458486465338 -0.0063141490512889451 0.053788820873081178 -0.044875095033136865 -0.018879306231596196 0.0063704785176762289 0.020773104125721868 -0.021343208933620721 -0.03652718805854463 -0.015002674633928476 0.038684217696726787 0.049342099344740986 0.0052706926184842582 -0.034206121836996173 0.012926549249923234 -0.030231326797390476 0.01780128927601007
leaf_weight=11.464692071080206 117.63970768451691 11.799272164702414 20.582348868250847 24.495899066329002 29.365444675087929 26.141452684998512 320.37309536337852 46.82142673432827 19.366323798894882 30.691942870616913 288.49112676084042 18.391859382390976 179.90381036698818 13.192443013191221 29.385077297687531 13.283953532576559 32.429026156663895 60.459131151437759 55.745719015598297 65.706134408712387 17.708599239587784 23.682599395513535 27.052652016282082 30.224993467330933 12.747823119163511 31.446365654468536 28.330763131380081 118.96949110925198 18.145079493522644 57.630331426858902
leaf_count=48 500 48 84 100 120 107 1297 189 79 126 1185 75 736 54 120 54 133 250 227 268 72 97 110 123 52 128 116 484 74 235
internal_value=0.000854244 0.00415406 0.00271868 0.00413726 0.00789287 0.0124804 0.0189642 0.029859 0.00576898 -0.00681738 -0.00640038 0.00807079 -0.00157989 -0.00857942 0.0100016 0.00756844 -0.0276241 -0.0269471 0.0154956 0.00375952 0.011832 -0.0162696 0.0110486 0.0132728 0.0105932 0.00878969 -0.0134389 0.0149956 0.00721524 0.0288509
internal_weight=1781.67 1664.03 1576.02 1504.1 1108.89 845.283 429.929 88.0058 415.354 263.607 395.209 385.988 210.596 370.713 41.1843 82.2221 53.0114 71.9238 69.0297 109.556 83.4147 42.0745 343.914 316.861 286.636 273.888 59.7771 214.111 137.115 76.9967
internal_count=7291 6791 6434 6136 4516 3437 1744 357 1693 1079 1620 1573 862 1520 168 335 217 298 281 447 340 172 1401 1291 1168 1116 244 872 558 314
is_linear=0
shrinkage=0.05


Tree=5
num_leaves=31
num_cat=0
split_feature=5 1 6 1 14 3 6 12 8 5 14 11 1 8 12 5 19 14 14 3 13 12 19 13 14 3 0 12 13 13
split_gain=96.2679 61.7233 13.0565 12.0655 21.5126 11.2731 13.3401 11.0041 10.2341 9.68484 10.4489 13.1834 9.16091 9.16034 9.11464 12.1891 9.08696 8.61869 7.98155 9.27299 7.91076 8.32778 7.77443 7.63013 8.87832 8.83129 8.34661 7.52114 7.25209 10.4954
threshold=0.072809500000000013 0.031831500000000006 0.12606550000000002 0.09249350000000002 0.037486500000000013 0.059566500000000001 0.095122000000000026 0.19941950000000003 53.491689500000007 0.020976500000000006 0.022047000000000001 1.0000000180025095e-35 0.04957000000000001 82.429984000000019 0.073035000000000003 0.046669000000000009 6.5361445000000016 0.030528000000000003 0.023931500000000005 0.11955100000000002 0.13988050000000002 0.026283000000000004 5.3884430000000005 -0.041986499999999989 0.020544500000000004 0.025814000000000004 1.4646775000000003 0.093343000000000009 0.014412500000000002 0.029249500000000005
decision_type=2 2 2 2 2 2 2 2 2 2 2 2 2 2 2 2 2 2 2 2 2 2 2 2 2 2 2 2 2 2
left_child=1 5 22 4 12 6 9 -4 -6 -1 13 -12 16 23 15 -7 -3 -13 19 -16 21 -19 -2 -11 26 -26 -25 -20 -14 -30
right_child=2 3 7 -5 8 14 -8 -9 -10 10 11 17 28 -15 18 -17 -18 20 27 -21 -22 -23 -24 24 25 -27 -28 -29 29 -31
leaf_value=-0.027349712782891646 -0.018242604365205854 0.010077013379051142 -0.066323894132366182 0.02571513331450348 -0.044675874907232682 -0.020007108181692934 0.031198497952111146 -0.026980258816412903 -0.0038134971796358339 0.026708743772235827 0.042181525380652167 -0.02437112217407526 -0.0015608233499922299 0.048459390635795012 -0.0050943924337870138 -0.066994904545662648 -0.029470485021811238 -0.0071316665216788651 0.009479359521005001 0.044405025894347708 -0.037636833491961112 0.037205003176086819 -0.063491514882359185 -0.031287565898151411 0.00020680376895327712 0.052122403418507518 -0.0015631563819045468 -0.023870362208290294 0.071008807149025077 0.021900254772236845
leaf_weight=44.460317805409431 73.404561176896095 319.84721380472183 50.522390902042389 140.16727012395859 18.422748208045959 85.176323369145393 26.710267543792725 27.416699558496475 91.067582249641418 26.33141228556633 10.322899311780928 108.08936601877213 30.122951284050941 10.555231794714926 33.273461058735847 16.470924094319344 15.216154158115385 29.339942842721939 21.905331343412399 13.220934420824049 11.41571009159088 16.574062541127205 10.902698323130606 26.706323638558388 19.010350346565247 14.393985301256178 204.1578077673912 74.075132712721825 11.557914555072783 185.47240613400936
leaf_count=184 309 1299 218 566 76 349 109 115 372 107 42 444 123 43 136 68 62 121 90 54 47 68 46 110 78 59 836 305 47 750
internal_value=-0.00102903 0.00268336 -0.0377319 0.0123718 0.00958741 -0.00724582 -0.00326508 -0.052484 -0.010689 -0.00503072 -0.00294996 -0.0126383 0.0135362 0.00270377 -0.0161828 -0.027621 0.00828105 -0.0160593 -0.00802235 0.00898104 -0.000388207 0.00887301 -0.0240942 0.00104182 -0.0015156 0.0225773 -0.00500167 -0.0162591 0.0212878 0.024781
internal_weight=1766.31 1604.06 162.246 811.874 671.707 792.19 548.068 77.9391 109.49 521.357 476.897 175.742 562.217 301.155 244.122 101.647 335.063 165.419 142.475 46.4944 57.3297 45.914 84.3073 290.6 264.268 33.4043 230.864 95.9805 227.153 197.03
internal_count=7233 6545 688 3295 2729 3250 2248 333 448 2139 1955 722 2281 1233 1002 417 1361 680 585 190 236 189 355 1190 1083 137 946 395 920 797
is_linear=0
shrinkage=0.05


Tree=6
num_leaves=31
num_cat=0
split_feature=5 6 5 7 12 8 9 5 6 11 9 9 8 9 19 18 8 6 7 9 8 19 5 7 14 8 0 6 7 9
split_gain=85.6095 21.7962 29.7406 14.8348 13.5496 11.9588 11.2997 10.7225 11.6773 11.5516 12.8182 11.194 10.7329 10.1299 10.0549 8.41417 7.88085 7.55065 9.99814 7.35417 10.053 8.20509 7.12112 6.57546 6.56825 7.58685 6.55333 6.68528 6.4877 6.44511
threshold=0.087443500000000021 0.05478800000000001 0.048843500000000005 0.46257000000000009 -0.0011244999999999998 46.158004000000012 0.0046910000000000016 0.044123500000000003 0.032012000000000006 0.83735450000000011 0.007870000000000002 0.16439500000000004 81.272023500000017 0.025073500000000002 0.93582500000000013 0.50000000000000011 60.519061500000007 0.10728800000000001 0.60876450000000004 0.29633000000000004 46.466748500000008 2.2137940000000005 0.031694500000000007 0.62500050000000018 0.025675500000000004 71.751994500000009 21.2787015 0.12427650000000003 0.79603600000000008 0.22812450000000004
decision_type=2 2 2 2 2 2 2 2 2 2 2 2 2 2 2 2 2 2 2 2 2 2 2 2 2 2 2 2 2 2
left_child=1 3 6 -1 5 -2 24 8 11 10 -9 12 -5 15 22 -4 -6 18 29 -16 -21 -22 -10 -20 25 -3 27 -19 -11 -8
right_child=4 2 13 7 16 -7 17 9 14 28 -12 -13 -14 -15 19 -17 -18 26 23 20 21 -23 -24 -25 -26 -27 -28 -29 -30 -31
leaf_value=-0.037655808954617655 -0.035950004375790504 0.038567678001190861 -0.02352592340513002 -0.022602165104163911 -0.067785365766076341 0.032505894034119798 0.0012623671687033381 0.015343924305760868 0.009898467255899171 -0.012962503612855206 -0.029487555283608236 0.011630188809954924 0.024322704394106932 -0.0077460303127215805 0.0097371986618814757 0.017492997193850997 -0.036397556400477253 0.045804600848320061 0.05449792370631068 -0.052716122897060784 0.022896764728919827 -0.033281023022326141 -0.040045805747748409 0.013878721928589806 0.0474529660538522 -0.016589245532524655 0.061324926853022543 0.0096054565963871203 0.020706903666686108 -0.038557412159743655
leaf_weight=28.268190234899521 18.721842095255855 15.066563531756403 14.694509103894232 107.78932949900627 41.925604954361916 9.6776338219642621 55.801207721233368 19.343133598566055 11.266084387898447 25.476366624236107 90.733675077557564 46.140268489718437 13.738845899701117 233.61569932103157 420.60168242454529 83.794365093111992 38.236960306763649 19.292052373290062 10.363877743482588 11.277854070067404 18.412568196654323 10.045989230275152 19.473224192857742 257.77635334432125 44.794354364275932 10.635386005043982 12.913240224122999 37.637973517179489 32.635006561875343 12.42443200945854
leaf_count=119 81 61 60 444 184 41 228 79 46 105 375 189 56 961 1712 340 166 78 42 46 75 41 80 1044 180 43 52 152 134 51
internal_value=0.000720038 0.0035267 0.00941098 -0.00203838 -0.0422997 -0.0126224 0.0174136 -0.000820824 0.00205605 -0.0120887 -0.0216096 -0.0093368 -0.0172973 -0.0020761 0.00594591 0.011373 -0.0528136 0.0142067 0.0111004 0.00779472 -0.0127661 0.00306577 -0.021741 0.0154487 0.0358923 0.0157439 0.0291667 0.0218724 0.00594604 -0.00598913
internal_weight=1772.57 1664.01 808.81 855.202 108.562 28.3995 476.705 826.934 658.746 168.188 110.077 167.668 121.528 332.105 491.077 98.4889 80.1626 406.209 336.366 460.338 39.7364 28.4586 30.7393 268.14 70.4963 25.7019 69.8433 56.93 58.1114 68.2256
internal_count=7265 6793 3292 3501 472 122 1931 3382 2689 693 454 689 500 1361 2000 400 350 1647 1365 1874 162 116 126 1086 284 104 282 230 239 279
is_linear=0
shrinkage=0.05


Tree=7
num_leaves=31
num_cat=0
split_feature=1 14 14 1 8 14 8 12 1 6 13 12 14 7 19 4 2 9 7 12 3 2 6 4 6 17 3 19 18 9
split_gain=45.3117 50.2881 16.5131 16.0799 15.5631 23.4388 13.2736 9.92875 9.75832 9.53624 8.96223 8.55616 8.07562 9.78491 9.16711 8.0113 7.97028 7.22059 7.11553 7.07971 12.1762 11.8073 6.97559 6.92479 13.695 7.23709 6.74915 9.24308 7.62899 6.72842
threshold=0.028156000000000004 0.068230500000000013 0.023530000000000006 0.17195750000000001 82.848690000000019 0.042975000000000006 53.004550000000002 -0.029422999999999994 0.064916000000000015 0.090256500000000017 0.19285800000000003 0.24889550000000002 0.0087225000000000028 0.43785100000000005 1.0878840000000003 0.16760800000000001 -0.016677499999999998 0.029691000000000006 0.86629300000000009 0.085903000000000021 0.060333500000000005 0.053384500000000008 0.13430050000000002 -0.014900499999999999 0.032012000000000006 1.0000000180025095e-35 0.007042500000000001 0.81691200000000008 0.50000000000000011 0.011076500000000001
decision_type=2 2 2 2 2 2 2 2 2 2 2 2 2 2 2 2 2 2 2 2 2 2 2 2 2 2 2 2 2 2
left_child=2 3 7 4 5 16 -7 -1 10 -8 15 -5 -9 -14 -15 -6 -2 -11 -12 20 21 23 -4 24 -16 -26 28 -28 -18 -10
right_child=1 -3 22 11 8 6 9 12 29 17 18 -13 13 14 19 -17 26 -19 -20 -21 -22 -23 -24 -25 25 -27 27 -29 -30 -31
leaf_value=0.024829441050375288 -0.026793892806902916 -0.031832485566147546 -0.016077269407055936 0.065440725029035571 0.0082348276658526787 -0.052799492723532848 0.015378769936436663 -0.037703386745048306 0.016578595886017341 0.003467845673416381 -0.021958205155861256 0.010190084749313228 -0.039703004262155082 -0.020385982851727342 -0.052597752155414727 0.064401822669361591 0.017534971372650966 -0.032554574723225517 0.026268370151933975 0.026046999703088453 -0.024068419206114591 0.041855182406033878 -0.042518753236976209 0.0050960174085190359 -0.018252502610120697 0.029199760011225546 -0.032924046321558723 0.0094761570372517909 0.062421213739987186 0.05330204273291355
leaf_weight=29.084446117281914 14.892100498080252 79.267725139856339 294.48869509994984 19.36020760238171 13.890809535980226 19.612988084554672 30.401097312569618 18.479177996516228 18.957240834832191 22.248394072055817 22.157587721943855 10.982009187340735 18.171238452196121 58.024543195962906 16.934341251850128 11.692618682980536 52.610134184360504 37.123578116297722 11.680353403091429 26.359575614333153 47.808020308613777 18.574538320302963 27.251182183623314 171.90233297646046 18.071874916553497 14.467642888426779 13.137774035334585 593.97868268191814 11.543330848217009 36.464675232768059
leaf_count=118 61 339 1221 78 56 82 125 79 76 91 90 44 77 239 70 47 215 154 47 107 196 76 119 705 74 59 54 2408 47 147
internal_value=-0.000471448 0.00641363 -0.00971661 0.00963631 0.0084429 0.00595906 -0.0155359 -0.00339741 0.0256491 -0.00739483 0.0115732 0.0454434 -0.00540566 -0.00387655 -0.00212719 0.0339053 0.00938574 -0.0190559 -0.00531111 0.00124561 -0.00102627 0.00356467 -0.0183168 0.000351907 -0.016132 0.00284561 0.0101884 0.00855863 0.0256115 0.0407407
internal_weight=1779.62 1020 759.618 940.734 910.391 795.548 109.386 437.878 114.843 89.7731 59.4214 30.3422 408.793 390.314 372.143 25.5834 686.162 59.372 33.8379 314.118 287.759 239.951 321.74 221.376 49.4739 32.5395 671.27 607.116 64.1535 55.4219
internal_count=7301 4161 3140 3822 3700 3237 452 1800 463 370 240 122 1682 1603 1526 103 2785 245 137 1287 1180 984 1340 908 203 133 2724 2462 262 223
is_linear=0
shrinkage=0.05


Tree=8
num_leaves=31
num_cat=0
split_feature=1 14 2 1 10 1 14 11 13 8 11 7 19 14 19 18 2 19 19 13 4 6 1 8 13 11 0 1 13 14
split_gain=44.1238 35.7468 19.0383 17.7862 17.6061 26.9542 14.2216 12.661 10.6351 10.1639 10.0714 10.7972 13.9449 9.9533 9.75771 9.31357 9.26548 8.76979 8.62753 8.3267 13.2071 7.68639 7.35406 10.1152 8.94098 11.0798 12.0138 9.03971 7.87376 13.102
threshold=0.027976500000000005 0.05890900000000001 0.11517550000000001 0.090457000000000023 1.0000000180025095e-35 0.011365000000000002 0.037486500000000013 0.83735450000000011 0.11907250000000001 53.224141500000009 0.012579000000000002 0.70847100000000018 4.2402060000000015 0.027480000000000001 2.8254040000000002 0.50000000000000011 0.0033880000000000004 5.9153970000000013 1.8053285000000001 0.12458500000000002 0.16760800000000001 0.081784500000000024 0.041670000000000006 86.675725000000014 0.14936550000000001 0.9716180000000002 3.5305540000000004 0.029424500000000003 0.081702500000000011 0.025040500000000004
decision_type=2 2 2 2 2 2 2 2 2 2 2 2 2 2 2 2 2 2 2 2 2 2 2 2 2 2 2 2 2 2
left_child=4 3 -3 6 10 -6 16 -4 15 -8 -1 12 19 -7 -13 -5 -2 -10 -15 -12 -21 -16 23 24 25 27 -27 -18 -29 -30
right_child=1 2 7 8 5 13 9 -9 17 -11 11 14 -14 18 21 -17 22 -19 -20 20 -22 -23 -24 -25 -26 26 -28 28 29 -31
leaf_value=0.018526353707007268 -0.014130418475805871 -0.041635266334475375 -0.03473137657805276 0.029005321793986967 -0.045286584822001347 -0.0006017882648075997 -0.04124200552601763 0.015986649373695316 0.027124813521648302 -0.0015442370128222319 0.010444471714791662 -0.017896023753228209 -0.033448971598814707 0.0076673837941614482 0.016286226688287546 -0.026505155396931841 0.029057622466410291 0.061099297950755277 -0.048038387746205176 -0.064603963610033427 0.0067833599447800728 -0.027094568489773999 0.016996659480661369 0.050638106397391081 -0.024229814905771717 0.079094259034681619 0.0051473997902053989 -0.0062238969008344101 0.036973156692025153 -0.023343591382440226
leaf_weight=47.246339246630669 35.237927153706551 51.290001645684242 17.834370315074921 15.462017625570299 72.486964240670204 109.90442691743374 19.299536257982254 39.688723653554916 75.369493752717972 97.990367025136948 177.65299671888351 199.68730239570141 24.520835891366005 9.8315633833408338 42.165429756045341 14.778430655598639 29.890552565455437 25.394006565213203 23.720333561301231 10.101248890161516 18.06733363866806 13.473865762352942 352.27540464699268 12.16489903628826 25.337364047765732 10.610941156744959 11.386896744370459 141.96230261027813 29.194855734705925 13.017773002386091
leaf_count=194 144 223 76 63 310 452 81 165 304 402 731 827 102 41 174 60 122 102 99 42 75 57 1423 49 103 43 46 577 118 53
internal_value=0.000821036 0.00759697 -0.0194866 0.0108377 -0.00839186 -0.0204356 0.00796898 0.000262112 0.0278825 -0.00807633 -0.0035116 -0.00565548 0.00219357 -0.00787866 -0.0127365 0.00187749 0.0108158 0.0356869 -0.0317152 0.00643989 -0.0188161 0.00578094 0.0122204 0.00606984 0.00399575 0.00702528 0.0408166 0.00355281 -0.000586477 0.0183723
internal_weight=1767.04 1018.19 108.813 909.373 748.859 215.943 778.369 57.5231 131.004 117.29 532.915 485.669 230.342 143.456 255.327 30.2404 661.079 100.764 33.5519 205.822 28.1686 55.6393 625.841 273.566 261.401 236.063 21.9978 214.065 184.175 42.2126
internal_count=7258 4154 464 3690 3104 902 3161 241 529 483 2202 2008 950 592 1058 123 2678 406 140 848 117 231 2534 1111 1062 959 89 870 748 171
is_linear=0
shrinkage=0.05


Tree=9
num_leaves=31
num_cat=0
split_feature=5 1 1 1 16 0 15 5 10 8 14 14 0 5 17 13 16 13 4 8 8 5 14 8 8 9 9 6 13 13
split_gain=82.8723 51.9621 14.0859 14.4979 15.4555 13.8348 12.745 10.9412 9.92088 9.74277 8.84189 10.4243 8.07882 7.48534 9.44394 10.6851 7.4743 7.69595 8.66709 7.81509 7.30822 7.23471 9.80185 10.2029 9.44444 9.22927 10.5568 7.88913 7.19272 6.79191
threshold=0.087443500000000021 0.041670000000000006 -0.037739999999999989 0.019998000000000005 1.0000000180025095e-35 3.3166690000000005 4.5000000000000009 0.048843500000000005 1.0000000180025095e-35 67.633342500000012 0.022047000000000001 0.015755500000000002 3.7794225000000004 0.075627500000000014 1.0000000180025095e-35 0.26629100000000006 1.0000000180025095e-35 0.080785500000000024 0.15557300000000004 72.222222500000015 55.779326500000003 0.020271500000000005 0.017530500000000001 29.821919000000005 47.076768000000008 0.11429900000000001 0.049189000000000004 0.031425500000000002 0.013498000000000001 0.17386050000000003
decision_type=2 2 2 2 2 2 2 2 2 2 2 2 2 2 2 2 2 2 2 2 2 2 2 2 2 2 2 2 2 2
left_child=1 2 -1 8 10 13 20 12 21 -9 11 -5 -7 14 15 -3 -10 19 -19 -18 -6 -4 24 -24 27 26 28 -23 -25 -14
right_child=-2 5 3 4 6 7 -8 9 16 -11 -12 -13 29 -15 -16 -17 17 18 -20 -21 -22 22 23 25 -26 -27 -28 -29 -30 -31
leaf_value=0.0560182376422661 -0.041826086217340581 -0.0062756550181550172 -0.04669322078956549 -0.013421337897232389 0.048947673673757103 0.053283009902363787 -0.01016522206377027 -0.009811409397666615 -0.034007147548966804 0.019063905759400552 -0.012903244444073049 0.011326211617070255 0.017963481461535306 -0.030499719963914387 0.021884124650064174 0.028032130180533021 -0.0035515084089029455 0.046040524266081649 -0.014033903387999955 -0.060366849725790331 0.015617487165512435 -0.049714751963820296 0.037747346864198048 0.020233503692192047 0.02022882291377855 -0.023612050307772504 0.01477541510683331 0.0025555868667744459 -0.023047730568676081 0.036994187142353599
leaf_weight=9.6745484769344312 110.49592217803001 124.76279520988464 11.004758328199385 65.770826980471611 19.055383950471878 24.377614796161652 46.047672808170319 47.929323256015778 70.299650639295578 74.806462615728378 182.10240940749645 120.53651636838913 174.84891548752785 14.121394217014311 72.505916371941566 27.741582185029984 13.840080574154856 10.330639824271204 14.335110783576964 10.756856739521025 120.13157527148724 10.109450936317442 10.29099979996681 11.516323596239088 59.592772245407104 109.12462452054024 47.471390634775162 25.2449019998312 57.662452593445778 64.060942992568016
leaf_count=39 495 507 46 269 78 98 188 197 295 303 747 490 703 59 295 112 58 43 60 45 490 42 42 47 244 453 196 103 238 257
internal_value=9.44121e-05 0.00290162 -0.00402813 -0.00460034 0.000855356 0.0142625 0.0126369 0.0201168 -0.0111442 0.00778786 -0.00506833 0.00258975 0.0258641 0.00481207 0.00702819 -3.48358e-05 -0.0235421 -0.00860814 0.0111268 -0.0283983 0.0201806 -0.00681015 -0.00548421 -0.0109409 0.00808259 -0.0131601 -0.00338245 -0.0123909 -0.0158426 0.0230663
internal_weight=1760.55 1650.05 1024.9 1015.22 553.644 625.155 185.235 386.023 461.58 122.736 368.41 186.307 263.287 239.132 225.01 152.504 119.562 49.2627 24.6658 24.5969 139.187 342.018 331.013 236.066 94.9471 225.775 116.65 35.3544 69.1788 238.91
internal_count=7239 6744 4213 4174 2262 2531 756 1558 1912 500 1506 759 1058 973 914 619 501 206 103 103 568 1411 1365 976 389 934 481 145 285 960
is_linear=0
shrinkage=0.05


Tree=10
num_leaves=31
num_cat=0
split_feature=5 1 5 2 2 7 6 12 4 5 19 11 12 1 7 17 14 7 4 12 12 13 12 16 9 19 1 19 11 11
split_gain=61.5049 41.573 15.9621 14.0731 11.3124 10.5108 10.1255 9.18053 12.4273 8.16029 7.94666 7.85255 7.70088 10.2951 9.26532 9.10061 8.03108 7.55401 7.3646 7.24912 7.52066 6.59402 8.89136 7.78158 7.26238 6.54724 6.292 5.94502 6.95079 13.6037
threshold=0.085206000000000018 0.031831500000000006 0.044123500000000003 0.16634300000000002 0.04762700000000001 0.48296350000000005 0.025786000000000003 -0.0074959999999999992 0.19534900000000002 0.10747200000000003 0.83009150000000009 0.8489000000000001 -0.023935999999999995 0.017155000000000004 0.85693850000000016 1.0000000180025095e-35 0.025815500000000002 0.85437950000000018 0.25118550000000001 0.052769000000000003 0.018773500000000002 0.033616500000000007 -0.010063499999999998 1.0000000180025095e-35 0.26957200000000003 1.8347515000000001 0.031314000000000008 0.93582500000000013 0.20586450000000003 0.10669650000000001
decision_type=2 2 2 2 2 2 2 2 2 2 2 2 2 2 2 2 2 2 2 2 2 2 2 2 2 2 2 2 2 2
left_child=1 5 3 10 -4 -1 -7 11 -9 25 -3 -2 15 14 -14 -8 -17 -6 -5 20 -19 22 -12 24 -24 -10 27 -15 29 -29
right_child=7 2 4 18 17 6 12 8 9 -11 21 -13 13 26 -16 16 -18 19 -20 -21 -22 -23 23 -25 -26 -27 -28 28 -30 -31
leaf_value=-0.027144762936645785 -0.034117742576865027 -0.031056533950758705 -0.013627434736567627 0.072641902872885286 -0.0022418325396582183 -0.039740205956653299 -0.010596104281835411 -0.064781302004479818 0.027814461534728718 -0.047597238833854881 0.041034746135341589 0.018376779049311835 -0.0067639597579218988 -0.020586280591734674 -0.026280536114008768 0.042357700699527982 -0.0070038377755986718 0.020102162396276102 0.024663984885134077 0.01966572444610145 -0.039111858276651451 0.017461929002800532 -0.001351124881017129 0.024957533806767667 -0.039018921344289824 -0.027453905164560356 -0.037301568621728579 0.000202218043085273 -0.00069785687209797831 0.044373914127434806
leaf_weight=56.914208173751831 16.935754060745243 9.97233998775482 92.463782861828804 15.16594937443733 124.20665611326694 20.213840439915657 25.715144872665405 40.003458127379417 9.0549539923667925 22.567050248384476 13.602018237113951 12.296444565057753 213.11148218810558 28.015421524643898 85.094860777258873 27.646725997328758 11.739027559757231 9.9300636798143405 16.924249187111855 116.7671172618866 11.657097697257994 342.12281307578087 56.651569098234177 20.556164652109146 16.529780760407448 13.12647959589958 10.788748189806936 46.352086633443832 238.99277681112289 27.935597330331802
leaf_count=244 76 41 381 61 507 84 105 185 40 103 55 53 882 116 355 112 48 41 68 472 48 1376 229 83 67 58 44 190 979 114
internal_value=-0.000683337 0.0017864 0.0094911 0.0153262 0.00141258 -0.00644357 -0.00484191 -0.0361977 -0.0445314 -0.0264287 0.0130902 -0.0120361 -0.00385583 -0.00549721 -0.0123331 0.0125398 0.0276454 0.00670909 0.0473385 0.0147447 -0.0118735 0.0140697 0.0032576 -0.00222415 -0.00985931 -0.00489213 0.000292633 0.00148103 0.00345442 0.0168128
internal_weight=1753.05 1639.07 846.55 491.525 355.025 792.52 735.606 113.984 84.7519 44.7485 459.435 29.2322 715.392 650.291 298.206 65.1009 39.3858 262.561 32.0902 138.354 21.5872 449.462 107.34 93.7375 73.1813 22.1814 352.085 341.296 313.28 74.2877
internal_count=7217 6702 3429 1980 1449 3273 3029 515 386 201 1851 129 2945 2680 1237 265 160 1068 129 561 89 1810 434 379 296 98 1443 1399 1283 304
is_linear=0
shrinkage=0.05


Tree=11
num_leaves=31
num_cat=0
split_feature=5 2 7 7 5 6 0 11 14 4 4 8 6 18 4 11 0 8 0 15 8 6 0 11 14 4 6 2 0 7
split_gain=51.4164 18.7028 20.7681 14.2187 11.4089 10.0436 12.1315 9.57844 9.55351 14.1173 8.59351 8.56499 8.81528 7.87115 7.26028 9.67784 7.14331 7.84563 8.80661 7.5008 8.03676 6.8737 7.16014 6.74129 6.37701 7.72519 11.4786 8.00412 6.68418 8.7138
threshold=0.087443500000000021 0.056435500000000006 0.96677700000000011 0.28645400000000004 0.034925500000000005 0.031803000000000005 2.0501165000000001 0.012579000000000002 0.03978750000000001 0.10152750000000001 0.16331550000000003 47.957080000000012 0.042349000000000005 0.70000000000000007 0.12504000000000001 0.42398550000000007 5.021669000000001 50.001576500000006 2.5846420000000001 1.0000000180025095e-35 67.976160000000007 0.030101500000000003 2.7810640000000002 0.90967350000000013 0.053512500000000005 0.03620700000000001 0.094323500000000018 0.03425000000000001 3.2159305000000002 0.80728400000000011
decision_type=2 2 2 2 2 2 2 2 2 2 2 2 2 2 2 2 2 2 2 2 2 2 2 2 2 2 2 2 2 2
left_child=1 4 3 -3 5 14 -7 -6 16 -10 -8 -4 -13 -2 15 21 17 18 -5 20 -19 22 -1 -15 25 26 -9 28 -27 -30
right_child=13 2 11 8 7 6 10 24 9 -11 -12 12 -14 23 -16 -17 -18 19 -20 -21 -22 -23 -24 -25 -26 27 -28 -29 29 -31
leaf_value=0.024139164592974841 -0.039692059257736979 -0.04363182993481244 -0.019227060832628949 0.046479513272694423 0.017123413333106918 -0.0058434786318201128 0.012853276541541404 -0.018427681626075557 -0.050470699847428392 -0.00024859759060150681 0.05620541109518732 -0.0097860606629950365 0.029447792930031677 0.022818633034599752 0.030808634920191938 -0.029464157834198632 0.017308936954349052 -0.0083611926789265868 -0.011383421058063394 -0.0043815064813942884 0.03873832059024121 -0.031987591724869979 -0.017968292799469415 -0.03634498781447159 -0.034153453673194209 -0.00053580159830072074 0.02085654324955653 -0.013183745319934069 0.0040142381877653968 0.052173716940981246
leaf_weight=30.351998835802078 85.768472120165825 15.289387464523314 11.153359010815619 20.065187588334087 38.498426780104637 98.853645846247673 209.9106287509203 186.95204062759876 16.323557823896408 97.994809955358505 12.089507251977919 15.717297479510306 160.70614151656628 10.461152017116548 10.661603093147276 46.589714035391808 156.10319349169731 14.934133902192114 9.7813493460416776 170.05528491735458 23.014885410666466 12.306890130043028 15.127735927700995 8.9203336387872678 23.592219948768616 109.3761520087719 20.648682400584221 88.795389473438263 23.108819589018822 15.824373781681059
leaf_count=126 397 66 46 82 157 404 853 774 68 401 49 64 648 46 44 194 630 61 40 693 94 51 63 40 99 452 84 364 95 65
internal_value=0.000713397 0.00286891 0.0089908 0.00387637 -0.00174929 0.0041818 0.00872636 -0.00685057 0.00530547 -0.00741983 0.0152141 0.0232661 0.0259525 -0.0331891 -0.00849348 -0.012508 0.00899813 0.00354368 0.0275166 0.000103808 0.0202032 0.00116263 0.0101331 -0.00441144 -0.00882146 -0.00747756 -0.0145203 -0.00131115 0.00579719 0.0235886
internal_weight=1758.98 1653.83 711.139 523.562 942.688 435.892 320.854 506.796 508.272 114.318 222 187.577 176.423 105.15 115.038 104.376 393.954 237.851 29.8465 208.004 37.949 57.7866 45.4797 19.3815 468.298 444.705 207.601 237.105 148.309 38.9332
internal_count=7250 6767 2893 2135 3874 1784 1306 2090 2069 469 902 758 712 483 478 434 1600 970 122 848 155 240 189 86 1933 1834 858 976 612 160
is_linear=0
shrinkage=0.05


Tree=12
num_leaves=31
num_cat=0
split_feature=5 1 2 8 0 19 19 14 1 19 14 19 19 5 2 1 15 0 14 6 8 9 5 5 1 9 6 8 7 7
split_gain=48.2 37.979 17.0224 10.3161 11.2921 9.79551 9.74763 9.30998 8.96503 12.5251 9.65694 8.36133 8.90801 8.19252 7.31816 11.8396 10.7974 9.03279 10.0583 7.53402 8.10623 7.69327 7.29404 8.2529 7.25826 11.399 7.1947 7.14535 7.13064 6.81638
threshold=0.085206000000000018 0.023773500000000003 1.0000000180025095e-35 29.821919000000005 1.4646775000000003 1.3708075000000002 4.2402060000000015 0.054535000000000007 0.09249350000000002 1.3994115 0.054535000000000007 3.4164035000000004 0.83009150000000009 0.044123500000000003 0.0064035000000000003 0.017871500000000002 4.5000000000000009 1.9608955000000001 0.026382000000000006 0.035492000000000003 58.957483500000002 0.20777650000000003 0.026631500000000006 0.039877500000000003 0.039151500000000006 0.16599000000000003 0.029387000000000003 84.938872000000018 0.64719150000000014 0.77777750000000012
decision_type=2 2 2 2 2 2 2 2 2 2 2 2 2 2 2 2 2 2 2 2 2 2 2 2 2 2 2 2 2 2
left_child=1 3 5 -1 -5 -3 14 -2 10 -10 11 12 -4 -11 16 29 19 -17 26 20 -6 -21 24 -24 25 -14 -19 28 -13 -16
right_child=7 2 8 4 6 -7 -8 -9 9 13 -12 27 22 -15 15 17 -18 18 -20 21 -22 -23 23 -25 -26 -27 -28 -29 -30 -31
leaf_value=0.024056580795624824 -0.06089670016285529 -0.047678918528766379 -0.01926335230400654 -0.029262572888339736 -0.037741659603083816 -0.0040874134188472423 -0.023465386625132763 -0.024662383774542454 -0.016188568181417999 0.042313891596419594 -0.024119035858804285 -0.025062443296315046 -0.02005056202647934 0.016648583765039051 -0.0097941896725285364 0.026618330377539846 0.035426592276359824 -0.032830119965512758 -0.048795523509568124 0.022295532014418532 0.014794110558844593 -0.014699152860735318 0.019551330009312789 0.0071985722718168098 0.017942635568394733 0.026930933410734187 0.010779976035840043 0.023477463004804817 0.00061853582185983488 -0.03110959010036371
leaf_weight=23.566172659397125 22.086812183260918 19.412451237440109 24.379309296607971 65.164656758308411 22.385566845536232 38.340282261371613 76.345397815108299 89.818972513079643 20.628541827201843 47.76106633245945 24.002012148499489 38.837125942111015 56.523532941937447 89.095689088106155 122.85833421349525 32.795331001281738 25.254950299859047 11.57100000977516 11.093632474541662 39.237312987446785 10.92654077708721 21.894930109381676 294.98091816902161 249.64551739394665 36.620085060596466 16.732907846570015 51.779585242271423 22.312672406435013 88.909318134188652 53.98823781311512
leaf_count=96 105 80 101 272 93 158 321 413 84 192 100 158 230 360 514 135 104 48 46 161 45 92 1191 1019 147 68 212 90 360 225
internal_value=-6.65111e-05 0.0021037 0.00766137 -0.00833223 -0.00973199 -0.0187398 -0.00708125 -0.0318139 0.00917037 0.0201309 0.00714664 0.00805194 0.0104128 0.0256054 -0.00398343 -0.00835277 0.00638648 0.00475517 -0.00487633 -0.00137901 -0.0205097 0.00904563 0.0115182 0.0138891 -0.000233307 -0.00931926 0.00281458 -0.00262906 -0.00718893 -0.0163014
internal_weight=1748.95 1637.04 1068.18 568.862 545.295 57.7527 480.131 111.906 1010.43 157.485 852.943 828.941 678.882 136.857 403.785 284.086 119.699 107.24 74.4442 94.4444 33.3121 61.1322 654.503 544.626 109.877 73.2564 63.3506 150.059 127.746 176.847
internal_count=7220 6702 4338 2364 2268 238 1996 518 4100 636 3464 3364 2756 552 1675 1180 495 441 306 391 138 253 2655 2210 445 298 260 608 518 739
is_linear=0
shrinkage=0.05


Tree=13
num_leaves=31
num_cat=0
split_feature=5 1 5 1 2 2 0 2 1 12 2 0 8 9 8 8 2 7 0 2 15 9 13 19 6 1 0 6 1 7
split_gain=52.3464 34.957 17.4753 15.8841 11.68 10.0675 10.2329 9.47304 9.38266 8.93739 8.81468 10.7342 8.33368 7.99024 7.3092 12.6072 7.64494 7.08642 6.56778 9.53966 19.0592 8.02829 6.47773 7.96167 9.10798 7.19597 6.38065 11.5721 6.07811 6.05962
threshold=0.087443500000000021 0.031831500000000006 0.044123500000000003 -0.037739999999999989 0.15262700000000004 0.051172500000000003 1.8298640000000004 0.19045050000000005 0.018926000000000002 0.052769000000000003 0.072337500000000013 2.3065880000000005 47.373594500000003 0.059549000000000012 55.779326500000003 60.519061500000007 0.0080550000000000014 0.80026700000000017 1.4646775000000003 0.0072790000000000007 4.5000000000000009 0.044212500000000009 0.046525000000000004 3.5282690000000003 0.042816500000000007 0.057571000000000004 2.0164605000000004 0.061923000000000006 0.027976500000000005 0.28645400000000004
decision_type=2 2 2 2 2 2 2 2 2 2 2 2 2 2 2 2 2 2 2 2 2 2 2 2 2 2 2 2 2 2
left_child=1 3 4 -1 22 -4 17 8 18 -8 12 -12 -10 -2 16 -16 -14 -7 -5 20 21 -20 23 24 -3 -26 27 -24 -18 -21
right_child=13 2 5 7 -6 6 9 -9 10 -11 11 -13 14 -15 15 -17 28 -19 19 29 -22 -23 26 -25 25 -27 -28 -29 -30 -31
leaf_value=0.057986745351509397 -0.056094191937513228 0.031808158643547066 -0.012674841075928978 -0.026208038361159976 0.040834010211867111 -0.0016458629599155354 -0.028060333376147106 -0.054474631091073471 -0.013152782047598561 0.005205643082855288 0.0083944213219819385 -0.03622673794112289 -0.014981416173219068 -0.02583627976539854 -0.024844063976570976 0.0089521415584694671 0.022091550843441547 0.046763227941526153 0.019698721920951238 -0.048102054146929057 0.036127351618992089 -0.014970919545329373 0.013929907254859847 -0.035242175625515432 -0.0055033592525912285 0.027470153023148477 0.019762496952924216 -0.047143758847962985 0.065457590215301772 -0.012631190028525167
leaf_weight=9.6598779857158643 32.135340452194214 30.132540091872215 104.58398807048798 60.195203945040703 39.919548377394676 11.185448631644247 22.517646372318268 10.165417879819868 60.876493394374847 195.37881724536419 22.620798125863075 33.347537443041801 9.7381527572870237 67.959783747792244 33.294411525130272 161.18842528760433 28.317798092961311 23.323113232851028 20.794636756181717 12.740958362817763 31.591359853744507 84.759420931339264 30.868573561310768 11.827525794506071 87.650955677032471 20.396577432751656 258.98339381814003 10.358891293406485 11.305884793400763 218.98670852184296
leaf_count=39 158 122 433 253 161 46 93 44 251 793 93 137 40 314 137 660 116 95 86 57 130 352 125 48 354 82 1039 42 46 914
internal_value=-0.000437476 0.00168398 0.00878418 -0.00574548 0.014913 0.000369447 0.00577435 -0.00651511 -0.0058978 0.0017679 4.6252e-05 -0.0181921 0.00339611 -0.0355505 0.00752759 0.00316641 0.0247104 0.0310721 -0.0108946 -0.00839561 0.00205631 -0.00814084 0.0126147 0.00413016 0.00750023 0.000721186 0.0168541 -0.00141558 0.0344652 -0.0145815
internal_weight=1756.81 1656.71 847.127 809.583 490.138 356.989 252.405 799.923 789.758 217.896 360.69 55.9683 304.721 100.095 243.845 194.483 49.3618 34.5086 429.068 368.873 137.145 105.554 450.218 150.008 138.18 108.048 300.211 41.2275 39.6237 231.728
internal_count=7260 6788 3433 3355 1973 1460 1027 3316 3272 886 1480 230 1250 472 999 797 202 141 1792 1539 568 438 1812 606 558 436 1206 167 162 971
is_linear=0
shrinkage=0.05


Tree=14
num_leaves=31
num_cat=0
split_feature=1 14 2 1 8 14 6 3 11 7 2 7 3 6 0 11 3 7 1 2 11 4 11 19 8 14 14 4 3 7
split_gain=32.8959 39.89 14.3077 11.0155 10.3527 16.841 10.0099 11.4458 9.41702 8.65043 8.71329 8.37651 7.44234 8.73917 8.16251 8.7622 11.3058 7.39491 7.02813 6.69374 6.43269 8.31878 5.98291 5.95843 5.61777 6.76652 5.35592 8.3746 11.8251 11.1135
threshold=0.031831500000000006 0.068230500000000013 0.0014805000000000003 0.18446200000000004 81.726731500000014 0.038953000000000008 0.13181000000000004 -0.0094449999999999985 0.8489000000000001 0.70000550000000017 0.08701200000000002 0.46257000000000009 0.0062990000000000016 0.077144500000000019 7.2324420000000016 0.98601300000000014 0.073493000000000017 0.93975500000000012 0.04507450000000001 0.025592500000000004 0.31916150000000004 0.10152750000000001 0.83735450000000011 2.0502075000000004 44.882028000000005 0.022047000000000001 0.022143000000000006 0.13720950000000001 0.05392000000000001 0.70847100000000018
decision_type=2 2 2 2 2 2 2 2 2 2 2 2 2 2 2 2 2 2 2 2 2 2 2 2 2 2 2 2 2 2
left_child=6 2 -2 4 5 12 11 -8 -3 -10 -11 -1 17 14 15 24 -17 19 23 -4 21 -7 -5 -6 25 -14 27 28 29 -13
right_child=1 8 3 22 18 20 7 -9 9 10 -12 26 13 -15 -16 16 -18 -19 -20 -21 -22 -23 -24 -25 -26 -27 -28 -29 -30 -31
leaf_value=-0.027258590133101321 -0.019816195516146076 -0.051259970281088141 0.025179387392655486 0.066529105780050266 -0.029578123673282355 -0.014731484347575442 0.012282276737406816 -0.050684403289044513 -0.053913119109216791 -0.038898644095420966 0.01794909867923292 0.011651034665376861 0.015718736535577361 0.01867446544577735 -0.017725305703089601 0.076792577009727678 0.0086266788691326379 -0.0052648054347968869 0.02849896369013143 0.075232071946008963 -0.015277087637529725 0.046966175612295991 0.017381773426094326 0.016609295160613945 0.0070148552311070853 -0.033632678417942367 -0.010043689635022078 0.020738963845422193 -0.022069711557577934 -0.007709338636843358
leaf_weight=46.710640534758568 41.476201727986336 30.346734225749969 16.767929226160053 12.982933953404427 10.37712047994137 11.491832330822946 9.9226287901401502 26.469415709376335 10.357499197125433 10.108381047844889 20.231512293219566 128.07900008559227 10.847416266798975 155.93717047572136 37.250768050551414 9.9340235888957995 15.690487191081045 9.8592091947793943 100.38221260905266 11.102398872375487 101.42018014192581 10.414699733257292 11.83901347219944 21.347021833062172 240.12873262166977 19.308966457843781 345.16355863213539 38.063079565763474 72.150257155299187 175.96073810756207
leaf_count=205 173 142 68 53 42 48 43 127 46 47 87 525 44 628 150 40 63 40 404 45 421 43 48 86 969 79 1446 155 297 728
internal_value=-0.000728324 0.0058107 0.00882388 0.0102957 0.00925517 0.00666233 -0.00786561 -0.033516 -0.030179 -0.0144596 -0.000990936 -0.00670765 0.0105558 0.00890526 0.00433274 0.00710953 0.035053 0.0319526 0.0220157 0.0451183 -0.00996993 0.0146005 0.0430879 0.00150117 0.00446034 -0.0158807 -0.00544359 -0.00161069 -0.00387204 0.000446363
internal_weight=1762.12 919.602 848.558 807.082 782.26 650.154 842.519 36.392 71.0441 40.6974 30.3399 806.127 526.827 489.098 333.16 295.91 25.6245 37.7295 132.106 27.8703 123.327 21.9065 24.8219 31.7241 270.285 30.1564 759.417 414.253 376.19 304.04
internal_count=7292 3766 3444 3271 3170 2638 3526 170 322 180 134 3356 2126 1973 1345 1195 103 153 532 113 512 91 101 128 1092 123 3151 1705 1550 1253
is_linear=0
shrinkage=0.05


Tree=15
num_leaves=31
num_cat=0
split_feature=1 12 14 11 12 13 17 14 1 1 13 6 19 14 14 11 7 8 0 14 8 8 8 7 0 17 0 13 13 3
split_gain=20.9511 17.068 16.1728 12.8752 12.6557 11.4944 10.5721 10.2493 13.2298 9.89011 9.20345 8.50329 8.15786 7.88787 7.63279 7.03208 7.31295 6.79641 6.64354 10.976 8.07725 7.31718 8.22067 10.1646 6.55961 6.46028 8.12325 7.07536 6.327 6.20172
threshold=0.017155000000000004 -0.025309499999999995 0.05890900000000001 0.8489000000000001 0.017638500000000005 0.080785500000000024 1.0000000180025095e-35 0.018646500000000003 0.04507450000000001 0.14490400000000003 0.13243550000000001 0.13430050000000002 1.0878840000000003 0.025575000000000004 0.048337000000000012 0.68660700000000008 0.81270150000000008 74.780550000000019 11.919415500000001 0.038953000000000008 82.210587500000017 66.225102500000006 73.725721000000007 0.99209400000000014 6.5706425000000008 1.0000000180025095e-35 3.4664170000000003 0.13514500000000004 0.27501800000000004 0.11434300000000001
decision_type=2 2 2 2 2 2 2 2 2 2 2 2 2 2 2 2 2 2 2 2 2 2 2 2 2 2 2 2 2 2
left_child=1 6 5 -4 -5 -2 -1 15 10 -6 12 28 -9 -8 -12 17 -17 -7 19 24 -20 -21 -23 -24 25 26 27 -10 -3 -14
right_child=2 11 3 4 9 7 13 8 18 -11 14 -13 29 -15 -16 16 -18 -19 20 21 -22 22 23 -25 -26 -27 -28 -29 -30 -31
leaf_value=-0.0096867048718166648 -0.00091926848678734133 -0.013187383048081544 -0.034907128329688904 0.047399168493870852 -0.028861270054288526 0.029069943129448078 0.053949996471233566 -0.031458319686885443 -0.026579336298407908 0.014996775480341677 -0.016112383396863605 -0.042368502002947596 0.020686919653803676 -0.0011352335567145755 0.026274266175481398 0.024783069391643035 0.077992635055476933 -0.020769499773730681 0.01266924177180259 -0.02668332777642279 0.049680196056114657 0.029610341096141968 -0.02090146133546119 0.024083088677439024 -0.00074497386551878404 0.042351996161218118 0.030332017866459938 0.013920607860990468 0.026648881047707684 -0.01448183088224685
leaf_weight=21.930481255054474 601.0281810760498 345.58070451021194 49.397515088319778 11.172957047820089 31.779182717204094 21.013816043734554 20.051179423928264 11.108258515596388 14.834254711866377 21.584809243679047 110.23734605312347 24.713857933878899 67.6185542345047 9.6150667667388898 11.753388583660124 14.818178564310076 11.444534093141554 10.141440495848654 36.098532527685165 25.289879187941551 24.916822239756584 22.719462007284164 37.879471227526665 18.785065427422523 39.871315598487854 31.067227751016617 53.333340883255005 39.496821224689484 10.263393953442572 15.388102829456328
leaf_count=92 2457 1460 227 49 141 85 81 46 60 91 452 121 275 41 49 60 46 41 146 105 101 93 154 76 160 125 214 159 44 63
internal_value=-0.000782406 -0.0103492 0.00231965 -0.0156952 -0.000990071 0.00400363 0.0166369 0.00879276 0.00673136 -0.0111215 -0.00296545 -0.0140081 0.00878208 0.0360964 -0.0120286 0.028912 0.0479703 0.0128466 0.0128179 0.00959442 0.0277834 -0.00326176 0.0041998 -0.00598847 0.017129 0.022266 0.0164701 0.00286273 -0.0120384 0.0141672
internal_weight=1764.93 432.155 1332.78 113.934 64.5369 1218.84 51.5967 617.816 560.398 53.364 216.106 380.558 94.1149 29.6662 121.991 57.418 26.2627 31.1553 344.292 283.277 61.0154 104.674 79.384 56.6645 178.603 138.732 107.664 54.3311 355.844 83.0067
internal_count=7314 1839 5475 508 281 4967 214 2510 2278 232 885 1625 384 122 501 232 106 126 1393 1146 247 428 323 230 718 558 433 219 1504 338
is_linear=0
shrinkage=0.05


Tree=16
num_leaves=31
num_cat=0
split_feature=5 12 8 7 5 8 6 9 5 2 9 14 19 11 11 9 3 11 12 12 12 9 16 18 12 8 8 9 19 6
split_gain=31.9558 13.4088 12.6773 9.70314 9.15923 8.88571 8.83763 14.1685 12.8559 9.5503 8.12465 7.59339 13.5806 7.43879 8.25172 7.40854 7.90922 8.49 13.2477 11.1954 7.22449 9.6014 14.8394 6.82257 6.7953 17.8016 6.81569 9.37518 6.73029 6.62374
threshold=0.10747200000000003 -0.069188999999999987 81.053179000000014 0.39369100000000007 0.066791500000000018 29.821919000000005 0.031580500000000004 0.14974900000000005 0.047747500000000005 0.15001650000000002 0.11201850000000001 0.014196500000000003 1.5428405000000003 0.52565800000000007 0.6753380000000001 0.12620050000000002 0.17662800000000003 0.88819450000000011 0.0073300000000000006 0.069267000000000009 0.13871650000000002 0.13893500000000003 1.0000000180025095e-35 0.50000000000000011 0.029907000000000003 61.546654000000011 71.285357000000019 0.063645500000000008 2.2137940000000005 0.075810500000000017
decision_type=2 2 2 2 2 2 2 2 2 2 2 2 2 2 2 2 2 2 2 2 2 2 2 2 2 2 2 2 2 2
left_child=2 -2 5 -4 -5 23 7 10 9 11 -7 12 -8 -13 29 -10 17 19 -19 -17 21 24 -23 -1 -16 -26 27 -27 -21 -15
right_child=1 -3 3 4 -6 6 8 -9 15 -11 -12 13 -14 14 20 16 -18 18 -20 28 -22 22 -24 -25 25 26 -28 -29 -30 -31
leaf_value=0.010070357173737946 0.0039154849975963002 -0.047458401545762863 -0.027666756432225388 0.01647980945851895 -0.020988669028152326 -0.017023587746156671 -0.038383253278510172 0.0092999497455325524 -0.0019341344802736304 0.031408211309068595 -0.053762791089461172 0.008102834663536819 0.0028793650257625211 -0.020335028428070567 0.042338881348562035 -0.024880608479966777 -0.04783069182661235 0.060505825277270525 -0.015501368573219116 -0.013926964716284858 -0.031434893424560684 -0.030290471197135051 0.023614763051671629 0.05725172041887544 -0.030607007240066327 0.018753820995850216 0.0072789537571110235 0.073389281059405564 0.036338822904866057 0.014208640076162557
leaf_weight=30.928790912032127 16.988205552101135 50.331597939133644 15.153611108660696 214.37403701245785 17.653657704591751 88.592919021844864 31.221927598118782 48.621591344475746 220.87782989442348 28.559444755315781 18.12728987634182 414.04167611896992 55.190087720751762 79.302993625402451 16.007678881287575 101.2106926292181 17.341253906488419 9.624780014157297 14.177301630377768 13.13952296972275 14.259282872080801 38.337149068713188 19.141818314790726 10.185322165489195 24.828013241291046 32.795581474900246 81.995681613683701 10.323418483138083 13.502623215317724 16.820842996239662
leaf_count=127 77 254 66 870 75 373 129 203 919 116 77 1686 227 324 65 431 74 40 60 56 58 157 78 42 101 134 333 42 56 68
internal_value=-0.000709283 -0.0344942 0.000631483 0.0110974 0.013629 -0.00115368 -0.00182271 -0.0130716 -0.000427783 0.00297707 -0.023264 0.00200378 -0.0120294 0.00362527 -0.00192844 -0.00796301 -0.0158428 -0.012185 0.0152334 -0.0172895 0.00307078 0.00527294 -0.0123388 0.0217587 0.011373 0.0080671 0.0157417 0.0318345 0.0115485 -0.0142902
internal_weight=1763.66 67.3198 1696.34 247.181 232.028 1449.16 1408.04 155.342 1252.7 862.826 106.72 834.266 86.412 747.854 333.812 389.874 168.996 151.655 23.8021 127.853 237.689 223.429 57.479 41.1141 165.95 149.943 125.115 43.119 26.6421 96.1238
internal_count=7318 331 6987 1011 945 5976 5807 653 5154 3518 450 3402 356 3046 1360 1636 717 643 100 543 968 910 235 169 675 610 509 176 112 392
is_linear=0
shrinkage=0.05


Tree=17
num_leaves=31
num_cat=0
split_feature=1 14 10 12 1 12 14 8 1 16 14 12 17 0 13 13 3 10 6 19 6 7 19 0 6 1 15 6 13 13
split_gain=25.8061 19.7887 16.6838 12.5881 10.8601 9.40395 8.50452 10.6611 10.4542 8.05632 11.5941 11.2385 9.19281 13.0268 9.1397 11.0142 10.8629 10.8515 8.57688 8.2577 8.60145 8.02099 7.85578 7.78388 7.4579 12.256 7.29657 7.15091 9.50514 7.52265
threshold=0.017450500000000004 0.068230500000000013 1.0000000180025095e-35 0.0060210000000000012 0.19483600000000004 0.16277050000000004 0.042975000000000006 53.004550000000002 0.060953000000000007 1.0000000180025095e-35 0.026698000000000003 0.0093990000000000028 1.0000000180025095e-35 2.3852915000000006 0.18775700000000003 0.11509200000000001 0.050957000000000009 1.0000000180025095e-35 0.045869500000000007 2.2137940000000005 0.035492000000000003 0.79853400000000008 1.2598050000000003 1.9941425000000002 0.092953500000000008 0.095635000000000012 1.0000000180025095e-35 0.056827000000000009 0.054596000000000013 0.10682200000000001
decision_type=2 2 2 2 2 2 2 2 2 2 2 2 2 2 2 2 2 2 2 2 2 2 2 2 2 2 2 2 2 2
left_child=2 4 21 -3 6 -5 8 -8 9 12 11 -11 26 19 15 16 17 23 -17 20 -14 -1 -15 -13 -9 -26 -2 29 -29 -22
right_child=1 3 -4 5 -6 -7 7 24 -10 10 -12 14 13 22 -16 18 -18 -19 -20 -21 27 -23 -24 -25 25 -27 -28 28 -30 -31
leaf_value=4.8416343074438743e-05 0.0093720379683935023 0.015529234417052005 -0.027923984016381923 -0.055567894065516391 0.04187914347618682 -0.015757471559951813 -0.041245955720414902 0.01290896032816531 0.015568913200552271 -0.023369745029030553 -0.0077318456568364509 0.0093920828612289262 -0.012716678144234307 -0.045946946143265652 -0.024922094246346203 0.074495741481733976 0.00024002502530210291 0.0046787731523382078 0.027184557586056923 0.06372716611085967 0.045895150537934255 -0.016714765244474666 0.00024400744613367752 0.055978761711530794 -0.031452761650920029 0.0067464607188180955 -0.0088507953936269503 -0.021946588292097034 0.039991704197843335 -0.0033674331089710084
leaf_weight=220.56230673193932 68.180102735757828 18.056238248944283 109.60864336788654 25.011021956801414 19.191174551844597 36.455677554011345 19.756430670619011 52.17962957918644 209.90392845869064 16.67399525642395 68.458186611533165 12.23600324988365 20.360862150788307 10.087303906679152 10.947374880313872 15.346634313464163 63.754502028226852 29.585965111851692 25.491362482309341 10.045109540224074 37.249869987368584 105.48998813331127 105.21750363707542 33.553779482841492 39.490065559744835 44.841531321406364 282.7084264010191 15.44999408721924 10.339310213923453 9.7853088080883008
leaf_count=924 278 82 489 122 79 165 86 216 847 68 280 50 84 41 44 62 258 121 103 41 152 451 428 136 167 184 1156 63 42 40
internal_value=-0.000506096 0.00299889 -0.0110482 -0.0211745 0.00456071 -0.0319565 0.00396962 -0.00691658 0.00558153 0.00310197 0.0101119 0.0159964 -0.000296338 0.00775374 0.0194345 0.0221327 0.0154312 0.0282803 0.0449638 0.0206555 0.0160125 -0.00537509 -0.00379695 0.0435298 -0.0019483 -0.0111411 -0.00530997 0.0240448 0.00288538 0.0356464
internal_weight=1746.02 1310.36 435.661 79.5229 1230.83 61.4667 1211.64 156.268 1055.38 845.472 276.048 207.59 569.424 218.535 190.916 179.968 139.13 75.3757 40.838 103.23 93.1853 326.052 115.305 45.7898 136.511 84.3316 350.889 72.8245 25.7893 47.0352
internal_count=7259 5395 1864 369 5026 287 4947 653 4294 3447 1122 842 2325 891 774 730 565 307 165 422 381 1375 469 186 567 351 1434 297 105 192
is_linear=0
shrinkage=0.05


Tree=18
num_leaves=31
num_cat=0
split_feature=1 14 11 2 12 6 12 1 14 1 12 17 14 1 3 11 11 7 3 3 6 12 4 7 6 0 3 7 11 14
split_gain=20.124 16.9644 15.6845 11.6826 11.5786 12.7103 11.0226 9.53127 15.6926 9.06963 8.15556 7.51883 7.47609 7.23054 13.6048 22.1589 10.0526 7.43025 7.23581 7.10609 8.07584 7.09959 7.99721 6.98062 7.31954 8.40484 7.59009 9.4114 9.39651 5.89885
threshold=0.019238000000000005 0.068230500000000013 0.82392650000000012 1.0000000180025095e-35 -0.025309499999999995 0.13181000000000004 0.0065755000000000006 0.09249350000000002 0.039187000000000007 0.18446200000000004 0.056833000000000002 1.0000000180025095e-35 0.026031000000000002 0.041670000000000006 0.060844500000000003 0.92970100000000011 0.24440000000000003 0.60642800000000008 0.068575000000000011 0.0016935000000000001 0.046876000000000008 0.10523950000000001 0.17607800000000004 0.28645400000000004 0.086700000000000013 2.8261750000000005 0.12361250000000001 0.6827335000000001 1.0000000180025095e-35 0.022143000000000006
decision_type=2 2 2 2 2 2 2 2 2 2 2 2 2 2 2 2 2 2 2 2 2 2 2 2 2 2 2 2 2 2
left_child=4 3 -3 10 11 23 -4 8 13 -8 12 -1 -2 14 15 16 17 -5 -16 -19 -21 -20 -23 -6 26 -26 28 -28 -25 -17
right_child=1 2 6 7 5 -7 9 -9 -10 -11 -12 -13 -14 -15 18 29 -18 19 21 20 -22 22 -24 24 25 -27 27 -29 -30 -31
leaf_value=-0.0085515978722583534 -0.004571331435069991 -0.049227871634881099 0.038947297130847325 0.052011145630662253 -0.043530702857938725 -0.043426367365685732 -0.032729480291173327 0.018826486604214106 -0.012826543921370693 0.020127491106388416 0.01662572032004149 0.029087191792515746 -0.041128674078456814 0.012557866849099772 -0.03030169921801645 0.07164428935391047 -0.0019454279384751025 0.052577584301819837 0.0042088473174892995 0.01712603282331205 -0.018215948725350598 -0.054647077893599072 -0.0073197297402158015 0.02637176717429094 0.044559421230760676 -0.010782835538529637 -0.010246817725692529 0.047919850742255771 -0.013111054125165984 0.027527301390367295
leaf_weight=22.486730828881264 27.579248681664467 27.271242871880531 12.337528795003889 13.580324992537497 13.717583104968069 27.810479536652565 25.064221158623695 142.35359366238117 109.82785075902939 12.001818671822546 16.788526177406311 32.366352245211601 28.37235689163208 367.13797281682491 29.623474106192589 15.563317388296129 180.49182079732418 9.8192122280597669 101.62033286690712 59.749844163656235 22.158276721835136 11.924516573548315 35.496127098798752 15.820484802126883 14.107177525758745 13.355387449264525 15.521048709750177 12.599260970950125 317.32809221744537 14.765538677573202
leaf_count=95 113 135 54 55 64 143 118 581 460 52 70 133 121 1479 121 63 738 40 414 244 90 49 145 65 60 57 66 53 1342 60
internal_value=0.00067976 0.00400334 -0.0187906 0.00547591 -0.00797686 -0.010735 -0.00198891 0.00674345 0.0049734 -0.0156146 -0.0139382 0.0136574 -0.0231091 0.00724148 0.00329671 0.00952963 0.00521732 0.0174939 -0.00773181 0.0123836 0.00756511 -0.0032458 -0.0192208 -0.00847589 -0.00723888 0.0176458 -0.00913054 0.0158147 -0.0112361 0.050166
internal_weight=1748.64 1263.53 76.6748 1186.85 485.113 430.26 49.4036 1114.11 971.759 37.066 72.7401 54.8531 55.9516 861.931 494.793 316.128 285.799 105.308 178.664 91.7273 81.9081 149.041 47.4206 402.449 388.731 27.4626 361.269 28.1203 333.149 30.3289
internal_count=7280 5202 359 4843 2078 1850 224 4539 3958 170 304 228 234 3498 2019 1290 1167 429 729 374 334 608 194 1707 1643 117 1526 119 1407 123
is_linear=0
shrinkage=0.05


Tree=19
num_leaves=31
num_cat=0
split_feature=5 1 7 5 14 0 0 18 7 1 6 5 13 7 7 9 2 11 0 14 14 14 9 13 11 0 12 8 0 7
split_gain=27.3232 15.6309 10.9861 10.574 8.73778 8.66763 8.37535 10.6615 9.07037 7.90379 7.88388 7.97933 8.21128 9.60803 10.7848 8.798 9.80516 11.3514 8.2899 7.91031 7.56019 8.57748 7.37379 9.32255 8.54649 9.20034 7.30257 8.26214 7.22623 7.74828
threshold=0.085206000000000018 0.041670000000000006 0.46257000000000009 0.044123500000000003 0.054535000000000007 2.3852915000000006 1.8616110000000001 0.70000000000000007 0.9787610000000001 -0.037739999999999989 0.025786000000000003 0.041617500000000009 0.083261000000000016 0.69006550000000011 0.64298350000000004 0.16964950000000004 0.017197500000000004 0.13724300000000003 1.8189780000000002 0.019587000000000004 0.038953000000000008 0.032606000000000003 0.18399100000000004 0.13988050000000002 0.67445650000000013 3.6206050000000007 -0.042726499999999994 41.712454500000007 1.4646775000000003 0.67984000000000011
decision_type=2 2 2 2 2 2 2 2 2 2 2 2 2 2 2 2 2 2 2 2 2 2 2 2 2 2 2 2 2 2
left_child=1 2 -1 5 -2 -3 -5 -8 20 -4 -11 12 15 14 -14 28 17 -17 -15 -20 21 -9 23 -13 -25 -26 27 -6 29 -12
right_child=4 3 9 6 26 -7 7 8 -10 10 11 22 13 18 -16 16 -18 -19 19 -21 -22 -23 -24 24 25 -27 -28 -29 -30 -31
leaf_value=-0.023661728889923087 -0.057309865563188372 -0.0038073572693227142 0.045301241849002222 0.020058316159569739 -0.024766337629590757 0.017752739785620041 -0.011188075989502616 -0.0077368824368787116 0.030550032283007407 -0.033394180327428385 0.0073587753009827783 0.005659500111153546 0.01053080232772014 -0.00067980667197978543 -0.033440272890268422 -0.010383188380834463 -0.0011752929421431316 0.038913124029320158 0.0532225662150985 0.018629057111207256 -0.014537190399575274 0.047599331473452633 -0.018405271287468099 -0.048475689336606995 0.0044235467386361717 -0.037604182236497641 -0.026784545401685029 0.041245586480157179 -0.0034824601965558577 -0.046624194543468923
leaf_weight=56.901170939207077 17.716897740960121 56.4519262611866 9.1093198806047422 48.336780592799187 9.3735012114048022 267.56003135442734 149.66183663904667 14.395970955491068 34.645318761467934 18.983866184949875 9.8079100698232669 140.40085805952549 44.484036222100258 30.48448234796524 20.312598183751106 16.294518366456032 95.724423542618752 41.215588063001633 24.948848351836205 48.942823961377144 40.846983805298805 13.636403813958166 101.15522399544716 15.953904166817663 45.653734028339386 18.218211188912392 62.865195319056511 9.5893613994121534 261.16463027894497 20.625675231218338
leaf_count=254 93 228 37 199 44 1077 614 58 140 81 41 584 182 125 83 67 392 169 101 199 168 55 429 67 190 76 317 42 1073 87
internal_value=-3.63782e-05 0.00150208 -0.00231299 0.00772528 -0.0254739 0.0139964 0.000986476 -0.0026546 0.00968193 -0.00105218 -0.00149462 -0.000847209 0.00249383 0.0118699 -0.00325335 -0.00107196 0.00862817 0.0249458 0.0212585 0.0303092 -0.000814418 0.0191815 -0.00723033 -0.00209742 -0.0157406 -0.00756403 -0.018581 0.00861534 -0.00616937 -0.029227
internal_weight=1745.46 1645.92 1020.38 625.535 99.545 324.012 301.523 253.187 103.525 963.481 954.371 935.387 614.006 169.173 64.7966 444.833 153.235 57.5101 104.376 73.8917 68.8794 28.0324 321.382 220.227 79.8258 63.8719 81.8281 18.9629 291.598 30.4336
internal_count=7272 6776 4237 2539 496 1305 1234 1035 421 3983 3946 3865 2519 690 265 1829 628 236 425 300 281 113 1346 917 333 266 403 86 1201 128
is_linear=0
shrinkage=0.05


Tree=20
num_leaves=31
num_cat=0
split_feature=5 1 2 11 3 14 14 9 1 3 14 11 19 1 9 6 6 11 9 6 11 19 12 5 7 2 14 14 11 19
split_gain=30.7567 21.4419 10.464 9.92639 9.45324 8.61512 8.11456 11.2898 8.04694 6.98545 7.49807 11.8621 6.58892 7.69916 7.04438 6.58855 10.9375 16.8335 10.1948 8.13738 7.69773 7.20526 6.54185 8.16165 6.52206 10.1115 8.86701 8.07155 6.61075 10.0793
threshold=0.075627500000000014 0.028156000000000004 1.0000000180025095e-35 0.77388950000000012 0.060333500000000005 0.05212350000000001 0.05890900000000001 0.31014850000000005 -0.037739999999999989 0.05659150000000001 0.023324000000000001 1.0000000180025095e-35 1.1699910000000002 0.048146000000000008 0.11947650000000001 0.033618500000000003 0.04100800000000001 0.78404900000000011 0.14974900000000005 0.045723000000000007 0.06299600000000001 1.1626160000000001 0.076194000000000012 0.049998000000000008 0.96677700000000011 0.055128000000000003 0.031901500000000006 0.038572000000000009 0.78404900000000011 1.5879265000000002
decision_type=2 2 2 2 2 2 2 2 2 2 2 2 2 2 2 2 2 2 2 2 2 2 2 2 2 2 2 2 2 2
left_child=1 4 12 -2 8 -5 -7 -8 -1 10 15 -12 -3 14 -14 18 -17 19 -10 -18 -21 -20 23 -6 27 26 -26 -4 -29 -30
right_child=3 2 24 5 22 6 7 -9 9 -11 11 -13 13 -15 -16 16 17 -19 21 20 -22 -23 -24 -25 25 -27 -28 28 29 -31
leaf_value=0.049573564569704652 -0.03932914500405485 -0.050827374075199327 0.0078058752939864431 -0.055650227065165064 -0.018416233499380923 0.037040054264012093 -0.029280150163686226 0.01560813037154906 -0.017800502968772239 0.028421179173141565 0.039634579009025644 -0.017173706059724705 0.042215334335918814 -0.039406191546849323 -0.014573530717574758 0.021786462588653771 -0.030946379688834444 0.049151801720914989 -0.017762994398308533 0.029713559384171154 -0.0092799380012013859 0.023915149413764963 -0.006393907928786545 -0.062583380669633273 0.0088246764395148187 0.021881481920720997 -0.032488938635865487 -0.020411343645451534 0.04588077372051784 -0.0054423368259196928
leaf_weight=7.6432325094938269 55.871906399726868 10.90883284807205 526.94854934513569 9.8162201642990095 72.294313564896584 9.6099397093057615 37.38327744603157 22.401244148612022 87.449543058872223 18.007532134652138 9.8998590260744077 128.00847060978413 9.9950001090765017 11.41483414173126 12.037549301981924 74.289304926991463 31.304762199521065 13.78937755525112 15.107992112636564 16.38108429312706 55.667086973786354 33.065282806754112 112.38085475564003 12.229020550847052 59.531293153762817 162.98883913457394 16.611769050359726 50.282883435487747 11.642295718193052 53.648821294307709
leaf_count=31 284 46 2128 46 305 42 182 102 370 75 40 542 41 48 50 305 131 57 63 67 230 137 477 53 241 661 69 209 48 220
internal_value=-0.000272436 0.00164625 0.00661272 -0.0231907 -0.00504303 -0.0118074 -0.00560554 -0.0124605 -0.00132873 -0.00213429 -0.00331767 -0.0130957 -0.0170837 -0.00607828 0.0111886 0.000805402 0.0067787 -0.00273892 -0.00762591 -0.00966219 -0.000414262 0.0108441 -0.0142977 -0.0248064 0.00780489 0.0148541 -0.000188518 0.00518135 -0.00678491 0.00370927
internal_weight=1748.61 1613.53 926.011 135.083 687.518 79.2107 69.3945 59.7845 490.614 482.97 464.963 137.908 44.3562 33.4474 22.0325 327.054 191.432 117.142 135.623 103.353 72.0482 48.1733 196.904 84.5233 881.654 239.132 76.1431 642.523 115.574 65.2911
internal_count=7300 6644 3761 656 2883 372 326 284 2048 2017 1942 582 185 139 91 1360 790 485 570 428 297 200 835 358 3576 971 310 2605 477 268
is_linear=0
shrinkage=0.05


Tree=21
num_leaves=31
num_cat=0
split_feature=5 1 2 11 9 6 5 1 8 13 9 14 19 11 19 5 3 5 14 11 8 4 0 5 3 5 13 8 13 0
split_gain=28.7849 12.3049 15.1737 10.597 10.7309 9.91064 6.64322 9.75748 7.94629 10.3114 7.89146 8.63375 7.57273 7.04793 6.81567 6.46735 5.69753 5.6473 5.41808 11.7099 6.94818 9.67534 8.00326 9.86551 8.8558 7.83562 6.35903 6.06641 6.86558 8.28109
threshold=0.10195850000000002 0.028156000000000004 0.096212000000000006 0.8489000000000001 0.31014850000000005 0.15849600000000003 0.069140500000000008 0.09249350000000002 90.826714000000024 0.16995200000000002 0.06789450000000001 0.05890900000000001 3.7681240000000007 0.22540300000000005 0.81691200000000008 0.059331500000000009 0.13624000000000003 0.046867000000000006 0.023931500000000005 0.89936700000000014 55.779326500000003 0.019050500000000001 2.4315565000000006 0.027053500000000005 0.087876000000000024 0.031930500000000007 0.016586000000000004 34.708050000000007 0.013498000000000001 5.7729665000000008
decision_type=2 2 2 2 2 2 2 2 2 2 2 2 2 2 2 2 2 2 2 2 2 2 2 2 2 2 2 2 2 2
left_child=1 2 5 -2 -5 -1 7 12 9 -9 11 -8 14 -14 -3 -15 -12 -11 19 20 21 -16 23 -22 26 -25 -24 -20 -29 -30
right_child=3 6 -4 4 -6 -7 10 8 -10 17 16 -13 13 15 18 -17 -18 -19 27 -21 22 -23 24 25 -26 -27 -28 28 29 -31
leaf_value=-0.0024041763210743334 -0.047437148748790896 -0.024132376697838354 -0.02913785513058452 -0.035673487102879958 0.023060833903767546 0.045968337809774017 0.029311747661087479 0.0035482238578486052 -0.021659978509155728 0.049743369089728658 -0.010879306624474946 -0.02013014201516368 -0.042646593845139733 -0.0069821056388684292 0.011553521256599458 0.036029683483333734 -0.051931008117028811 0.022248909182321992 0.041657875838696803 0.038318991095435399 -0.052967566749272416 0.055504903396894116 0.037792119800986179 0.027602200091908658 0.036020812680638031 -0.025149280603286469 -0.001677601286426005 -0.017491659571934846 0.000933050113093782 0.026271035516999077
leaf_weight=646.17831316590309 41.427153646945953 18.051314875483513 54.195138350129128 17.06517563760281 14.287412181496618 10.765145614743231 19.595922321081161 46.647634133696556 11.300044760107992 31.199432924389839 22.800358489155769 16.071416065096855 12.683447480201719 102.89000602066517 58.869418531656265 9.550860792398451 13.430932328104971 46.529074594378471 9.686622351408003 37.027476102113724 12.831460565328596 15.904566973447798 11.418516069650648 13.408905372023584 24.160690933465958 14.819760307669638 96.002237558364868 41.444121569395065 241.14538970589638 37.224299445748329
leaf_count=2711 226 75 236 89 63 46 81 189 46 129 103 71 52 417 238 40 60 188 40 149 52 64 46 54 97 60 386 171 980 150
internal_value=-5.60303e-05 0.00128086 -0.00370926 -0.0308394 -0.00890819 -0.00161151 0.0049594 0.00613687 0.0184848 0.0221321 -0.0096617 0.00703363 0.00392412 -0.00731417 0.00614911 -0.00332863 -0.0260972 0.0332849 0.00703945 0.0120949 0.00817027 0.0209021 0.00265592 -0.0166157 0.00866964 -9.17869e-05 0.00251792 0.00267532 0.0014946 0.00432131
internal_weight=1748.61 1675.83 711.139 72.7797 31.3526 656.943 964.694 892.795 135.676 124.376 71.8986 35.6673 757.119 125.124 631.995 112.441 36.2313 77.7285 613.943 284.443 247.416 74.774 172.642 41.0601 131.581 28.2287 107.421 329.5 319.814 278.37
internal_count=7309 6931 2993 378 152 2757 3938 3623 552 506 315 152 3071 509 2562 457 163 317 2487 1146 997 302 695 166 529 114 432 1341 1301 1130
is_linear=0
shrinkage=0.05


Tree=22
num_leaves=31
num_cat=0
split_feature=5 8 11 8 9 18 19 13 8 7 11 6 6 2 5 11 12 12 8 13 7 11 3 9 18 2 3 3 5 8
split_gain=21.8288 11.5172 10.8119 8.63777 8.54552 8.4096 8.20089 7.64738 7.04868 6.44477 7.8708 7.53463 5.77996 14.0791 9.44618 10.1091 9.88067 9.50556 7.97819 9.60215 9.25088 6.98812 7.47691 8.7855 7.41679 6.37072 6.33746 6.40101 7.94748 8.12974
threshold=0.097516000000000019 29.821919000000005 0.82392650000000012 82.210587500000017 0.34564700000000004 0.70000000000000007 1.5947545000000003 0.19285800000000003 27.558927500000006 0.64298350000000004 0.99687500000000007 0.14672500000000002 0.035492000000000003 -0.0035429999999999997 0.04712800000000001 0.012579000000000002 0.15526550000000003 0.092556000000000013 45.470328000000009 0.022737000000000004 0.76946400000000004 0.11819850000000001 0.17662800000000003 0.10422350000000001 0.70000000000000007 0.020405000000000003 0.10533550000000001 0.043110000000000009 0.035797000000000009 68.349937500000024
decision_type=2 2 2 2 2 2 2 2 2 2 2 2 2 2 2 2 2 2 2 2 2 2 2 2 2 2 2 2 2 2
left_child=1 8 -2 12 7 6 -5 -4 -1 11 -11 -7 13 -3 16 17 -14 25 20 -20 -15 -17 -23 24 -24 -16 27 -21 29 -29
right_child=2 3 4 5 -6 9 -8 -9 -10 10 -12 -13 14 18 15 21 -18 -19 19 26 -22 22 23 -25 -26 -27 -28 28 -30 -31
leaf_value=0.013730395310570923 -0.046382832234973644 -0.036208238788814968 -0.062195031706521235 -0.011514011413864328 0.019708898725819136 -0.025076012034312114 0.032249902209870535 -0.0033597940381115514 0.061218277349742015 0.024822372359489333 -0.0026529845151253518 0.025130909122785913 0.0025270262755684001 0.001531408684861723 0.013366564348715446 -0.038565224175531369 0.035620159236617481 -0.016290959279599667 0.017152038553274827 0.00023262021254200055 -0.052182738526767837 -0.0033303736226249141 -0.038793249631355053 -0.0526963869185645 0.004689777565596894 0.070297856730579186 0.027164415445666574 0.018020458059206778 -0.051183074382792362 -0.027323389977953524
leaf_weight=24.902535006403923 36.348351091146469 37.646329700946808 9.5294099152088183 13.247725814580916 15.910829246044157 32.958473116159439 55.761643916368484 13.1368520706892 11.387407809495924 46.226198419928551 59.767162963747978 9.6636886149644834 729.62096701562405 15.405632942914961 9.6759435385465675 18.234861522912979 23.274927243590355 10.696175962686537 60.163352087140083 70.250032410025597 16.710504978895187 278.4147983789444 15.126088351011274 17.414167299866676 27.884926900267601 9.9845079332590085 12.604753181338308 15.686260879039763 16.805363476276398 26.72900328040123
leaf_count=102 205 159 51 55 71 139 230 68 47 188 244 41 2976 65 40 78 96 45 251 295 71 1173 64 76 116 41 53 66 72 113
internal_value=-0.000414708 0.000772454 -0.0268156 0.000152187 -0.00837891 0.00942468 0.0238485 -0.0280955 0.0286316 0.00272699 0.00932966 -0.0136926 -0.00127661 -0.00782589 0.000285588 -0.00605827 0.00355006 0.0216418 -0.0032666 0.000409728 -0.0264169 -0.00841318 -0.00679054 -0.0227336 -0.0106023 0.042279 -0.00667998 -0.00997494 -0.0220836 -0.0105541
internal_weight=1741.17 1666.24 74.9254 1629.95 38.5771 217.625 69.0094 22.6663 36.2899 148.616 105.993 42.6222 1412.33 272.001 1140.33 387.431 752.896 30.3566 234.355 202.239 32.1161 357.075 338.84 60.4252 43.011 19.6605 142.075 129.471 59.2206 42.4153
internal_count=7291 6896 395 6747 190 897 285 119 149 612 432 180 5850 1145 4705 1633 3072 126 986 850 136 1507 1429 256 180 81 599 546 251 179
is_linear=0
shrinkage=0.05


Tree=23
num_leaves=31
num_cat=0
split_feature=5 1 7 2 14 1 1 6 1 14 2 15 7 15 11 13 3 1 15 9 14 2 15 12 5 5 7 6 13 13
split_gain=21.4167 12.2423 12.0805 8.6515 7.45496 8.40001 6.86853 6.84787 8.19513 6.61804 8.80142 6.41179 7.14648 6.31989 6.27194 9.92355 11.0566 7.21134 6.88239 6.44823 6.16233 6.12916 5.92315 6.96821 6.70031 6.49329 5.65692 5.6175 5.56294 5.61294
threshold=0.083550500000000014 0.031831500000000006 0.45245050000000003 0.024787000000000003 0.07007300000000001 0.17195750000000001 0.030616000000000001 0.11566900000000001 0.10190200000000001 0.037756500000000005 0.17069050000000002 2.5000000000000004 0.88253450000000011 1.0000000180025095e-35 0.52565800000000007 0.13988050000000002 0.0089975000000000003 0.033296500000000007 1.0000000180025095e-35 0.25743650000000001 0.024729500000000005 0.031575500000000013 1.5000000000000002 0.034260500000000006 0.028108000000000005 0.037214000000000004 0.83333350000000006 0.089925000000000019 0.053685000000000004 0.13380850000000002
decision_type=2 2 2 2 2 2 2 2 2 2 2 2 2 2 2 2 2 2 2 2 2 2 2 2 2 2 2 2 2 2
left_child=1 2 -1 -3 5 9 -4 13 -9 10 14 -11 -13 -2 15 16 -5 -16 28 22 -21 -20 -18 -24 -25 -26 -17 -15 -19 -30
right_child=7 3 6 4 -6 -7 -8 8 -10 11 -12 12 -14 27 17 26 19 18 21 20 -22 -23 23 24 25 -27 -28 -29 29 -31
leaf_value=-0.028094670004305846 -0.033916170110703865 -0.0080679394510323847 -0.0008757688313666735 0.061648874936433465 -0.026760353386043125 0.03473314729379616 -0.025495899198010364 -0.04990804283437026 -0.010525647667393941 -0.0097442668748467225 0.045272700721178005 -0.0052408112961589322 0.030255007738337926 -0.010199431568469268 0.039977218346500247 0.021585185255048617 -0.0066781984618539889 -0.012664487088883495 -0.040627412446835098 0.046058782342728498 0.00011197262649993397 -0.00023868251640560639 0.03601241572981511 -0.018730605803436367 0.031285241398744702 -0.005200483454269573 0.068503282199020854 0.035250360120695851 0.049211370718554526 0.0096652893545480564
leaf_weight=46.650855615735054 16.003131285309792 106.26655742526054 708.9806822091341 10.164261400699614 15.814853370189665 28.117193073034286 29.507495239377022 33.616012439131737 21.760676562786102 100.54257023334503 16.671796351671219 30.52856507897377 26.479235410690308 20.550418838858608 12.84084679186344 13.631590425968172 70.994836121797562 10.632976114749907 9.824579104781149 19.647310599684719 11.609604701399801 214.00887255370617 23.533007696270943 21.438526809215546 26.925694778561592 22.288648456335068 12.15138256549835 10.159672096371649 17.132875248789787 18.838827162981033
leaf_count=215 79 438 2960 41 66 117 121 190 112 415 68 126 108 98 52 55 286 43 40 79 47 863 95 86 108 90 49 49 69 76
internal_value=-0.000324888 0.0010705 -0.00341833 0.00526574 0.00719664 0.00794458 -0.00185951 -0.0225389 -0.0344324 0.00685278 0.00951695 -0.00214902 0.0112464 -0.00843948 0.00836094 0.0144492 0.0107991 0.00336653 0.0016282 0.008168 0.028993 -0.00201144 0.00422732 0.0124476 0.00459866 0.0147612 0.0436974 0.00483651 0.0191087 0.0285006
internal_weight=1727.31 1625.22 785.139 840.085 733.818 718.003 738.488 102.09 55.3767 689.886 532.336 157.55 57.0078 46.7132 515.664 232.385 206.602 283.279 270.438 196.438 31.2569 223.833 165.181 94.1859 70.6529 49.2143 25.783 30.7101 46.6047 35.9717
internal_count=7241 6713 3296 3417 2979 2913 3081 528 302 2796 2147 649 234 226 2079 936 832 1143 1091 791 126 903 665 379 284 198 104 147 188 145
is_linear=0
shrinkage=0.05


Tree=24
num_leaves=31
num_cat=0
split_feature=1 14 2 11 14 2 7 8 7 3 6 7 11 11 19 14 11 14 1 19 7 7 3 13 9 11 2 14 14 14
split_gain=12.197 11.5648 7.98069 8.84 7.889 8.76796 7.63105 7.41349 7.13112 6.5937 8.54623 8.24704 9.77936 6.54336 6.1138 9.27681 6.54747 10.384 9.26977 8.63176 8.82984 8.14157 7.42521 12.8924 9.86629 7.00724 8.12851 6.82452 6.75374 8.73428
threshold=0.018926000000000002 0.05890900000000001 0.11517550000000001 0.83735450000000011 0.014196500000000003 1.0000000180025095e-35 0.22253650000000003 47.373594500000003 0.91903800000000013 0.10338450000000002 0.10624700000000002 0.59726850000000009 0.90098050000000007 0.012579000000000002 0.81691200000000008 0.022708500000000003 0.52246850000000011 0.021843000000000005 0.058831000000000008 5.5410150000000007 0.98861450000000006 0.99974350000000012 0.12115400000000001 0.14606250000000001 0.011076500000000001 0.99687500000000007 0.058527000000000003 0.020653500000000002 0.022597500000000003 0.023324000000000001
decision_type=2 2 2 2 2 2 2 2 2 2 2 2 2 2 2 2 2 2 2 2 2 2 2 2 2 2 2 2 2 2
left_child=6 4 -3 -4 7 -6 -1 -2 9 10 13 -11 -13 -8 15 -7 -16 19 28 20 25 22 -20 -24 -25 27 -27 -18 -19 -30
right_child=1 2 3 -5 5 14 8 -9 -10 11 -12 12 -14 -15 16 -17 17 18 21 -21 -22 -23 23 24 -26 26 -28 -29 29 -31
leaf_value=-0.049602815241315275 -0.051055946405344332 -0.027491574334301952 -0.029687053864937387 0.013354822228149821 -0.012245000664994394 -0.055069045616828363 0.017231108070496708 -0.005332487203515035 -0.018239525067509321 -0.011060692466837191 0.027008013734817083 0.06015015579461961 -0.00032912678214427004 -0.0095774862956544433 0.011917877264325288 0.0061260278318279252 -0.00059395313067232727 -0.039836893081723466 0.015681093971165138 -0.027867002844565697 0.053670450007244824 0.025398257406227916 -0.053445807426323461 -0.030576095100232532 0.011258346071671789 0.071404618863762037 0.012487203391779318 0.033565040118672729 0.034855270629675278 -0.0064106619385046124
leaf_weight=10.194042190909384 10.298641100525854 50.63951849937439 17.327949896454811 38.287896722555161 67.733631283044815 10.1019603908062 24.844255432486534 63.688405156135559 92.542770743370056 17.895206779241562 19.301104605197906 14.73651397228241 12.232106268405914 271.45012532174587 398.73664283752441 16.005081117153168 62.354499205946922 14.013327345252035 61.300264805555344 10.334461793303488 16.555910661816597 51.268785282969475 12.764251470565794 18.74199104309082 56.826460972428322 10.406908869743349 13.381659999489782 19.100902810692787 13.562015786767004 235.2622941583395
leaf_count=51 43 252 84 167 286 42 102 261 426 79 84 63 52 1155 1621 67 253 57 250 42 67 211 52 76 232 42 54 77 55 967
internal_value=0.000123123 0.00265849 -0.0131311 -5.55188e-05 0.00410178 0.00517569 -0.00682125 -0.011697 -0.00585852 -0.00267988 -0.00522958 0.015256 0.0327187 -0.00732959 0.00633171 -0.017553 0.00695864 0.00364011 0.000116845 0.0160054 0.0197279 0.00820258 0.00231082 -0.00696776 0.000882843 0.0143884 0.0382621 0.00741617 -0.00606354 -0.00416149
internal_weight=1731.89 1268.69 106.255 55.6158 1162.44 1088.45 463.196 73.987 453.002 360.459 315.595 44.8638 26.9686 296.294 1020.72 26.107 994.61 595.874 463.739 132.134 121.8 200.902 149.633 88.3327 75.5685 105.244 23.7886 81.4554 262.838 248.824
internal_count=7270 5258 503 251 4755 4451 2012 304 1961 1535 1341 194 115 1257 4165 109 4056 2435 1900 535 493 821 610 360 308 426 96 330 1079 1022
is_linear=0
shrinkage=0.05


Tree=25
num_leaves=31
num_cat=0
split_feature=5 1 7 2 1 14 5 19 0 3 9 13 3 5 19 4 14 5 0 7 13 7 2 9 2 14 13 14 2 0
split_gain=24.175 10.1352 9.17111 9.21185 9.83544 7.68831 9.79865 9.41184 8.4204 9.79785 8.41449 7.64968 14.2109 7.57015 7.50626 7.32564 7.20253 6.55801 6.38131 11.7372 6.33524 7.484 6.29365 6.28091 6.97004 6.44261 7.68354 6.18954 6.13962 6.13055
threshold=0.10195850000000002 0.057571000000000004 0.96677700000000011 0.057153000000000002 0.071398000000000017 0.023839000000000003 0.021284000000000001 4.2402060000000015 1.4646775000000003 0.12361250000000001 0.18224200000000004 0.28539100000000006 0.21427650000000004 0.066791500000000018 3.1011085000000005 0.34234900000000007 0.042975000000000006 0.052902500000000012 6.0211430000000012 0.74007900000000004 0.21618700000000005 0.7778210000000001 0.022127000000000004 0.020369500000000002 0.056435500000000006 0.022804500000000002 -0.061948999999999997 0.18094600000000002 0.052477500000000003 2.0623965000000006
decision_type=2 2 2 2 2 2 2 2 2 2 2 2 2 2 2 2 2 2 2 2 2 2 2 2 2 2 2 2 2 2
left_child=1 5 13 -4 -5 6 14 8 10 17 -8 20 29 15 -1 16 -3 23 -9 -20 -7 -22 -2 24 -10 26 -25 -24 -27 -13
right_child=22 2 3 4 -6 11 7 18 9 -11 -12 12 -14 -15 -16 -17 -18 -19 19 -21 21 -23 27 25 -26 28 -28 -29 -30 -31
leaf_value=-0.021616557048889484 -0.047299786527825863 0.0060099523875029792 -0.015133107586665074 0.061319617150518368 0.018407728876602834 -0.0052737166962616919 -0.021135062536540038 -0.03433178184270682 0.028844686525291457 0.049616581327649747 0.021301906381775721 0.073937807277090026 -0.019910819901668181 -0.017511395375808574 0.024609944084669114 0.027324797001731696 -0.025036642761101725 -0.033686993148506192 -0.033139342999264507 0.020287312246474176 -0.042546497101026308 -0.00099274712373093217 -0.034406121737901356 0.042026800462999857 -0.0017280810497214191 0.012029879965958322 0.0023393832111921592 0.0051051423594131945 0.060162046091556134 0.017535941459896592
leaf_weight=62.271616294980049 28.278544738888741 158.48882609605789 16.99428091943264 15.515876799821852 95.79004168510437 474.85312481224537 48.393042683601379 23.805444344878197 64.025711387395859 13.995684877038 15.397595062851904 9.6276564747095126 14.424299776554106 39.007717370986938 10.223508536815642 35.099294602870941 21.176984518766403 9.6160586923360807 17.620225980877876 24.67670775949955 25.687413960695267 18.741078495979309 21.847285822033882 12.609231501817701 26.300604239106178 20.483343034982685 371.57829734683037 18.143339693546295 9.7929207086563093 9.6437090337276441
leaf_count=262 166 640 72 63 396 1993 204 100 262 57 64 40 63 174 43 142 88 40 73 102 110 77 122 51 107 84 1525 86 40 41
internal_value=-8.42249e-05 0.00111089 0.00825978 0.0191545 0.0243896 -0.00101675 0.00234914 0.00427046 0.0062679 0.00833948 -0.0108918 -0.00546495 0.0176212 0.00275172 -0.0150975 0.0064321 0.00235053 0.00721644 -0.013624 -0.00196938 -0.006963 -0.0250181 -0.0292464 0.00799563 0.0199427 0.00539194 0.00364194 -0.0164803 0.0275983 0.0457134
internal_weight=1734.11 1665.84 382.073 128.3 111.306 1283.77 730.79 658.295 592.192 528.402 63.7906 552.977 33.6957 253.773 72.4951 214.765 179.666 514.406 66.1024 42.2969 519.282 44.4285 68.2692 504.79 90.3263 414.464 384.188 39.9906 30.2763 19.2714
internal_count=7287 6913 1575 531 459 5338 3014 2709 2434 2166 268 2324 144 1044 305 870 728 2109 275 175 2180 187 374 2069 369 1700 1576 208 124 81
is_linear=0
shrinkage=0.05


Tree=26
num_leaves=31
num_cat=0
split_feature=5 7 4 13 7 3 13 11 2 18 13 9 16 5 13 13 9 7 7 19 5 17 4 19 5 15 2 2 19 11
split_gain=23.4386 9.19565 8.90518 11.8834 7.88932 11.5349 6.7458 10.1402 6.72987 6.47754 6.13941 7.28218 8.64287 7.87405 11.9516 7.46359 7.2386 6.11649 5.98778 8.19459 7.37979 9.91865 9.93682 9.80199 9.17717 8.59739 8.32395 7.57268 7.01388 8.15303
threshold=0.087443500000000021 0.60002200000000017 0.076083500000000012 0.022737000000000004 0.59320050000000013 0.11198150000000001 0.085504000000000011 0.22474500000000003 0.10896200000000002 0.90000000000000013 -0.041986499999999989 0.31350650000000008 1.0000000180025095e-35 0.048330500000000005 0.12574150000000003 0.083261000000000016 0.15130050000000003 0.94759700000000013 0.70847100000000018 3.5282690000000003 0.031811000000000006 1.0000000180025095e-35 -1.0000000180025095e-35 2.2951420000000007 0.030473500000000004 4.5000000000000009 0.029430000000000001 0.032423500000000008 1.8053285000000001 0.20586450000000003
decision_type=2 2 2 2 2 2 2 2 2 2 2 2 2 2 2 2 2 2 2 2 2 2 2 2 2 2 2 2 2 2
left_child=1 4 6 -4 5 10 9 -8 -7 18 -1 12 13 14 -12 16 -14 -2 19 -3 24 23 25 26 -20 -23 -22 -26 29 -28
right_child=17 2 3 -5 -6 8 7 -9 -10 -11 11 -13 15 -15 -16 -17 -18 -19 20 -21 21 22 -24 -25 27 -27 28 -29 -30 -31
leaf_value=0.040675666878827274 -0.014122734306171969 0.0099544345651488078 0.057278834217377554 0.0056456161756489659 -0.030084407516018097 -0.043082642366828905 0.04280583914304037 0.00036704871290423681 -0.010165764723630623 -0.03501530118473372 -0.0044042454285528323 -0.040059047122366687 -0.017035409773022758 0.023568437028236796 -0.056031514656694793 0.036637018501171424 0.02872343731206918 -0.04066078810273871 -0.0013916168493371493 -0.03175419487596267 -0.039521327200456334 0.0027782852235279185 -0.016899587260070275 0.00031011555097951003 0.0047980475431759727 0.04350613334219227 0.036735698075484893 0.065196404387585366 -0.043799052846610148 -0.014982580474173482
leaf_weight=9.9149282872676832 50.202469110488892 135.05389514565468 11.329162046313284 680.0338838994503 33.909447237849236 24.044782161712646 20.500023856759071 44.912358820438385 43.837240651249886 15.618538379669188 60.038350760936737 10.533032551407812 20.790884792804718 17.146950304508209 13.783654749393461 27.59029820561409 14.791179239749907 38.258980914950371 144.16349610686302 12.901460498571394 58.516665637493134 53.189210534095764 47.510830149054527 49.050846189260483 10.67739547789097 17.130882233381271 10.222193747758864 10.097462087869642 13.226211696863173 29.937923520803452
leaf_count=41 258 557 47 2793 141 104 84 185 190 65 253 45 88 72 59 115 62 224 593 54 248 220 198 206 44 70 42 41 55 124
internal_value=-0.000530286 0.000821613 0.00250667 0.00649171 -0.00749496 -0.00433584 -0.00158888 0.0136672 -0.0218254 -0.00323212 0.00246427 0.000163592 0.00291215 -0.0069542 -0.0140438 0.0171198 0.00198618 -0.0256003 -0.00239314 0.00631751 -0.00529763 -0.0102574 0.000765163 -0.0183268 0.00308557 0.0127001 -0.026496 0.0341542 -0.0122189 -0.00181842
internal_weight=1728.91 1640.45 1364.07 691.363 276.381 242.471 672.709 65.4124 67.882 607.297 174.589 164.674 154.141 90.969 73.822 63.1724 35.5821 88.4615 591.678 147.955 443.723 278.785 117.831 160.954 164.938 70.3201 111.903 20.7749 53.3863 40.1601
internal_count=7278 6796 5626 2840 1170 1029 2786 269 294 2517 735 694 649 384 312 265 150 482 2452 611 1841 1163 488 675 678 290 469 85 221 166
is_linear=0
shrinkage=0.05


Tree=27
num_leaves=31
num_cat=0
split_feature=5 1 12 11 2 2 1 1 0 19 15 15 11 5 13 14 14 11 19 0 19 17 15 12 16 4 19 14 9 9
split_gain=16.832 9.69062 8.358 8.04453 6.67115 6.5217 6.12889 6.33289 8.33613 8.78929 6.28035 6.72755 5.7682 6.63949 8.91299 9.25549 6.40329 11.634 6.87324 6.35803 13.2066 9.27808 12.6752 8.70715 7.84658 6.9027 6.5983 6.32092 8.83433 6.22231
threshold=0.10747200000000003 0.090457000000000023 -0.0074959999999999992 0.8489000000000001 0.14741050000000003 0.18005500000000002 -0.037739999999999989 0.0054740000000000006 1.8406155000000002 4.2402060000000015 4.5000000000000009 1.0000000180025095e-35 0.21409300000000001 0.025594000000000002 0.11126100000000001 0.019407500000000005 0.023931500000000005 0.27596150000000003 1.9274180000000001 2.6910170000000004 3.4422525000000004 1.0000000180025095e-35 1.5000000000000002 -0.0019739999999999996 1.0000000180025095e-35 0.13446700000000003 4.2993960000000007 0.024474000000000003 0.07857500000000002 0.072603500000000015
decision_type=2 2 2 2 2 2 2 2 2 2 2 2 2 2 2 2 2 2 2 2 2 2 2 2 2 2 2 2 2 2
left_child=1 5 3 -2 -4 6 -1 8 -8 10 11 -10 -9 14 15 -14 17 18 -15 21 29 25 23 -23 26 -19 -22 28 -18 -21
right_child=2 -3 4 -5 -6 -7 7 12 9 -11 -12 -13 13 16 -16 -17 27 19 -20 20 24 22 -24 -25 -26 -27 -28 -29 -30 -31
leaf_value=0.038299153559415045 -0.03000863736132969 0.012613442816455149 -0.050043076149032362 0.028511122408868647 -0.0015433310863950305 -0.019852105089979255 -0.022297649099238939 0.0080792866377894009 0.021748939482778104 -0.022838350879668304 0.031861056646339071 -0.0099488484621219567 -0.0097986150300072832 -0.0055587692101339474 0.028467842776254249 -0.051697670377530459 -0.061396864788156862 -0.014551252828209058 -0.056987235264153759 0.038526311661458229 -0.057398372938003067 0.030387817844135551 0.044250187356219217 -0.026779319549526961 0.014654453296395692 0.013497929602920945 -0.0043211917309412913 -0.0010071968731154913 0.0015369876186169715 0.015022935972542254
leaf_weight=10.697210967540739 11.951708108186724 170.86812779307365 30.695158138871193 11.545987889170645 9.2199625670909864 40.083850771188736 67.313202396035194 271.08214721083641 24.932406306266785 33.039675056934357 20.164834514260292 50.939956814050674 94.623993337154388 17.832155764102939 12.788638800382612 15.313536301255224 10.569939449429514 75.204949483275414 10.220212295651434 50.997224554419518 9.7799802124500292 10.981509864330294 25.964162930846214 16.928745359182358 24.005327180027962 30.965252578258514 14.591552421450613 480.41201601922512 11.803182706236838 62.882910549640656
leaf_count=45 63 716 192 50 51 174 289 1116 105 145 84 218 394 73 52 63 44 312 42 207 40 45 106 70 98 127 60 2001 49 255
internal_value=0.00037068 0.00133362 -0.0249126 -0.00125397 -0.0388402 4.3653e-05 0.000592126 0.000312662 -0.00803282 -0.000593749 0.00705906 0.000467357 0.00162705 -0.000165297 -0.0110392 -0.0156349 0.00139893 0.00658812 -0.0242955 0.00927616 0.0162508 0.00220516 0.0191052 -0.00428646 -0.0056354 -0.00637052 -0.0256204 -0.00221703 -0.0281954 0.0255481
internal_weight=1728.4 1664.99 63.4128 23.4977 39.9151 1494.12 1454.03 1443.34 196.39 129.077 96.0372 75.8724 1246.95 975.865 122.726 109.938 853.139 350.354 28.0524 322.302 162.257 160.045 53.8744 27.9103 48.3769 106.17 24.3715 502.785 22.3731 113.88
internal_count=7286 6930 356 113 243 6214 6040 5995 841 552 407 323 5154 4038 509 457 3529 1435 115 1320 660 660 221 115 198 439 100 2094 93 462
is_linear=0
shrinkage=0.05


Tree=28
num_leaves=31
num_cat=0
split_feature=5 11 11 5 13 4 1 7 8 13 18 2 18 3 13 4 8 5 1 8 1 3 3 13 4 1 15 1 3 4
split_gain=17.1914 11.9476 8.46469 8.41354 10.0055 11.0372 7.60396 8.11294 8.18163 7.57789 8.04035 7.02312 7.23822 9.55196 8.88651 9.47991 12.1194 8.0602 8.68908 8.15529 7.85065 6.89001 7.58517 6.23741 6.84004 9.45139 5.99742 6.716 5.8015 10.6589
threshold=0.10195850000000002 0.8489000000000001 0.93582700000000008 0.041617500000000009 0.082351500000000008 0.026091500000000004 0.09249350000000002 0.81270150000000008 64.940358500000016 -0.041986499999999989 0.3000000000000001 0.18005500000000002 0.50000000000000011 0.060333500000000005 0.13087900000000005 0.075154000000000012 56.402000000000008 0.044924000000000013 0.04507450000000001 78.000000500000013 0.052643000000000002 -0.069003499999999982 -0.040258999999999996 0.074651000000000009 0.068008500000000013 0.036499500000000011 1.0000000180025095e-35 0.027193500000000002 -0.015975499999999997 0.046373000000000004
decision_type=2 2 2 2 2 2 2 2 2 2 2 2 2 2 2 2 2 2 2 2 2 2 2 2 2 2 2 2 2 2
left_child=3 -2 -3 4 9 -6 11 8 -8 10 -1 12 21 14 15 16 -14 19 -19 -15 -20 -5 -23 -11 -25 -26 27 -7 -24 -30
