tree
version=v4
num_class=1
num_tree_per_iteration=1
label_index=0
max_feature_idx=53
objective=binary sigmoid:1
feature_names=pre1_bb_width pre3_bb_width pre5_bb_width pre1_vol_ratio pre3_vol_ratio pre5_vol_ratio pre1_rsi pre3_rsi pre5_rsi pre3_momentum_5d pre5_momentum_5d pre5_bb_position pre5_compression_days pre3_adx pre5_adx pre3_macd_hist pre5_macd_hist pre1_adx pre1_macd_hist pre1_rsi_slope pre1_ema_align pre1_ema20_slope pre1_di_diff pre1_body_ratio pre1_lower_shadow pre1_bar_direction pre1_sector_ad_ratio pre1_sector_pct_ema20 pre1_turnover_ratio pre1_usdegp_chg pre1_vix_level pre1_oil_chg pre1_spread_bps w_rsi w_bb_position mo_trend w_vol_compression obv_slope_5d adl_divergence closing_strength vol_dryup_days dtw_similarity dtw_expected_gain net_accumulation_20d up_volume_ratio_10d range_compression_20d vcp_score base_tightness_10d higher_lows_streak breakout_proximity rs_vs_market_5d rs_vs_market_20d rs_vs_sector_10d rs_rank_pct
feature_infos=[8.456390448996487e-11:3.5821566581726074] [8.456390448996487e-11:3.238938570022583] [8.456390448996487e-11:3.5821566581726074] [2.7414944270276465e-05:9.4343891143798828] [1.6812753074191278e-06:8.5216350555419922] [0.00035457598278298974:5.869140625] [0:78.28466796875] [0:100] [0:100] [-0.38461539149284363:2.7396121025085449] [-0.87222224473953247:5.2608695030212402] [-0.041983999311923981:1.222365140914917] none [0:100] [0:100] [-23.928092956542969:5.9692707061767578] [-23.658969879150391:14.659929275512695] [0:100] [-21.149271011352539:9.9543952941894531] [-33.333332061767578:15.921360015869141] [0:3] [-0.077906690537929535:0.33686819672584534] [-39.570987701416016:100] [0:1] [0:1] [-1:1] none none [1:750198] none none none none [0:1] none [0.35182583332061768:1] [0.00042287769610993564:1] [0.35233476758003235:0.6665225625038147] [0.28910115361213684:0.69568443298339844] [0:1] [0:1] none none [0.375:0.69999998807907104] [0:1] [0:1] [0:1] [0:1] [0:0.60000002384185791] none [0:1] [0:1] none none
tree_sizes=754 661 662 657 763 763 759 761 763 764 760 765 766 761 666 765 666 767 767 772 764 769 861 759 665 662 766 764 669 666 769 766 769 975 775 772 769 670 763 660 768 665 769 769 768 770 769 765 768 980 766 672 670 774 769 1088 878 780 672 875 882 775 779 770 670 1090 777 778 676 672 874 882 673 677 882 776 779 674 889 776 783 982 889 675 783 1101 780 777 783 883 783 677 778 783 678 888 885 779 889 776 786 676 789 782 1112 787 680 788 777 785 788 789 681 786 788 786 893 684 790 794 791 1107 896 681 1113 683 900 789 787 683 687 785 790 1010 795 689 795 1115 793 797 684 686 687 903 687 799 794 904 688 1335 895 902 904 1115 686 910 796 796 689 796 689 799 907 907 791 802 691 1008 910 692 907 693 800 1129 799 911 1023 807 799 800 905 915 804 691 799 795 798 694 799 801 699 796 801 695 797 809 801 908 696 800 698 693 1025 1023 1029 696 1131 1023 918 695 806 1132 812 693 816 1020 699 699 697 1021 918 804 812 805 809 699 922 699 812 813 1031 813 921 813 1034 811 816 818 814 701 813 1143 817 925 812 814 815 928 706 817 814 812 811 708 809 822 1037 817 817 816 923 707 819 817 926 921 819 817 923 709 813 928 927 705 708 811 923 929 815 820 822 815 930 817 825 815 820 707 821 711 713 826 829 707 822 819 820 817 598 710 826 822 828 931 710 826 715 712 821 715 713 828 715 715 829 713 714 600 717 717 717 709 715 715 605 488 604 712 601 487 596 597 491 600 489 598 601 598 491 488 489 601 491 486 486 487 490 490 485 486 490 490 484 490 490 488 485 485 489 486 487 373 491 491 488 486 489 487 484 487 486 490 486 486 490 486 486 488 490 373 377 374 375 485 373 374 377 490 373 489 374 375 373 374 375 377 375 373 376 375 374 373 373 377 375 375 375 375 374 376 373 376 373 377 374 373 373 376 371 375 378 377 373 375 372 372 376 375 374 372 377 375 374 376 374 377 374 375 371 377 373 375 377 379 375 376 374 373 374 373 375 378 373 377 377 374 378 374 373 374 376 374 376 374 375 373 372 370 373 375 379 374 377 374 376 373 377 376 374 376 371 374 378 374 376 377 378 375 375 373 374 377 377 374 370 372 373 375 374 374

Tree=0
num_leaves=6
num_cat=0
split_feature=0 22 10 8 22
split_gain=80.0119 15.8954 18.2124 8.92379 1.13423
threshold=0.10058213025331499 -8.1451909542083722 0.027680993080139164 50.383008956909187 4.896785020828248
decision_type=2 2 2 2 2
left_child=4 -2 3 -3 -1
right_child=1 2 -4 -5 -6
leaf_value=-1.1019373946800648 -0.65491628913799094 -0.97445124047877818 -0.68779696244683475 -0.79607775791426894 -1.0350920372710042
leaf_weight=7.1955894827842695 9.3834377974271792 6.1691916137933749 6.9632995426654807 5.142793744802475 3.9219204038381577
leaf_count=36 21 26 17 16 18
internal_value=-0.851784 -0.760713 -0.815034 -0.893357 -1.07836
internal_weight=38.7762 27.6587 18.2753 11.312 11.1175
internal_count=134 80 59 42 54
is_linear=0
shrinkage=1


Tree=1
num_leaves=5
num_cat=0
split_feature=0 47 3 15
split_gain=61.4965 14.3926 8.41594 0.000392421
threshold=0.050852799788117416 0.33768032491207128 0.5755787491798402 -0.0022549545392394062
decision_type=2 2 2 2
left_child=3 -2 -3 -1
right_child=1 2 -4 -5
leaf_value=-0.13322267406167684 0.048237430560996962 0.2488174747491983 0.12444950770006583 -0.13453920325311516
leaf_weight=4.6797037124633789 8.2399384528398532 14.482324004173281 8.7155701816081983 4.386116296052931
leaf_count=25 30 30 26 23
internal_value=0.0955971 0.161766 0.202092 -0.13386
internal_weight=40.5037 31.4378 23.1979 9.06582
internal_count=134 86 56 48
is_linear=0
shrinkage=0.1


Tree=2
num_leaves=5
num_cat=0
split_feature=0 50 19 15
split_gain=48.244 11.4317 12.7232 0.000262206
threshold=0.050852799788117416 0.449917882680893 2.0231606960296635 -0.0022549545392394062
decision_type=2 2 2 2
left_child=3 -2 -3 -1
right_child=1 2 -4 -5
leaf_value=-0.12907881905211405 0.20118136898979888 -0.00267051024896813 0.16700384226732101 -0.13019298530573875
leaf_weight=4.3632172048091888 15.352968215942381 8.7290594726800936 8.9514184743165952 4.0942914932966215
leaf_count=25 33 31 22 23
internal_value=0.0834904 0.138052 0.0832336 -0.129618
internal_weight=41.491 33.0334 17.6805 8.45751
internal_count=134 86 53 48
is_linear=0
shrinkage=0.1


Tree=3
num_leaves=5
num_cat=0
split_feature=0 47 3 15
split_gain=38.6326 9.59836 5.58682 0.000177529
threshold=0.050852799788117416 0.33768032491207128 0.5755787491798402 -0.0022549545392394062
decision_type=2 2 2 2
left_child=3 -2 -3 -1
right_child=1 2 -4 -5
leaf_value=-0.1255575134497095 0.029513028336923014 0.18702576128144979 0.08995336568601979 -0.12650848631197095
leaf_weight=4.0529679507017136 8.7437124699354154 15.9705026447773 9.4294855147600156 3.8069495707750312
leaf_count=25 30 30 26 23
internal_value=0.0738668 0.11988 0.150989 -0.126018
internal_weight=42.0036 34.1437 25.4 7.85992
internal_count=134 86 56 48
is_linear=0
shrinkage=0.1


Tree=4
num_leaves=6
num_cat=0
split_feature=1 28 10 50 39
split_gain=32.4351 8.4774 6.32324 10.0329 0.0298782
threshold=0.050852799788117416 1365.0000000000002 0.014399962965399029 0.4343873411417008 0.42261904478073126
decision_type=2 2 2 2 2
left_child=1 -1 3 -2 -3
right_child=2 4 -4 -5 -6
leaf_value=0.047426899213475544 0.15732210475752542 -0.12722771626822446 0.17825612384888934 0.0099029889579517628 -0.13951240185191802
leaf_weight=3.8368813395500165 9.3476219177246147 3.8006608337163925 11.789164274930952 9.1213803440332395 4.1325227022171021
leaf_count=15 19 24 23 30 23
internal_value=0.0662481 -0.0746059 0.121039 0.0845155 -0.133627
internal_weight=42.0282 11.7701 30.2582 18.469 7.93318
internal_count=134 62 72 49 47
is_linear=0
shrinkage=0.1


Tree=5
num_leaves=6
num_cat=0
split_feature=0 22 10 8 28
split_gain=26.8382 8.04733 9.30923 9.60118 0.000578135
threshold=0.050852799788117416 -8.1451909542083722 0.014399962965399029 50.383008956909187 14726.500000000002
decision_type=2 2 2 2 2
left_child=4 -2 3 -3 -1
right_child=1 2 -4 -5 -6
leaf_value=-0.12207587409260789 0.16316736890433314 -0.077901098596691767 0.1299034855711084 0.096516506434224325 -0.1202321482746067
leaf_weight=3.0943641215562812 11.610318019986151 6.775199696421625 10.728726625442503 5.9082642197608948 3.7762499749660492
leaf_count=21 21 27 23 15 27
internal_value=0.059647 0.0950981 0.0613419 0.00334684 -0.121063
internal_weight=41.8931 35.0225 23.4122 12.6835 6.87061
internal_count=134 86 65 42 48
is_linear=0
shrinkage=0.1


Tree=6
num_leaves=6
num_cat=0
split_feature=1 47 28 4 38
split_gain=22.4604 8.79886 7.99218 2.0842 0.029442
threshold=0.050852799788117416 0.39654390513896948 644.50000000000011 0.55310067534446727 0.54509490728378307
decision_type=2 2 2 2 2
left_child=2 -2 -1 -3 -4
right_child=1 3 4 -5 -6
leaf_value=0.054757916023791389 0.020019536562034517 0.1024620935682804 -0.12438190887146834 0.1658760512787002 -0.13744808834213632
leaf_weight=3.4825472384691221 9.8033029735088366 10.105996221303942 4.4865874201059341 10.639131546020506 2.8012520521879196
leaf_count=13 31 22 32 19 17
internal_value=0.0543127 0.0980907 -0.0698564 0.134984 -0.129404
internal_weight=41.3188 30.5484 10.7704 20.7451 7.28784
internal_count=134 72 62 41 49
is_linear=0
shrinkage=0.1


Tree=7
num_leaves=6
num_cat=0
split_feature=0 4 22 18 22
split_gain=18.5743 11.65 4.53389 8.18816 0.140576
threshold=0.13573820143938067 0.4100834876298905 -8.1451909542083722 0.011577283032238485 2.9898879528045659
decision_type=2 2 2 2 2
left_child=1 -1 -2 -4 -3
right_child=2 4 3 -5 -6
leaf_value=0.10143859362273439 0.13906522365979387 -0.11684091328165197 -0.0097079510216294285 0.12258997979217184 -0.14414591458937029
leaf_weight=3.0191630721092206 11.436019822955133 3.6433733329176903 8.9857867509126681 9.7589793950319272 3.9078964069485664
leaf_count=10 21 30 29 21 23
internal_value=0.0494888 -0.0645899 0.0894434 0.0591696 -0.130972
internal_weight=40.7512 10.5704 30.1808 18.7448 7.55127
internal_count=134 63 71 50 53
is_linear=0
shrinkage=0.1


Tree=8
num_leaves=6
num_cat=0
split_feature=1 3 47 22 38
split_gain=16.5433 7.95416 7.15648 1.67114 0.0750573
threshold=0.050852799788117416 0.38160248100757604 0.33768032491207128 -8.1451909542083722 0.54976528882980358
decision_type=2 2 2 2 2
left_child=1 -1 -2 -4 -3
right_child=2 4 3 -5 -6
leaf_value=0.06937667181048944 0.0069651705694770112 -0.11855471394388457 0.14573031007678813 0.089112713654236161 -0.14063528294105826
leaf_weight=2.9859597608447057 8.9381753653287905 4.5884627550840378 9.1943058371543902 12.040103524923323 2.3167766779661179
leaf_count=9 29 38 16 27 15
internal_value=0.0452384 -0.0669937 0.0820305 0.113628 -0.125963
internal_weight=40.0638 9.8912 30.1726 21.2344 6.90524
internal_count=134 62 72 43 53
is_linear=0
shrinkage=0.1


Tree=9
num_leaves=6
num_cat=0
split_feature=1 3 47 10 38
split_gain=13.7355 7.00773 6.01342 1.43799 0.0544186
threshold=0.050852799788117416 0.38160248100757604 0.33768032491207128 -0.025254902429878708 0.54976528882980358
decision_type=2 2 2 2 2
left_child=1 -1 -2 -4 -3
right_child=2 4 3 -5 -6
leaf_value=0.062031836772601837 0.0062592084673423051 -0.11657385970466605 0.079335348678546969 0.13192689434386407 -0.13608298336081778
leaf_weight=3.004476919770239 8.9509534388780612 4.2187299877405167 10.975456312298776 9.8784910738468152 2.1627895534038544
leaf_count=9 29 38 25 18 15
internal_value=0.0415981 -0.0638972 0.0748201 0.104248 -0.123186
internal_weight=39.1909 9.386 29.8049 20.8539 6.38152
internal_count=134 62 72 43 53
is_linear=0
shrinkage=0.1


Tree=10
num_leaves=6
num_cat=0
split_feature=1 8 47 4 28
split_gain=11.4386 6.4131 5.08485 1.39022 0.0350809
threshold=0.050852799788117416 52.681449890136726 0.33768032491207128 0.55310067534446727 7431.0000000000009
decision_type=2 2 2 2 2
left_child=1 4 -2 -4 -1
right_child=2 -3 3 -5 -6
leaf_value=-0.12906212234484538 0.0056257650273569271 0.059788600073819809 0.069636894497047561 0.12183555591150215 -0.11364873491872947
leaf_weight=2.7004841789603216 8.9622896909713763 2.9431579932570457 10.108108803629877 10.30288043618202 3.2582823634147644
leaf_count=19 29 9 23 20 34
internal_value=0.0383202 -0.0609826 0.068415 0.0959853 -0.120634
internal_weight=38.2752 8.90192 29.3733 20.411 5.95877
internal_count=134 62 72 43 53
is_linear=0
shrinkage=0.1


Tree=11
num_leaves=6
num_cat=0
split_feature=1 3 10 11 38
split_gain=9.53715 5.93805 4.68019 7.0083 0.0381208
threshold=0.050852799788117416 0.38160248100757604 0.014399962965399029 0.34805761277675634 0.54509490728378307
decision_type=2 2 2 2 2
left_child=1 -1 3 -2 -3
right_child=2 4 -4 -5 -6
leaf_value=0.056393052396415726 0.096706408816650019 -0.11333034423598304 0.1135301062025719 -0.028825190696676911 -0.13060802648623007
leaf_weight=2.9409046620130521 8.4755449295043999 3.4720552265644073 11.106470078229902 9.3577035516500455 2.0199151337146759
leaf_count=9 19 37 23 30 16
internal_value=0.0353029 -0.058279 0.0625722 0.0308358 -0.119685
internal_weight=37.3726 8.43288 28.9397 17.8332 5.49197
internal_count=134 62 72 49 53
is_linear=0
shrinkage=0.1


Tree=12
num_leaves=6
num_cat=0
split_feature=50 50 51 0 28
split_gain=8.87664 10.2343 8.98118 0.33408 0.0032188
threshold=0.449917882680893 0.53675794601440441 0.4964964240789414 0.086662732064723982 14726.500000000002
decision_type=2 2 2 2 2
left_child=-1 2 -2 4 -4
right_child=1 -3 3 -5 -6
leaf_value=0.091850852805334671 0.060676668074793827 0.063935028267411584 -0.11450474824447768 -0.15263614739622289 -0.10876319500010086
leaf_weight=14.904356420040129 3.4615966975688952 10.277429044246672 1.9117616564035418 4.0189457535743713 1.9957039207220075
leaf_count=33 9 26 20 19 27
internal_value=0.0324503 -0.00841319 -0.0737059 -0.132393 -0.111572
internal_weight=36.5698 21.6654 11.388 7.92641 3.90747
internal_count=134 101 75 66 47
is_linear=0
shrinkage=0.1


Tree=13
num_leaves=6
num_cat=0
split_feature=0 13 11 8 36
split_gain=7.72275 10.2792 3.79421 6.40945 0.235002
threshold=0.13573820143938067 94.915538787841811 0.34805761277675634 50.383008956909187 0.31735396385192877
decision_type=2 2 2 2 2
left_child=1 4 -2 -4 -1
right_child=2 -3 3 -5 -6
leaf_value=-0.14910085772685794 0.11003903788760785 0.11000501138538972 -0.041810249847231862 0.078149677627039629 -0.10850555702002074
leaf_weight=2.9561543948948366 8.7298275530338305 2.6107288748025894 7.4310907274484661 11.117473676800726 2.7549374438822269
leaf_count=18 18 6 26 27 39
internal_value=0.0299508 -0.0543749 0.055676 0.0300903 -0.129518
internal_weight=35.6002 8.32182 27.2784 18.5486 5.71109
internal_count=134 63 71 53 57
is_linear=0
shrinkage=0.1


Tree=14
num_leaves=5
num_cat=0
split_feature=47 45 51 18
split_gain=7.09891 9.54009 13.2844 1.16438
threshold=0.29741360247135168 0.46722048521041876 0.57476735115051281 -0.0048139154678210607
decision_type=2 2 2 2
left_child=-1 -2 3 -3
right_child=1 2 -4 -5
leaf_value=-0.075466794259558087 0.09507809693931929 -0.080125859274893796 0.089544188944193068 -0.16627294508040985
leaf_weight=5.6093384586274615 17.2030373364687 3.2793055735528478 5.690459817647934 3.0082547292113277
leaf_count=25 38 30 13 28
internal_value=0.0275626 0.0473674 -0.0211555 -0.121343
internal_weight=34.7904 29.1811 11.978 6.28756
internal_count=134 109 71 58
is_linear=0
shrinkage=0.1


Tree=15
num_leaves=6
num_cat=0
split_feature=50 35 6 4 38
split_gain=5.95387 7.55162 9.7293 1.03325 0.713586
threshold=0.449917882680893 0.42951147258281713 54.323593139648445 0.93320775032043468 0.50488662719726574
decision_type=2 2 2 2 2
left_child=-1 -2 3 -3 -5
right_child=1 2 -4 4 -6
leaf_value=0.075451530064231886 0.11514174434447395 -0.16229478161303942 0.032740200983307814 -0.043866596530495933 -0.13081801845496549
leaf_weight=14.001414924859999 3.8878092020750072 3.6241948157548896 8.4840260744094831 1.8789646588265898 1.8964264057576654
leaf_count=33 8 19 34 19 21
internal_value=0.0255575 -0.00977576 -0.0403516 -0.124155 -0.0875434
internal_weight=33.7728 19.7714 15.8836 7.39959 3.77539
internal_count=134 101 93 59 40
is_linear=0
shrinkage=0.1


Tree=16
num_leaves=5
num_cat=0
split_feature=47 45 51 18
split_gain=5.4204 7.64445 10.9049 1.21507
threshold=0.29741360247135168 0.46722048521041876 0.57476735115051281 -0.014909605029970406
decision_type=2 2 2 2
left_child=-1 -2 3 -3
right_child=1 2 -4 -5
leaf_value=-0.067910226353029388 0.085275750738275133 -0.060699193034351895 0.079610650845700404 -0.15486379906381914
leaf_weight=5.4076845981180659 16.308283492922786 2.2516488395631322 5.4263537377119064 3.5009925439953777
leaf_count=25 38 23 13 35
internal_value=0.0236088 0.0416137 -0.022082 -0.118007
internal_weight=32.895 27.4873 11.179 5.75264
internal_count=134 109 71 58
is_linear=0
shrinkage=0.1


Tree=17
num_leaves=6
num_cat=0
split_feature=37 50 38 6 21
split_gain=4.96129 9.09835 7.20311 6.13724 6.00518
threshold=0.49141882359981542 0.449917882680893 0.58122947812080394 54.323593139648445 -0.01243777899071574
decision_type=2 2 2 2 2
left_child=2 -2 -1 4 -3
right_child=1 3 -4 -5 -6
leaf_value=-0.13686645687164931 0.12916920374083032 0.037749908562710113 0.051503507446957614 0.058565444212150465 -0.14666180010282742
leaf_weight=4.1869883649051207 8.3340838998556155 3.0850974656641492 3.9405001401901245 8.2246213182806951 4.1293776258826238
leaf_count=32 17 13 13 27 32
internal_value=0.0219092 0.0449677 -0.0455379 -0.000484563 -0.0678026
internal_weight=31.9007 23.7732 8.12749 15.4391 7.21448
internal_count=134 89 45 72 45
is_linear=0
shrinkage=0.1


Tree=18
num_leaves=6
num_cat=0
split_feature=10 47 11 44 36
split_gain=4.4197 6.52317 6.66804 5.98398 5.49082
threshold=0.014399962965399029 0.33768032491207128 0.34805761277675634 0.55832272768020641 0.15447124093770984
decision_type=2 2 2 2 2
left_child=1 -1 -3 -4 -2
right_child=4 2 3 -5 -6
leaf_value=-0.10474140142117178 0.12960909568500542 0.11798775704031426 -0.10654599263744269 0.058806237399056632 -0.0070617172125451919
leaf_weight=5.2199840359389844 6.5445905625820142 5.0511390566825858 4.5083134882152063 4.2535676136612892 5.3365632817149162
leaf_count=32 15 11 32 14 30
internal_value=0.0203651 -0.00950887 0.0264798 -0.0262736 0.0682218
internal_weight=30.9142 19.033 13.813 8.76188 11.8812
internal_count=134 89 57 46 45
is_linear=0
shrinkage=0.1


Tree=19
num_leaves=6
num_cat=0
split_feature=47 45 51 18 21
split_gain=3.88334 5.00631 8.80552 1.46404 0.267264
threshold=0.29741360247135168 0.46722048521041876 0.57476735115051281 -0.025372440926730629 0.014092037454247476
decision_type=2 2 2 2 2
left_child=-1 -2 3 -3 -5
right_child=1 2 -4 4 -6
leaf_value=-0.060852767479549999 0.072397791866579006 -0.035247712391059796 0.073511117602639883 -0.17595037478975342 -0.11976559633260642
leaf_weight=5.0687548629939583 14.753045171499254 1.656870368868115 5.1369735896587372 1.8235854208469349 1.5803791433572767
leaf_count=25 38 18 13 16 24
internal_value=0.0189452 0.0351562 -0.0187209 -0.11234 -0.149865
internal_weight=30.0196 24.9509 10.1978 5.06083 3.40396
internal_count=134 109 71 58 40
is_linear=0
shrinkage=0.1


Tree=20
num_leaves=6
num_cat=0
split_feature=10 37 50 36 16
split_gain=3.9738 5.48828 7.69509 4.51033 3.57719
threshold=0.014399962965399029 0.49800191819667822 0.449917882680893 0.15447124093770984 -0.23284095525741574
decision_type=2 2 2 2 2
left_child=1 -1 -3 -2 -4
right_child=3 2 4 -5 -6
leaf_value=-0.10597707174554923 0.12236831450445347 0.12920568654229034 0.038962589865199015 -0.004448316580334794 -0.089004690911378845
leaf_weight=4.5952750984579387 6.093298636376856 4.3851732909679404 3.8985932655632514 5.1960214115679264 4.9682937934994662
leaf_count=29 15 10 14 30 36
internal_value=0.0175657 -0.0118061 0.0208486 0.0639997 -0.03274
internal_weight=29.1367 17.8473 13.2521 11.2893 8.86689
internal_count=134 89 60 45 50
is_linear=0
shrinkage=0.1


Tree=21
num_leaves=6
num_cat=0
split_feature=11 10 50 28 2
split_gain=3.3504 5.11619 4.92755 3.24055 0.365516
threshold=0.34805761277675634 0.027680993080139164 0.41530802845954901 29.005930900573734 0.12168866395950319
decision_type=2 2 2 2 2
left_child=-1 2 -2 -4 -5
right_child=1 -3 3 4 -6
leaf_value=0.070083163028803172 0.034497842199485568 0.054487628150924741 -0.0022945640988834269 -0.11343162333745943 -0.16833075383938745
leaf_weight=8.2338957004249114 4.4873629808425921 8.3016494158655387 2.3626548424363136 2.1317710373550653 2.813174843788147
leaf_count=26 13 37 10 35 13
internal_value=0.0163578 -0.00565438 -0.0479841 -0.0986337 -0.144664
internal_weight=28.3305 20.0966 11.795 7.3076 4.94495
internal_count=134 108 71 58 48
is_linear=0
shrinkage=0.1


Tree=22
num_leaves=7
num_cat=0
split_feature=47 3 5 10 3 37
split_gain=3.1021 3.91114 5.53074 2.37166 1.58889 2.13282
threshold=0.29741360247135168 0.96661928296089183 1.1708402037620547 0.014399962965399029 1.1883032917976382 0.51413434743881237
decision_type=2 2 2 2 2 2
left_child=-1 3 4 -2 5 -3
right_child=1 2 -4 -5 -6 -7
leaf_value=-0.057978242361091462 0.025264302195481425 -0.13515937542210235 0.072521117421256456 0.10458069335863728 -0.17924585862747092 0.043611845729612506
leaf_weight=4.8085043318569687 8.8169538453221339 1.4818530362099402 3.1223209053277969 6.585734322667121 1.6498011872172353 1.2141554839909074
leaf_count=25 32 31 8 17 8 13
internal_value=0.0150324 0.0303826 -0.029006 0.0591776 -0.10195 -0.0546492
internal_weight=27.6793 22.8708 7.46813 15.4027 4.34581 2.69601
internal_count=134 109 60 49 52 44
is_linear=0
shrinkage=0.1


Tree=23
num_leaves=6
num_cat=0
split_feature=37 50 38 19 44
split_gain=3.02597 5.95826 5.11392 4.40429 2.52905
threshold=0.49141882359981542 0.449917882680893 0.58122947812080394 2.2951124906539921 0.57758751511573803
decision_type=2 2 2 2 2
left_child=2 -2 -1 4 -3
right_child=1 3 -4 -5 -6
leaf_value=-0.12484942838862895 0.11219309240109948 0.016916219230389679 0.045118086436761629 0.066295306360216813 -0.097670403154783272
leaf_weight=3.63819710351527 6.5317117869854 3.2356131412088853 3.4477158784866333 5.2942106910049915 4.7593884617090225
leaf_count=32 17 24 13 17 31
internal_value=0.0139372 0.0339882 -0.0421502 -0.0044499 -0.0512967
internal_weight=26.9068 19.8209 7.08591 13.2892 7.995
internal_count=134 89 45 72 55
is_linear=0
shrinkage=0.1


Tree=24
num_leaves=5
num_cat=0
split_feature=10 37 47 36
split_gain=2.79053 4.01439 7.04103 3.58305
threshold=0.014399962965399029 0.49800191819667822 0.39654390513896948 0.15447124093770984
decision_type=2 2 2 2
left_child=1 -1 -3 -2
right_child=3 2 -4 -5
leaf_value=-0.096344513657987421 0.11067411100155727 -0.10308443446230441 0.06679583860728798 -0.0086370716617697758
leaf_weight=4.245156127959496 5.3132146522402746 3.4494747146964064 8.3351173661649209 4.7828071769326925
leaf_count=29 15 26 34 30
internal_value=0.0129716 -0.0129655 0.0170701 0.0541526
internal_weight=26.1258 16.0297 11.7846 10.096
internal_count=134 89 60 45
is_linear=0
shrinkage=0.1


Tree=25
num_leaves=5
num_cat=0
split_feature=11 10 8 7
split_gain=2.83535 3.72827 3.86303 1.94258
threshold=0.34805761277675634 0.027680993080139164 50.383008956909187 44.160831451416023
decision_type=2 2 2 2
left_child=-1 2 3 -2
right_child=1 -3 -4 -5
leaf_value=0.063530127762945143 -0.039117943366580719 0.044523525376603847 0.018799933301420498 -0.15589983156305401
leaf_weight=7.5263168849051025 2.59967182390392 7.4457218497991553 4.744177246466279 3.150686452165246
leaf_count=26 18 37 19 34
internal_value=0.0120143 -0.00959771 -0.0479959 -0.103104
internal_weight=25.4666 17.9403 10.4945 5.75036
internal_count=134 108 71 52
is_linear=0
shrinkage=0.1


Tree=26
num_leaves=6
num_cat=0
split_feature=36 37 50 36 38
split_gain=2.78197 3.05214 4.37758 4.63833 3.56629
threshold=0.40329217910766607 0.49141882359981542 0.449917882680893 0.15447124093770984 0.57583865523338329
decision_type=2 2 2 2 2
left_child=1 4 -3 -4 -1
right_child=-2 2 3 -5 -6
leaf_value=-0.15268159091558364 0.089926302119598261 0.10099679098081166 0.028049930432236421 -0.11126153329278038 0.010513236842941864
leaf_weight=2.5907090622931781 3.7872375212609759 4.610695391893386 7.7836156468838436 3.4489363543689251 2.7716791220009327
leaf_count=29 13 14 31 35 12
internal_value=0.0109799 -0.00311959 0.018952 -0.0147254 -0.0683304
internal_weight=24.9929 21.2056 15.8432 11.2326 5.36239
internal_count=134 121 80 66 41
is_linear=0
shrinkage=0.1


Tree=27
num_leaves=6
num_cat=0
split_feature=47 5 28 11 44
split_gain=3.47588 2.94251 3.64136 3.3969 2.00921
threshold=0.28956244885921484 1.1460522413253786 869.00000000000011 0.38274087011814123 0.30771754682064062
decision_type=2 2 2 2 2
left_child=-1 2 -2 -4 -5
right_child=1 -3 3 4 -6
leaf_value=-0.081913422233708566 0.042430413019115189 0.086539746690845798 0.050572679211156595 -0.016516095743704953 -0.1639307053319054
leaf_weight=3.5040561184287098 9.0269538369029778 5.7559334784746161 1.9319183826446522 1.445164570584893 2.5666732275858521
leaf_count=22 37 17 7 14 37
internal_value=0.0102012 0.0257742 0.00241102 -0.0583676 -0.110828
internal_weight=24.2307 20.7266 14.9707 5.94376 4.01184
internal_count=134 112 95 58 51
is_linear=0
shrinkage=0.1


Tree=28
num_leaves=5
num_cat=0
split_feature=47 11 10 18
split_gain=2.90986 2.5779 3.83953 3.945
threshold=0.28956244885921484 0.34805761277675634 -0.025254902429878708 -0.011337208095937966
decision_type=2 2 2 2
left_child=-1 -2 -3 -4
right_child=1 2 3 -5
leaf_value=-0.07625943294610836 0.083527475076262986 -0.062349164496415269 0.11789180632654069 -0.014490143778841039
leaf_weight=3.3933903872966793 5.3241920135915306 5.6621498251333859 3.9443438770249513 5.2436996679752985
leaf_count=22 19 39 16 38
internal_value=0.00941675 0.0238277 0.00242378 0.0423402
internal_weight=23.5678 20.1744 14.8502 9.18804
internal_count=134 112 93 54
is_linear=0
shrinkage=0.1


Tree=29
num_leaves=5
num_cat=0
split_feature=19 38 37 47
split_gain=2.33563 3.82865 3.4749 0.48363
threshold=2.2951124906539921 0.55718678236007702 0.5007949471473695 0.55750405788421642
decision_type=2 2 2 2
left_child=1 2 3 -1
right_child=-2 -3 -4 -5
leaf_value=-0.091600847135291763 0.063346998983671826 0.035878566261347902 0.0083196250721344484 -0.15931869697358952
leaf_weight=2.4042886495590263 5.8476932235062113 8.8516477243974787 3.9989367444068193 1.8787787165492771
leaf_count=27 23 38 29 17
internal_value=0.00877792 -0.00984643 -0.0587164 -0.121305
internal_weight=22.9813 17.1337 8.282 4.28307
internal_count=134 111 73 44
is_linear=0
shrinkage=0.1


Tree=30
num_leaves=6
num_cat=0
split_feature=5 40 22 36 0
split_gain=2.14321 3.27478 5.18591 3.44837 1.31417
threshold=1.1460522413253786 1.0000000180025095e-35 -10.894717216491697 0.1201286129653454 0.28400671482086187
decision_type=2 2 2 2 2
left_child=1 3 -3 -1 -4
right_child=-2 2 4 -5 -6
leaf_value=0.10216599573387691 0.060234962153776044 0.05168137989487176 -0.057426318807489898 -0.031277143853877136 -0.15256790659137046
leaf_weight=3.9932005405426088 5.8287149965763083 3.1696370318532026 2.7703377231955475 3.7598941754549742 3.0503866299986839
leaf_count=11 22 20 25 39 17
internal_value=0.00800954 -0.0101711 -0.0512405 0.0374522 -0.107286
internal_weight=22.5722 16.7435 8.99036 7.75309 5.82072
internal_count=134 112 62 50 42
is_linear=0
shrinkage=0.1


Tree=31
num_leaves=6
num_cat=0
split_feature=24 40 1 51 36
split_gain=2.14533 5.42444 2.94873 0.891526 0.03955
threshold=1.0000000180025095e-35 0.15000000223517421 0.1407488286495209 0.54662689566612255 0.16184237599372867
decision_type=2 2 2 2 2
left_child=1 3 4 -1 -2
right_child=2 -3 -4 -5 -6
leaf_value=0.047904485639746634 -0.1368577213575867 -0.051574750621858748 0.0065994548454370921 0.1113730654812722 -0.11169035387078939
leaf_weight=4.6101776827126759 1.1890515871345981 5.0371652264147988 5.6854308098554611 4.2566349357366562 1.3149182163178919
leaf_count=29 9 29 21 13 33
internal_value=0.00738042 0.0312955 -0.0332227 0.0783734 -0.123641
internal_weight=22.0934 13.904 8.1894 8.86681 2.50397
internal_count=134 71 63 42 42
is_linear=0
shrinkage=0.1


Tree=32
num_leaves=6
num_cat=0
split_feature=10 7 47 11 23
split_gain=1.86791 2.94096 2.56522 3.03237 3.62578
threshold=0.014399962965399029 52.439002990722663 0.33768032491207128 0.34805761277675634 0.20681782811880114
decision_type=2 2 2 2 2
left_child=2 -2 -1 -4 -5
right_child=1 -3 3 4 -6
leaf_value=-0.085433769389683653 0.10629142980340645 -0.013686271342316512 0.090685694286651186 0.045681362973183967 -0.10527642201247552
leaf_weight=3.8216727152466801 3.9654233735054714 4.2145292144268751 3.2119467407464963 3.2380008129402995 3.1281851893290877
leaf_count=32 26 19 11 19 27
internal_value=0.00682024 0.0444757 -0.0161667 0.0114709 -0.0284955
internal_weight=21.5798 8.17995 13.3998 9.57813 6.36619
internal_count=134 45 89 57 46
is_linear=0
shrinkage=0.1


Tree=33
num_leaves=8
num_cat=0
split_feature=50 19 3 35 5 3 24
split_gain=1.8209 2.73721 2.61396 1.08532 0.203769 0.0262687 0.000234083
threshold=0.41530802845954901 2.2951124906539921 0.5755787491798402 0.49282763898372656 0.96026387810707103 1.0673077106475832 0.29136463999748236
decision_type=2 2 2 2 2 2 2
left_child=-1 2 -2 -4 -5 6 -6
right_child=1 -3 3 4 5 -7 -8
leaf_value=0.047613105056132907 0.0079268694114428308 0.046650451032795637 -0.033033918282629825 -0.16837216259209603 -0.10265159385896171 -0.12771199870890187 -0.10563016026203725
leaf_weight=7.0847783088684109 4.4460890702903253 4.7693453449755898 1.6124901883304117 1.1227700114250185 0.52778379060327985 0.85646896064281453 0.52761127008125186
leaf_count=27 23 21 11 5 24 6 17
internal_value=0.00637136 -0.0147062 -0.0468874 -0.0993305 -0.134558 -0.1147 -0.104141
internal_weight=20.9473 13.8626 9.09321 4.64712 3.03463 1.91186 1.0554
internal_count=134 107 86 63 52 47 41
is_linear=0
shrinkage=0.1


Tree=34
num_leaves=6
num_cat=0
split_feature=36 37 9 9 43
split_gain=1.70822 1.92948 3.29726 3.17291 2.92376
threshold=0.40329217910766607 0.49141882359981542 -0.050462314859032624 -0.036956723779439919 0.48749999701976782
decision_type=2 2 2 2 2
left_child=1 3 -3 -1 -4
right_child=-2 2 4 -5 -6
leaf_value=-0.15963642732419203 0.076812889530719491 0.089712622778876649 0.033927468637404472 0.010306044396201551 -0.079169780345781066
leaf_weight=1.9226692719385026 2.9084255136549464 3.9585356637835529 4.8397860471159166 2.5633890945464435 4.3315586438402534
leaf_count=20 13 21 21 21 38
internal_value=0.00581254 -0.00590976 0.0134353 -0.0625292 -0.0194875
internal_weight=20.5244 17.6159 13.1299 4.48606 9.17134
internal_count=134 121 80 41 59
is_linear=0
shrinkage=0.1


Tree=35
num_leaves=6
num_cat=0
split_feature=24 40 45 1 37
split_gain=1.62973 4.07912 2.61941 0.646367 0.368469
threshold=1.0000000180025095e-35 0.15000000223517421 0.44775684177875524 0.20422694832086566 0.50596606731414806
decision_type=2 2 2 2 2
left_child=1 3 -2 -1 -4
right_child=2 -3 4 -5 -6
leaf_value=0.040896921005632476 0.0096343758563881832 -0.046231204976642314 -0.076103485630236903 0.098377000361706435 -0.15406287392595636
leaf_weight=3.680794180370869 5.0027945619076482 4.7123228819109499 1.1582446652464571 4.1757525056600571 1.2721616206690667
leaf_count=25 22 29 22 17 19
internal_value=0.00537616 0.0273274 -0.0317414 0.0714476 -0.11691
internal_weight=20.0021 12.5689 7.4332 7.85655 2.43041
internal_count=134 71 63 42 41
is_linear=0
shrinkage=0.1


Tree=36
num_leaves=6
num_cat=0
split_feature=47 5 8 22 18
split_gain=1.71358 2.37624 3.07612 2.98478 3.00983
threshold=0.29741360247135168 0.30959793925285345 50.383008956909187 -10.894717216491697 0.030540285632014278
decision_type=2 2 2 2 2
left_child=-1 -2 3 -3 -5
right_child=1 2 -4 4 -6
leaf_value=-0.055520922335212754 -0.056164402747164423 0.073641238920287053 0.090324211765934248 -0.14521887536997596 0.032625645298210722
leaf_weight=3.7819585418328669 3.2950717061758033 2.6136334589682519 6.0781349344179034 2.1065878621302532 1.7356771612539885
leaf_count=25 19 20 26 28 16
internal_value=0.00495341 0.0194022 0.0392679 -0.00880087 -0.0648807
internal_weight=19.6111 15.8291 12.534 6.4559 3.84227
internal_count=134 109 90 64 44
is_linear=0
shrinkage=0.1


Tree=37
num_leaves=5
num_cat=0
split_feature=47 45 51 18
split_gain=2.20817 1.84362 4.39211 0.744437
threshold=0.28956244885921484 0.46722048521041876 0.54662689566612255 -0.018231073394417759
decision_type=2 2 2 2
left_child=-1 -2 3 -3
right_child=1 2 -4 -5
leaf_value=-0.074092787369807386 0.048841543320467959 -0.034297744875335399 0.057118370954318078 -0.13557436391610903
leaf_weight=3.0015153205022242 9.129023917019369 1.0746176023967602 3.5782698094844818 2.2358831553719893
leaf_count=22 39 22 14 37
internal_value=0.00462081 0.0193707 -0.0196843 -0.102699
internal_weight=19.0193 16.0178 6.88877 3.3105
internal_count=134 112 73 59
is_linear=0
shrinkage=0.1


Tree=38
num_leaves=6
num_cat=0
split_feature=47 22 8 3 43
split_gain=1.84807 1.7126 3.18438 1.88425 2.97994
threshold=0.28956244885921484 -10.894717216491697 47.426729202270515 0.71368807554245006 0.53749999403953563
decision_type=2 2 2 2 2
left_child=-1 -2 -3 -4 -5
right_child=1 2 3 4 -6
leaf_value=-0.0689206587213234 0.077716278235051076 -0.07536525614483594 0.07509567089434066 -0.12203555876580628 0.069294959614862817
leaf_weight=2.9090584870427874 3.661989105865362 3.8447870351374105 4.7986484915018064 1.5795621424913409 1.6796210110187528
leaf_count=22 26 24 19 37 6
internal_value=0.0042397 0.0179135 -0.000485533 0.0352433 -0.0234333
internal_weight=18.4737 15.5646 11.9026 8.05783 3.25918
internal_count=134 112 86 62 43
is_linear=0
shrinkage=0.1


Tree=39
num_leaves=5
num_cat=0
split_feature=10 7 38 37
split_gain=1.68286 2.42225 2.04178 3.45858
threshold=0.014399962965399029 52.439002990722663 0.56588095426559459 0.5007949471473695
decision_type=2 2 2 2
left_child=2 -2 3 -1
right_child=1 -3 -4 -5
leaf_value=-0.13303970924567882 0.10705748282384903 -0.01302680373252155 0.039411820347724981 0.0070771589798661605
leaf_weight=3.0138319120742398 3.1657350268214932 3.5785668538883328 3.7918474120087922 4.2399948481470346
leaf_count=35 26 19 23 31
internal_value=0.00397919 0.04334 -0.0200539 -0.0511388
internal_weight=17.79 6.7443 11.0457 7.25383
internal_count=134 45 89 66
is_linear=0
shrinkage=0.1


Tree=40
num_leaves=6
num_cat=0
split_feature=47 5 28 11 44
split_gain=1.5223 1.67851 1.93255 1.64553 0.98411
threshold=0.28956244885921484 1.1460522413253786 869.00000000000011 0.38274087011814123 0.30771754682064062
decision_type=2 2 2 2 2
left_child=-1 2 -2 -4 -5
right_child=1 -3 3 4 -6
leaf_value=-0.064753602423632359 0.030809511255759536 0.073251131227665009 0.030466278516890117 -0.017945870763185042 -0.14222569849881653
leaf_weight=2.7398863630369332 6.4641219265758973 3.8387894481420508 1.4638708531856535 0.96456976560875807 1.8770357214380053
leaf_count=22 37 17 7 14 37
internal_value=0.0036465 0.0164753 -0.00376222 -0.0556673 -0.100039
internal_weight=17.3483 14.6084 10.7696 4.30548 2.84161
internal_count=134 112 95 58 51
is_linear=0
shrinkage=0.1


Tree=41
num_leaves=5
num_cat=0
split_feature=10 36 38 37
split_gain=1.51929 2.18794 1.82239 3.03301
threshold=0.014399962965399029 0.15447124093770984 0.56588095426559459 0.5007949471473695
decision_type=2 2 2 2
left_child=2 -2 3 -1
right_child=1 -3 -4 -5
leaf_value=-0.13050503081975348 0.098406873560980282 -0.018820752716778195 0.037453118334626015 0.0044727113699237582
leaf_weight=2.7945109896827507 3.300702901557087 3.075710198841989 3.6242169514298439 4.1178432796150446
leaf_count=35 15 30 23 31
internal_value=0.00333372 0.0418613 -0.019982 -0.0500958
internal_weight=16.913 6.37641 10.5366 6.91235
internal_count=134 45 89 66
is_linear=0
shrinkage=0.1


Tree=42
num_leaves=6
num_cat=0
split_feature=24 40 3 38 7
split_gain=1.33907 2.9643 1.9701 1.33958 0.620854
threshold=1.0000000180025095e-35 0.15000000223517421 0.32245068252086645 0.54509490728378307 48.528217315673835
decision_type=2 2 2 2 2
left_child=1 4 -2 -4 -1
right_child=2 -3 3 -5 -6
leaf_value=0.097955061240573488 0.048590283787339393 -0.042290221244190865 -0.018640790713079055 -0.13150817003684365 0.035139395092088202
leaf_weight=3.2827736586332339 1.9805221147835244 3.9904646724462509 2.2109026797115803 2.005344504956156 3.0218316558748484
leaf_count=16 10 29 32 21 26
internal_value=0.00304963 0.0251569 -0.0336785 -0.0723231 0.0678472
internal_weight=16.4918 10.2951 6.19677 4.21625 6.30461
internal_count=134 71 63 53 42
is_linear=0
shrinkage=0.1


Tree=43
num_leaves=6
num_cat=0
split_feature=47 22 8 38 19
split_gain=1.3583 1.4831 2.56703 1.41226 1.0821
threshold=0.28956244885921484 -10.894717216491697 47.426729202270515 0.55718678236007702 0.70663639903068554
decision_type=2 2 2 2 2
left_child=-1 -2 -3 4 -4
right_child=1 2 3 -5 -6
leaf_value=-0.063760166235919902 0.075138638195033886 -0.072837406409389335 -0.064802187554038271 0.078367740237935968 0.046998091381661805
leaf_weight=2.5756429648026851 3.1852970947511503 3.4823932945728266 1.8428728710860016 3.3997920593246818 1.6327519584447143
leaf_count=22 26 24 32 19 11
internal_value=0.00280512 0.0154646 -0.00288675 0.0325432 -0.0122815
internal_weight=16.1188 13.5431 10.3578 6.87542 3.47562
internal_count=134 112 86 62 43
is_linear=0
shrinkage=0.1


Tree=44
num_leaves=6
num_cat=0
split_feature=10 7 22 8 15
split_gain=1.21151 1.91597 1.48377 2.31348 0.753165
threshold=0.014399962965399029 52.439002990722663 -10.894717216491697 50.383008956909187 -0.2002226114273071
decision_type=2 2 2 2 2
left_child=2 -2 -1 4 -4
right_child=1 -3 3 -5 -6
leaf_value=0.040078751796963297 0.10180268492542695 -0.012687549772757109 -0.040967351549802272 0.02393339547319798 -0.13010978676288446
leaf_weight=2.9589365967549375 2.6368178911507139 3.2797527555376291 1.5828562518581741 2.8470216430723667 2.3624169749673456
leaf_count=26 26 19 14 17 32
internal_value=0.00263812 0.0383369 -0.0190222 -0.0447684 -0.0943456
internal_weight=15.6678 5.91657 9.75123 6.79229 3.94527
internal_count=134 45 89 63 46
is_linear=0
shrinkage=0.1


Tree=45
num_leaves=6
num_cat=0
split_feature=5 24 40 50 1
split_gain=1.15753 1.76275 3.30207 1.90886 0.0974595
threshold=1.1460522413253786 1.0000000180025095e-35 0.15000000223517421 0.449917882680893 0.12834370136260989
decision_type=2 2 2 2 2
left_child=1 2 -1 -3 -5
right_child=-2 3 -4 4 -6
leaf_value=0.072969136325893885 0.050589368007356167 0.0040947058807332187 -0.063228637073531754 -0.11173439134257922 -0.15459715127057796
leaf_weight=4.275537731125949 3.7595626972615728 2.0429041609168053 3.0499395267106593 1.1810601630713793 0.96301087737083424
leaf_count=32 22 11 25 39 5
internal_value=0.00241317 -0.0133195 0.0162636 -0.0650777 -0.130986
internal_weight=15.272 11.5125 7.32548 4.18698 2.14407
internal_count=134 112 57 55 44
is_linear=0
shrinkage=0.1


Tree=46
num_leaves=6
num_cat=0
split_feature=47 5 50 40 22
split_gain=1.16313 1.29616 1.4698 2.33427 0.431118
threshold=0.28956244885921484 1.1460522413253786 0.449917882680893 1.0000000180025095e-35 2.4234508275985722
decision_type=2 2 2 2 2
left_child=-1 2 -2 -4 -5
right_child=1 -3 3 4 -6
leaf_value=-0.061761969269185479 0.043351523167186691 0.068899575557692064 0.036276145658377765 -0.056691538425503875 -0.13152865311032003
leaf_weight=2.3871489712037155 3.7797821909189206 3.2358706332743159 2.3983572749421 1.4929522345773878 1.5891385544091461
leaf_count=22 20 17 35 25 15
internal_value=0.00219862 0.0144171 -0.00462111 -0.0377071 -0.0952779
internal_weight=14.8832 12.4961 9.26023 5.48045 3.08209
internal_count=134 112 95 75 40
is_linear=0
shrinkage=0.1


Tree=47
num_leaves=6
num_cat=0
split_feature=37 50 38 6 21
split_gain=1.15511 2.26731 1.83168 1.35849 1.65489
threshold=0.49141882359981542 0.449917882680893 0.58122947812080394 54.323593139648445 -0.010981987230479716
decision_type=2 2 2 2 2
left_child=2 -2 -1 4 -3
right_child=1 3 -4 -5 -6
leaf_value=-0.11186576024458719 0.089021517479802192 0.022245981126514859 0.026275791997418186 0.02725752738626934 -0.12004195100039482
leaf_weight=1.9823541478253912 3.2221190072596055 1.4350367989391082 1.8608592278324065 4.0774938156828284 1.8991527720354504
leaf_count=32 17 14 13 27 31
internal_value=0.0020076 0.0189891 -0.0449785 -0.0114565 -0.0588012
internal_weight=14.477 10.6338 3.84321 7.41168 3.33419
internal_count=134 89 45 72 45
is_linear=0
shrinkage=0.1


Tree=48
num_leaves=6
num_cat=0
split_feature=11 3 8 10 1
split_gain=1.12776 1.58711 1.45055 1.35318 1.25548
threshold=0.34805761277675634 1.3332099914550783 52.681449890136726 -0.053027028217911713 0.29085527360439306
decision_type=2 2 2 2 2
left_child=-1 2 3 -2 -5
right_child=1 -3 -4 4 -6
leaf_value=0.044719957683376763 -0.10793897840287246 -0.098412139237211246 0.055166886267654994 -0.048340689657146142 0.08191324552412696
leaf_weight=4.2607904076576242 1.5744072538800526 1.9205285646021364 3.1703022085130215 1.764420943334698 1.2745232284069059
leaf_count=26 23 16 21 38 10
internal_value=0.00183329 -0.0169968 0.00309145 -0.0326949 0.00628738
internal_weight=13.965 9.70418 7.78365 4.61335 3.03894
internal_count=134 108 92 71 48
is_linear=0
shrinkage=0.1


Tree=49
num_leaves=8
num_cat=0
split_feature=39 3 35 19 2 51 36
split_gain=0.97622 1.92085 1.72881 1.5586 0.806501 0.00970646 0.00291937
threshold=0.93137717247009288 1.1678203940391543 0.51891258358955394 -1.2781046628952024 0.28643330931663519 0.4964964240789414 0.31735396385192877
decision_type=2 2 2 2 2 2 2
left_child=1 2 3 -1 5 -5 -7
right_child=-2 -3 -4 4 -6 6 -8
leaf_value=0.045262414159703085 0.040345683078272382 -0.085460631104686838 0.099949612813041752 -0.12368321999620749 0.00070826275907100687 -0.11347393351440796 -0.10146279935424876
leaf_weight=2.1233066148124626 4.4106460269540557 2.8275057412683964 1.6992345862090585 0.74650018662214213 0.96905297227203835 0.43547554174438119 0.37801565474364907
leaf_count=16 32 21 9 5 8 8 35
internal_value=0.00168076 -0.0168981 0.0136235 -0.0179064 -0.070941 -0.115449 -0.107893
internal_weight=13.5897 9.17909 6.35159 4.65235 2.52904 1.55999 0.813491
internal_count=134 102 81 72 56 48 43
is_linear=0
shrinkage=0.1


Tree=50
num_leaves=6
num_cat=0
split_feature=37 50 16 7 8
split_gain=0.941417 1.97061 1.58179 1.18405 1.14255
threshold=0.49141882359981542 0.449917882680893 -0.023101565428078171 48.528217315673835 54.851865768432624
decision_type=2 2 2 2 2
left_child=2 -2 -1 -3 -5
right_child=1 3 -4 4 -6
leaf_value=-0.10908621688376713 0.086576420044145105 0.031162008689763512 0.026532737183216356 -0.10571725862050857 0.008214766533482935
leaf_weight=1.7757420181296768 2.895748518407343 3.3070252621546388 1.6677224623272202 1.8701950870454314 1.6627868767827747
leaf_count=20 17 29 25 32 11
internal_value=0.00153612 0.0174311 -0.0434039 -0.0118419 -0.0520955
internal_weight=13.1792 9.73576 3.44346 6.84001 3.53298
internal_count=134 89 45 72 43
is_linear=0
shrinkage=0.1


Tree=51
num_leaves=5
num_cat=0
split_feature=11 23 10 36
split_gain=0.867754 1.2756 1.55053 1.32699
threshold=0.34805761277675634 0.20681782811880114 -0.025254902429878708 0.15447124093770984
decision_type=2 2 2 2
left_child=-1 -2 -3 -4
right_child=1 2 3 -5
leaf_value=0.040370479584811436 0.032455651098952036 -0.12505986398916297 0.046666545098258329 -0.072031243398557793
leaf_weight=3.9515272788703451 3.3649684586562199 1.7006317682098586 1.9707902744412433 1.8039854195667429
leaf_count=26 35 26 15 32
internal_value=0.00141364 -0.0159995 -0.0457782 -0.0100598
internal_weight=12.7919 8.84038 5.47541 3.77478
internal_count=134 108 73 47
is_linear=0
shrinkage=0.1


Tree=52
num_leaves=5
num_cat=0
split_feature=10 36 47 37
split_gain=0.863099 1.33606 1.26913 1.41086
threshold=0.014399962965399029 0.15447124093770984 0.33768032491207128 0.50000017881393444
decision_type=2 2 2 2
left_child=2 -2 -1 -4
right_child=1 -3 3 -5
leaf_value=-0.080374923031572246 0.088411443000980527 -0.01832356611615988 -0.062990347700138435 0.044089147587201713
leaf_weight=2.3600357356481254 2.3504586089402437 2.3406207733787596 1.8722996767610309 3.5894378121010959
leaf_count=32 15 30 26 31
internal_value=0.0012427 0.0351559 -0.0190966 0.00738198
internal_weight=12.5129 4.69108 7.82177 5.46174
internal_count=134 45 89 57
is_linear=0
shrinkage=0.1


Tree=53
num_leaves=6
num_cat=0
split_feature=24 40 45 1 23
split_gain=0.8421 1.68071 1.2795 0.435084 0.127254
threshold=1.0000000180025095e-35 0.15000000223517421 0.44775684177875524 0.20422694832086566 0.38344594836235052
decision_type=2 2 2 2 2
left_child=1 3 -2 -1 -4
right_child=2 -3 4 -5 -6
leaf_value=0.027855549957644506 0.0048514392629404315 -0.036917203200261005 -0.07515777417316237 0.089159269127242757 -0.13290578700924532
leaf_weight=2.2601309497840703 3.0518436459824443 2.9893766848836094 0.69390204129740574 2.3734748400747776 0.84782680950593203
leaf_count=25 22 29 19 17 22
internal_value=0.00116135 0.0215421 -0.0326603 0.0592572 -0.106915
internal_weight=12.2166 7.62298 4.59357 4.63361 1.54173
internal_count=134 71 63 42 41
is_linear=0
shrinkage=0.1


Tree=54
num_leaves=6
num_cat=0
split_feature=47 5 38 40 36
split_gain=0.906369 1.09965 1.05952 1.01057 1.09968
threshold=0.28956244885921484 1.1460522413253786 0.55718678236007702 0.15000000223517421 0.1201286129653454
decision_type=2 2 2 2 2
left_child=-1 2 3 4 -2
right_child=1 -3 -4 -5 -6
leaf_value=-0.059970799288567814 0.068953453699855088 0.069856895880897205 0.034740528845250529 -0.10196018584032299 -0.06782645980200229
leaf_weight=2.0217531779780993 1.1771758198738087 2.5667456313967705 3.4128534458577633 1.621590449940413 1.1739848050056023
leaf_count=22 9 17 30 21 35
internal_value=0.00107135 0.0134717 -0.00612411 -0.0412295 0.000656316
internal_weight=11.9741 9.95235 7.3856 3.97275 2.35116
internal_count=134 112 95 65 44
is_linear=0
shrinkage=0.1


Tree=55
num_leaves=9
num_cat=0
split_feature=47 5 3 43 23 1 8 38
split_gain=0.756468 0.932173 0.952547 1.10131 0.908804 0.0266215 0.00273768 5.53606e-06
threshold=0.28956244885921484 1.1460522413253786 0.96661928296089183 0.56250000000000011 0.62828946113586437 0.1407488286495209 51.931800842285163 0.50229007005691539
decision_type=2 2 2 2 2 2 2 2
left_child=-1 2 4 5 -2 6 7 -4
right_child=1 -3 3 -5 -6 -7 -8 -9
leaf_value=-0.055533512190226154 0.060470526683160587 0.065518833171291355 -0.10148049696439565 0.022191603887149382 -0.025152051427046171 -0.13675331760744699 -0.11383361007766478 -0.10223004806624313
leaf_weight=1.967892681714148 2.5451713781803829 2.468327347189188 0.20139012858271621 0.94786066561937321 2.4166934015229344 0.53377105295658112 0.36872772220522165 0.19293778773862869
leaf_count=22 17 17 20 5 25 3 5 20
internal_value=0.000984796 0.0124808 -0.00568541 -0.0597389 0.0187678 -0.119623 -0.107639 -0.101847
internal_weight=11.6428 9.67488 7.20655 2.24469 4.96186 1.29683 0.763056 0.394328
internal_count=134 112 95 53 42 48 45 40
is_linear=0
shrinkage=0.1


Tree=56
num_leaves=7
num_cat=0
split_feature=11 3 10 50 28 33
split_gain=0.813336 1.02852 1.07953 0.940121 0.876748 0.00574015
threshold=0.34805761277675634 1.3332099914550783 0.027680993080139164 0.41530802845954901 18.000000000000004 0.54806387424469005
decision_type=2 2 2 2 2 2
left_child=-1 2 3 -2 -5 -6
right_child=1 -3 -4 4 5 -7
leaf_value=0.04094156444519343 0.031446330217539287 -0.089710492098296346 0.049916034281637177 0.017206607901658254 -0.10956143730493986 -0.12176335327848958
leaf_weight=3.5022918395698071 1.3627532944083216 1.5593984425067899 2.6256297654472291 0.72448988258838687 0.72312953369691946 0.82583064585924149
leaf_count=26 9 16 34 7 36 6
internal_value=0.000891287 -0.0170429 0.00105362 -0.0342289 -0.0735961 -0.116067
internal_weight=11.3235 7.82123 6.26183 3.6362 2.27345 1.54896
internal_count=134 108 92 58 49 42
is_linear=0
shrinkage=0.1


Tree=57
num_leaves=6
num_cat=0
split_feature=39 35 39 10 23
split_gain=0.727205 1.39817 1.52074 0.721062 0.240978
threshold=0.93137717247009288 0.51891258358955394 0.33060109615325933 -0.031392319127917283 0.15949188917875293
decision_type=2 2 2 2 2
left_child=1 2 3 -1 -4
right_child=-2 -3 4 -5 -6
leaf_value=-0.045067103003223863 0.037363198703326966 0.06715530832227698 -0.058126902784279455 0.049735709306018422 -0.12080041969181249
leaf_weight=1.4877771760802718 3.6343639064580202 1.5486988332122562 0.99528894270770285 1.7412751482333986 1.5992866961751131
leaf_count=18 32 12 15 24 33
internal_value=0.000754177 -0.0172931 -0.0397508 0.00605557 -0.0967586
internal_weight=11.0067 7.37233 5.82363 3.22905 2.59458
internal_count=134 102 90 42 48
is_linear=0
shrinkage=0.1


Tree=58
num_leaves=5
num_cat=0
split_feature=11 23 10 50
split_gain=0.670607 0.942892 1.16272 1.0404
threshold=0.34805761277675634 0.20681782811880114 -0.025254902429878708 0.49967673420906072
decision_type=2 2 2 2
left_child=-1 -2 -3 -4
right_child=1 2 3 -5
leaf_value=0.03771000073749986 0.028781456812198566 -0.12031700820408948 0.05204159330918097 -0.063785344683360654
leaf_weight=3.3560704234987497 2.8559288312681019 1.4004836679669095 1.4325902052223685 1.6907349568791685
leaf_count=26 35 26 11 36
internal_value=0.000648612 -0.0162057 -0.0446066 -0.0106585
internal_weight=10.7358 7.37974 4.52381 3.12333
internal_count=134 108 73 47
is_linear=0
shrinkage=0.1


Tree=59
num_leaves=7
num_cat=0
split_feature=24 40 45 5 22 7
split_gain=0.651653 1.29697 0.525685 0.7225 0.361993 0.0883152
threshold=1.0000000180025095e-35 0.15000000223517421 0.35506352782249456 1.02087938785553 7.723302125930787 51.672883987426765
decision_type=2 2 2 2 2 2
left_child=1 4 -2 5 -1 -4
right_child=2 -3 3 -5 -6 -7
leaf_value=0.025920413549435913 0.016921054426923956 -0.034405738251652322 -0.076270055987633423 0.0093731030094956723 0.086906249944068259 -0.12377023326685357
leaf_weight=1.9347273586317899 1.4345699772238734 2.6197144667385146 0.75997135002398886 0.96161869168281544 1.9585816599428651 0.80713536543771625
leaf_count=27 13 29 32 7 15 11
internal_value=0.000539704 0.0199951 -0.0314321 -0.0588633 0.0566002 -0.100735
internal_weight=10.4763 6.51302 3.9633 2.52873 3.89331 1.56711
internal_count=134 71 63 50 42 43
is_linear=0
shrinkage=0.1


Tree=60
num_leaves=7
num_cat=0
split_feature=50 19 43 18 35 4
split_gain=0.680304 1.08805 0.952795 0.554501 0.0122513 0.00205387
threshold=0.41530802845954901 2.0231606960296635 0.46249999105930334 0.036714451387524612 0.49898281693458563 0.013974174857139589
decision_type=2 2 2 2 2 2
left_child=-1 2 -2 4 -4 -6
right_child=1 -3 3 -5 5 -7
leaf_value=0.036528360332566706 0.027799630792316093 0.029301931137944048 -0.12578855076573403 -0.024489112714591015 -0.11376465791514814 -0.10503237851368551
leaf_weight=3.4674829952418804 1.0888568889349701 2.8408238491974771 0.72228913148865137 1.0554541824385522 0.49223213363438822 0.59485913108801469
leaf_count=27 9 27 10 15 7 39
internal_value=0.000486453 -0.017907 -0.0518278 -0.0820923 -0.115694 -0.108986
internal_weight=10.262 6.79452 3.95369 2.86483 1.80938 1.08709
internal_count=134 107 80 71 56 46
is_linear=0
shrinkage=0.1


Tree=61
num_leaves=6
num_cat=0
split_feature=47 22 22 4 50
split_gain=0.678212 0.773374 1.08799 0.808679 0.504242
threshold=0.28956244885921484 -10.894717216491697 2.9898879528045659 0.93320775032043468 0.49967673420906072
decision_type=2 2 2 2 2
left_child=-1 -2 3 -3 -4
right_child=1 2 4 -5 -6
leaf_value=-0.055607008363705551 0.068826894478177442 -0.12039701103651781 0.06673515130975563 -0.0063418553739641205 -0.005892064000217725
leaf_weight=1.7800364447757608 1.8791839911136765 1.0821041138842695 1.8654308654367926 1.46093004476279 1.9607940572313962
leaf_count=22 26 13 13 33 27
internal_value=0.000373484 0.0124542 -0.00417795 -0.0548743 0.0295165
internal_weight=10.0285 8.24844 6.36926 2.54303 3.82622
internal_count=134 112 86 46 40
is_linear=0
shrinkage=0.1


Tree=62
num_leaves=6
num_cat=0
split_feature=37 9 16 21 2
split_gain=0.692215 1.31672 1.00595 0.947309 0.651817
threshold=0.49141882359981542 -0.050462314859032624 -0.023101565428078171 -0.0056186623405665151 0.15169674158096316
decision_type=2 2 2 2 2
left_child=2 -2 -1 -3 -5
right_child=1 3 -4 4 -6
leaf_value=-0.10102656576440708 0.07847929269167131 0.053689121356545022 0.022544541090752924 0.0026677113559696037 -0.085789624564362857
leaf_weight=1.4108651257120075 2.3171988218091428 1.4659106275066731 1.235848346899729 1.6219472170341762 1.7126198904588816
leaf_count=20 26 13 25 33 17
internal_value=0.000336347 0.0165725 -0.0433266 -0.0133101 -0.0427636
internal_weight=9.76439 7.11768 2.64671 4.80048 3.33457
internal_count=134 89 45 63 50
is_linear=0
shrinkage=0.1


Tree=63
num_leaves=6
num_cat=0
split_feature=39 47 28 5 38
split_gain=0.634906 1.31719 1.33189 1.0994 0.383872
threshold=0.93137717247009288 0.29741360247135168 869.00000000000011 1.1708402037620547 0.56588095426559459
decision_type=2 2 2 2 2
left_child=1 -1 -3 4 -4
right_child=-2 2 3 -5 -6
leaf_value=-0.11239027451159281 0.03735520622317634 0.067360699209399522 -0.12159783273852219 0.039864647007812531 -0.032946663801708007
leaf_weight=1.1952829090878365 3.1086798878386617 2.0252031893469393 1.0968041177839043 1.1796020269393919 0.88061911403201509
leaf_count=19 32 21 37 9 16
internal_value=0.000300253 -0.017762 0.00406409 -0.0365401 -0.0821182
internal_weight=9.48619 6.37751 5.18223 3.15703 1.97742
internal_count=134 102 83 62 53
is_linear=0
shrinkage=0.1


Tree=64
num_leaves=5
num_cat=0
split_feature=10 7 47 37
split_gain=0.592606 1.05891 0.837867 0.906054
threshold=0.014399962965399029 52.439002990722663 0.33768032491207128 0.50000017881393444
decision_type=2 2 2 2
left_child=2 -2 -1 -4
right_child=1 -3 3 -5
leaf_value=-0.078166916069775785 0.09713591647317163 -0.01495193159148901 -0.057413151983272639 0.041323660034809383
leaf_weight=1.7089101867750285 1.4724857548717412 1.9710354318376628 1.4601662278873844 2.5567174276802689
leaf_count=32 26 19 26 31
internal_value=0.000196351 0.032978 -0.0195187 0.00543212
internal_weight=9.16932 3.44352 5.72579 4.01688
internal_count=134 45 89 57
is_linear=0
shrinkage=0.1


Tree=65
num_leaves=9
num_cat=0
split_feature=50 19 43 8 51 7 2 38
split_gain=0.554491 0.901495 0.681006 0.486943 0.00717437 0.00153501 0.000327989 2.10102e-06
threshold=0.41530802845954901 2.0231606960296635 0.46249999105930334 54.851865768432624 0.4964964240789414 50.383008956909187 0.091090220957994475 0.50104254484176647
decision_type=2 2 2 2 2 2 2 2
left_child=-1 2 -2 4 -4 6 7 -6
right_child=1 -3 3 -5 5 -7 -8 -9
leaf_value=0.035431235520719931 0.02316827645102118 0.028110684885589116 -0.12080184898435953 -0.023415200257911741 -0.10103810860853822 -0.11219401012217259 -0.10642186144301036 -0.10157580894387311
leaf_weight=2.9791567139327526 0.91761987283825908 2.5157592685427517 0.67132757045328639 1.006003512535244 0.14205713884439319 0.33920701523311436 0.22129834443330765 0.1487740472657606
leaf_count=27 9 27 6 12 19 7 6 21
internal_value=0.000202232 -0.0174012 -0.0506245 -0.077403 -0.113072 -0.106977 -0.103521 -0.101313
internal_weight=8.9412 5.96205 3.44629 2.52867 1.52266 0.851337 0.51213 0.290831
internal_count=134 107 80 71 59 53 46 40
is_linear=0
shrinkage=0.1


Tree=66
num_leaves=6
num_cat=0
split_feature=4 4 18 10 6
split_gain=0.521551 0.929812 0.739839 0.844134 0.669043
threshold=1.3332099914550783 1.02087938785553 -0.011337208095937966 -0.031392319127917283 54.323593139648445
decision_type=2 2 2 2 2
left_child=1 2 3 -1 -4
right_child=-2 -3 4 -5 -6
leaf_value=-0.016957936588471782 -0.055457832057691892 0.091744307037531725 -0.11361042238624997 0.076538331523108988 -0.00068982149490516044
leaf_weight=2.4236642900505099 1.4155427012592552 1.1900421958416698 0.97406696301186579 1.6052238696720444 1.1373441098257897
leaf_count=36 17 9 29 22 21
internal_value=0.000113054 0.0108442 -0.00483493 0.0202936 -0.052784
internal_weight=8.74588 7.33034 6.1403 4.02889 2.11141
internal_count=134 117 108 58 50
is_linear=0
shrinkage=0.1


Tree=67
num_leaves=6
num_cat=0
split_feature=4 0 51 18 43
split_gain=0.519919 0.793931 1.0734 0.121806 0.00102107
threshold=0.21202067285776141 0.13573820143938067 0.5003361999988557 -0.030845746397972103 0.56250000000000011
decision_type=2 2 2 2 2
left_child=-1 3 -3 -2 -5
right_child=1 2 -4 4 -6
leaf_value=0.04713820757644617 -0.04068648932753996 -0.032617515151217573 0.05818846483347806 -0.10463343199106315 -0.11170774468266763
leaf_weight=1.8414972978644071 0.39968850766308561 3.2784634791314602 2.1590420957654715 0.42190632791607663 0.39507819712162018
leaf_count=24 15 35 19 36 5
internal_value=0.000113019 -0.0129009 0.00343834 -0.0859234 -0.108054
internal_weight=8.49568 6.65418 5.43751 1.21667 0.816985
internal_count=134 110 54 56 41
is_linear=0
shrinkage=0.1


Tree=68
num_leaves=5
num_cat=0
split_feature=38 7 16 15
split_gain=0.516522 0.930904 0.573857 0.129454
threshold=0.55718678236007702 48.528217315673835 0.072356294840574278 -0.027545637451112267
decision_type=2 2 2 2
left_child=1 -1 -3 -2
right_child=3 2 -4 -5
leaf_value=0.020468437798741149 0.0083432508155739313 -0.11075122017145865 -0.0091332308816499241 0.046917011348665494
leaf_weight=2.5365138633642346 1.6030524166999387 1.309696684475057 0.96534006064757694 1.9026410463266072
leaf_count=37 18 39 18 22
internal_value=8.32243e-05 -0.0211883 -0.0676328 0.0292783
internal_weight=8.31724 4.81155 2.27504 3.50569
internal_count=134 94 57 40
is_linear=0
shrinkage=0.1


Tree=69
num_leaves=5
num_cat=0
split_feature=10 7 38 37
split_gain=0.481068 0.818562 0.667964 0.774687
threshold=0.014399962965399029 52.439002990722663 0.56049206852912914 0.5007949471473695
decision_type=2 2 2 2
left_child=2 -2 3 -1
right_child=1 -3 -4 -5
leaf_value=-0.11205744587472873 0.094679686341679767 -0.011958941002458444 0.024538371156165854 -0.008519887895433377
leaf_weight=1.1749155869765675 1.2269131629727783 1.7415941867511717 2.1355029651895165 1.8773607488255946
leaf_count=33 26 19 26 30
internal_value=1.04156e-05 0.0321158 -0.0183607 -0.0483747
internal_weight=8.15629 2.96851 5.18778 3.05228
internal_count=134 45 89 63
is_linear=0
shrinkage=0.1


Tree=70
num_leaves=7
num_cat=0
split_feature=47 5 4 28 8 6
split_gain=0.498779 0.653928 0.59614 0.989082 0.18815 0.0121041
threshold=0.28956244885921484 1.1460522413253786 0.25913365185260778 869.00000000000011 52.346075057983406 28.312496185302738
decision_type=2 2 2 2 2 2
left_child=-1 2 -2 -4 5 -5
right_child=1 -3 3 4 -6 -7
leaf_value=-0.055364733872566546 0.044527046888882912 0.064940943378183291 0.022540480722904946 -0.13077869898950087 -0.04945226285211473 -0.10711716205011153
leaf_weight=1.3515674849040804 1.535918633919209 1.6914752898737786 1.7209262570831927 0.36917975707910933 0.7710142491851002 0.52171635246486403
leaf_count=22 18 17 23 5 11 38
internal_value=-1.21542e-05 0.0113056 -0.00713872 -0.0305967 -0.0856208 -0.116922
internal_weight=7.9618 6.61023 4.91876 3.38284 1.66191 0.890896
internal_count=134 112 95 77 54 43
is_linear=0
shrinkage=0.1


Tree=71
num_leaves=7
num_cat=0
split_feature=11 23 33 2 19 38
split_gain=0.446046 0.665473 0.58576 0.605457 0.338698 0.0486351
threshold=0.34805761277675634 0.11294117569923402 0.55507761240005504 0.13322927057743075 -2.171037912368774 0.57041433453559887
decision_type=2 2 2 2 2 2
left_child=-1 -2 3 4 -3 -6
right_child=1 2 -4 -5 5 -7
leaf_value=0.035172783095324671 0.03859678291027116 0.0095167915194486197 -0.10444655810061224 0.036030503058768551 -0.065438513386903305 -0.11047649037729973
leaf_weight=2.456441237591207 1.5548757647629825 0.49061273119878024 1.0068889101967213 1.2503478080034254 0.40563720648060619 0.5863621705211699
leaf_count=26 23 7 15 12 37 14
internal_value=-4.60337e-05 -0.0163855 -0.0392449 -0.015223 -0.0584472 -0.0920601
internal_weight=7.75117 5.29472 3.73985 2.73296 1.48261 0.991999
internal_count=134 108 85 70 58 51
is_linear=0
shrinkage=0.1


Tree=72
num_leaves=5
num_cat=0
split_feature=10 7 47 22
split_gain=0.445255 0.708722 0.619653 0.659266
threshold=0.014399962965399029 52.439002990722663 0.33768032491207128 -10.894717216491697
decision_type=2 2 2 2
left_child=2 -2 -1 -4
right_child=1 -3 3 -5
leaf_value=-0.073612668699399239 0.093698719475651726 -0.010077452162091452 0.065993623209631619 -0.026933397320519283
leaf_weight=1.4294268703088162 1.1100225064437839 1.6163383024977518 1.161051001516171 2.2293197953840718
leaf_count=32 26 19 21 36
internal_value=-0.000122712 0.0321744 -0.0183919 0.00488997
internal_weight=7.54616 2.72636 4.8198 3.39037
internal_count=134 45 89 57
is_linear=0
shrinkage=0.1


Tree=73
num_leaves=5
num_cat=0
split_feature=24 40 37 47
split_gain=0.424829 0.854968 0.691971 0.242153
threshold=1.0000000180025095e-35 0.15000000223517421 0.49593569338321691 0.39654390513896948
decision_type=2 2 2 2
left_child=1 3 -2 -1
right_child=2 -3 -4 -5
leaf_value=0.021323061585754914 -0.10493603176767506 -0.034661319961741828 0.0021202425874122291 0.081428083250262684
leaf_weight=1.2145280967233705 0.86429476496414315 1.7832487521809524 2.0028929087566212 1.4958653834182767
leaf_count=14 26 29 37 28
internal_value=-7.55202e-05 0.0191144 -0.0301512 0.054495
internal_weight=7.36083 4.49364 2.86719 2.71039
internal_count=134 71 63 42
is_linear=0
shrinkage=0.1


Tree=74
num_leaves=7
num_cat=0
split_feature=4 4 1 51 36 7
split_gain=0.414353 0.556007 0.785465 1.09684 0.000517038 0.000237772
threshold=0.21202067285776141 0.55310067534446727 0.1407488286495209 0.57476735115051281 0.18452189117670062 57.747457504272468
decision_type=2 2 2 2 2 2
left_child=-1 -2 3 4 -3 -6
right_child=1 2 -4 -5 5 -7
leaf_value=0.046114620441659836 -0.056857397882869636 -0.10805059622970546 0.047042658277610061 0.072883075725729954 -0.10096952536245618 -0.10612012074992759
leaf_weight=1.5299634849652646 1.8876478942111132 0.64978947630152128 2.2580000516027212 0.51546375639736641 0.19552557921269909 0.16548790573142469
leaf_count=24 21 14 24 6 38 7
internal_value=-6.8873e-05 -0.0125266 0.00958628 -0.0458277 -0.106365 -0.103331
internal_weight=7.20188 5.67191 3.78427 1.52627 1.0108 0.361013
internal_count=134 110 89 65 59 45
is_linear=0
shrinkage=0.1


Tree=75
num_leaves=6
num_cat=0
split_feature=4 6 21 23 37
split_gain=0.407638 0.448748 0.454895 0.710794 0.517889
threshold=1.3332099914550783 30.253179550170902 -0.0056186623405665151 0.20681782811880114 0.5007949471473695
decision_type=2 2 2 2 2
left_child=1 -1 -3 -4 -5
right_child=-2 2 3 4 -6
leaf_value=-0.045967782223640619 -0.055286365319883415 0.065834744168619258 0.058799556061907482 0.015254204424030094 -0.092165176873747368
leaf_weight=1.1361543780658392 1.123656610958278 1.6783905499032692 1.2534701399272314 0.883306350384373 0.91244367358740419
leaf_count=23 17 27 21 23 23
internal_value=-0.000110324 0.0104629 0.0240245 0.00101078 -0.039327
internal_weight=6.98742 5.86377 4.72761 3.04922 1.79575
internal_count=134 117 94 67 46
is_linear=0
shrinkage=0.1


Tree=76
num_leaves=6
num_cat=0
split_feature=47 22 22 8 50
split_gain=0.397818 0.499285 0.697501 0.498641 0.349136
threshold=0.28956244885921484 -10.894717216491697 2.9898879528045659 50.383008956909187 0.49967673420906072
decision_type=2 2 2 2 2
left_child=-1 -2 3 -3 -4
right_child=1 2 4 -5 -6
leaf_value=-0.053935878568543427 0.067397220610800251 -0.11174052495681959 0.063631872399504394 -0.0052823050177129589 -0.0086794828514458067
leaf_weight=1.1425588604761285 1.2206568504334425 0.80232156661804743 1.3361090645194056 0.97421730903442949 1.3346901371405691
leaf_count=22 26 31 13 15 27
internal_value=-0.000105613 0.0107455 -0.0048036 -0.053361 0.0274954
internal_weight=6.81055 5.66799 4.44734 1.77654 2.6708
internal_count=134 112 86 46 40
is_linear=0
shrinkage=0.1


Tree=77
num_leaves=5
num_cat=0
split_feature=10 36 38 37
split_gain=0.38162 0.558767 0.537423 0.802635
threshold=0.014399962965399029 0.15447124093770984 0.56588095426559459 0.5007949471473695
decision_type=2 2 2 2
left_child=2 -2 3 -1
right_child=1 -3 -4 -5
leaf_value=-0.10990501537251962 0.079404149831599394 -0.017429271953276357 0.030487725241391095 0.00012024936160450427
leaf_weight=1.1109317525551889 1.2141469148918989 1.1702957861125467 1.4789814985706469 1.6445146077312527
leaf_count=35 15 30 23 31
internal_value=-0.000120495 0.0318778 -0.018139 -0.0442394
internal_weight=6.61887 2.38444 4.23443 2.75545
internal_count=134 45 89 66
is_linear=0
shrinkage=0.1


Tree=78
num_leaves=7
num_cat=0
split_feature=5 24 40 50 1 36
split_gain=0.357198 0.539204 1.00952 0.598432 0.00283361 0.000253107
threshold=1.1460522413253786 1.0000000180025095e-35 1.0000000180025095e-35 0.449917882680893 0.15595427155494693 0.078103717416524901
decision_type=2 2 2 2 2 2
left_child=1 2 -1 -3 5 -5
right_child=-2 3 -4 4 -6 -7
leaf_value=0.073350728901744183 0.042493622811807477 0.0023846749785027713 -0.041343577847648257 -0.10804447171369674 -0.11687845897540401 -0.10355613025299688
leaf_weight=1.4469803328393029 1.5052869254723189 0.90865918621420838 1.6340422573848625 0.2685832898132503 0.44698012620210648 0.23607595320208929
leaf_count=23 22 11 34 5 4 35
internal_value=-0.000154584 -0.0131466 0.0125218 -0.0556586 -0.11108 -0.105945
internal_weight=6.44661 4.94132 3.08102 1.8603 0.951639 0.504659
internal_count=134 112 57 55 44 40
is_linear=0
shrinkage=0.1


Tree=79
num_leaves=6
num_cat=0
split_feature=47 22 8 36 3
split_gain=0.35608 0.477371 0.606362 0.492582 0.474982
threshold=0.28956244885921484 -10.894717216491697 47.426729202270515 0.085265353322029128 0.96661928296089183
decision_type=2 2 2 2 2
left_child=-1 -2 -3 -4 -5
right_child=1 2 3 4 -6
leaf_value=-0.053274241190730522 0.067999228773433271 -0.059118912517442362 -0.03780342204285124 0.1042070706994464 0.001100337534582425
leaf_weight=1.0510855017928404 1.1315679129620546 1.3872652403078971 0.90607554372400079 0.89455419220030286 0.89260572027706075
leaf_count=22 26 24 13 12 37
internal_value=-0.000178084 0.0105295 -0.00540751 0.0222588 0.0527099
internal_weight=6.26315 5.21207 4.0805 2.69324 1.78716
internal_count=134 112 86 62 49
is_linear=0
shrinkage=0.1


Tree=80
num_leaves=6
num_cat=0
split_feature=37 9 38 21 2
split_gain=0.35693 0.78365 0.574249 0.457634 0.398011
threshold=0.49141882359981542 -0.050462314859032624 0.58122947812080394 -0.0056186623405665151 0.15169674158096316
decision_type=2 2 2 2 2
left_child=2 -2 -1 -3 -5
right_child=1 3 -4 4 -6
leaf_value=-0.096710347722226475 0.074105262587052675 0.045477900771807099 0.021680521138045254 0.0065966663157733044 -0.081334646382579978
leaf_weight=0.85410875707748324 1.4778716007713226 0.87581232748925675 0.78739479236537591 0.95607687626034099 1.115205015055835
leaf_count=32 26 13 13 33 17
internal_value=-9.55649e-05 0.0146781 -0.0399207 -0.0151226 -0.0407467
internal_weight=6.06647 4.42497 1.6415 2.94709 2.07128
internal_count=134 89 45 63 50
is_linear=0
shrinkage=0.1


Tree=81
num_leaves=8
num_cat=0
split_feature=47 5 4 28 8 19 1
split_gain=0.310028 0.436938 0.422529 0.647637 0.140755 0.00359062 0.000298888
threshold=0.28956244885921484 1.1460522413253786 0.25913365185260778 869.00000000000011 52.346075057983406 -4.9413084983825675 0.12834370136260989
decision_type=2 2 2 2 2 2 2
left_child=-1 2 -2 -4 5 -5 -7
right_child=1 -3 3 4 -6 6 -8
leaf_value=-0.050507391936133239 0.043960400157294618 0.062579407812500917 0.02161630438949259 -0.12000619685463526 -0.045014657131658281 -0.102385371566154 -0.1079749809622067
leaf_weight=1.0109348525293169 1.1304318369366231 1.2050204686820505 1.2486163163557651 0.28321767551824428 0.61128066526725888 0.1931782184401527 0.18950991705060005
leaf_count=22 18 17 23 3 11 37 3
internal_value=-0.000121067 0.0103572 -0.00685424 -0.0295965 -0.0796637 -0.11147 -0.105153
internal_weight=5.87219 4.86126 3.65623 2.5258 1.27719 0.665906 0.382688
internal_count=134 112 95 77 54 43 40
is_linear=0
shrinkage=0.1


Tree=82
num_leaves=7
num_cat=0
split_feature=11 5 51 50 28 10
split_gain=0.332677 0.418409 0.680604 0.567811 0.0694942 0.000355285
threshold=0.34805761277675634 0.30959793925285345 0.60907375812530529 0.4918427467346192 66.500000000000014 0.051259225234389312
decision_type=2 2 2 2 2 2
left_child=-1 -2 3 -3 -5 -6
right_child=1 2 -4 4 5 -7
leaf_value=0.035071768283321647 -0.075025842738847284 0.014129408012478875 0.089305370151462449 -0.038572868621072474 -0.10221432060870397 -0.10704309392554484
leaf_weight=1.8256743578240273 0.93380915326997671 1.4238748867064721 0.68294155504554499 0.20659496448934067 0.24620449791837018 0.39980091876350343
leaf_count=26 16 20 10 5 37 20
internal_value=-0.000148953 -0.0166652 0.00174979 -0.0245169 -0.0890576 -0.105203
internal_weight=5.7189 3.89323 2.95942 2.27648 0.8526 0.646005
internal_count=134 108 92 82 62 57
is_linear=0
shrinkage=0.1


Tree=83
num_leaves=5
num_cat=0
split_feature=10 36 47 37
split_gain=0.345958 0.46445 0.422362 0.471175
threshold=0.014399962965399029 0.15447124093770984 0.33768032491207128 0.50000017881393444
decision_type=2 2 2 2
left_child=2 -2 -1 -4
right_child=1 -3 3 -5
leaf_value=-0.073089106650852734 0.080609148624190607 -0.015504798989320296 -0.054118996754730656 0.035827419142968601
leaf_weight=1.0252249311888593 1.0138369714841249 0.99736276210751373 0.9160918123670857 1.5988074551569296
leaf_count=32 15 30 26 31
internal_value=-0.000174548 0.0329458 -0.0189907 0.00306302
internal_weight=5.55132 2.0112 3.54012 2.5149
internal_count=134 45 89 57
is_linear=0
shrinkage=0.1


Tree=84
num_leaves=6
num_cat=0
split_feature=24 38 11 10 8
split_gain=0.297127 0.497463 0.328539 0.564657 0.386232
threshold=0.36531835794448858 0.46946179866790777 0.40094350278377539 0.027680993080139164 51.372020721435554
decision_type=2 2 2 2 2
left_child=1 -1 -3 4 -4
right_child=-2 2 3 -5 -6
leaf_value=-0.054330931123904413 -0.054364151901236092 0.067113942063184023 -0.087826129319311108 0.0633299200920283 0.018893843394342757
leaf_weight=0.95237672142684449 0.85203007626114402 1.3008448090404274 0.71302049109363019 0.95266397343948472 0.64670348179060966
leaf_count=20 30 19 32 22 11
internal_value=-0.000153123 0.00996369 0.0269105 0.00429384 -0.0370686
internal_weight=5.41764 4.56561 3.61323 2.31239 1.35972
internal_count=134 104 84 65 43
is_linear=0
shrinkage=0.1


Tree=85
num_leaves=9
num_cat=0
split_feature=50 19 3 35 15 18 36 9
split_gain=0.278572 0.414093 0.444412 0.0811741 0.00146271 0.000181852 0.00011437 5.79276e-06
threshold=0.41530802845954901 2.0231606960296635 0.32245068252086645 0.47616623342037206 -4.7104066610336295 0.14944134652614596 0.16184237599372867 -0.05871212109923362
decision_type=2 2 2 2 2 2 2 2
left_child=-1 2 -2 -4 -5 6 -6 -8
right_child=1 -3 3 4 5 -7 7 -9
leaf_value=0.031964909232971371 0.0050165461173585432 0.02459819605163335 -0.04888096795378026 -0.11423856375736757 -0.10490408829317449 -0.10651851268812017 -0.10167044055529009 -0.100494032016589
leaf_weight=1.7847103597596286 0.93834783788770515 1.4308446210925465 0.35064303275430553 0.20959362387657177 0.14224342163652171 0.23216102109290659 0.079408026795135922 0.088514082104666048
leaf_count=27 17 27 10 2 4 5 11 31
internal_value=-0.000143029 -0.0166486 -0.045566 -0.0886148 -0.107144 -0.104402 -0.102818 -0.10105
internal_weight=5.25647 3.47176 2.04091 1.10256 0.75192 0.542327 0.310166 0.167922
internal_count=134 107 80 63 53 51 46 42
is_linear=0
shrinkage=0.1


Tree=86
num_leaves=6
num_cat=0
split_feature=11 23 33 48 23
split_gain=0.259113 0.397258 0.31877 0.357032 0.382343
threshold=0.34805761277675634 0.11294117569923402 0.55507761240005504 1.0000000180025095e-35 0.6642509698867799
decision_type=2 2 2 2 2
left_child=-1 -2 3 4 -3
right_child=1 2 -4 -5 -6
leaf_value=0.032304190336930987 0.036132376670781063 -0.04039543229965422 -0.098472186752820184 -0.08345813339842939 0.069588453369727007
leaf_weight=1.662179190199822 1.0400628848001363 0.65119921296718553 0.63718068646267045 0.55093844915973011 0.61419727958127623
leaf_count=26 23 32 15 19 19
internal_value=-0.000196675 -0.01566 -0.0376151 -0.0162661 0.0129885
internal_weight=5.15576 3.49358 2.45352 1.81633 1.2654
internal_count=134 108 85 70 51
is_linear=0
shrinkage=0.1


Tree=87
num_leaves=6
num_cat=0
split_feature=10 13 51 2 0
split_gain=0.254335 0.392544 0.386812 0.368948 0.518891
threshold=0.014399962965399029 21.428929328918461 0.5003361999988557 0.15169674158096316 0.39757819473743444
decision_type=2 2 2 2 2
left_child=1 3 -2 4 -1
right_child=2 -3 -4 -5 -6
leaf_value=-0.10730215058081426 -0.012109751236222434 -0.05884767298689364 0.081329828723261124 0.049410104579216518 0.056169399627986373
leaf_weight=0.46944755900767665 0.98266427201451712 1.3225643294863401 0.80676514049991965 1.1080332151614127 0.33114266698248684
leaf_count=39 32 25 13 19 6
internal_value=-0.000227102 -0.0169766 0.0300175 0.0120377 -0.0396865
internal_weight=5.02062 3.23119 1.78943 1.90862 0.80059
internal_count=134 89 45 64 45
is_linear=0
shrinkage=0.1


Tree=88
num_leaves=6
num_cat=0
split_feature=47 5 50 40 5
split_gain=0.255769 0.330741 0.339659 0.503812 0.0947759
threshold=0.28956244885921484 1.1460522413253786 0.449917882680893 1.0000000180025095e-35 0.17255359888076785
decision_type=2 2 2 2 2
left_child=-1 2 -2 -4 -5
right_child=1 -3 3 4 -6
leaf_value=-0.051038048010722259 0.032683299760479102 0.059985689097986995 0.029847978578621554 -0.048452060789222658 -0.10880482967225064
leaf_weight=0.82302311138482753 1.2894225781783464 1.0008646221831439 0.71287136065075163 0.50962774571962632 0.53162811175570823
leaf_count=22 20 17 35 13 27
internal_value=-0.000222665 0.0101181 -0.00628078 -0.0349225 -0.079266
internal_weight=4.86744 4.04441 3.04355 1.75413 1.04126
internal_count=134 112 95 75 40
is_linear=0
shrinkage=0.1


Tree=89
num_leaves=7
num_cat=0
split_feature=11 5 8 28 7 51
split_gain=0.250861 0.322811 0.516652 0.322775 0.0425906 0.000619305
threshold=0.34805761277675634 0.30959793925285345 50.383008956909187 410.00000000000006 43.206193923950202 0.4964964240789414
decision_type=2 2 2 2 2 2
left_child=-1 -2 3 -3 -5 -6
right_child=1 2 -4 4 5 -7
leaf_value=0.032650766067722922 -0.073628720105187756 0.025865921154842209 0.042843915143439097 -0.056810112019017228 -0.11117880448195049 -0.10380923172497519
leaf_weight=1.5566756869666276 0.75130160292610559 0.37106326036155246 1.3437456683022899 0.26108737246249802 0.2256852425634861 0.23048619499604683
leaf_count=26 16 11 28 11 4 38
internal_value=-0.000247237 -0.0163344 0.0013646 -0.0498497 -0.08902 -0.107455
internal_weight=4.74005 3.18337 2.43207 1.08832 0.717259 0.456171
internal_count=134 108 92 64 53 42
is_linear=0
shrinkage=0.1


Tree=90
num_leaves=6
num_cat=0
split_feature=39 35 39 2 9
split_gain=0.24207 0.475412 0.566136 0.367145 0.0587938
threshold=0.93137717247009288 0.51891258358955394 0.33060109615325933 0.15169674158096316 -0.027163120917975899
decision_type=2 2 2 2 2
left_child=1 2 3 -1 -4
right_child=-2 -3 4 -5 -6
leaf_value=-0.051870933671742642 0.033256712150875826 0.0601597630804733 -0.060530485382292956 0.051402430447272884 -0.10782510396450365
leaf_weight=0.60911056927579987 1.4682731586508451 0.65209126193076361 0.43225207060459081 0.7916307095438242 0.67069806990912151
leaf_count=28 32 12 18 14 30
internal_value=-0.000286829 -0.0158934 -0.0357016 0.00649414 -0.0892901
internal_weight=4.62406 3.15578 2.50369 1.40074 1.10295
internal_count=134 102 90 42 48
is_linear=0
shrinkage=0.1


Tree=91
num_leaves=5
num_cat=0
split_feature=10 38 37 51
split_gain=0.227447 0.322669 0.378567 0.321131
threshold=0.014399962965399029 0.56049206852912914 0.5007949471473695 0.5003361999988557
decision_type=2 2 2 2
left_child=1 2 -1 -2
right_child=3 -3 -4 -5
leaf_value=-0.10648731583281934 -0.010753562325354824 0.023099483052245171 -0.0087035850403448436 0.07862581285373195
leaf_weight=0.63162585643294766 0.89084309834288411 1.1701139759097712 1.0609688374679533 0.73252993449568748
leaf_count=33 32 26 30 13
internal_value=-0.000323071 -0.0172792 -0.0451936 0.0295779
internal_weight=4.48608 2.86271 1.69259 1.62337
internal_count=134 89 63 45
is_linear=0
shrinkage=0.1


Tree=92
num_leaves=6
num_cat=0
split_feature=47 22 8 36 3
split_gain=0.232546 0.308662 0.403645 0.286258 0.311025
threshold=0.28956244885921484 -10.894717216491697 47.426729202270515 0.085265353322029128 0.96661928296089183
decision_type=2 2 2 2 2
left_child=-1 -2 -3 -4 -5
right_child=1 2 3 4 -6
leaf_value=-0.050737837653144949 0.06636368360728892 -0.056868144675430998 -0.031852532665037799 0.10292904856427898 0.0023328831064612417
leaf_weight=0.75718339640297916 0.7704338720213858 0.98267835774458978 0.64244995918124903 0.58957868628203847 0.64205591206700774
leaf_count=22 26 24 13 12 37
internal_value=-0.00033144 0.010191 -0.00495811 0.022261 0.0504879
internal_weight=4.38438 3.6272 2.85676 1.87408 1.23163
internal_count=134 112 86 62 49
is_linear=0
shrinkage=0.1


Tree=93
num_leaves=6
num_cat=0
split_feature=37 9 38 22 18
split_gain=0.222907 0.504998 0.385476 0.321888 0.197696
threshold=0.49141882359981542 -0.050462314859032624 0.58122947812080394 7.723302125930787 -0.030845746397972103
decision_type=2 2 2 2 2
left_child=2 -2 -1 4 -3
right_child=1 3 -4 -5 -6
leaf_value=-0.093912932070501387 0.071268833467839354 -0.0070514019528919161 0.021568208361325374 0.024651050623353168 -0.09481370087634311
leaf_weight=0.59371058030228574 1.0223917876137423 0.47803773608757183 0.56329429810284637 1.0399320792639626 0.55428931070491694
leaf_count=32 26 14 13 23 26
internal_value=-0.000242922 0.0137576 -0.0376903 -0.0146167 -0.0541738
internal_weight=4.25166 3.09465 1.157 2.07226 1.03233
internal_count=134 89 45 63 40
is_linear=0
shrinkage=0.1


Tree=94
num_leaves=5
num_cat=0
split_feature=24 38 37 44
split_gain=0.208388 0.340155 0.24078 0.388835
threshold=0.36531835794448858 0.46946179866790777 0.49141882359981542 0.71525666117668163
decision_type=2 2 2 2
left_child=1 -1 -3 -4
right_child=-2 2 3 -5
leaf_value=-0.05087205727355143 -0.052246530668703044 -0.019892357563881986 0.089036903100770115 -0.0010166332975733044
leaf_weight=0.73610723041929338 0.64979172541643482 0.81296794133231776 0.98144449442042947 0.9374538310803473
leaf_count=20 30 30 28 26
internal_value=-0.000276065 0.0094616 0.0257186 0.0450424
internal_weight=4.11777 3.46797 2.73187 1.9189
internal_count=134 104 84 54
is_linear=0
shrinkage=0.1


Tree=95
num_leaves=7
num_cat=0
split_feature=5 24 40 50 1 7
split_gain=0.205196 0.302198 0.624527 0.371295 0.000411959 2.49833e-05
threshold=1.1460522413253786 1.0000000180025095e-35 0.15000000223517421 0.449917882680893 0.15595427155494693 57.747457504272468
decision_type=2 2 2 2 2 2
left_child=1 2 -1 -3 5 -5
right_child=-2 3 -4 4 -6 -7
leaf_value=0.060735143048515843 0.040743703036390945 0.0047034671548426181 -0.056062877041068826 -0.10322632876185751 -0.10936928241830393 -0.10499236369939371
leaf_weight=1.1038992917456201 0.93858174374327052 0.58905931562185265 0.78219216276193027 0.15112137109099422 0.28807061165571213 0.17045418842462823
leaf_count=32 22 11 25 32 4 8
internal_value=-0.000198021 -0.012655 0.0122971 -0.0519156 -0.106623 -0.104162
internal_weight=4.02338 3.0848 1.88609 1.19871 0.609646 0.321576
internal_count=134 112 57 55 44 40
is_linear=0
shrinkage=0.1


Tree=96
num_leaves=7
num_cat=0
split_feature=47 5 45 51 1 22
split_gain=0.21121 0.257247 0.27612 0.535645 0.00041135 8.53454e-05
threshold=0.28956244885921484 1.1460522413253786 0.4971145242452622 0.54662689566612255 0.1407488286495209 1.349948585033417
decision_type=2 2 2 2 2 2
left_child=-1 2 -2 4 5 -4
right_child=1 -3 3 -5 -6 -7
leaf_value=-0.050697706191315708 0.027381526526638552 0.059766923646808717 -0.10112178670508783 0.029085651189930103 -0.10838137533556283 -0.10434003916714274
leaf_weight=0.68408264301251653 1.2340446077287204 0.79698796709999431 0.13183896722330224 0.57515847682952881 0.25964155048131943 0.21975316812313395
leaf_count=22 27 17 37 11 4 16
internal_value=-0.000238414 0.0104901 -0.00573544 -0.0401826 -0.105363 -0.103133
internal_weight=3.90151 3.21742 2.42044 1.18639 0.611234 0.351592
internal_count=134 112 95 68 57 53
is_linear=0
shrinkage=0.1


Tree=97
num_leaves=6
num_cat=0
split_feature=10 36 50 17 44
split_gain=0.205979 0.27628 0.235211 0.260778 0.246089
threshold=0.014399962965399029 0.15447124093770984 0.4343873411417008 36.872831344604499 0.61187615990638744
decision_type=2 2 2 2 2
left_child=2 -2 -1 4 -4
right_child=1 -3 3 -5 -6
leaf_value=0.017576818918089897 0.075058355392524131 -0.014705813780453958 0.03108855851085748 -0.10656294759423748 -0.074492780167492653
leaf_weight=1.0561417965218431 0.69340084190480389 0.67828996363095939 0.5163524262497956 0.46014627756085247 0.38562749611446634
leaf_count=21 15 30 37 13 18
internal_value=-0.000283386 0.0306707 -0.0178412 -0.045303 -0.0140511
internal_weight=3.78996 1.37169 2.41827 1.36213 0.90198
internal_count=134 45 89 68 55
is_linear=0
shrinkage=0.1


Tree=98
num_leaves=7
num_cat=0
split_feature=11 3 8 10 50 44
split_gain=0.204063 0.265706 0.346896 0.245721 0.181849 0.000122168
threshold=0.34805761277675634 1.3332099914550783 52.681449890136726 0.027680993080139164 0.41530802845954901 0.47297297418117529
decision_type=2 2 2 2 2 2
left_child=-1 2 3 4 -2 -6
right_child=1 -3 -4 -5 5 -7
leaf_value=0.033533866426719836 -0.0075043250067840066 -0.07895297439441977 0.051793919265795553 0.03307952385015716 -0.10661267733730823 -0.10339442707953972
leaf_weight=1.2016145368106665 0.32100539281964324 0.53682151995599259 0.78655274055199687 0.37029881891794503 0.24329824794403976 0.2289604083634913
leaf_count=26 7 16 21 23 21 20
internal_value=-0.000304118 -0.0166536 0.00049593 -0.0341808 -0.0655782 -0.105052
internal_weight=3.68855 2.48694 1.95012 1.16356 0.793264 0.472259
internal_count=134 108 92 71 48 41
is_linear=0
shrinkage=0.1


Tree=99
num_leaves=6
num_cat=0
split_feature=37 50 38 6 1
split_gain=0.186786 0.444317 0.301211 0.235719 0.26923
threshold=0.49141882359981542 0.449917882680893 0.58122947812080394 54.323593139648445 0.39757819473743444
decision_type=2 2 2 2 2
left_child=2 -2 -1 4 -3
right_child=1 3 -4 -5 -6
leaf_value=-0.090412326835812185 0.078953409060995267 -0.10427221846871429 0.018046608462598888 0.01814944449601506 0.016395259128403502
leaf_weight=0.5145871995991913 0.74757030210457776 0.45172598704812106 0.50967235716234427 1.0471444624708963 0.31303536565974355
leaf_count=32 17 34 13 27 11
internal_value=-0.000354108 0.0140881 -0.0364431 -0.0126745 -0.0548801
internal_weight=3.58374 2.55948 1.02426 1.81191 0.764761
internal_count=134 89 45 72 45
is_linear=0
shrinkage=0.1


Tree=100
num_leaves=6
num_cat=0
split_feature=11 23 48 47 5
split_gain=0.180084 0.253263 0.184441 0.207312 0.209518
threshold=0.34805761277675634 0.11294117569923402 1.0000000180025095e-35 0.78103175759315502 0.96026387810707103
decision_type=2 2 2 2 2
left_child=-1 -2 3 4 -3
right_child=1 2 -4 -5 -6
leaf_value=0.032181394915040129 0.035312405492596378 -0.035185468827290671 -0.086944025990870963 -0.0736145507728969 0.071430256788645327
leaf_weight=1.1388575939927252 0.6731215579202402 0.38121148699428864 0.51729365164646868 0.3920745236100629 0.35687999677611515
leaf_count=26 23 11 23 21 30
internal_value=-0.000387199 -0.0163707 -0.0374874 -0.0148504 0.0163651
internal_weight=3.45944 2.32058 1.64746 1.13017 0.738091
internal_count=134 108 85 62 41
is_linear=0
shrinkage=0.1


Tree=101
num_leaves=5
num_cat=0
split_feature=39 47 28 39
split_gain=0.171055 0.374824 0.37857 0.326856
threshold=0.93137717247009288 0.29741360247135168 869.00000000000011 0.33060109615325933
decision_type=2 2 2 2
left_child=1 -1 -3 -4
right_child=-2 2 3 -5
leaf_value=-0.10393054371388054 0.032164870587371185 0.060673933151897619 0.0059040065080912807 -0.10524880272060344
leaf_weight=0.39958774787373919 1.0915966429747639 0.70478501892648626 0.77599265011667717 0.40140288977636374
leaf_count=19 32 21 31 31
internal_value=-0.000391875 -0.015967 0.0027077 -0.0319907
internal_weight=3.37336 2.28177 1.88218 1.1774
internal_count=134 102 83 62
is_linear=0
shrinkage=0.1


Tree=102
num_leaves=6
num_cat=0
split_feature=10 36 36 22 38
split_gain=0.169934 0.217549 0.216714 0.218959 0.188618
threshold=0.014399962965399029 0.15447124093770984 0.18452189117670062 -6.9701173305511466 0.55718678236007702
decision_type=2 2 2 2 2
left_child=2 -2 4 -4 -1
right_child=1 -3 3 -5 -6
leaf_value=-0.073362711997092392 0.072383286516522538 -0.013086564809481716 0.092839751585048175 -0.022941787350751638 -0.00010169595835259156
leaf_weight=0.76693377073388613 0.59559354232624151 0.59562378746340983 0.2991985140834007 0.35970592008379709 0.64865955669665709
leaf_count=29 15 30 16 29 15
internal_value=-0.000455869 0.0296473 -0.0177417 0.0296329 -0.0397927
internal_weight=3.26572 1.19122 2.0745 0.658904 1.41559
internal_count=134 45 89 45 44
is_linear=0
shrinkage=0.1


Tree=103
num_leaves=6
num_cat=0
split_feature=5 24 40 50 13
split_gain=0.16526 0.219867 0.49932 0.268091 0.000143469
threshold=1.1460522413253786 1.0000000180025095e-35 0.15000000223517421 0.449917882680893 27.044969558715824
decision_type=2 2 2 2 2
left_child=1 2 -1 -3 -5
right_child=-2 3 -4 4 -6
leaf_value=0.059859006722980473 0.041333397228248983 0.0021795661299442875 -0.056344887613566111 -0.1033095637756309 -0.10683397630069619
leaf_weight=0.87373265635687924 0.73091561160981644 0.47046331129968155 0.64109412072866689 0.24589097097850754 0.21781163010746241
leaf_count=32 22 11 25 39 5
internal_value=-0.000395467 -0.0128497 0.01068 -0.051005 -0.104965
internal_weight=3.17991 2.44899 1.51483 0.934166 0.463703
internal_count=134 112 57 55 44
is_linear=0
shrinkage=0.1


Tree=104
num_leaves=9
num_cat=0
split_feature=4 51 2 28 3 2 36 18
split_gain=0.153324 0.222085 0.361675 0.0964044 0.000264482 4.44231e-05 6.88885e-06 2.4715e-07
threshold=0.21202067285776141 0.57476735115051281 0.13322927057743075 176.50000000000003 0.32245068252086645 0.060162222012877471 0.042675158008933074 0.036714451387524612
decision_type=2 2 2 2 2 2 2 2
left_child=-1 2 3 -2 -5 6 -6 -8
right_child=1 -3 -4 4 5 -7 7 -9
leaf_value=0.044469825304886773 -0.025684329846942001 0.048373411560802645 0.0070103433525230815 -0.10706275147889344 -0.10191073261234887 -0.10349507755631931 -0.10036050230601766 -0.1007151936489005
leaf_weight=0.61027162568643722 0.22161086951382492 0.49543630226980884 1.2253144220449028 0.20195141644217074 0.065572432242333889 0.18405169062316418 0.042533881209237734 0.036507010168861598
leaf_count=24 9 15 28 5 4 6 33 10
internal_value=-0.000420148 -0.0114979 -0.0264976 -0.0810791 -0.104215 -0.102465 -0.101153 -0.100524
internal_weight=3.08325 2.47298 1.97754 0.752227 0.530616 0.328665 0.144613 0.0790409
internal_count=134 110 95 67 58 53 47 43
is_linear=0
shrinkage=0.1


Tree=105
num_leaves=6
num_cat=0
split_feature=10 47 11 23 36
split_gain=0.143655 0.203451 0.304357 0.241803 0.191733
threshold=0.014399962965399029 0.33768032491207128 0.34805761277675634 0.20681782811880114 0.15447124093770984
decision_type=2 2 2 2 2
left_child=1 -1 -3 -4 -2
right_child=4 2 3 -5 -6
leaf_value=-0.068404682079997878 0.071836386367370789 0.069643783691636305 0.024802811381753175 -0.078332788326098066 -0.012208917764499443
leaf_weight=0.5479364763159541 0.52776195434853412 0.46344428369775392 0.4288521827547811 0.48374544370381045 0.55887854602769949
leaf_count=32 15 11 19 27 30
internal_value=-0.000455915 -0.0168722 0.00364787 -0.0298668 0.0286104
internal_weight=3.01062 1.92398 1.37604 0.912598 1.08664
internal_count=134 89 57 46 45
is_linear=0
shrinkage=0.1


Tree=106
num_leaves=5
num_cat=0
split_feature=24 50 6 21
split_gain=0.140848 0.229304 0.260933 0.122362
threshold=0.36531835794448858 0.449917882680893 54.323593139648445 -0.01243777899071574
decision_type=2 2 2 2
left_child=1 -1 3 -3
right_child=-2 2 -4 -5
leaf_value=0.045976149557925533 -0.05178543677804557 -0.014438835355051137 0.020482595713384719 -0.10324270618676941
leaf_weight=0.99733977904543358 0.45133034839818709 0.27426030803326329 0.83604996497160755 0.35730557916394834
leaf_count=28 30 16 29 31
internal_value=-0.000426302 0.00897749 -0.0161655 -0.0646792
internal_weight=2.91629 2.46496 1.46762 0.631566
internal_count=134 104 76 47
is_linear=0
shrinkage=0.1


Tree=107
num_leaves=6
num_cat=0
split_feature=4 3 4 1 21
split_gain=0.138293 0.200884 0.295136 0.461416 0.0413635
threshold=0.21202067285776141 0.32245068252086645 0.55310067534446727 0.20422694832086566 0.0017270332318730655
decision_type=2 2 2 2 2
left_child=-1 -2 -3 4 -4
right_child=1 2 3 -5 -6
leaf_value=0.043659213870478338 0.028131278239857577 -0.10413552447730055 -0.037964387172579689 0.052718843346224759 -0.10314994183602373
leaf_weight=0.56903287430759553 0.82098882622085545 0.42265488416887809 0.14398359959886853 0.59319871384650469 0.30052835034075542
leaf_count=24 24 13 23 14 36
internal_value=-0.000444633 -0.0114454 -0.0336946 -0.00500427 -0.0820354
internal_weight=2.85039 2.28135 1.46037 1.03771 0.444512
internal_count=134 110 86 73 59
is_linear=0
shrinkage=0.1


Tree=108
num_leaves=6
num_cat=0
split_feature=37 50 16 7 8
split_gain=0.137998 0.319012 0.233586 0.177696 0.207234
threshold=0.49141882359981542 0.449917882680893 -0.023101565428078171 48.528217315673835 54.851865768432624
decision_type=2 2 2 2 2
left_child=2 -2 -1 -3 -5
right_child=1 3 -4 4 -6
leaf_value=-0.086224636358565782 0.0768606257031961 0.02613242138872492 0.021161142421594403 -0.096318020367436044 0.010634096951154524
leaf_weight=0.42566433607862564 0.56974262022413302 0.64273106202017494 0.38646647139648882 0.38534056027128827 0.3419239406066481
leaf_count=20 17 29 25 32 11
internal_value=-0.000514914 0.0139749 -0.0351233 -0.0121775 -0.0460344
internal_weight=2.75187 1.93974 0.812131 1.37 0.727265
internal_count=134 89 45 72 43
is_linear=0
shrinkage=0.1


Tree=109
num_leaves=6
num_cat=0
split_feature=11 23 33 48 23
split_gain=0.128446 0.176892 0.13529 0.175366 0.168207
threshold=0.34805761277675634 0.11294117569923402 0.55507761240005504 1.0000000180025095e-35 0.6642509698867799
decision_type=2 2 2 2 2
left_child=-1 -2 3 4 -3
right_child=1 2 -4 -5 -6
leaf_value=0.031098644154288993 0.032076031950515872 -0.038403514253698347 -0.094734695769430777 -0.080227432973117338 0.06370492695892703
leaf_weight=0.8659639987163249 0.53952697641216207 0.3290563435439251 0.30188426305539906 0.30622780740668532 0.31651588374370476
leaf_count=26 23 32 15 19 19
internal_value=-0.000527943 -0.0158008 -0.0364048 -0.0179041 0.011659
internal_weight=2.65918 1.79321 1.25368 0.9518 0.645572
internal_count=134 108 85 70 51
is_linear=0
shrinkage=0.1


Tree=110
num_leaves=6
num_cat=0
split_feature=35 33 47 37 50
split_gain=0.129192 0.164772 0.246289 0.230341 0.180138
threshold=0.45265230536460882 0.58786293864250194 0.28956244885921484 0.49141882359981542 0.449917882680893
decision_type=2 2 2 2 2
left_child=-1 2 -2 -4 -5
right_child=1 -3 3 4 -6
leaf_value=0.049938019288083585 -0.10289487775234818 0.043531917848946756 -0.068049238567664413 0.068148186974687816 -0.018365534210834603
leaf_weight=0.42410705878865007 0.32500781153794411 0.44892066880129267 0.42065537888265658 0.43714522593654692 0.53551068961678538
leaf_count=19 21 13 30 13 38
internal_value=-0.000536307 -0.0104136 -0.0245072 -0.00622227 0.0205167
internal_weight=2.59135 2.16724 1.71832 1.39331 0.972656
internal_count=134 115 102 81 51
is_linear=0
shrinkage=0.1


Tree=111
num_leaves=6
num_cat=0
split_feature=36 37 9 43 9
split_gain=0.122596 0.145277 0.271509 0.247292 0.201444
threshold=0.34955362975597387 0.49141882359981542 -0.050462314859032624 0.48749999701976782 -0.036956723779439919
decision_type=2 2 2 2 2
left_child=1 4 -3 -4 -1
right_child=-2 2 3 -5 -6
leaf_value=-0.10489951860797012 0.049205009240785955 0.081357164538343227 0.030890288553364287 -0.064306393785582019 0.0078921602904903961
leaf_weight=0.32732612550898921 0.41368079720996309 0.36738770577358115 0.53111233387608014 0.56122421726468019 0.30671664136934929
leaf_count=20 16 19 20 38 21
internal_value=-0.00054039 -0.010369 0.00699141 -0.0180202 -0.0503368
internal_weight=2.50745 2.09377 1.45972 1.09234 0.634043
internal_count=134 118 77 58 41
is_linear=0
shrinkage=0.1


Tree=112
num_leaves=5
num_cat=0
split_feature=24 10 38 37
split_gain=0.120796 0.20309 0.275279 0.158933
threshold=0.36531835794448858 0.014399962965399029 0.56049206852912914 0.50596606731414806
decision_type=2 2 2 2
left_child=1 2 3 -1
right_child=-2 -3 -4 -5
leaf_value=-0.10310239047567976 -0.051507220774306708 0.051393312674971381 0.039431522812081787 -0.010939513949471721
leaf_weight=0.3493850818758808 0.39018050908634894 0.73151379998307664 0.54809752965229563 0.40286476803885307
leaf_count=30 30 35 19 20
internal_value=-0.000544771 0.0092416 -0.0144709 -0.0537449
internal_weight=2.42204 2.03186 1.30035 0.75225
internal_count=134 104 69 50
is_linear=0
shrinkage=0.1


Tree=113
num_leaves=6
num_cat=0
split_feature=5 24 40 50 17
split_gain=0.117857 0.168391 0.373602 0.169047 4.6846e-05
threshold=1.1460522413253786 1.0000000180025095e-35 0.15000000223517421 0.449917882680893 36.872831344604499
decision_type=2 2 2 2 2
left_child=1 2 -1 -3 -5
right_child=-2 3 -4 4 -6
leaf_value=0.059798563939745378 0.040591274274409367 -0.0038771091859866043 -0.05633581895148454 -0.10224179153284635 -0.10463000774467189
leaf_weight=0.65738433503429428 0.53725017816759635 0.35266724973916996 0.47872956419450929 0.15603523286699783 0.17341956670861691
leaf_count=32 22 11 25 38 6
internal_value=-0.000559059 -0.0127181 0.0108625 -0.051993 -0.103499
internal_weight=2.35549 1.81824 1.13611 0.682122 0.329455
internal_count=134 112 57 55 44
is_linear=0
shrinkage=0.1


Tree=114
num_leaves=6
num_cat=0
split_feature=47 22 22 9 47
split_gain=0.116415 0.180883 0.235067 0.123421 0.080769
threshold=0.28956244885921484 -10.894717216491697 2.9898879528045659 -0.027163120917975899 0.6441897749900819
decision_type=2 2 2 2 2
left_child=-1 -2 3 -3 -4
right_child=1 2 4 -5 -6
leaf_value=-0.050912147912719419 0.06943601098620715 -0.012895683796630239 0.055967832396414445 -0.10394397068923261 -0.0038404906000219017
leaf_weight=0.38241410689079236 0.3986905301389928 0.32270368265744764 0.44887929948527017 0.27640546365000707 0.45434853099868633
leaf_count=22 26 20 17 26 23
internal_value=-0.00056946 0.00955757 -0.00633299 -0.0549018 0.0258826
internal_weight=2.28344 1.90103 1.50234 0.599109 0.903228
internal_count=134 112 86 46 40
is_linear=0
shrinkage=0.1


Tree=115
num_leaves=6
num_cat=0
split_feature=51 39 39 8 23
split_gain=0.105634 0.227937 0.284459 0.0808246 0.0178561
threshold=0.60907375812530529 0.93137717247009288 0.34798744320869451 50.383008956909187 0.14590044319629672
decision_type=2 2 2 2 2
left_child=1 2 3 -1 -4
right_child=-2 -3 4 -5 -6
leaf_value=-0.027082941805089234 0.046348754727066246 0.046647036939050424 -0.065499920815717094 0.036838675662247751 -0.103434034030341
leaf_weight=0.38861228238783974 0.3947309989016502 0.50209290644852433 0.19840016742818989 0.40288452932145447 0.33128849365311908
leaf_count=34 17 22 14 12 35
internal_value=-0.000553783 -0.010708 -0.0325047 0.00545418 -0.0892254
internal_weight=2.21801 1.82328 1.32119 0.791497 0.529689
internal_count=134 117 95 46 49
is_linear=0
shrinkage=0.1


Tree=116
num_leaves=7
num_cat=0
split_feature=11 23 33 2 19 38
split_gain=0.106356 0.15361 0.115601 0.134711 0.095989 0.00885453
threshold=0.34805761277675634 0.11294117569923402 0.55507761240005504 0.13322927057743075 -2.171037912368774 0.57583865523338329
decision_type=2 2 2 2 2 2
left_child=-1 -2 3 4 -3 -6
right_child=1 2 -4 -5 5 -7
leaf_value=0.031586514860611738 0.033682405537151607 0.010842179569327393 -0.094822931412560055 0.029707166573819773 -0.066209484914103001 -0.10298892014719099
leaf_weight=0.69604892539791796 0.43719675904139865 0.14580511362873949 0.25932150933658704 0.33691096026450396 0.10454020735778591 0.17508425345295109
leaf_count=26 23 7 15 12 39 12
internal_value=-0.000576268 -0.0159217 -0.0371487 -0.0175299 -0.0549385 -0.0892386
internal_weight=2.15491 1.45886 1.02166 0.762341 0.42543 0.279624
internal_count=134 108 85 70 58 51
is_linear=0
shrinkage=0.1


Tree=117
num_leaves=5
num_cat=0
split_feature=10 47 37 51
split_gain=0.0981198 0.140486 0.177489 0.134662
threshold=0.014399962965399029 0.33768032491207128 0.50000017881393444 0.5003361999988557
decision_type=2 2 2 2
left_child=1 -1 -3 -2
right_child=3 2 -4 -5
leaf_value=-0.067357902239269005 -0.009583270467495103 -0.052168020937784547 0.037274398832317548 0.075094264267143357
leaf_weight=0.39083709931583166 0.42234693557838898 0.35400973613650422 0.59435415273765102 0.33818682353012264
leaf_count=32 32 26 31 13
internal_value=-0.000614999 -0.0169054 0.00388691 0.0280703
internal_weight=2.09973 1.3392 0.948364 0.760534
internal_count=134 89 57 45
is_linear=0
shrinkage=0.1


Tree=118
num_leaves=6
num_cat=0
split_feature=47 22 22 8 47
split_gain=0.0970384 0.142161 0.188259 0.114757 0.0642493
threshold=0.28956244885921484 -10.894717216491697 2.9898879528045659 51.931800842285163 0.6441897749900819
decision_type=2 2 2 2 2
left_child=-1 -2 3 -3 -4
right_child=1 2 4 -5 -6
leaf_value=-0.04944765385579538 0.06550138407812077 -0.093336436429272834 0.052675718691766085 0.00029893345944999349 -0.0031071604162445938
leaf_weight=0.33896320872008834 0.35453130701353108 0.29698469955474072 0.40511774001788581 0.23403065279126167 0.42108967782405671
leaf_count=22 26 34 17 12 23
internal_value=-0.000564048 0.00911593 -0.00561298 -0.0520692 0.0242451
internal_weight=2.05072 1.71175 1.35722 0.531015 0.826207
internal_count=134 112 86 46 40
is_linear=0
shrinkage=0.1


Tree=119
num_leaves=6
num_cat=0
split_feature=24 40 45 0 19
split_gain=0.0960994 0.20075 0.164078 0.0772329 0.00579848
threshold=1.0000000180025095e-35 0.15000000223517421 0.44775684177875524 0.15815442055463794 1.0000000180025095e-35
decision_type=2 2 2 2 2
left_child=1 3 -2 -1 -4
right_child=2 -3 4 -5 -6
leaf_value=0.015559553404205768 0.0053388062404994153 -0.034776647749858815 -0.10392394755673817 0.080104951842874333 -0.074703424242246505
leaf_weight=0.35367933192173928 0.52191464405041199 0.4579791202195338 0.14607123878158745 0.38959059398621321 0.12691555556375533
leaf_count=22 22 29 30 20 11
internal_value=-0.000546389 0.0173022 -0.027519 0.0493915 -0.0903389
internal_weight=1.99615 1.20125 0.794901 0.74327 0.272987
internal_count=134 71 63 42 41
is_linear=0
shrinkage=0.1


Tree=120
num_leaves=6
num_cat=0
split_feature=38 19 37 18 40
split_gain=0.0895482 0.166672 0.145722 0.0313205 0.0019648
threshold=0.55718678236007702 2.2951124906539921 0.5007949471473695 -0.028000161983072754 0.15000000223517421
decision_type=2 2 2 2 2
left_child=1 2 4 -2 -1
right_child=3 -3 -4 -5 -6
leaf_value=-0.08761195555850719 0.043555206480158044 0.02966235179696862 -0.0034618196300114884 0.0051466336862939438 -0.1030212830129552
leaf_weight=0.14336383963018284 0.41418912822700804 0.42506181745557114 0.33426600160601083 0.43559402565733774 0.19570159896102268
leaf_count=25 21 21 29 19 19
internal_value=-0.000507508 -0.0193652 -0.0503155 0.0238672 -0.0965059
internal_weight=1.94818 1.09839 0.673331 0.849783 0.339065
internal_count=134 94 73 40 44
is_linear=0
shrinkage=0.1


Tree=121
num_leaves=9
num_cat=0
split_feature=4 3 4 1 39 51 1 10
split_gain=0.0952957 0.147483 0.180522 0.292176 0.0223359 1.50549e-05 6.57555e-06 4.77521e-08
threshold=0.21202067285776141 0.32245068252086645 0.55310067534446727 0.20422694832086566 0.95392137765884411 0.5003361999988557 0.12834370136260989 0.051259225234389312
decision_type=2 2 2 2 2 2 2 2
left_child=-1 -2 -3 4 5 6 7 -4
right_child=1 2 3 -5 -6 -7 -8 -9
leaf_value=0.044614013864325168 0.029277456609295757 -0.1020492174697375 -0.10020292758822787 0.04900456117213875 -0.04365057624315552 -0.10284848685584731 -0.10207489835721294 -0.100407911653877
leaf_weight=0.37563554354710516 0.56045762717258163 0.28497720521409065 0.026985837488609832 0.39335132716223598 0.0979145597666502 0.11322214512620121 0.036982499063014984 0.019632343355624471
leaf_count=24 24 13 31 14 5 6 2 15
internal_value=-0.00052764 -0.0115851 -0.0351207 -0.00740171 -0.0826805 -0.102097 -0.101079 -0.100289
internal_weight=1.90916 1.53352 0.973066 0.688089 0.294737 0.196823 0.0836007 0.0466182
internal_count=134 110 86 73 59 54 48 46
is_linear=0
shrinkage=0.1


Tree=122
num_leaves=7
num_cat=0
split_feature=11 5 51 1 18 6
split_gain=0.0857544 0.13067 0.195246 0.146572 0.0244125 3.47755e-06
threshold=0.34805761277675634 0.30959793925285345 0.60907375812530529 0.1407488286495209 -0.030845746397972103 58.00976753234864
decision_type=2 2 2 2 2 2
left_child=-1 -2 3 4 -3 -6
right_child=1 2 -4 -5 5 -7
leaf_value=0.030329399898187739 -0.071717115145616933 -0.032576205608435174 0.089418397393854682 0.011879475117004924 -0.10119945193298491 -0.10207180344650502
leaf_weight=0.60327190486714255 0.31122158234938957 0.070956604267848777 0.20457467949017882 0.46982047636993229 0.086840129815755174 0.09645319904666394
leaf_count=26 16 14 10 22 32 14
