tree
version=v4
num_class=1
num_tree_per_iteration=1
label_index=0
max_feature_idx=21
objective=binary sigmoid:1
feature_names=pre1_bb_width pre3_bb_width pre5_bb_width pre1_vol_ratio pre3_vol_ratio pre5_vol_ratio pre1_rsi pre3_rsi pre5_rsi pre3_momentum_5d pre5_momentum_5d pre5_bb_position pre5_compression_days pre3_adx pre5_adx pre3_macd_hist pre5_macd_hist pre1_adx pre1_macd_hist pre1_rsi_slope pre1_ema_align pre1_ema20_slope
feature_infos=[0:4.3652815818786621] [0:4.6911664009094238] [0:3.6714746952056885] [1.1568885383894667e-05:13.92182731628418] [0:18.047138214111328] [0:17.14042854309082] [0:100] [0:100] [0:100] [-0.93214285373687744:6] [-0.95886075496673584:14.584415435791016] [-0.56213194131851196:1.5042147636413574] [0:45] [0:100] [0:100] [-55.040756225585938:38.792430877685547] [-55.040756225585938:38.792430877685547] [0:100] [-55.040756225585938:38.792430877685547] [-33.333332061767578:33.333332061767578] [0:3] [-0.20060156285762787:1.5693488121032715]
tree_sizes=3338 3351 3350 3362 3359 3364 3377 3362 3396 3383 3387 3393 3395 3393 3404 3396 3388 3381 3393 3400 3387 3400 3415 3389 3397 3411 3396 3384 3414 3386 3423 3396 3414 3408 3420 3404 3406 3414 3409 3411 3391 3412 3405 3410 3393 3441 3405 3424 3431 3427 3409 3404 3411 3426 3428 3409 3398 3407 3415 3418 3408 3404 3418 3419 3393 3408 3409 3399 3407 3403 3404 3413 3410 3403 3401 3397 3421 3422 3416 3384 3413 3436 3393 3391 3420 3428 3416 3386 3444 3415 3427 3429 3396 3413 3408 3393 3408 3397 3406 3427 3430 3440 3393 3444 3401 3398

Tree=0
num_leaves=31
num_cat=0
split_feature=2 12 0 12 12 8 12 15 21 11 3 11 1 5 10 15 0 11 11 17 4 5 8 9 14 21 11 12 4 14
split_gain=3159.16 562.914 526.26 425.064 161.565 168.649 152.267 127.146 93.2908 89.775 51.7377 44.3396 44.1858 43.0149 39.4671 39.411 36.7594 64.2317 49.3136 34.7624 28.8752 27.2743 27.2102 27.0361 26.97 27.9082 30.0058 25.1933 25.1932 24.8078
threshold=0.050085194408893592 20.500000000000004 0.24228554964065555 21.500000000000004 1.0000000180025095e-35 37.767099380493171 17.500000000000004 -0.018800246529281136 0.0090967137366533297 -1.0000000180025095e-35 0.1362317353487015 0.70898365974426281 0.18699309229850772 0.041051493957638747 -0.026314460672438141 -0.1856298744678497 1.0775948762893679 0.93963208794593822 1.0015576481819155 53.902412414550788 0.059709142893552787 0.072737012058496489 57.375104904174812 0.047471830621361739 48.13940620422364 -0.005679625552147626 0.48171603679656988 9.5000000000000018 0.61423048377037059 40.044651031494148
decision_type=2 2 2 2 2 2 2 2 2 2 2 2 2 2 2 2 2 2 2 2 2 2 2 2 2 2 2 2 2 2
left_child=6 2 4 -3 5 15 21 14 24 -4 22 -10 19 -12 -7 -2 17 20 -19 29 -15 -1 -11 -13 25 -9 -27 -21 -14 -6
right_child=1 3 9 -5 12 7 -8 8 11 10 13 23 28 16 -16 -17 -18 18 -20 27 -22 -23 -24 -25 -26 26 -28 -29 -30 -31
leaf_value=-1.0478162398678719 -1.0046151837106179 -0.77251832456169311 -1.3275545946451381 -1.3275545946451381 -1.1907931613230256 -0.98240574753579402 -0.99825837554926511 -1.0157505828385167 -0.84560816635518321 -1.1765741957189411 -1.3275545946451381 -1.2231957198810575 -1.1536156371167636 -1.3275545946451381 -0.83029271201878085 -1.2343723655301575 -0.79486813696312164 -0.96030614252043489 -1.3275545946451381 -1.1632265029345816 -0.87596462794566221 -1.3265052182924422 -0.94908981919973912 -0.95864962656557573 -1.2569093263963844 -1.0115860720703829 -1.2594959899358391 -0.90856757753371831 -0.97367290786401539 -1.3130681733739467
leaf_weight=3.551191419363021 9.2283977568149549 206.42370991408825 4.8099706918001166 14.786206200718878 60.531468376517296 25.903722643852234 15.083751156926153 21.23993293941021 22.673575848340988 8.7729219794273394 2.1377647519111624 6.3460786789655712 15.22993214428425 1.4251765012741078 49.943725824356079 39.089888706803322 45.379117771983147 10.819971486926081 5.522558942437171 10.075417160987856 217.77950645983219 315.55391371250153 13.124133467674254 9.8737704306840879 14.061868116259573 7.3359956443309811 14.596309304237364 6.3225790113210669 15.90727089345455 22.858289763331413
leaf_count=13 31 359 27 83 282 83 50 73 51 40 12 31 67 8 107 194 86 33 31 45 536 1769 39 30 72 25 75 17 50 126
internal_value=-1.04689 -0.947699 -0.99391 -0.809618 -1.07771 -1.02542 -1.30873 -0.979042 -1.05542 -0.898899 -0.892138 -0.935915 -1.16569 -0.880682 -0.882243 -1.19049 -0.877282 -0.893159 -1.08441 -1.19814 -0.878901 -1.3234 -1.04023 -1.06215 -1.13663 -1.09745 -1.17657 -1.06504 -1.06169 -1.22431
internal_weight=1216.39 882.199 660.989 221.21 351.218 220.293 334.189 171.975 96.1275 309.771 304.961 38.8934 130.925 283.064 75.8474 48.3183 280.926 235.547 16.3425 99.7878 219.205 319.105 21.8971 16.2198 57.2341 43.1722 21.9323 16.398 31.1372 83.3898
internal_count=4445 2613 2171 442 1359 772 1832 547 357 812 785 112 587 706 190 225 694 608 64 470 544 1782 79 61 245 173 100 62 117 408
is_linear=0
shrinkage=1


Tree=1
num_leaves=31
num_cat=0
split_feature=1 0 12 11 12 12 12 11 0 3 12 4 5 8 1 4 15 4 0 3 8 11 17 6 11 7 17 5 13 16
split_gain=2219.89 337.825 155.545 125.525 111.18 156.584 105.66 98.9707 85.9226 84.8402 58.3856 53.2923 52.4473 49.9478 38.7147 37.0837 37.0383 28.7431 28.3258 28.2278 28.1046 49.9339 26.5598 22.7654 22.614 22.4666 25.8221 24.3874 23.9981 21.8439
threshold=0.051939105615019805 0.1591858193278313 20.500000000000004 -1.0000000180025095e-35 20.500000000000004 21.500000000000004 20.500000000000004 1.0015576481819155 0.25889834761619573 0.68474185466766369 1.0000000180025095e-35 0.52939456701278698 0.33234934508800512 37.767099380493171 0.065591841936111464 0.50186994671821605 -0.018800246529281136 0.17264104634523394 0.10058392584323884 0.23357422649860385 54.909149169921882 0.6264169216156007 57.097612380981452 45.833333969116218 0.46880401670932775 40.021528244018562 48.963752746582038 0.82523363828659069 46.033300399780281 0.0081733111292123812
decision_type=2 2 2 2 2 2 2 2 2 2 2 2 2 2 2 2 2 2 2 2 2 2 2 2 2 2 2 2 2 2
left_child=6 4 3 -3 9 -6 18 8 11 16 13 17 -13 -11 -12 -15 25 -5 -1 20 22 -22 -10 -18 29 26 -2 28 -27 -25
right_child=1 2 -4 7 5 -7 -8 -9 19 10 14 12 -14 15 -16 -17 23 -19 -20 -21 21 -23 -24 24 -26 27 -28 -29 -30 -31
leaf_value=-0.12665994093824465 -0.13123349773034312 -0.12948741294297572 0.30422100303468075 -0.092208798492367572 0.2974862980295136 -0.12805977923706252 0.19087214692008525 -0.13038126411211026 -0.086617500523805679 -0.046560900198333706 0.23711957046268278 -0.05030388355796056 0.21698485303347026 0.040610784511337761 -0.023245205118919057 0.25861129411830946 -0.10773706630007387 0.11147541521693603 0.16819905473044516 0.25743489389480351 0.32307337387687163 0.048973381618434508 0.22292545163820413 -0.0093730651764163241 -0.054913853608106737 -0.089285944834967171 0.13546980977371756 0.21661653788255861 0.16062566831111716 0.22907823468090319
leaf_weight=290.95091624557972 8.9930022656917554 11.168208122253416 208.99397145211697 7.927429035305976 48.58011682331562 10.519099742174147 11.104548215866087 8.4313336014747602 6.9792610108852369 7.8393085002899161 7.1754982322454444 7.8560043871402732 112.00749605894089 9.3405920863151533 27.981430187821388 47.405948907136917 28.877462789416313 54.963487759232521 3.2949131727218619 281.03723411262035 17.869921699166301 10.581945046782492 4.5981758385896683 8.1303209811449033 21.827225267887115 7.5861038565635699 6.0876463353633872 14.969604521989821 7.7861341238021851 7.2833062708377829
leaf_count=1752 50 64 317 40 76 62 31 48 35 39 21 37 292 37 138 104 157 193 11 568 30 39 12 38 111 39 20 40 24 20
internal_value=0.124141 0.196025 0.231291 0.202171 0.100498 0.221743 -0.111931 0.209402 0.215088 0.0665835 0.133594 0.160351 0.199466 0.190042 0.029895 0.222728 0.00666074 0.0858009 -0.123358 0.246244 0.167679 0.221129 0.0363227 -0.0411013 0.0105697 0.0761846 -0.0235727 0.125766 0.0372958 0.103301
internal_weight=1308.15 1002.8 732.414 523.42 270.383 59.0992 305.35 512.252 503.821 211.284 99.7428 182.754 119.864 64.5858 35.1569 56.7465 111.541 62.8909 294.246 321.067 40.0293 28.4519 11.5774 66.1183 37.2409 45.4225 15.0806 30.3418 15.3722 15.4136
internal_count=4445 2651 1675 1358 976 138 1794 1294 1246 838 339 562 329 180 159 141 499 233 1763 684 116 69 47 326 169 173 70 103 63 58
is_linear=0
shrinkage=0.1


Tree=2
num_leaves=31
num_cat=0
split_feature=1 0 12 11 12 12 12 3 0 8 4 12 0 15 7 21 4 19 11 3 0 21 3 17 5 10 15 16 2 17
split_gain=1670.05 224.76 104.945 91.2386 88.9728 80.0164 111.468 63.1193 58.3705 40.4654 36.3488 32.4924 34.2798 27.3256 30.4774 28.0865 27.2574 26.9674 25.9451 30.1427 24.29 23.2786 24.35 27.776 21.6975 20.8307 20.5604 19.9698 18.2067 19.2286
threshold=0.051939105615019805 0.1591858193278313 20.500000000000004 -1.0000000180025095e-35 20.500000000000004 20.500000000000004 21.500000000000004 0.72870308160781871 0.25521290302276617 40.535715103149421 0.52939456701278698 1.5000000000000002 0.059999769553542144 -0.12092157825827597 40.021528244018562 -0.0059187284205108872 0.17264104634523394 3.0342215299606328 0.15516730397939685 0.19941856712102893 0.10058392584323884 -0.035384252667427056 0.55515313148498546 48.963752746582038 0.41267000138759619 0.017964070662856105 -0.0067254439927637568 0.07362601533532144 0.27631416916847235 47.52888488769532
decision_type=2 2 2 2 2 2 2 2 2 2 2 2 2 2 2 2 2 2 2 2 2 2 2 2 2 2 2 2 2 2
left_child=4 5 3 -3 20 7 -7 13 10 -9 16 24 -13 15 -15 -2 -5 26 -10 -20 -1 -12 23 -23 -11 28 -16 -14 29 -18
right_child=1 2 -4 8 -6 6 -8 9 18 11 21 12 27 14 17 -17 25 -19 19 -21 -22 22 -24 -25 -26 -27 -28 -29 -30 -31
leaf_value=-0.12348960604949484 0.17583513744100732 -0.12592234742927386 0.24809040205462674 -0.13031173929491183 0.15779034037609818 0.24290155683651135 -0.12470421231718856 -0.013987219633916395 0.24799068771890109 -0.010580454846459275 0.2567031374951253 0.26802433859942071 -0.064076202220314668 -0.11499938040250962 0.075350067950511246 -0.053392548836055514 0.12452329035395769 0.15913719803472279 0.079021952750199353 0.19312470862177553 0.13917565633657775 0.10954505608914698 0.16898343398161225 -0.13895206503838251 0.20915731475990068 -0.0099427046103101047 -0.052706784901265159 0.18195619092421722 0.22568946122716455 -0.079919905899508592
leaf_weight=269.67123395204544 16.545358777046207 10.376635521650313 229.3298853635788 6.3740260303020468 12.03231820464134 53.245245322585106 9.7608861625194532 19.30306188762188 78.116851449012756 4.9297271072864524 20.43844972550869 5.7137155979871777 15.192517668008806 23.656170204281807 18.587386608123779 7.8961517661809912 21.280975952744488 11.127554595470427 25.424694925546646 259.01319599151611 3.567215919494628 23.631291076540951 79.82862514257431 5.5555403232574454 50.801092311739922 15.582336977124212 38.523928239941597 4.2141413688659659 12.622231587767599 5.8692722916603079
leaf_count=1752 43 64 317 36 31 76 62 89 123 19 36 13 80 135 68 37 66 34 86 524 11 73 199 28 106 66 200 14 29 28
internal_value=0.106709 0.163886 0.191051 0.167863 -0.108341 0.086771 0.185952 0.0579059 0.173368 0.116101 0.128658 0.147159 0.0527351 0.0078059 -0.0171886 0.10178 0.0655134 0.0167192 0.196945 0.182926 -0.12006 0.158767 0.140406 0.0622451 0.18972 0.0880624 -0.0110295 -0.0106505 0.12646 0.0803273
internal_weight=1358.21 1072.94 793.444 564.114 285.271 279.497 63.0061 216.491 553.737 100.154 191.183 80.8512 25.1204 116.337 91.895 24.4415 61.7288 68.2389 362.555 284.438 273.238 129.454 109.015 29.1868 55.7308 55.3548 57.1113 19.4067 39.7725 27.1502
internal_count=4445 2651 1675 1358 1794 976 138 838 1294 321 561 232 107 517 437 80 225 302 733 610 1763 336 300 101 125 189 268 94 123 94
is_linear=0
shrinkage=0.1


Tree=3
num_leaves=31
num_cat=0
split_feature=1 0 12 12 11 12 12 7 3 0 12 15 19 21 0 7 19 9 21 19 8 0 11 4 11 16 11 11 3 21
split_gain=1305.47 162.076 82.0003 76.3718 69.4616 62.0965 84.8139 53.2338 44.8727 43.2254 30.9369 30.3864 29.7279 30.5205 27.847 27.2343 27.7578 32.0561 25.0309 22.87 22.2271 21.1939 19.8873 19.359 20.0781 18.9646 19.9644 18.5222 22.0199 17.8693
threshold=0.051939105615019805 0.1591858193278313 20.500000000000004 20.500000000000004 -1.0000000180025095e-35 20.500000000000004 21.500000000000004 38.470401763916023 0.53685802221298229 0.25521290302276617 1.5000000000000002 -0.021748543716967102 4.8211479187011728 -0.035384252667427056 0.055637862533330924 40.823293685913093 -2.1017514467239375 -0.0070932689122855655 0.0090967137366533297 5.8576285839080819 40.236894607543952 0.10058392584323884 0.40577015280723577 0.34099160134792333 0.86223790049552929 -0.001963039860129356 0.46880401670932775 0.15516730397939685 0.19941856712102893 -0.019243249669671055
decision_type=2 2 2 2 2 2 2 2 2 2 2 2 2 2 2 2 2 2 2 2 2 2 2 2 2 2 2 2 2 2
left_child=3 5 4 21 -3 7 -7 19 20 12 11 -10 13 -6 -12 16 -15 -18 22 29 -9 -1 -13 -17 -25 -22 -27 -11 -29 -2
right_child=1 2 -4 -5 9 6 -8 8 10 27 14 18 -14 15 -16 23 17 -19 -20 -21 25 -23 -24 24 -26 26 -28 28 -30 -31
leaf_value=-0.12076192235505134 0.017103055018949712 -0.12286838771224394 0.21314088891736307 0.1340247940452598 0.19775198980692921 0.20857602746524562 -0.12182174411593648 -0.12991392327261858 0.2238699475567564 0.20975953204308997 0.22891325478406899 0.12732587390682348 0.20941129934060868 -0.14134775451168491 -0.0058493554759218823 -0.0067684792333025925 0.12187303204974465 -0.057416350294337053 0.18635165980736595 0.16787260893272615 0.096884640785752221 0.11789020165809412 -0.047142779068931148 0.14538237943963792 0.0012939599896411552 0.10223520859337452 -0.069819821845568272 0.068808320939695938 0.1647378933193584 -0.12904195055194229
leaf_weight=249.23479069769382 12.932395651936529 9.6104385852813703 239.58078914880753 12.708552986383436 24.945642441511154 55.652865901589394 9.0301657319068891 9.6743512153625471 31.842232465744019 82.820811033248901 6.1339470297098151 12.152603477239611 26.359080761671066 8.9063569158315641 28.663079127669334 12.526132196187971 25.942627131938934 16.19962415099144 18.097657814621925 4.2401904314756385 26.188047409057617 3.7775768637657157 14.129884257912634 73.521702498197556 11.135573267936705 9.661083251237871 22.336028203368187 26.232023075222969 272.45465029776096 23.696590334177017
leaf_count=1752 57 64 317 31 45 76 62 56 52 123 12 36 50 44 134 53 74 73 34 12 87 11 62 181 41 34 122 86 524 140
internal_value=0.093995 0.141476 0.163795 -0.105184 0.14378 0.0763287 0.16245 0.0509787 0.0745048 0.14819 0.113663 0.14933 0.110476 0.0954172 0.0355341 0.0781955 0.0190542 0.0529536 0.095848 -0.0519917 0.010442 -0.117199 0.0335287 0.109261 0.126429 0.0337788 -0.0178702 0.167916 0.156313 -0.0774433
internal_weight=1380.39 1114.67 830.235 265.721 590.655 284.431 64.683 219.748 178.879 581.044 111.019 76.2224 199.537 173.178 34.797 148.232 51.0486 42.1423 44.3801 40.8692 67.8595 253.012 26.2825 97.1834 84.6573 58.1852 31.9971 381.507 298.687 36.629
internal_count=4445 2651 1675 1794 1358 976 138 838 629 1294 330 184 561 511 146 466 191 147 132 209 299 1763 98 275 222 243 156 733 610 197
is_linear=0
shrinkage=0.1


Tree=4
num_leaves=31
num_cat=0
split_feature=1 12 12 0 2 12 8 15 5 9 14 3 16 6 16 11 0 4 0 13 16 19 21 15 15 11 12 10 6 10
split_gain=1046.6 130.835 155.819 132.221 66.7407 51.7785 49.4897 41.1757 48.2412 30.809 27.8069 26.8661 26.6614 25.9552 40.0477 29.9096 27.942 22.8376 31.3971 20.1174 18.7957 18.6876 18.4634 18.2896 28.0852 17.8746 34.5648 28.1676 17.4002 16.5616
threshold=0.050029205158352859 20.500000000000004 21.500000000000004 0.19833691418170932 1.0000000180025095e-35 1.0000000180025095e-35 37.767099380493171 -0.018800246529281136 0.37672805786132818 -0.022566405124962326 42.032707214355476 0.73897323012352001 0.07362601533532144 57.318973541259773 0.17216470092535022 0.69901457428932201 0.81868037581443798 0.37916131317615515 0.25521290302276617 50.470289230346687 0.046440945938229568 3.1821175813674931 0.0010789743391796949 -0.0067254439927637568 0.030295583419501785 0.93963208794593822 8.5000000000000018 0.07318673282861711 54.441539764404304 -0.017297100275754925
decision_type=2 2 2 2 2 2 2 2 2 2 2 2 2 2 2 2 2 2 2 2 2 2 2 2 2 2 2 2 2 2
left_child=4 3 -3 5 -1 6 -2 29 -9 21 -6 19 22 14 17 -15 25 18 -5 20 -10 -7 28 -19 -25 27 -27 -17 -11 -8
right_child=1 2 -4 13 10 9 7 8 11 12 -12 -13 -14 15 -16 16 -18 23 -20 -21 -22 -23 -24 24 -26 26 -28 -29 -30 -31
leaf_value=0.27363829419810853 -0.023766948788088962 0.196111314307887 -0.13619448426422814 -0.080324961598377265 -0.1177228000691893 -0.090015784987937178 0.095192813158557169 -0.13622322112486593 0.10093900636354375 0.030452984906737923 0.053354349019068187 0.13602349144090398 0.19195539460319641 0.19585584997689787 -0.046948233831024574 0.033687676052785144 0.20500800206381475 0.15221481730203529 0.10606212632950351 -0.13346932801327147 -0.086561249544380825 0.1118636054890835 -0.058967507697864519 -0.0079173698070030586 0.1663386647138351 -0.079742062631723898 0.20273431919835516 0.17980808028100442 0.22695335783787601 0.19291800803592402
leaf_weight=4.605764389038085 35.69428263604641 293.61762614548206 14.822948038578032 11.512988805770872 230.1941337287426 38.619374170899391 26.22509628534317 10.902222305536268 23.19056443870068 33.780159264802933 9.9100065231323224 48.551609933376312 10.005241140723227 118.05579774081707 14.360448226332663 22.465038955211639 29.299467831850052 178.66392831504345 42.035613626241684 6.7336854487657538 6.9481178075075141 5.2030979543924323 21.382787704467773 19.42829741537571 17.653286933898926 13.769130006432535 6.3201433867216101 31.962331011891365 5.2000884711742392 51.194009438157082
leaf_count=6 172 366 90 56 1738 207 70 58 79 145 39 108 29 178 52 61 41 342 98 38 37 17 105 68 33 58 11 54 10 79
internal_value=0.0841811 0.124538 0.180141 0.103854 -0.103429 0.0539451 0.08348 0.105513 0.0618698 -0.0002256 -0.110662 0.0871513 0.0407649 0.135805 0.115765 0.161425 0.122272 0.124442 0.0659888 0.022799 0.057713 -0.0660464 0.0157049 0.13895 0.07504 0.0897412 0.00912582 0.119497 0.0566668 0.159814
internal_weight=1382.31 1137.6 308.441 829.157 244.71 323.63 209.44 173.745 96.3262 114.191 240.104 85.424 70.3683 505.526 283.655 221.872 103.816 269.294 53.5486 36.8724 30.1387 43.8225 60.363 215.746 37.0816 74.5166 20.0893 54.4274 38.9802 77.4191
internal_count=4445 2662 456 2206 1783 1154 641 469 320 513 1777 262 289 1052 649 403 225 597 154 154 116 224 260 443 101 184 69 115 155 149
is_linear=0
shrinkage=0.1


Tree=5
num_leaves=31
num_cat=0
split_feature=2 12 12 0 12 12 8 4 5 8 11 3 7 19 11 5 21 4 3 10 3 16 4 21 6 16 4 4 15 3
split_gain=853.844 113.668 118.439 96.5581 72.957 44.4173 39.7405 29.5468 29.1157 23.0695 39.5791 30.4486 21.8652 25.3068 24.612 21.8064 20.3422 26.4045 18.7384 18.7079 18.038 17.3439 16.7856 16.14 16.2632 23.8787 16.3777 16.1853 16.1393 30.1922
threshold=0.050085194408893592 20.500000000000004 21.500000000000004 0.19833691418170932 17.500000000000004 1.0000000180025095e-35 37.767099380493171 0.50186994671821605 1.0000000180025095e-35 54.425201416015632 0.5307719111442567 0.2248533442616463 58.477327346801765 3.1821175813674931 0.67943769693374645 0.40839175879955297 0.0020803174702450637 0.26020644605159765 1.1480861306190493 0.014916732441633941 1.3917405009269717 -0.07532342895865439 0.28436015546321874 -0.061193780973553651 60.541185379028327 -0.023131992667913433 0.33683255314826971 1.519096374511719 -0.0057402055244892827 0.70637980103492748
decision_type=2 2 2 2 2 2 2 2 2 2 2 2 2 2 2 2 2 2 2 2 2 2 2 2 2 2 2 2 2 2
left_child=4 3 -3 5 8 6 -2 21 -1 11 -11 22 13 18 -14 19 -12 -18 -7 -9 -20 -8 -5 -13 25 26 -25 -28 -17 -30
right_child=1 2 -4 9 -6 12 7 15 -10 10 16 23 14 -15 -16 28 17 -19 20 -21 -22 -23 -24 24 -26 -27 27 -29 29 -31
leaf_value=0.23256589510480408 -0.020239608381097271 0.17862266059687246 -0.13245819808581358 0.054372762180700931 0.091707178252595056 -0.067679785271082024 0.14228750952568237 -0.14300282026714986 -0.11548929883440646 0.19661937626479797 0.1795381564904831 0.16129254921915548 0.23268870033924771 0.094416480655084511 -0.03306145462847105 0.17018480578175366 -0.037195012863827225 0.11093011697363205 0.19157039776316317 0.13134775882961475 -0.023718794872691185 -0.0026147496681805738 -0.14875422628211385 0.0060520400894272016 0.15846974984794063 0.0088369301588703941 0.1327909836474867 0.0017418558247085242 -0.018514874280444047 0.14221754773926373
leaf_weight=2.4302659630775443 34.800756856799126 287.18208593130112 12.78385156393051 9.4862780421972293 19.180450975894928 61.698493525385857 10.627560317516325 5.5207112580537778 217.63865976035595 85.80750198662281 38.196119129657745 44.766869410872459 7.8638344109058362 16.453909799456596 6.2585485726594925 60.169698238372803 13.218975171446798 134.27944274246693 5.9258962273597744 4.5208564251661301 11.337378442287443 37.083789840340614 7.1227934807538977 15.070129469037054 32.199541851878166 35.680002257227898 84.820979133248329 10.602403581142424 16.413559019565582 40.579604417085648
leaf_count=3 169 359 83 31 50 326 22 28 1779 114 59 72 18 53 28 95 48 282 17 12 53 149 34 49 51 116 163 30 74 78
internal_value=0.0762808 0.112603 0.165365 0.0935458 -0.095343 0.0503967 0.0773539 0.0967708 -0.111646 0.120491 0.140452 0.0978853 -0.00121414 -0.0184027 0.114917 0.121942 0.114498 0.097655 -0.0419117 -0.0194863 0.0501827 0.0296618 -0.0327382 0.107608 0.0941347 0.0799627 0.10293 0.11823 0.134063 0.0959279
internal_weight=1369.72 1130.47 299.966 830.506 239.249 319.255 209.717 174.916 220.069 511.251 271.502 239.749 109.538 95.4157 14.1224 127.204 185.695 147.498 78.9618 10.0416 17.2633 47.7114 16.6091 223.14 178.373 146.174 110.494 95.4234 117.163 56.9932
internal_count=4445 2613 442 2171 1832 1122 627 458 1782 1049 503 546 495 449 46 287 389 330 396 40 70 171 65 481 409 358 242 193 247 152
is_linear=0
shrinkage=0.1


Tree=6
num_leaves=31
num_cat=0
split_feature=1 12 0 2 11 12 15 5 21 13 13 11 17 12 14 2 0 8 7 11 13 17 16 16 11 21 0 4 0 15
split_gain=706.17 103.227 83.8486 49.7428 48.5314 43.6975 46.7245 55.9412 30.6499 24.0169 20.894 20.3174 19.5771 26.461 24.8404 21.8554 16.6566 18.0148 16.1153 15.8433 18.9185 15.6586 14.994 13.9411 20.8868 23.2049 13.4223 17.1428 30.5144 15.3952
threshold=0.050029205158352859 20.500000000000004 0.25521290302276617 1.0000000180025095e-35 -1.0000000180025095e-35 1.0000000180025095e-35 -0.018186013214290139 0.37672805786132818 0.0081131691113114374 37.202220916748054 53.12738227844239 0.91269960999488842 45.657875061035163 9.5000000000000018 40.044651031494148 0.26469762623310095 0.057071890681982047 33.93097114562989 50.000064849853523 0.31836402416229254 30.532695770263675 75.48087310791017 0.10567431896924974 -0.0064327367581427089 0.46880401670932775 -0.0057539541739970437 1.0775948762893679 0.18963520228862765 0.46693249046802526 -0.086145911365747438
decision_type=2 2 2 2 2 2 2 2 2 2 2 2 2 2 2 2 2 2 2 2 2 2 2 2 2 2 2 2 2 2
left_child=3 2 4 -1 -2 6 19 -8 10 -5 23 -10 14 21 15 16 -7 -18 -11 20 -6 -14 -19 -9 -25 -26 27 28 -4 -29
right_child=1 -3 26 9 5 12 7 8 11 18 -12 -13 13 -15 -16 -17 17 22 -20 -21 -22 -23 -24 24 25 -27 -28 29 -30 -31
leaf_value=0.21491734331804879 -0.12798243124018868 0.15152499631973279 0.10346669233009216 -0.11390673009100227 0.15001187493663631 0.13608806159908154 -0.13106704198989441 -0.055174636306210272 0.14549412114897367 -0.075978146244219197 -0.077150733234109536 -0.015148370132364711 -0.051430858355248327 0.14404513519868611 -0.11824764786917392 0.1227652545922803 0.11176083592881743 -0.073932833444896331 0.17630608387236807 0.15220361982402258 0.024849148525323064 0.13601452814025136 0.082678498585569027 0.13629004140192766 0.12114424527678175 -0.084973240162716415 0.15513911701526195 0.14315983676633834 -0.15287305213139765 0.096601333598638081
leaf_weight=4.9428194761276236 14.374177709221838 297.33927901089191 14.349966034293177 195.25695022940636 21.696080982685089 6.7586385458707801 16.339078813791275 10.215844333171843 48.636526435613632 5.3311814814805967 16.404855385422707 9.3937692046165449 18.325562536716465 22.930840581655502 17.797214053571224 14.649811759591101 7.7845289260148993 43.112377621233463 4.8221798688173294 82.260419100522995 27.236804187297821 5.8886588662862769 7.1232975572347632 25.054999172687531 9.549655467271803 12.760263219475748 71.947390154004097 111.30448316037655 6.8655592501163474 196.23371954262257
leaf_count=6 91 456 33 1735 41 18 94 43 90 31 84 34 89 58 98 33 26 225 11 139 86 18 24 67 26 66 106 184 32 401
internal_value=0.0697401 0.100896 0.0829533 -0.098566 0.0527262 0.0588537 0.0819264 0.0434806 0.0650837 -0.106109 0.0224104 0.11949 0.0141776 0.0670594 -0.011465 0.0124613 -0.012484 -0.0297909 0.0438403 0.125401 0.0803444 -0.005846 -0.0517257 0.0507756 0.0736273 0.00325438 0.116016 0.107454 0.0205126 0.113452
internal_weight=1346.69 1136.33 838.995 210.353 438.293 423.919 279.548 148.355 132.016 205.41 73.9856 58.0303 144.371 47.1451 97.2259 79.4287 64.7788 58.0202 10.1534 131.193 48.9329 24.2142 50.2357 57.5808 47.3649 22.3099 400.701 328.754 21.2155 307.538
internal_count=4445 2662 2206 1783 1450 1359 770 504 410 1777 286 124 589 165 424 326 293 275 42 266 127 107 249 202 159 92 756 650 65 585
is_linear=0
shrinkage=0.1


Tree=7
num_leaves=31
num_cat=0
split_feature=0 12 12 1 3 12 11 15 3 13 4 4 7 8 19 12 17 8 11 4 17 2 3 4 18 15 8 7 11 17
split_gain=587.471 92.9528 118.265 70.8321 53.4135 45.5183 37.2096 37.81 32.4798 25.4535 20.6132 19.8906 19.3476 22.2207 25.087 17.1029 22.0216 15.3133 24.0342 18.5205 15.6846 21.1506 15.034 12.7795 12.2914 12.2848 15.3081 11.9417 14.3067 11.934
threshold=0.051946558058261878 20.500000000000004 21.500000000000004 0.24757856875658038 1.094295918941498 1.0000000180025095e-35 -1.0000000180025095e-35 -0.018186013214290139 0.73897323012352001 50.470289230346687 1.7077562212944033 0.50186994671821605 57.807508468627937 49.759214401245124 2.2013130187988286 8.5000000000000018 45.657875061035163 54.610460281372077 0.60603401064872753 0.2932403981685639 32.307102203369148 0.33778455853462225 0.23357422649860385 0.53814807534217846 0.33336512744426733 0.018185120075941089 47.304462432861335 78.026500701904311 0.87551516294479381 57.097612380981452
decision_type=2 2 2 2 2 2 2 2 2 2 2 2 2 2 2 2 2 2 2 2 2 2 2 2 2 2 2 2 2 2
left_child=4 3 -3 5 -1 6 -2 -8 9 -9 12 -10 13 15 -15 -7 25 22 -19 -20 -21 24 29 -14 -22 26 -17 28 -23 -5
right_child=1 2 -4 17 -6 10 7 8 11 -11 -12 -13 23 14 -16 16 -18 18 19 20 21 27 -24 -25 -26 -27 -28 -29 -30 -31
leaf_value=-0.11099397022369602 -0.12675508538582997 0.15492031913926596 -0.13450359714536084 -0.080167411006544731 0.11105916498273459 -0.031831278772086032 0.11392575233871523 0.021531964604121157 -0.048311647953005472 -0.12826946827167152 -0.14177883838458777 0.10374292218096499 0.1950969554715262 -0.11850938121229569 0.10554542250771196 -0.0755973401457566 0.1446212428196266 0.15909944829996922 -0.0070541564570998656 0.16324578808224346 -0.10327953727596834 0.10170768299187571 0.090689273319325123 0.03333338625111245 0.074155185687421812 0.16427547462640049 0.11082440822193357 0.15875936617686459 -0.040706843801217543 0.10030488834644827
leaf_weight=180.48664023727179 9.387869790196417 276.84955060482025 14.877179823815821 9.7641886323690397 11.524409182369707 33.492087841033936 133.92726854979992 52.534669011831284 9.8619626089930517 14.465977050364016 9.5968300700187665 67.388953372836113 8.3282427713274974 26.290234483778477 6.1702063158154479 16.388931833207614 18.957672730088234 96.697243466973305 15.896578177809713 36.178291797637939 8.3429674059152585 41.725647687911987 147.79667487740517 11.808042019605635 7.3379082381725302 4.0237176418304434 6.0238291397690764 28.408538892865181 8.4890069961547834 5.8649331629276267
leaf_count=1733 62 368 93 43 34 160 265 210 42 91 54 148 18 160 18 90 44 135 52 52 31 78 299 39 17 10 19 41 26 13
internal_value=0.0640165 0.0915661 0.140161 0.0745915 -0.0976664 0.0462309 0.0690557 0.0756638 0.0401404 -0.0108114 -0.000293458 0.0843314 0.0100334 -0.0062794 -0.0759202 0.0223767 0.0623716 0.104497 0.120411 0.0948544 0.10727 0.0857955 0.0808262 0.100238 -0.0202485 0.00339023 -0.0254932 0.106945 0.0776319 -0.012444
internal_weight=1318.89 1126.88 291.727 835.148 192.011 428.646 287.567 278.179 144.252 67.0006 141.08 77.2509 131.483 111.347 32.4604 78.8862 45.3942 406.502 243.076 146.379 130.482 94.3041 163.426 20.1363 15.6809 26.4365 22.4128 78.6232 50.2147 15.6291
internal_count=4445 2678 461 2217 1767 1430 818 756 491 301 612 190 558 501 178 323 163 787 432 297 245 193 355 57 48 119 109 145 104 56
is_linear=0
shrinkage=0.1


Tree=8
num_leaves=31
num_cat=0
split_feature=2 12 12 11 11 12 0 12 4 5 2 17 2 19 15 17 15 3 9 18 18 21 11 14 8 16 5 15 3 10
split_gain=494.573 86.5239 86.6987 58.4991 55.8313 53.2554 50.2861 31.7798 26.6403 27.6538 22.2612 24.3263 20.6846 19.785 17.8629 16.6812 19.13 14.9684 28.3846 14.7865 23.3928 15.6491 14.0743 12.4589 11.736 11.6777 11.6654 12.1569 23.1011 13.9585
threshold=0.050085194408893592 20.500000000000004 21.500000000000004 -1.0000000180025095e-35 1.0015576481819155 17.500000000000004 0.25521290302276617 1.0000000180025095e-35 0.50186994671821605 0.35992619395256048 0.27631416916847235 34.387372970581062 1.0000000180025095e-35 0.9476430118083955 -0.93343248963356007 50.797916412353523 0.065827548503875746 0.53685802221298229 0.0065351256635040053 -0.0094093712978064997 -0.015137003734707831 -0.0010535233304835854 0.40005038678646093 39.583547592163093 53.355195999145515 -0.004086155677214264 0.18152851611375811 -0.086145911365747438 0.87125524878501903 0.042080590501427657
decision_type=2 2 2 2 2 2 2 2 2 2 2 2 2 2 2 2 2 2 2 2 2 2 2 2 2 2 2 2 2 2
left_child=5 3 -3 -2 6 12 7 8 10 -10 11 13 -1 25 -9 16 19 18 -11 20 21 -16 -23 -8 -20 -5 -25 -28 29 -29
right_child=1 2 -4 4 -6 -7 23 14 9 17 -12 -13 -14 -15 15 -17 -18 -19 24 -21 -22 22 -24 26 -26 -27 27 28 -30 -31
leaf_value=0.181664645158925 -0.12371344006264076 0.14625846118421318 -0.12902573849929086 0.044111194999931463 -0.14125338620883729 0.068981932467033311 0.12044788035336094 -0.13653998528826669 -0.06412286377030095 0.10334224246425208 0.14101220326804548 -0.05999765568963572 -0.11069612814004484 0.14125229003075521 -0.05678539893177062 0.08646304375461962 0.11517861595475631 0.11587568351572126 -0.13522670262105851 -0.076982125627838682 0.16635787422230838 0.16396759073405301 -0.0097203376422560859 -0.0012112429304996074 0.068285443249779587 -0.13901764081495677 0.12331665220166771 -0.026577891280796614 0.11718841904962607 0.073948538070426825
leaf_weight=2.4548920989036551 15.456830620765684 259.44943685829639 11.968390859663485 10.287296414375303 12.016054108738897 19.211711451411247 187.33746498823166 7.6089775189757338 10.836230449378489 29.267258018255234 13.126046031713484 34.172661609947681 170.09096854180098 15.703380264341829 31.59511928260326 30.015006862580776 12.872482180595396 141.73395818471909 9.2305237352848035 26.935622319579124 8.4568233937025052 7.5526478290557924 12.20390150696039 14.735162451863287 4.0887700617313376 5.2638800591230419 71.611974358558655 26.949778616428375 53.348069697618484 28.335840433835983
leaf_count=3 108 359 83 28 62 50 318 43 50 71 26 163 1779 34 162 88 35 272 52 144 24 14 56 41 13 28 117 75 89 58
internal_value=0.0591681 0.0851745 0.13412 0.0689884 0.0726872 -0.0889518 0.0759279 0.0516432 0.0713347 0.0911278 0.0221608 -0.00168322 -0.106537 0.0620758 0.0123711 0.0211117 0.00142099 0.100255 0.0482672 -0.0154602 0.0122471 -0.0131325 0.0566781 0.102031 -0.0727523 -0.0178756 0.0843365 0.0913301 0.0702443 0.0249455
internal_weight=1283.92 1092.16 271.418 820.742 805.285 191.758 793.269 410.951 273.71 195.157 78.5533 65.4272 172.546 31.2546 137.241 129.632 99.6166 184.321 42.5866 86.7441 59.8085 51.3517 19.7565 382.318 13.3193 15.5512 194.981 180.246 108.634 55.2856
internal_count=4445 2613 442 2171 2063 1832 2001 1303 737 458 279 253 1782 90 566 523 435 408 136 400 256 232 70 698 65 56 380 339 222 133
is_linear=0
shrinkage=0.1


Tree=9
num_leaves=31
num_cat=0
split_feature=0 12 12 11 11 0 3 19 3 18 4 6 16 21 9 21 7 8 18 9 16 10 15 18 20 7 8 11 20 3
split_gain=417.064 81.4367 88.7036 50.6103 47.7692 45.8419 44.401 23.5457 24.6538 21.2191 23.5794 18.9905 28.7376 18.7046 16.1157 17.5359 24.6311 14.1209 18.2284 18.3279 13.429 13.3215 14.4704 15.9966 12.9749 15.4341 13.8612 12.5473 11.8112 17.1856
threshold=0.051946558058261878 20.500000000000004 21.500000000000004 -1.0000000180025095e-35 1.0015576481819155 0.19833691418170932 1.094295918941498 2.8048583269119267 0.29923009872436529 -0.0064327367581427089 0.91195750236511242 57.318973541259773 0.20003951340913775 -0.048466149717569344 0.0092785898596048372 -0.029112061485648152 38.656690597534187 55.051305770874031 -0.22888226807117459 -0.03256979584693908 -0.020176277495920655 -0.038190301507711404 -0.051430534571409219 -0.015137003734707831 1.5000000000000002 44.88641548156739 37.767099380493171 0.51322385668754589 2.5000000000000004 0.84313148260116588
decision_type=2 2 2 2 2 2 2 2 2 2 2 2 2 2 2 2 2 2 2 2 2 2 2 2 2 2 2 2 2 2
left_child=6 3 -3 -2 5 7 -1 8 -5 14 -11 12 13 -7 15 -10 -17 18 19 -15 -16 -18 -23 -24 26 -26 -9 -19 -13 -30
right_child=1 2 -4 4 -6 11 -8 24 9 10 -12 28 -14 17 20 16 21 27 -20 -21 -22 22 23 -25 25 -27 -28 -29 29 -31
leaf_value=-0.10803367881323972 -0.12092766851572344 0.13880273940815963 -0.12844015883389537 -0.051048587866891017 -0.13598447224336063 0.11785617086872502 0.095160701322885913 -0.088888607335247796 0.13759998484351837 -0.06732291482513024 0.048971398995464689 0.15268569946954261 -0.079607034032481899 -0.14221396197472677 0.04794713938886596 -0.083792802581118875 -0.073626295583771789 0.15115961062074834 0.05809741757539863 0.038119913400772289 0.21147964614988704 0.10833037825966679 -0.039991357845692743 0.14487470271886677 0.16548890052671433 0.054212327236193597 0.078814416735670662 0.061899457332906464 0.055273642408341865 0.12249924773147414
leaf_weight=152.41597278416157 14.879290170967577 251.84472493827343 13.064514480531214 38.502210669219494 11.630204632878302 78.447040066123009 11.570358999073504 7.3294923454523113 17.148571819067001 33.802277944982052 36.006365984678268 49.264295607805252 12.275639384984968 10.057906270027162 8.6889126598835009 16.287146329879761 7.392170086503028 25.795973315834999 96.700858794152737 12.818612821400164 11.897199526429175 36.471342697739594 17.822949975728989 6.3478031828999617 27.688759431242943 22.669337280094624 15.04569438844919 40.43201744556427 61.675039634108543 99.177982866764069
leaf_count=1733 113 368 93 196 64 128 34 41 34 174 120 68 44 38 30 91 32 37 239 32 20 81 79 16 48 65 41 88 139 159
internal_value=0.0549077 0.0774474 0.125623 0.0618123 0.0652053 0.0681681 -0.0936969 0.0376399 0.0219789 0.0366336 -0.00733986 0.0871822 0.0699626 0.0769107 0.0617838 0.045417 0.0266697 0.0596235 0.0391072 -0.0411658 0.142456 0.0531139 0.0685634 0.00855878 0.0872427 0.115396 0.0238795 0.0966665 0.109844 0.0967233
internal_weight=1245.15 1081.16 264.909 816.255 801.376 789.746 163.986 303.1 230.367 191.865 69.8086 486.645 276.528 264.252 122.056 101.47 84.3214 185.805 119.577 22.8765 20.5861 68.0343 60.6421 24.1708 72.7333 50.3581 22.3752 66.228 210.117 160.853
internal_count=4445 2678 461 2217 2104 2040 1767 1068 873 677 294 972 606 562 383 333 299 434 309 70 50 208 176 95 195 113 82 125 366 298
is_linear=0
shrinkage=0.1


Tree=10
num_leaves=31
num_cat=0
split_feature=2 12 12 11 11 0 12 3 21 15 5 2 16 6 9 11 14 16 11 10 10 13 8 10 5 8 11 8 2 0
split_gain=353.536 78.0045 45.4036 41.5716 39.3578 37.148 24.8247 22.2415 21.7501 32.5462 28.6912 18.2874 16.6099 20.8899 15.511 15.4186 17.9609 14.8329 12.9675 17.0347 16.2145 16.0007 17.0663 12.5646 13.2821 11.3831 11.339 15.155 28.8165 13.2114
threshold=0.050085194408893592 20.500000000000004 12.500000000000002 -1.0000000180025095e-35 1.0015576481819155 0.25521290302276617 1.0000000180025095e-35 0.78250482678413402 0.020870844833552841 -0.018186013214290139 0.37672805786132818 1.0000000180025095e-35 0.13914295285940173 41.670747756958015 -0.054776778444647782 0.31836402416229254 31.367951393127445 -0.79141581058502186 0.49886265397071844 -0.02117978315800428 -0.021902956999838349 21.273589134216312 60.559869766235359 -0.0073487870395183555 1.0039789676666262 44.030038833618171 0.15516730397939685 54.425201416015632 0.84215769171714794 0.78042352199554454
decision_type=2 2 2 2 2 2 2 2 2 2 2 2 2 2 2 2 2 2 2 2 2 2 2 2 2 2 2 2 2 2
left_child=2 3 11 -2 5 6 8 -4 9 15 -11 -1 13 14 -12 16 -5 -8 20 -20 25 22 -21 24 -18 -19 -7 28 -28 -29
right_child=1 -3 7 4 -6 26 17 -9 -10 10 12 -13 -14 -15 -16 -17 23 18 19 21 -22 -23 -24 -25 -26 -27 27 29 -30 -31
leaf_value=0.16920183004368056 -0.11879229286850478 0.12223410722405344 -0.10613693332541059 0.1033833267741273 -0.13174362313817176 0.12028729059316089 -0.13156516097217394 0.11520592040192656 0.13089069878553453 -0.12697582993605677 0.087019299535054842 -0.11012366822797318 -0.11267665629080514 0.069709237609805144 -0.088253866864710262 0.11269227210216728 -0.16517470547148538 0.013520778267571969 0.12017238794461327 -0.079713852107030747 0.066506970587897327 -0.092608471239858173 0.16565203402118914 0.065541050102289819 0.033139459533043938 -0.13957884448142491 0.063848606976424971 0.076377332928349265 -0.11167235659776249 0.1336947970613431
leaf_weight=2.3835556507110587 13.154830783605574 242.81269512325525 6.4535934254527119 22.276032611727715 10.51126781105995 76.598677709698677 7.2671237438917151 15.308486163616179 37.105253659188747 13.516947507858275 7.0743391960859325 140.71517430245876 7.6936098262667647 66.032414771616459 17.636122018098831 74.35945437848568 8.1248936802148837 16.374912939965728 6.7067590504884711 5.4462017938494665 59.709160894155502 28.157584175467491 5.9117664247751236 9.7010599225759488 5.7795777916908255 6.9038957953453055 90.351078808307648 133.91360059380531 10.433863550424574 57.472629979252815
leaf_count=3 108 442 35 44 62 122 44 35 62 87 16 1759 39 190 90 130 38 60 18 32 202 157 13 25 16 40 189 262 38 87
internal_value=0.0510559 0.0726031 -0.0850057 0.0575056 0.0604597 0.0630681 0.0421906 0.0495662 0.0597987 0.048438 0.00963795 -0.105471 0.0283973 0.0403582 -0.038075 0.0845637 0.0389763 0.00744617 0.0152645 -0.027184 0.0389073 -0.0521939 0.0479979 -0.0218032 -0.0827428 -0.0318846 0.0860407 0.0770623 0.0456776 0.0935896
internal_weight=1205.89 1041.03 164.861 798.213 785.058 774.547 405.777 21.7621 269.3 232.194 111.953 143.099 98.4365 90.7429 24.7105 120.241 45.8816 136.477 129.21 46.2223 82.988 39.5156 11.358 23.6055 13.9045 23.2788 368.77 292.171 100.785 191.386
internal_count=4445 2613 1832 2171 2063 2001 1303 70 737 675 422 1762 335 296 106 253 123 566 522 220 302 202 45 79 54 100 698 576 227 349
is_linear=0
shrinkage=0.1


Tree=11
num_leaves=31
num_cat=0
split_feature=0 12 12 3 11 11 0 19 3 18 4 6 16 21 4 16 12 17 15 9 21 7 13 17 20 3 11 16 8 15
split_gain=300.017 70.8267 78.9804 36.6552 36.4795 34.0508 33.1335 17.974 18.4877 15.8854 18.6082 15.171 23.1957 15.7535 14.7828 18.3449 14.0123 13.0905 16.1068 11.9116 14.5068 15.7846 11.6295 14.0308 11.3748 15.208 14.2415 10.9215 10.8441 14.6127
threshold=0.051946558058261878 20.500000000000004 21.500000000000004 1.094295918941498 -1.0000000180025095e-35 1.0015576481819155 0.19833691418170932 2.8048583269119267 0.29923009872436529 -0.0064327367581427089 0.91195750236511242 57.318973541259773 0.17216470092535022 -0.061193780973553651 0.37916131317615515 -0.014392050448805092 3.5000000000000004 63.517133712768562 -0.051430534571409219 0.0038344693602994089 -0.029112061485648152 38.901193618774421 36.832151412963874 48.254278182983406 2.5000000000000004 0.84313148260116588 0.58380377292633068 -0.020176277495920655 43.429063796997077 -0.035687025636434548
decision_type=2 2 2 2 2 2 2 2 2 2 2 2 2 2 2 2 2 2 2 2 2 2 2 2 2 2 2 2 2 2
left_child=3 4 -3 -1 -2 6 7 8 22 19 -11 12 13 -8 15 16 -15 -16 -19 20 -10 -22 -6 -24 -13 26 -26 -21 -23 -30
right_child=1 2 -4 -5 5 -7 11 -9 9 10 -12 24 -14 14 17 -17 -18 18 -20 27 21 28 23 -25 25 -27 -28 -29 29 -31
leaf_value=-0.10537153415460186 -0.11669588923403983 0.12782114881370468 -0.12715594987953291 0.081212760189806443 -0.11459955831772362 -0.12792973857515894 0.1193239246471543 0.074407094776132179 0.11860146089100149 -0.063622169327502379 0.04076655801784642 0.13813098354142697 -0.068431215087090755 0.06884450006435934 0.077457918185286717 -0.1403965551100671 -0.067707650301820563 0.059602470513270826 -0.12875413628459778 0.046635861654804926 -0.076188387261553678 0.13866844289550298 0.078649257350221768 -0.082324523439235908 0.11496254309049475 0.10649828983400751 0.0098845337833879839 0.17535193826051368 0.055825117170380037 -0.059012871390953014
leaf_weight=128.12371492385864 12.644162997603415 224.95001658797264 12.841859206557272 11.471673049032686 15.272930011153219 10.094339437782763 43.861234694719315 71.687771037220955 16.922396957874298 32.526124745607376 35.950910374522209 45.717598125338554 13.775991380214689 27.20097454637289 146.85254533588886 7.4764589816331855 10.383222207427023 12.338235124945642 7.1828895360231391 13.199448823928835 14.871045559644697 9.2100074812769872 10.990476965904238 10.672869630157946 18.638323724269867 94.134912833571434 41.881782010197639 13.168634980916975 36.558195978403084 15.899557925760751
leaf_count=1733 113 368 93 34 93 64 70 195 34 174 120 68 49 60 302 33 40 26 26 42 89 21 42 61 33 159 106 22 99 76
internal_value=0.0475115 0.0662097 0.114051 -0.0900384 0.0517931 0.0545369 0.0569402 0.0307959 0.0169158 0.0296043 -0.00881738 0.0734769 0.0579637 0.0647841 0.05347 0.00266185 0.0311198 0.0672309 -0.00970423 0.0515605 0.0348139 0.0162888 -0.0477719 -0.000657611 0.0943089 0.0813546 0.0422453 0.110919 0.0385894 0.0210186
internal_weight=1166.5 1026.9 237.792 139.595 789.113 776.469 766.375 296.93 225.243 188.306 68.477 469.444 269.072 255.296 211.434 45.0607 37.5842 166.374 19.5211 119.829 93.4612 76.5388 36.9363 21.6633 200.373 154.655 60.5201 26.3681 61.6678 52.4578
internal_count=4445 2678 461 1767 2217 2104 2040 1068 873 677 294 972 606 557 487 133 100 354 52 383 319 285 196 103 366 298 139 64 196 175
is_linear=0
shrinkage=0.1


Tree=12
num_leaves=31
num_cat=0
split_feature=2 12 12 12 0 11 15 12 3 14 19 16 2 17 11 14 19 16 14 11 5 7 9 16 13 16 10 21 18 1
split_gain=255.95 68.5509 59.4465 38.5183 31.8388 22.1385 21.2624 26.1439 25.9247 23.0119 20.9228 17.9799 16.4407 15.6897 14.3741 14.3805 17.6793 13.9903 13.8586 13.3146 12.339 12.0506 11.5565 12.7934 14.0066 11.5883 11.5532 11.3498 10.8479 16.9971
threshold=0.050085194408893592 20.500000000000004 21.500000000000004 12.500000000000002 0.31121504306793218 -1.0000000180025095e-35 -0.0061105138156563035 1.0000000180025095e-35 1.009166479110718 58.323295593261726 4.190662384033204 -0.79141581058502186 1.0000000180025095e-35 50.797916412353523 0.31836402416229254 31.730470657348636 4.0955262184143075 0.0060099500697106132 40.266809463500984 0.68784922361373912 0.54306340217590343 47.06361389160157 -0.023014862090349194 0.001752555894199759 20.220162391662601 0.095195591449737563 0.084434606134891524 0.010936379432678224 -0.34537304937839503 0.2363894581794739
decision_type=2 2 2 2 2 2 2 2 2 2 2 2 2 2 2 2 2 2 2 2 2 2 2 2 2 2 2 2 2 2
left_child=3 4 -3 12 5 -2 7 14 9 10 22 -9 -1 18 15 20 28 -16 -13 27 -7 -5 -8 -24 -25 -26 -21 -10 -17 -30
right_child=1 2 -4 21 -6 6 8 11 19 -11 -12 13 -14 -15 17 16 -18 -19 -20 26 -22 -23 23 24 25 -27 -28 -29 29 -31
leaf_value=0.16182023351360586 -0.11461045189031827 0.1238704028122608 -0.1229109600895984 -0.026759646384785243 0.075498920028403485 0.00037664944910059732 -0.094101885243579653 -0.13734478674108927 0.026669705898301546 -0.12495829778170359 0.10624298125607351 0.025913971458370235 -0.10842300055281406 0.098226999756858099 0.12160320996936687 0.057756725702711148 0.14522130173700903 0.031267155641495945 -0.08024495052953623 -0.075375088108851407 0.12560756595936876 0.12564549257327712 -0.05675735134074196 0.15211170486250544 0.040343212421920453 -0.07339397810246423 0.070749615058101414 0.11872729112846565 -0.15715109126290974 0.027845560417685988
leaf_weight=2.2949029207229605 9.9381893873214704 205.68037630617619 10.247480876743792 11.189784042537214 277.23990110307932 11.319164499640463 16.29830064624548 7.2616824433207503 21.987662181258202 16.879017785191536 15.976188309490679 57.757032886147499 118.14661175757647 22.835203178226948 79.647657915949821 8.7153141647577304 6.6656107902526847 21.84582557529211 15.623736098408697 11.957667596638204 25.804049670696259 9.6729259490966779 27.1372936591506 7.7477769553661338 29.575517997145653 12.850205555558203 9.8824223428964597 34.261467561125755 11.289433710277082 8.8674479722976667
leaf_count=3 99 359 83 49 564 34 86 46 73 98 36 204 1759 52 133 21 10 54 81 47 44 21 145 19 103 59 24 58 59 22
internal_value=0.0443189 0.0623694 0.112159 -0.0815441 0.0483957 0.0331269 0.0361719 0.0541966 0.0117077 -0.0162669 0.000474401 0.0143864 -0.103274 0.0258379 0.0778507 0.0438967 -0.00157216 0.102159 0.00331133 0.0570123 0.0874237 0.0439025 -0.017577 -0.00144443 0.0284726 0.00589368 -0.00925512 0.0827422 -0.0354618 -0.0757671
internal_weight=1126.6 985.292 215.928 141.304 769.364 492.124 482.186 277.632 204.554 126.464 109.585 103.478 120.442 96.216 174.155 72.661 35.5378 101.493 73.3808 78.0892 37.1232 20.8627 93.6091 77.3108 50.1735 42.4257 21.8401 56.2491 28.8722 20.1569
internal_count=4445 2613 442 1832 2171 1607 1508 760 748 546 448 383 1762 337 377 190 112 187 285 202 78 70 412 326 181 162 71 131 102 81
is_linear=0
shrinkage=0.1


Tree=13
num_leaves=31
num_cat=0
split_feature=2 12 12 12 11 6 15 11 15 4 3 16 15 11 0 14 2 11 2 3 8 19 19 17 19 4 21 7 9 19
split_gain=218.083 65.5598 52.0455 35.2709 26.8191 29.7642 34.0072 22.3654 18.5824 18.4155 22.5244 21.8284 17.8301 17.6139 15.0532 15.0142 14.5683 13.0222 13.905 12.7155 12.5642 12.2514 14.7726 13.0369 11.2377 11.1954 10.7701 18.5837 10.7255 10.5671
threshold=0.050085194408893592 20.500000000000004 21.500000000000004 12.500000000000002 1.0015576481819155 57.318973541259773 -0.0061105138156563035 -1.0000000180025095e-35 0.00066483381669968377 0.37705403566360479 0.2248533442616463 -0.015019137877970932 0.26235009729862219 0.55508393049240123 0.49143949151039129 60.261339187622077 1.0000000180025095e-35 0.32065585255622869 0.2017583101987839 1.1480861306190493 57.375104904174812 -0.52874109148979176 6.5719451904296884 60.02540588378907 2.9736739397048955 0.26020644605159765 -0.029112061485648152 26.724180221557621 -0.069823876023292528 -0.79421949386596669
decision_type=2 2 2 2 2 2 2 2 2 2 2 2 2 2 2 2 2 2 2 2 2 2 2 2 2 2 2 2 2 2
left_child=3 4 -3 16 5 6 7 -2 -8 11 20 17 15 -7 21 -10 -1 18 -9 -17 -11 23 24 -15 -23 -16 -12 -28 29 -29
right_child=1 2 -4 -5 -6 13 8 9 12 10 26 -13 -14 14 25 19 -18 -19 -20 -21 -22 22 -24 -25 -26 -27 27 28 -30 -31
leaf_value=0.15277408380246352 -0.11472038050413852 0.11991458881085444 -0.12044164220628698 0.039659158121292282 -0.12555995184240162 0.11390853226661866 -0.065088239926003141 -0.14127654153333574 0.048266272235601398 -0.14849424100554065 0.09529961327829202 -0.11169370423346657 -0.087000940517013556 0.097646453382121468 -0.02864225639775014 -0.14831158908812411 -0.10758367545634791 0.071061664152246171 0.025230418608393271 0.042667608426596268 0.059428374270328078 0.0047040369930499348 0.12267436203520116 -0.025573549768556466 -0.11678073031200331 0.11618230267578288 -0.070362449760025716 -0.067036993350552895 0.075843356890765226 0.06332287704062492
leaf_weight=2.1929227113723746 8.1219961494207364 191.92841535806656 9.4526047930121404 20.787120267748833 9.170024208724497 80.037312410771847 40.791480004787445 7.0940275862813023 77.100952886044979 7.4922600835561735 107.80859279632568 12.53063679486513 14.925956189632414 38.718493573367596 6.0215089768171302 7.8830781280994398 107.69485665485263 36.433641485869884 17.116784051060677 6.2505894899368286 4.7480032294988632 36.922811336815357 8.548995763063429 11.033148437738417 9.5926218628883344 47.004744648933411 11.110257640480993 11.393206574022772 123.35092707723379 13.690191611647604
leaf_count=3 82 359 83 70 62 145 225 41 256 39 198 64 67 76 17 47 1759 91 44 16 12 102 14 32 38 77 44 39 313 30
internal_value=0.0413799 0.057938 0.108633 -0.0797918 0.0444144 0.0465045 0.0328312 0.049344 -0.00772154 0.0531214 0.0648101 0.00846034 0.0143212 0.0756952 0.0563183 0.0308975 -0.102388 0.0332871 -0.0235579 -0.0638514 -0.067841 0.0343532 0.00185593 0.0703206 -0.0203491 0.0997364 0.0708832 0.0543844 0.0637217 0.00411172
internal_weight=1086.95 956.273 201.381 130.675 754.892 745.722 507.843 360.891 146.952 352.769 279.593 73.1751 106.161 237.88 157.842 91.2346 109.888 60.6445 24.2108 14.1337 12.2403 104.816 55.0644 49.7516 46.5154 53.0263 267.353 159.545 148.434 25.0834
internal_count=4445 2613 442 1832 2171 2109 1608 997 611 915 675 240 386 501 356 319 1762 176 85 63 51 262 154 108 140 94 624 426 382 69
is_linear=0
shrinkage=0.1


Tree=14
num_leaves=31
num_cat=0
split_feature=1 12 12 13 0 11 21 3 21 2 11 10 6 11 15 6 3 11 6 8 11 17 10 16 11 0 8 8 21 4
split_gain=186.334 60.4856 51.3021 28.7212 24.8945 17.5974 17.2417 19.595 15.0824 20.1624 16.5555 12.6629 12.5681 17.1382 12.0303 10.9143 16.4951 15.0021 10.2363 10.1693 16.0057 14.7978 20.9566 12.3646 10.1881 9.96079 14.8134 11.7858 11.0813 10.8295
threshold=0.050029205158352859 20.500000000000004 21.500000000000004 37.202220916748054 0.31121504306793218 -1.0000000180025095e-35 -0.048466149717569344 0.72870308160781871 -0.013233371078968046 0.27631416916847235 0.24267346411943438 -0.015562806744128464 41.451322555541999 0.26465499401092535 -0.042357349768280976 41.670747756958015 1.2508799433708193 0.7245861589908601 50.000099182128913 54.425201416015632 0.56174302101135265 45.407855987548835 0.048415007069706924 -0.052588500082492821 0.42526471614837652 0.071312580257654204 63.999166488647468 47.304462432861335 0.00062519704806618403 0.92682760953903209
decision_type=2 2 2 2 2 2 2 2 2 2 2 2 2 2 2 2 2 2 2 2 2 2 2 2 2 2 2 2 2 2
left_child=3 4 -3 -1 5 -2 -7 8 10 12 11 -8 -10 -14 -11 16 -9 -17 -5 23 -21 -22 -23 -6 -25 28 27 -27 -15 -28
right_child=1 2 -4 18 19 6 7 15 9 14 -12 -13 13 25 -16 17 -18 -19 -20 20 21 22 -24 24 -26 26 29 -29 -30 -31
leaf_value=-0.10113874726336286 -0.11188541984452001 0.11524685902928114 -0.11952169031986777 -0.042288778262398519 0.061248481843773295 0.11683536644477917 -0.068992948585998928 0.043082843068698418 -0.10596468983319765 0.10567933224573374 0.066820563962402477 0.07999415284327599 0.10526219510931603 -0.041475614734018049 -0.0037025524399045152 0.078335405807234804 -0.073776880661890198 -0.00036373019296825839 0.14576873058019099 0.12206369031362529 0.097797519741153457 -0.060704111675918937 0.065784677816017545 0.028420958642672134 -0.099088453841802399 -0.032215991208866555 -0.051309580722948993 -0.13229187822480282 0.14832246174056327 0.098848003285280692
leaf_weight=99.541062463074923 8.9872648902237398 182.08757999539375 9.8094156458973867 5.1211111992597562 71.516630634665489 21.510540500283241 19.794445015490059 45.833342224359512 20.851188778877258 18.57880662381649 61.94563190639019 8.0145048275589925 9.7690869793295843 6.5794776007533056 21.91680645942688 117.96340344846249 16.401133939623833 30.480918854475021 6.6568350493907928 58.601650074124336 48.790739074349403 19.728773862123489 38.973852694034576 17.158467680215839 9.8712259680032712 24.288052834570408 9.643230542540552 22.828741684556007 5.7772420793771744 9.5691662505269033
leaf_count=1737 105 366 90 32 153 36 81 132 138 37 180 21 28 35 64 278 70 101 14 99 95 58 86 41 35 114 41 139 16 23
internal_value=0.0386519 0.0531795 0.103246 -0.0836664 0.0402899 0.0267305 0.0293713 0.0251925 0.00562849 -0.0137938 0.0380446 -0.0260551 -0.0361241 -0.0196608 0.0464803 0.0474382 0.0122859 0.0621757 0.0640004 0.0649212 0.0800205 0.0571001 0.0232743 0.039472 -0.0181454 -0.0351704 -0.050527 -0.0807041 0.0472623 0.0234798
internal_weight=1048.59 937.271 191.897 111.319 745.374 480.733 471.746 450.235 239.556 149.802 89.7546 27.8089 109.306 88.455 40.4956 210.679 62.2345 148.444 11.7779 264.641 166.095 107.493 58.7026 98.5463 27.0297 78.6859 66.3292 47.1168 12.3567 19.2124
internal_count=4445 2662 456 1783 2206 1639 1534 1498 917 635 282 102 534 396 101 581 202 379 46 567 338 239 144 229 76 368 317 253 51 64
is_linear=0
shrinkage=0.1


Tree=15
num_leaves=31
num_cat=0
split_feature=0 12 12 14 11 7 16 0 5 19 13 11 6 7 16 19 9 10 11 9 19 21 12 8 20 15 18 16 15 15
split_gain=160.86 58.5585 48.9313 28.7668 23.0744 24.4084 25.8082 19.298 19.2472 19.2328 17.7731 16.3662 15.353 13.1947 17.4523 16.5812 15.2485 14.6408 13.0212 13.9532 12.9035 12.5931 18.5939 23.5649 25.3978 21.862 14.2498 12.3766 12.3969 12.1732
threshold=0.051946558058261878 20.500000000000004 21.500000000000004 36.992679595947273 1.0015576481819155 61.909816741943366 -0.012684658635407684 0.49143949151039129 0.39046029746532446 4.190662384033204 38.92737007141114 0.65718215703964245 50.000099182128913 47.392452239990241 0.74343997240066539 -2.0523175001144405 -0.066619738936424241 0.015860838815569881 0.68784922361373912 0.054135462269186981 -0.30749109387397761 -0.048466149717569344 1.0000000180025095e-35 45.085863113403327 1.5000000000000002 -0.20343282073736188 -0.091683838516473756 -0.046954106539487832 -0.018186013214290139 -0.035687025636434548
decision_type=2 2 2 2 2 2 2 2 2 2 2 2 2 2 2 2 2 2 2 2 2 2 2 2 2 2 2 2 2 2
left_child=3 4 -3 -1 5 6 11 10 20 13 -7 21 -5 15 29 -10 -17 -18 -12 -20 -8 -2 23 24 26 -24 -23 -28 -29 -15
right_child=1 2 -4 12 -6 7 8 -9 9 -11 18 -13 -14 14 -16 16 17 -19 19 -21 -22 22 25 -25 -26 -27 27 28 -30 -31
leaf_value=-0.10417401976418675 0.081904684421788054 0.11268951685175273 -0.11895513408393631 -0.08456614787738985 -0.12345966562349438 0.094143868629783134 0.0046698978087849159 0.10978124497594009 -0.10469551152791086 0.089303291671249438 0.06691335471264595 0.12436568181371022 0.13804947671800227 0.12090240459378254 -0.12118119738928745 0.079305722521829936 -0.12823218513814158 0.0099166025808863616 -0.087450388497974263 0.034916671005397887 -0.11083332802365248 0.020441421538448981 -0.097696846239728186 0.096492075273363814 0.091308289787198779 0.020398267134270235 -0.16556076216551999 0.082386216090964734 -0.13385049092245579 0.022440246993118879
leaf_weight=88.044269528239965 57.894780419766903 170.90910665690899 9.6328644752502424 4.9711318947374812 8.882113151252268 40.354763351380825 17.05801846832037 74.45996455848217 20.89313243702054 30.106470551341772 23.457914024591446 25.057783864438534 8.2218120172619802 15.491775490343569 7.2118042930960646 16.735398396849632 11.645366802811621 22.479887939989567 19.235298745334148 18.074658706784248 22.337883792817593 25.466986499726772 19.885768845677376 65.765894614160061 27.130505938082933 74.042370185256004 10.813326954841616 5.949477918446064 4.7825091034173948 66.267726235091686
leaf_count=1714 120 368 93 35 64 86 74 137 125 66 50 48 18 28 33 51 77 95 68 41 128 81 97 123 57 246 58 17 32 215
internal_value=0.0360511 0.049326 0.10033 -0.0835394 0.0367374 0.0387065 0.0282939 0.0711465 0.00281467 0.015952 0.0426984 0.0468109 0.0541674 0.00221204 0.027943 -0.0296931 0.00111729 -0.0372272 0.00853445 -0.0281702 -0.0608216 0.0401495 0.0298115 0.0529164 0.014264 -0.00460395 -0.0301978 -0.0900543 -0.0139756 0.0410968
internal_weight=1013.26 912.024 180.542 101.237 731.482 722.599 547.017 175.583 230.227 190.832 101.123 316.789 13.1929 160.725 88.9713 71.7538 50.8607 34.1253 60.7679 37.31 39.3959 291.732 233.837 139.909 74.1428 93.9281 47.0123 21.5453 10.732 81.7595
internal_count=4445 2678 461 1767 2217 2153 1771 382 892 690 245 879 53 624 276 348 223 172 159 109 202 831 711 368 245 343 188 107 49 243
is_linear=0
shrinkage=0.1


Tree=16
num_leaves=31
num_cat=0
split_feature=0 12 12 3 11 11 7 16 0 16 18 13 12 21 8 15 17 14 19 6 13 5 13 7 11 9 18 19 19 13
split_gain=138.247 55.3263 43.0883 26.101 20.1735 20.3592 18.2897 22.6675 17.6727 15.7443 15.5161 14.7913 13.5657 23.3311 22.756 21.9632 17.053 16.7548 15.3285 13.2497 12.0876 11.6506 11.0264 11.4238 10.7308 11.2979 11.4045 10.0263 9.94159 9.91903
threshold=0.051946558058261878 20.500000000000004 21.500000000000004 1.094295918941498 -1.0000000180025095e-35 1.0015576481819155 61.909816741943366 0.74343997240066539 0.49143949151039129 -0.012684658635407684 0.017470825463533405 38.92737007141114 1.0000000180025095e-35 -0.026792488992214199 45.085863113403327 -0.072379492223262773 55.379901885986335 75.34305572509767 2.1364809274673466 45.652173995971687 21.045708656311039 0.40392611920833593 72.536968231201186 50.75554275512696 0.68784922361373912 0.054135462269186981 0.074069969356060042 1.5150932073593142 0.2832679301500321 58.509798049926765
decision_type=2 2 2 2 2 2 2 2 2 2 2 2 2 2 2 2 2 2 2 2 2 2 2 2 2 2 2 2 2 2
left_child=3 4 -3 -1 -2 6 7 9 11 12 22 -8 14 -14 16 29 -6 18 -18 -17 -21 27 23 -11 -13 -26 -27 -12 -23 -15
right_child=1 2 -4 -5 5 -7 8 -9 -10 10 21 24 13 15 -16 19 17 -19 -20 20 -22 28 -24 -25 25 26 -28 -29 -30 -31
leaf_value=-0.10078702854614836 -0.11198696982608886 0.10967077816149068 -0.11698580662527476 0.06765520144459411 0.051597570234042184 -0.12086275372764808 0.086483642811802861 -0.1109460950125407 0.10434690420218573 -0.022451391759172462 0.034937376110066178 0.061463652608974101 0.079452163613700985 -0.10413785736106869 0.10026577896029215 0.078899809328669426 -0.18369700296528016 0.080633889034946005 0.037389180223201972 0.062765555273099335 -0.11784931511092718 -0.020613683667348743 -0.14841614939664377 0.035612193386862799 -0.078627085930760787 0.097172912834452813 -0.065321839314121721 -0.16378024514911069 0.095391832597638851 0.016800071188626902
leaf_weight=82.864856228232384 9.3610761389136297 158.6830658018589 8.8553599938750249 10.348115764558314 78.409263379871845 8.2006317079067212 39.577611804008484 11.417868077754973 70.700883507728577 93.204209998250008 6.6746636852622014 23.008250430226326 41.89678280800581 25.539887815713882 86.885776937007904 26.160641696304083 9.5783753395080584 6.6810790449380866 4.6625587940216056 6.5863080173730841 8.4711493998765928 9.0452980175614339 5.2814061492681494 53.240014545619488 19.252968333661556 10.712350100278856 7.237056925892829 4.0978548601269722 40.308246776461601 9.2336651533842069
leaf_count=1733 113 368 93 34 199 64 86 53 137 421 27 50 87 135 161 69 49 15 14 18 39 34 34 155 68 19 22 25 93 30
internal_value=0.0337362 0.0459635 0.0976907 -0.0820873 0.03385 0.0357835 0.0376243 0.0284196 0.066097 0.0315037 0.0105746 0.0389965 0.0460837 0.0195387 0.0628886 -0.0134936 0.0301945 -0.0500176 -0.111312 0.0358858 -0.0388463 0.0535653 -0.00646177 -0.00134229 0.00778233 -0.0254175 0.0316563 -0.0406546 0.0741309 -0.0720244
internal_weight=976.177 882.964 167.538 93.213 715.426 706.065 697.864 527.375 170.489 515.957 211.852 99.7882 304.105 117.888 186.217 75.9917 99.3313 20.922 14.2409 41.2181 15.0575 60.1261 151.726 146.444 60.2106 37.2024 17.9494 10.7725 49.3535 34.7736
internal_count=4445 2678 461 1767 2217 2104 2040 1658 382 1605 789 245 816 378 438 291 277 78 63 126 57 179 610 576 159 109 41 52 127 165
is_linear=0
shrinkage=0.1


Tree=17
num_leaves=31
num_cat=0
split_feature=2 12 2 6 15 15 14 11 0 7 3 11 4 21 7 16 11 3 10 0 19 12 12 19 17 13 9 8 11 7
split_gain=119.758 53.5204 26.3289 17.415 21.4962 13.8604 17.5881 13.9798 22.0233 13.0901 14.1987 14.2499 14.3682 11.9767 12.0886 11.9076 10.5826 12.0249 11.7639 9.98075 9.96945 9.91518 9.92605 9.686 12.7169 15.3998 9.8764 8.75912 8.70168 8.48394
threshold=0.050085194408893592 20.500000000000004 0.049949895590543754 70.57397842407228 -0.0061105138156563035 0.00066483381669968377 21.324704170227054 0.20980941504240039 0.66802683472633373 55.78089904785157 0.22902415692806247 -1.0000000180025095e-35 0.34934195876121527 -0.029112061485648152 26.724180221557621 -0.015019137877970932 0.86223790049552929 0.49505493044853216 0.07318673282861711 0.72508093714714061 4.190662384033204 21.500000000000004 20.500000000000004 1.5777547955513003 24.672875404357914 21.273589134216312 -0.048051398247480386 37.767099380493171 0.3969679474830628 41.903057098388679
decision_type=2 2 2 2 2 2 2 2 2 2 2 2 2 2 2 2 2 2 2 2 2 2 2 2 2 2 2 2 2 2
left_child=2 3 21 4 9 20 -7 -8 16 10 -2 -12 15 -14 -15 27 18 -18 -9 -5 -6 22 -1 24 25 -16 -26 -13 -25 -29
right_child=1 -3 -4 19 5 6 7 8 -10 -11 11 12 13 14 23 -17 17 -19 -20 -21 -22 -23 -24 28 26 -27 -28 29 -30 -31
leaf_value=-0.027196471772399474 -0.035984149924332513 0.097906478322235271 -0.10543692602290258 0.046747117885888423 -0.06893079721798176 0.086768949234623804 0.10381671760280829 -0.0074886612759441015 -0.18889252965243561 0.081243981221290146 -0.11157163150686916 -0.073646974147274752 0.078607436387427024 -0.068547641571784099 0.011304323539564811 -0.13535098511829377 0.030435659921397868 -0.12275589281305058 0.06154070924603449 0.1164929290245109 0.07558088842217324 -0.13536757423481446 0.10689369093775825 0.03547654166115799 -0.014077968153182161 -0.18986590275310289 0.068748222704439463 0.086484778349324304 0.12401817153341926 -0.028069122292316173
leaf_weight=11.328608501702551 27.850738059729338 149.412163939327 70.792174860835075 52.473308965563774 36.452464532107115 27.948520161211491 12.196130342781542 87.204869199544191 6.4083838611841193 65.779539316892624 6.1620352379977694 9.0778581649065 97.714392676949501 10.837990052998064 11.480181552469732 6.5514500662684432 8.3270097859203833 13.32120508700609 34.437053389847279 33.691242374479771 5.4932012148201457 3.8700786978006354 10.767826423048973 22.515795588493347 21.504903137683868 5.6920059621334067 43.555329754948616 15.932335838675501 21.891481444239616 10.880176894366739
leaf_count=105 122 442 1683 128 221 69 27 340 28 139 78 39 199 45 40 37 28 70 84 67 15 24 20 58 73 30 119 35 43 37
internal_value=0.0315363 0.0436061 -0.0738443 0.0319389 0.0259873 0.00201748 0.0135119 0.00086526 -0.00752233 0.040708 0.032152 0.0388386 0.042177 0.0518408 0.032816 -0.0113754 0.000589116 -0.0638306 0.0120537 0.0740185 -0.0500056 0.0122863 0.0381471 0.0414908 0.0211676 -0.0553769 0.041371 0.0112551 0.079125 0.0400003
internal_weight=941.55 844.792 96.7587 695.38 609.215 231.789 189.843 161.895 149.699 377.426 311.647 283.796 277.634 235.192 137.478 42.4418 143.29 21.6482 121.642 86.1646 41.9457 25.9665 22.0964 126.64 82.2324 17.1722 65.0602 35.8904 44.4073 26.8125
internal_count=4445 2613 1832 2171 1976 882 646 577 550 1094 955 833 755 607 408 148 522 98 424 195 236 149 125 363 262 70 192 111 101 72
is_linear=0
shrinkage=0.1


Tree=18
num_leaves=31
num_cat=0
split_feature=2 12 12 2 3 15 8 10 14 11 16 8 4 5 9 16 13 14 21 12 10 11 5 14 2 4 10 11 8 12
split_gain=102.396 48.9725 33.3313 24.4985 16.4976 18.9686 12.0812 11.6768 17.261 13.0821 17.8152 12.5468 10.2635 14.4851 10.2529 10.2661 9.81861 10.1622 9.71454 16.0057 15.6347 13.4585 16.8692 11.9251 10.8174 22.4481 10.3196 9.43275 17.4835 11.5417
threshold=0.050085194408893592 20.500000000000004 21.500000000000004 0.049949895590543754 1.0735412240028384 -0.042357349768280976 62.003042221069343 0.07318673282861711 58.323295593261726 0.44895671308040624 0.0081733111292123812 53.502319335937507 0.91195750236511242 0.79430276155471813 0.015194804873317482 -0.013807224575430153 35.471714019775398 39.583547592163093 -0.015302633866667746 3.5000000000000004 -0.020336958579719063 0.3619158416986466 0.48881357908248907 39.260320663452156 0.26469762623310095 0.92682760953903209 -0.087952468544244752 0.92111417651176464 54.142864227294929 7.5000000000000009
decision_type=2 2 2 2 2 2 2 2 2 2 2 2 2 2 2 2 2 2 2 2 2 2 2 2 2 2 2 2 2 2
left_child=3 4 -3 -1 5 6 18 8 9 10 11 14 13 -6 15 -7 -17 -18 20 24 21 22 -2 -24 25 -20 -25 28 -9 -29
right_child=1 2 -4 -5 12 7 -8 27 -10 -11 -12 -13 -14 -15 -16 16 17 -19 19 -21 -22 -23 23 26 -26 -27 -28 29 -30 -31
leaf_value=0.011398584498325705 -0.11740716915467937 0.10562755262475301 -0.11446996964444905 -0.10493620836443858 0.053908762187229564 0.071206971952093898 0.084823592532749958 -0.031182881172302019 -0.080021608006118072 -0.030816447695549393 0.11016412123683175 0.1367337545503996 0.071264418405521029 -0.040025965710428268 -0.072904113193270767 -0.068566507999901133 0.12751153797852699 -0.042268618848222118 -0.12438024597456586 -0.076358628405738482 0.092505238205948928 0.093264864544999229 0.059029838285133057 0.042919069775648327 0.078751143117679612 0.097231141787860076 -0.14311075179399549 -0.090968347796080179 0.098762396790015305 0.10700565397073199
leaf_weight=25.187450345605612 11.380439721047876 132.93545658886433 7.2560845874249926 64.345488078892231 52.778789319097996 19.663425728678703 48.814650014042854 14.862312026321886 30.504788197577 71.084447674453259 19.843514904379845 6.5074328631162635 123.76867442950606 23.827237389981747 18.250680781900883 18.354925870895386 7.0319335944950563 7.0699446834623814 10.134335324168207 20.202747516334057 43.869620740413666 16.700339764356613 26.2872021086514 5.3400905169546604 22.600969739258289 8.3260928317904455 6.7526871711015684 10.078163750469683 34.133349187672138 4.1604592129588118
leaf_count=149 51 359 83 1683 145 58 105 52 144 310 49 11 295 96 89 103 23 42 47 106 93 33 73 14 47 18 36 52 69 10
internal_value=0.0293491 0.0404039 0.0942357 -0.0722088 0.0293436 0.0193175 0.0409284 0.00110559 -0.0108258 0.001753 0.0256895 0.00388525 0.053459 0.0246917 -0.00839969 0.0141875 -0.0203568 0.0423926 0.0284412 -0.00348911 0.0461715 0.0155874 -0.0104824 0.021223 0.0323636 -0.0244282 -0.0609612 0.038524 0.0593449 -0.0331213
internal_weight=912.054 822.521 140.192 89.5329 682.329 481.955 220.409 261.545 198.311 167.806 96.7219 76.8783 200.375 76.606 70.3709 52.1202 32.4568 14.1019 171.595 61.2641 110.33 66.4608 49.7604 38.38 41.0614 18.4604 12.0928 63.2343 48.9957 14.2386
internal_count=4445 2613 442 1832 2171 1635 623 1012 829 685 375 326 536 241 315 226 168 65 518 218 300 207 174 123 112 65 50 183 121 62
is_linear=0
shrinkage=0.1


Tree=19
num_leaves=31
num_cat=0
split_feature=0 12 12 14 11 8 11 10 16 15 11 3 4 5 21 11 21 11 0 6 18 10 7 19 1 11 17 18 15 18
split_gain=88.0854 44.7209 34.974 22.1169 15.0769 16.4184 20.7182 26.1946 17.7567 16.3064 13.8702 13.8125 17.5257 22.1738 15.9197 13.5899 20.9028 13.49 13.2826 11.9457 11.7065 9.71679 9.5854 9.3217 9.16478 9.80126 8.74223 9.51871 12.0223 10.0215
threshold=0.051946558058261878 20.500000000000004 21.500000000000004 36.992679595947273 1.0015576481819155 62.003042221069343 0.68784922361373912 0.07318673282861711 0.74343997240066539 -0.057458920404314988 -1.0000000180025095e-35 1.0735412240028384 1.5341814160346987 1.3022170066833498 -0.013233371078968046 0.40005038678646093 0.0012268091668374839 0.63956138491630565 0.074697472155094161 50.000099182128913 0.024999778717756275 0.039017092436552055 51.16889953613282 -2.3402254581451412 0.20741171389818194 0.12602670490741733 54.629842758178718 0.083518970757722868 -0.04933627322316169 -0.10730126500129698
decision_type=2 2 2 2 2 2 2 2 2 2 2 2 2 2 2 2 2 2 2 2 2 2 2 2 2 2 2 2 2 2
left_child=3 4 -3 -1 5 8 -7 9 10 -8 -2 12 14 -14 -12 16 24 26 -19 -5 22 23 -20 -11 25 -16 27 28 29 -17
right_child=1 2 -4 19 -6 6 7 -9 -10 21 11 -13 13 -15 15 17 -18 18 20 -21 -22 -23 -24 -25 -26 -27 -28 -29 -30 -31
leaf_value=-0.10167073731863095 -0.11008190296077741 0.10211952235297246 -0.11446291485082585 -0.081280906249152157 -0.11780493086109554 0.094210411745883779 0.068169484524899002 0.075638687000929239 -0.11790203488923484 -0.04947608555066893 0.040937558168853236 0.050285664855560991 -0.1486277302101304 0.033997835948318317 0.079625898037037124 -0.068051651581108236 0.11714757073815579 0.13669820051160186 0.022075902526764318 0.12237753773452707 0.078159863284866488 -3.1073552909007402e-05 -0.1471161581061278 -0.18289898556530451 0.060127514934421505 -0.066848685403273281 -0.16968409886268276 0.075796989896621231 -0.1064238513384205 0.077373605082450059
leaf_weight=61.535826962441206 7.9222116097807875 127.12191059440374 7.9204320535063735 4.62838441506028 7.1763245761394492 74.369234010577202 13.692960307002066 51.122658550739288 9.3639699146151525 13.171895232051609 161.38119459152222 135.61836305260658 14.538192141801121 12.250748053193091 5.6431568413972881 10.279545500874521 19.422010563313961 7.7612446993589428 5.9787859730422515 7.6246808245778084 8.2793240547180158 16.036314308643341 7.6113318912684917 8.6917943283915537 13.631653308868406 23.98507209867239 6.3398566320538512 5.7673775479197493 25.008696131408222 8.7912139594554812
leaf_count=1714 113 368 93 35 64 164 31 111 47 51 460 360 72 35 20 46 39 19 25 18 23 48 39 41 36 146 37 19 149 22
internal_value=0.0273516 0.0368929 0.0894166 -0.0772407 0.0263667 0.0279187 0.0540122 0.0249074 0.0184803 -0.0253614 0.0211397 0.0233409 0.0124869 -0.0651119 0.0191952 -0.00443323 0.0309635 -0.0302873 0.0243091 0.0454491 -0.0155766 -0.0591534 -0.0726824 -0.102518 -0.00772983 -0.0389503 -0.0590794 -0.045012 -0.0608187 -0.00101371
internal_weight=882.666 808.877 135.042 73.7889 673.835 666.659 177.085 102.716 489.574 51.593 480.21 472.288 336.669 26.7889 309.88 148.499 62.6819 85.8174 29.6307 12.2531 21.8694 37.9 13.5901 21.8637 43.2599 29.6282 56.1867 49.8468 44.0795 19.0708
internal_count=4445 2678 461 1767 2217 2153 446 282 1707 171 1660 1547 1187 107 1080 620 241 379 106 53 87 140 64 92 202 166 273 236 217 68
is_linear=0
shrinkage=0.1


Tree=20
num_leaves=31
num_cat=0
split_feature=2 12 12 2 6 15 5 4 10 12 11 6 4 11 6 19 6 7 21 0 14 19 7 13 4 2 11 5 6 21
split_gain=76.4394 43.2479 26.2157 21.2212 13.6289 14.4898 11.8838 18.3181 10.844 16.2232 12.6353 12.38 9.6429 11.5868 12.0515 15.9969 10.514 10.2993 9.54156 9.3968 9.34295 8.72117 12.1202 8.54373 8.41468 8.27554 8.08828 7.91568 7.85273 10.5604
threshold=0.050085194408893592 20.500000000000004 21.500000000000004 0.049949895590543754 70.57397842407228 -0.0061105138156563035 0.57345965504646312 0.8011271357536317 0.013513524550944568 1.0000000180025095e-35 0.42267301678657537 47.167314529418952 0.30884970724582678 0.86223790049552929 43.802572250366218 0.43145743012428289 52.199596405029304 74.68378067016603 -0.061193780973553651 0.72508093714714061 25.545477867126468 -1.7378222346305845 74.68378067016603 45.739919662475593 1.3143557310104372 1.0000000180025095e-35 0.63956138491630565 0.50592514872550975 59.677419662475593 -0.011612925678491591
decision_type=2 2 2 2 2 2 2 2 2 2 2 2 2 2 2 2 2 2 2 2 2 2 2 2 2 2 2 2 2 2
left_child=3 4 -3 25 5 8 7 27 18 -10 -11 -12 -8 14 15 24 -15 20 -2 21 -18 -6 -23 -16 -14 -1 -25 28 29 -7
right_child=1 2 -4 -5 19 6 12 -9 9 10 11 -13 13 16 23 -17 17 -19 -20 -21 -22 22 -24 26 -26 -27 -28 -29 -30 -31
leaf_value=0.13516451913857638 0.07416129485546695 0.10108275267084282 -0.111747831707758 -0.1043022736057804 0.11545646232022491 0.051264925772105167 -0.077653347888863425 -0.13563167870011628 0.095575814585953614 0.072254137816656669 -0.13963145059409535 0.026726571687506931 -0.13854568434578254 0.076643884473683005 0.068458285218059176 0.069694592177834969 0.0058624797385165347 0.061099031715873643 0.015075643940058303 0.10935929127115494 -0.18143625033890357 0.043774279624140995 -0.094589505517215899 0.042289037067526347 0.025990413758629899 -0.018447416324989103 -0.066696400198253777 -0.1209649259557995 0.061710835670865771 -0.072070546096463101
leaf_weight=4.2525611519813564 30.927447959780693 113.59653566032648 6.0982196405529967 53.425057172775269 11.147389531135557 11.211249634623526 10.587769024074076 14.450025118887423 55.429985739290714 16.123404838144779 8.2664461433887499 9.7489379793405515 11.074179627001287 5.3258827179670361 68.372552871704102 10.078527204692362 3.7523668259382275 3.7530135363340369 235.02944974973798 28.855692267417908 9.1759594790637475 30.435001604259014 7.9936712831258765 19.634268280118707 4.3210600614547721 20.00614058971405 10.425247266888617 5.5414775758981696 16.123074389994144 18.232383724302057
leaf_count=7 74 359 83 1683 20 44 57 80 113 41 47 35 80 22 174 37 16 12 784 67 53 76 32 64 15 142 37 31 42 118
internal_value=0.0254904 0.0349614 0.0902394 -0.0690829 0.0248756 0.0195641 -0.00047707 -0.0362199 0.0320818 0.0621762 0.00794646 -0.0496076 0.0144956 0.0211821 0.0330582 -0.0282469 -0.0456828 -0.0847383 0.0219466 0.0639898 -0.127074 0.0375825 0.0149928 0.0489236 -0.0923645 0.00848082 0.00449069 -0.00811279 0.00561143 -0.0251081
internal_weight=853.395 775.711 119.695 77.6838 656.016 577.585 222.059 65.5582 355.526 89.5688 34.1388 18.0154 156.501 145.913 123.906 25.4738 22.0072 16.6813 265.957 78.4318 12.9283 49.5761 38.4287 98.4321 15.3952 24.2587 30.0595 51.1082 45.5667 29.4436
internal_count=4445 2613 442 1832 2171 1976 882 315 1094 236 123 82 567 510 407 132 103 81 858 195 69 128 108 275 95 149 101 235 204 162
is_linear=0
shrinkage=0.1


Tree=21
num_leaves=31
num_cat=0
split_feature=0 12 12 14 6 11 15 14 17 19 13 19 6 2 1 8 19 0 10 4 5 16 11 21 10 9 3 18 15 12
split_gain=65.5823 39.4726 27.4091 18.6447 12.4716 16.0223 11.8784 14.6338 15.0239 11.5922 9.8901 10.4798 9.49791 9.23043 9.52386 14.2146 9.13382 9.09419 9.37738 10.9663 11.1034 9.0937 13.9774 9.09586 9.99501 8.50591 8.30512 9.50338 9.4636 8.09258
threshold=0.051946558058261878 19.500000000000004 21.500000000000004 36.992679595947273 55.182882308959968 0.44590663909912115 -0.042357349768280976 22.600093841552738 64.318565368652358 -3.2003822326660152 42.124162673950202 -0.52874109148979176 50.000099182128913 0.2442649379372597 0.28290925920009619 65.252159118652358 4.8211479187011728 0.087373074144124999 0.0034231669269502167 0.46397648751735693 0.41267000138759619 0.003937147557735444 0.70898365974426281 -0.0049346890300512305 0.025307421572506431 -0.067950468510389314 0.28933395445346838 -0.15893333405256269 -0.13090161234140393 1.0000000180025095e-35
decision_type=2 2 2 2 2 2 2 2 2 2 2 2 2 2 2 2 2 2 2 2 2 2 2 2 2 2 2 2 2 2
left_child=3 4 -3 -1 6 -6 17 -8 16 -7 11 -11 -5 -12 -15 -16 21 -2 19 26 -21 22 -9 24 -23 -13 -19 -28 -29 -20
right_child=1 2 -4 12 5 9 7 8 -10 10 13 25 -14 14 15 -17 -18 18 29 20 -22 23 -24 -25 -26 -27 27 28 -30 -31
leaf_value=-0.10025305570194508 -0.070249594623890133 0.095532486710766473 -0.11207380176512927 -0.074997331033950954 0.091679687565708254 0.078910053943186259 0.043857272104830758 -0.014699899045594151 -0.12581276975555142 0.096541012043042107 -0.084966121077279244 0.11219318260122278 0.11127489273468248 0.10283157988360658 -0.1564798586966574 0.010380775914196623 0.070446099910418045 0.022964190204865807 0.093657299152534554 -0.048390816105154139 0.04833701593658242 -0.10042119011307341 0.11450383197807856 -0.11415801283595046 0.036606749943209081 -0.0025253248294938016 -0.1330234071849565 0.077498594739050797 -0.10001119504760472 0.019574553978010958
leaf_weight=51.379466699436307 9.0410216115415079 114.79476834088564 6.732315454632043 4.4289505481719953 48.89449717849493 34.156669162213802 46.262320403009653 83.467056717723608 12.391323287039993 21.970079310238361 14.597329162061213 7.5637214034795752 7.1670011132955551 8.360252842307089 5.9978486299514762 34.309329308569431 12.549374420195816 20.072614789009094 37.898105725646019 13.62286666035652 92.091352127492428 8.7570381462574023 9.3064447492361051 17.026976350694895 13.574688822031019 44.424904067069292 10.856246016919615 6.5311431735754013 5.5603589639067632 24.136057980358601
leaf_count=1714 56 389 93 35 116 83 175 378 82 51 68 16 18 17 23 96 31 63 78 52 256 57 25 100 48 154 49 16 28 78
internal_value=0.0236872 0.0317627 0.0840316 -0.0744036 0.0218903 0.0411867 0.0118453 -0.00557483 -0.020134 0.0267812 0.0138056 0.0386354 0.0401302 -0.0152212 0.00569812 -0.0144487 -0.011083 0.0279598 0.0321725 0.0185503 0.0358722 -0.0188263 -0.00173901 -0.0591034 -0.0171266 0.0141648 -0.0240148 -0.0651079 -0.00413048 0.0648334
internal_weight=827.922 764.947 121.527 62.9754 643.42 220.275 423.145 203.335 157.073 171.38 137.223 73.9587 11.596 63.2648 48.6674 40.3072 144.682 219.81 210.769 148.735 105.714 132.132 92.7735 39.3587 22.3317 51.9886 43.0204 22.9477 12.0915 62.0342
internal_count=4445 2678 482 1767 2196 624 1572 896 721 508 425 221 53 204 136 119 639 676 620 464 308 608 403 205 105 170 156 93 44 156
is_linear=0
shrinkage=0.1


Tree=22
num_leaves=31
num_cat=0
split_feature=2 12 12 12 5 11 6 11 10 16 15 21 19 11 20 9 10 21 7 19 9 7 18 10 2 4 13 13 21 17
split_gain=56.9998 37.9686 20.6875 18.768 11.9353 12.0681 13.3581 15.7055 12.4683 18.3456 12.1107 10.7743 12.2846 12.1699 10.7325 12.3784 12.6839 9.97769 14.6752 15.4006 12.1973 17.2459 16.9496 11.1081 9.79928 9.70882 9.49225 9.40874 9.25474 17.6056
threshold=0.050085194408893592 20.500000000000004 21.500000000000004 12.500000000000002 0.15933867543935779 1.0015576481819155 55.182882308959968 0.65280979871749889 0.058021057397127158 -0.01948656607419252 -0.022799918428063389 -0.061193780973553651 2.1364809274673466 0.48551379144191747 1.5000000000000002 -0.069823876023292528 0.026063935831189159 -0.013988331425935028 38.656690597534187 -3.627668976783752 -0.047268204391002648 38.470401763916023 -0.0081887026317417604 -0.017297100275754925 1.0000000180025095e-35 0.98240670561790477 57.434539794921882 14.703996181488039 -0.028527039103209969 40.563102722167976
decision_type=2 2 2 2 2 2 2 2 2 2 2 2 2 2 2 2 2 2 2 2 2 2 2 2 2 2 2 2 2 2
left_child=3 4 -3 24 25 6 11 -8 9 -9 -11 -6 17 14 15 -14 -17 18 19 -13 -19 -22 -23 -20 -1 -2 28 -24 -21 -30
right_child=1 2 -4 -5 5 -7 7 8 -10 10 -12 12 13 -15 -16 16 -18 20 23 26 21 22 27 -25 -26 -27 -28 -29 29 -31
leaf_value=0.13453830272220044 -0.0078414252184994242 0.096913626891067445 -0.10961470071747453 0.026982101588310953 0.068755129962782477 -0.11610099664436652 0.078586733292022759 0.10119422352470038 0.04755832682003408 0.056070954803150636 -0.096332211545147484 -0.10756862219204849 0.08883557291489691 0.1189695278205061 0.066063415570954048 -0.11506942659521578 0.041362136466558709 -0.081405601248589129 0.0034394638283553082 0.056097741194661599 -0.12256595967511991 0.039707032833919013 0.10032584817934441 0.088613020815540428 -0.10440181625642704 -0.13277384362201158 -0.088408379225169031 -0.060898580585323207 -0.15314537383813392 0.037056286220388798
leaf_weight=1.7785158753395069 31.856152523308992 97.127921372652054 5.1050003692507735 16.388398088514805 34.506314516067505 6.0452034473419181 88.145826891064644 9.0130852758884412 66.842314630746841 6.7476122826337841 22.943053066730499 13.350181851536034 7.9560874998569515 17.454229950904846 30.436739362776279 13.865247316658499 8.2777927517890912 25.227191135287285 25.413123898208141 35.738980639725924 11.174415852874516 64.286648221313953 4.0418453738093367 38.522647932171822 49.135593958199024 7.729706034064292 8.509109400212763 34.65476093813777 7.3080821707844761 14.566804789006708
leaf_count=3 131 359 83 70 86 61 220 20 167 15 93 71 24 37 80 78 27 106 83 113 84 203 12 89 1759 38 36 198 47 52
internal_value=0.0219977 0.030044 0.0866006 -0.0660952 0.0209331 0.0244703 0.0259131 0.0474272 0.0214046 -0.0237635 -0.0616965 0.0153712 0.0102654 0.045403 0.0241916 -0.0181499 -0.0565902 0.000575039 0.0190933 -0.00959907 -0.0184778 -0.0045717 0.00823151 0.0547583 -0.0960552 -0.0322363 0.0101809 -0.0440588 0.0247418 -0.0264873
internal_weight=804.149 736.846 102.233 67.3025 634.613 595.027 588.982 193.692 105.546 38.7038 29.6907 395.29 360.784 77.9901 60.5359 30.0991 22.143 282.794 143.409 79.4732 139.385 114.158 102.983 63.9358 50.9141 39.5859 66.123 38.6966 57.6139 21.8749
internal_count=4445 2613 442 1832 2171 2002 1941 515 295 128 108 1426 1340 246 209 129 105 1094 491 319 603 497 413 172 1762 169 248 210 212 99
is_linear=0
shrinkage=0.1


Tree=23
num_leaves=31
num_cat=0
split_feature=2 12 12 12 11 11 5 3 15 7 9 2 8 17 5 7 4 4 4 7 14 19 9 12 3 1 6 16 11 9
split_gain=48.9135 35.2324 18.3394 17.3933 11.6798 11.3455 12.0852 10.2214 10.3976 9.21274 19.0955 8.78176 8.48088 11.5588 9.44526 8.45457 8.2361 8.64663 8.09239 7.77868 7.44182 7.64077 12.4619 7.43485 9.48491 7.13742 6.78617 12.0364 6.72809 12.4234
threshold=0.050085194408893592 20.500000000000004 21.500000000000004 12.500000000000002 -1.0000000180025095e-35 0.067951161414384856 0.15933867543935779 1.0735412240028384 -0.038313183933496468 37.000947952270515 -0.069823876023292528 1.0000000180025095e-35 64.58231353759767 25.413295745849613 0.76341876387596141 30.963798522949222 0.14787133783102038 1.7891497611999514 0.98240670561790477 47.06361389160157 33.295475006103523 -0.52874109148979176 -0.047268204391002648 3.5000000000000004 0.5466933846473695 0.25474920868873602 47.678672790527351 -0.041465627029538148 0.67418885231018078 0.027777779847383503
decision_type=2 2 2 2 2 2 2 2 2 2 2 2 2 2 2 2 2 2 2 2 2 2 2 2 2 2 2 2 2 2
left_child=3 4 -3 11 -2 25 18 8 12 10 -9 -1 13 14 -8 -12 -10 -18 26 -5 -15 22 -22 -23 -25 -6 -7 -28 -11 -30
right_child=1 2 -4 19 5 6 7 9 16 28 15 -13 -14 20 -16 -17 17 -19 -20 -21 21 23 -24 24 -26 -27 27 -29 29 -31
leaf_value=0.13031720276572067 -0.10959430373036268 0.094858000659318972 -0.10865064454467188 -0.042234373354844812 0.019612153777167601 -0.093545333829837762 -0.14127882869975525 0.091064480028464123 -0.11478054352754286 0.069612921197535038 -0.19613138687307555 -0.1040174322054875 0.076811587233709566 0.066140726621282772 0.0047731321189249734 -0.02906032124305552 0.0068001756235490617 -0.069723593381019702 -0.13574208433924062 0.095709714734993317 -0.082165395075575853 0.063418039623260647 0.031775985326869968 -0.14240929838435057 0.054937342136519199 0.10821858074999627 0.10811564093430476 -0.045921578991288181 -0.05757923056887642 0.054825613552326818
leaf_weight=1.6586764454841603 6.9586891904473296 89.693099215626717 4.6580853164196006 8.4740945547819155 14.946351788938044 8.1141318567097205 7.4163062497973469 9.2716758847236651 6.3522185757756224 84.427351757884026 5.1786842495203 44.615668067708611 32.044339008629322 40.327235095202923 10.988778963685034 7.2965840175747871 189.38506121188402 16.014288667589426 6.9368508756160727 7.8977804444730273 17.198765717446804 35.168853886425495 21.722806192934513 4.4747026488184911 5.3439280316233635 23.205559104681015 8.2921776771545428 13.065996833145617 13.74916949495673 34.518224723637104
leaf_count=3 108 359 83 49 49 47 37 20 42 213 25 1759 80 99 37 29 733 74 35 21 65 88 68 28 15 53 17 58 55 96
internal_value=0.0204606 0.0278668 0.0848108 -0.0642761 0.0192345 0.0206912 0.0172007 0.0209546 0.0122641 0.0426998 -0.0176311 -0.0956178 0.0303238 0.0198803 -0.0540783 -0.0984142 -0.00263438 0.000833878 -0.0385661 0.0243098 0.030837 0.0138698 -0.0185727 0.0419379 -0.0350006 0.0735062 -0.0156939 0.0138824 0.0525872 0.0228066
internal_weight=779.396 716.75 94.3512 62.6462 622.399 615.44 577.288 540.879 386.437 154.442 21.7469 46.2743 174.686 142.641 18.4051 12.4753 211.752 205.399 36.4092 16.3719 124.236 83.9091 38.9216 44.9875 9.81863 38.1519 29.4723 21.3582 132.695 48.2674
internal_count=4445 2613 442 1832 2171 2063 1961 1804 1366 438 74 1762 517 437 74 54 849 807 157 70 363 264 133 131 43 102 122 75 364 151
is_linear=0
shrinkage=0.1


Tree=24
num_leaves=31
num_cat=0
split_feature=2 12 12 12 6 14 16 15 19 2 2 11 5 5 8 17 14 1 18 0 11 16 14 13 2 19 6 10 9 9
split_gain=41.97 32.6217 16.2572 16.1039 10.5364 11.2624 12.5246 10.6279 11.4945 10.323 10.4231 14.1766 11.3363 9.59363 9.93129 8.82925 11.4006 10.4352 9.05119 8.51782 8.31462 11.26 10.3238 7.8964 7.88044 7.42431 10.1933 7.24006 7.16669 12.8183
threshold=0.050085194408893592 20.500000000000004 21.500000000000004 12.500000000000002 70.57397842407228 25.296140670776371 0.81993526220321666 -0.12092157825827597 6.4387192726135263 0.68723806738853466 0.28613771498203283 0.10336538404226304 0.17597328126430514 0.40392611920833593 57.375104904174812 24.672875404357914 49.608011245727546 0.067748732864856734 -0.18116509169340131 0.72508093714714061 0.42526471614837652 -0.061334669589996331 30.772140502929691 27.621804237365726 1.0000000180025095e-35 -1.7378222346305845 77.488128662109389 0.041145358234643943 -0.079453900456428514 0.040530981495976455
decision_type=2 2 2 2 2 2 2 2 2 2 2 2 2 2 2 2 2 2 2 2 2 2 2 2 2 2 2 2 2 2
left_child=3 4 -3 24 5 13 7 23 9 10 11 -9 -13 14 -2 -14 20 -18 -19 25 21 -17 -22 -7 -1 -6 27 -27 -15 -30
right_child=1 2 -4 -5 19 6 -8 8 -10 -11 -12 12 15 28 -16 16 17 18 -20 -21 22 -23 -24 -25 -26 26 -28 -29 29 -31
leaf_value=0.12671141804896111 -0.065518470683349039 0.092818939925651323 -0.10778765982860361 0.022170597133587842 0.10513136274066569 -0.056556554459637226 -0.10557910511474472 -0.13553472783020698 0.080126860460413854 -0.12221951631102013 0.022796213363226941 -0.14018288457937053 -0.10507237729378678 0.095501455113984307 0.077115228958604509 -0.086303237203387326 0.096397819973929627 0.10592540516947452 -0.087354517487882366 0.10254049221274504 -0.13766509706902058 0.057274953679599609 0.0025168911955374311 0.038838464240315361 -0.10366571923481359 -0.02134956716372384 -0.080859408390798984 0.083927696587554307 0.0099855738162385119 0.10579719205040471
leaf_weight=1.5413218438625325 15.117002539336683 82.850431516766548 4.2468304596841326 16.184838175773621 10.049130156636236 9.3650533854961378 9.9698710851371271 9.8576012272387725 15.734877265989779 7.6619838178157798 91.169207200407982 6.6070809699594966 8.5560391582548601 28.426109218969941 7.2097782418131819 6.1201508380472651 4.2607898116111746 2.6524750441312817 27.991511963307858 23.910637550055981 5.9317069612443438 50.800486940890551 45.953054361045361 118.1317659728229 40.499931015074253 11.28468080610037 9.522277005016802 15.511749304831026 51.371656619012356 19.17576339840889
leaf_count=3 77 359 83 70 20 35 51 88 38 29 244 54 52 77 18 33 15 5 181 67 33 162 183 359 1759 35 39 34 196 46
internal_value=0.0189839 0.0257746 0.0830374 -0.0625892 0.0176297 0.0129066 0.00516723 0.00785502 -0.00293547 -0.00782022 -0.00444767 -0.0191682 -0.011948 0.0397525 -0.0194591 -0.00638367 -0.000508058 -0.0502364 -0.0706246 0.0540601 0.0154448 0.0418373 -0.0135094 0.0318314 -0.0952196 0.0290601 0.00801176 0.0395927 0.0531097 0.0360285
internal_weight=757.666 699.44 87.0973 58.2261 612.342 542.064 420.764 410.794 283.297 267.562 259.9 168.731 158.873 121.3 22.3268 152.266 143.71 34.9048 30.644 70.2785 108.805 56.9206 51.8848 127.497 42.0413 46.3678 36.3187 26.7964 98.9735 70.5474
internal_count=4445 2613 442 1832 2171 1976 1562 1511 1117 1079 1050 806 718 414 95 664 612 201 186 195 411 195 216 394 1762 128 108 69 319 242
is_linear=0
shrinkage=0.1


Tree=25
num_leaves=31
num_cat=0
split_feature=2 12 2 12 11 11 3 8 11 6 5 8 9 16 7 11 10 9 11 4 15 12 19 9 21 15 13 7 12 0
split_gain=35.9658 30.0808 15.0372 14.4086 9.70394 9.82767 9.73332 9.17668 10.5354 9.39974 8.39786 8.52717 17.6575 9.01754 10.102 13.976 12.9619 12.5198 11.1811 10.8477 10.1989 9.78415 9.77441 12.6029 9.4445 9.19264 10.5883 8.12452 13.9994 9.96359
threshold=0.050085194408893592 20.500000000000004 0.049949895590543754 21.500000000000004 -1.0000000180025095e-35 0.042685912922024734 0.19941856712102893 51.570858001708991 0.50559622049331676 24.047259330749515 0.15933867543935779 37.767099380493171 -0.1214637979865074 -0.012684658635407684 61.909816741943366 0.68784922361373912 0.058021057397127158 -0.019566186703741547 0.29803389310836798 0.92682760953903209 0.042234182357788093 1.0000000180025095e-35 -1.3279267549514768 -0.11151747778058051 0.014494225382804872 0.14494917541742328 46.488559722900398 26.298920631408695 4.5000000000000009 0.15976324677467349
decision_type=2 2 2 2 2 2 2 2 2 2 2 2 2 2 2 2 2 2 2 2 2 2 2 2 2 2 2 2 2 2
left_child=2 4 -1 -3 -2 -6 7 9 -9 -7 -8 12 -12 21 17 -16 20 19 -19 22 -17 -13 -15 -24 -23 26 -20 28 -14 -29
right_child=1 3 -4 -5 5 6 10 8 -10 -11 11 13 27 14 15 16 -18 18 25 -21 -22 24 23 -25 -26 -27 -28 29 -30 -31
leaf_value=0.0049353265944831184 -0.10857443531162014 0.090780158940171621 -0.10285190530517765 -0.10701432132820882 0.080121849230265871 0.077191098592692839 -0.037271459363094561 0.098316809197754138 -0.032240061892313758 -0.10291610610181601 0.097038651897530595 0.067176425212242638 -0.16058985113974059 -0.11692223998351098 0.094858159591459268 0.0056956696625503752 0.040374842166644581 0.12668827771617089 0.049338367315960086 0.022663314182319622 -0.15131123145071415 0.028638992483781323 0.098489009327196286 -0.068205544844740604 -0.10430230574776214 -0.076059142546068423 -0.043375220727050745 -0.080752724547151697 0.016878033710429893 0.014627127291071488
leaf_weight=21.256089443340898 6.1734521556645623 76.564769573509693 33.093876468017697 3.869041768833994 24.011501893401146 3.4251924902200725 25.357199117541313 9.2321313954889792 18.701445132493973 18.815789625048637 14.446410670876501 94.372381322085857 10.058481249958279 19.044390771538019 32.449747353792191 9.789070129394533 50.562149491161108 9.5564552620053274 48.429639603942633 21.880266461521387 7.1659018844366065 52.133753884583712 6.4455040246248272 15.305724292993544 5.9542445018887511 10.269784111529587 16.519686218351126 14.008646436035631 7.9646517485380164 50.197920881211758
leaf_count=149 108 359 1683 83 66 12 105 25 79 122 32 236 50 98 74 31 154 23 154 75 31 175 13 78 27 50 77 98 24 154
internal_value=0.0175943 0.023827 -0.0606967 0.0812658 0.0161561 0.0174478 0.0148173 -0.0272512 0.0109094 -0.0751789 0.0188616 0.0217281 -0.00492352 0.0281715 0.0163834 0.0409239 0.0150023 -0.000254207 0.0248005 -0.0341432 -0.0606622 0.0473016 -0.0646108 -0.0188092 0.015012 0.0118558 0.0257569 -0.0228366 -0.0821645 -0.00618293
internal_weight=737.055 682.705 54.35 80.4338 602.272 596.098 572.087 50.1746 27.9336 22.241 521.912 496.555 96.6761 399.879 247.418 99.9669 67.5171 147.451 84.7756 62.6759 16.955 152.46 40.7956 21.7512 58.088 75.2191 64.9493 82.2297 18.0231 64.2066
internal_count=4445 2613 1832 442 2171 2063 1997 238 104 134 1759 1654 358 1296 858 290 216 568 304 264 62 438 189 91 202 281 231 326 74 252
is_linear=0
shrinkage=0.1


Tree=26
num_leaves=31
num_cat=0
split_feature=0 12 12 3 11 11 11 11 4 9 8 11 1 10 15 11 10 9 19 7 19 21 21 4 3 8 5 9 14 17
split_gain=30.8828 26.1917 17.0287 14.5057 9.72237 11.8724 8.87373 9.46013 11.2513 7.89524 7.73922 21.8386 16.158 12.5559 15.0127 8.24459 8.17893 7.05325 12.0639 10.3033 13.4786 13.8307 10.1694 7.96392 8.56441 11.0605 7.07143 8.08381 8.2423 7.50414
threshold=0.051946558058261878 20.500000000000004 21.500000000000004 1.094295918941498 1.0015576481819155 0.9943998157978059 -1.0000000180025095e-35 0.067951161414384856 0.14787133783102038 0.026536935940384868 59.591512680053718 0.68784922361373912 1.0523635149002077 0.039017092436552055 -0.055708143860101693 0.93963208794593822 0.07318673282861711 -0.1214637979865074 0.88660621643066417 26.724180221557621 -1.3279267549514768 -0.043766658753156655 -0.048466149717569344 3.1358536481857304 0.19941856712102893 51.570858001708991 2.2857990264892583 0.11597302556037904 12.740888595581056 42.762935638427741
decision_type=2 2 2 2 2 2 2 2 2 2 2 2 2 2 2 2 2 2 2 2 2 2 2 2 2 2 2 2 2 2
left_child=3 4 -3 -1 5 6 -2 -8 9 -9 12 -12 17 14 -13 16 -15 18 22 20 -19 -22 -10 24 25 -21 27 28 -26 -28
right_child=1 2 -4 -5 -6 -7 7 8 10 -11 11 13 -14 15 -16 -17 -18 19 -20 23 21 -23 -24 -25 26 -27 29 -29 -30 -31
leaf_value=-0.094204629637484091 -0.107735730599764 0.087107458210802707 -0.10949074553255232 0.051840651012399791 -0.11489743861685459 0.12123641121735729 0.064440487178593159 -0.09379204162279825 0.061654980768179227 0.021602281090104807 0.077439961310829822 0.050484465067626383 -0.15682689090835999 -0.01537425793083038 -0.097234386871550504 -0.041328930722082595 0.081267985567831311 -0.18484017544504278 0.12826027602934273 -0.10992384173794863 0.073315684170998527 -0.082532081368438467 -0.10221916753972643 -0.089293665474075246 0.16939684997098295 0.059174496740366817 -0.16088478882724386 0.093489666891741985 0.014866931167460877 0.010996423963309281
leaf_weight=34.753400733694434 5.9527150839567176 74.743543073534966 4.6817564833909264 8.4554820358753187 5.7615247070789328 10.457892447710035 36.237538363784552 16.651639129966501 9.8587224483490008 9.2078797072172147 65.327460177242756 10.157945908606054 5.9256016239523879 12.640753027051685 21.32002248801291 12.439717695116995 28.503634676337242 5.993201486766341 13.046528622508047 11.70753218047321 9.8566727191209829 13.484511461108919 6.1484912112355259 7.6988033279776564 3.5017690062522879 5.7766160331666461 4.4520866572856885 14.676792755722998 241.03395138122141 5.9144439622759819
leaf_count=1733 113 368 93 34 64 24 110 97 24 33 176 28 26 42 98 41 67 35 26 88 22 63 24 35 8 22 24 31 875 21
internal_value=0.0163273 0.0215877 0.0755189 -0.0656252 0.0143732 0.0156399 0.0137278 0.0149928 0.0116455 -0.0527032 0.0149118 0.0339565 0.00693535 0.000561351 -0.0495655 0.0300083 0.0515767 0.00968316 0.0568841 0.00545182 -0.0510677 -0.0167196 -0.00129031 0.0110766 0.0137684 -0.0540552 0.0181673 0.0214062 0.0170798 -0.0628209
internal_weight=716.369 673.16 79.4253 43.2089 593.734 587.973 577.515 571.562 535.325 25.8595 509.465 150.39 359.076 85.0621 31.478 53.5841 41.1444 353.15 29.0537 324.096 29.3344 23.3412 16.0072 294.762 287.063 17.4841 269.579 259.213 244.536 10.3665
internal_count=4445 2678 461 1767 2217 2153 2129 2016 1906 130 1776 452 1324 276 126 150 109 1298 74 1224 120 85 48 1104 1069 110 959 914 883 45
is_linear=0
shrinkage=0.1


Tree=27
num_leaves=31
num_cat=0
split_feature=12 1 12 11 11 4 2 11 3 4 5 14 8 17 8 11 1 8 6 11 4 15 2 21 11 13 8 11 15 18
split_gain=28.0861 35.7449 23.8309 8.59377 12.0736 8.31409 6.75382 14.6429 9.73385 10.8847 13.5309 10.0438 12.1779 9.30757 8.40708 14.3449 15.1503 8.289 8.07852 12.7723 10.9607 8.25838 7.77269 7.04452 6.24837 6.38439 6.40721 6.02956 7.04443 10.2392
threshold=20.500000000000004 0.051939105615019805 21.500000000000004 1.0015576481819155 0.9943998157978059 0.18488293886184695 0.4495250284671784 0.95491501688957225 0.76629078388214122 1.5911335945129397 2.4480372667312627 41.20800971984864 28.132851600646976 39.391450881958015 60.291770935058601 0.20636202394962314 0.55102083086967479 31.28537750244141 47.907316207885749 0.52685099840164196 0.3181412965059281 -0.090469673275947557 0.093358863145113005 0.050999924540519721 0.56174302101135265 43.803037643432624 75.907688140869155 0.37993416190147405 -0.067505106329917894 -0.0015833626384846864
decision_type=2 2 2 2 2 2 2 2 2 2 2 2 2 2 2 2 2 2 2 2 2 2 2 2 2 2 2 2 2 2
left_child=1 -1 -2 4 5 -3 7 8 9 11 -11 13 -13 17 15 -8 -17 -7 19 20 -14 -22 -19 -10 -16 -26 -27 -20 -29 -30
right_child=2 3 -4 -5 -6 6 14 -9 23 10 -12 12 18 -15 24 16 -18 22 27 -21 21 -23 -24 -25 25 26 -28 28 29 -31
leaf_value=-0.093202987298278861 0.08639764862839637 -0.033218220385645418 -0.11627131280509746 -0.11342138966103488 0.12026470823308838 -0.13482250942237214 0.079668827758692953 -0.15542992390339896 0.022667886778555774 -0.15720866601855135 0.075155932218503099 -0.16853796887993944 0.065620655128708696 0.065509896458508493 0.10966946605948875 0.024571230697262452 -0.12326926621383541 -0.048709196073476166 0.040060726563333274 0.08706744120163086 -0.0028476251068495582 -0.14125832979420838 0.02431164739122375 0.087279240431511529 0.097669322968979733 -0.056315705490076841 0.049556539994285616 -0.19294224524810366 0.011164203401371538 -0.12505808691885417
leaf_weight=33.110022268258035 74.430872019380331 36.739751743152738 6.2923397161066523 5.2776097636669865 10.648107275366781 4.0683880168944588 17.014042131602764 5.2568308785557738 177.52301771007478 8.9922949615865928 3.4742765203118315 5.4755154717713586 8.4253938756883162 33.976404268294573 19.945962116122246 16.841855265200142 11.77984558790922 17.864436393603683 5.891015361994504 15.507579701021312 8.4414040856063366 8.8095646109431982 79.223189055919647 18.647130936384201 12.77753311395645 9.0559966564178485 15.499453738331793 4.0632057413458851 12.332152206450704 9.9859493821859324
leaf_count=1763 379 179 107 64 25 33 44 24 589 61 11 42 29 114 61 47 47 120 23 47 35 68 274 43 33 27 39 20 39 58
internal_value=0.0151328 0.00787188 0.0705997 0.0136069 0.0147662 0.0127871 0.015971 0.0104398 0.0125026 -0.00161881 -0.0924516 0.00367107 -0.0246709 0.0202258 0.0389717 0.00695115 -0.0362755 0.00501575 -0.0139469 0.0154095 -0.0278693 -0.0735299 0.0108756 0.0288096 0.0644834 0.0403417 0.0105111 -0.0514097 -0.0718353 -0.0497867
internal_weight=697.371 616.648 80.7232 583.538 578.26 567.612 530.872 427.958 422.701 226.531 12.4666 214.064 78.9318 135.132 102.915 45.6357 28.6217 101.156 73.4563 41.1839 25.6764 17.251 97.0876 196.17 57.2789 37.333 24.5555 32.2723 26.3813 22.3181
internal_count=4445 3959 486 2196 2132 2107 1928 1630 1606 974 72 902 361 541 298 138 94 427 319 179 132 103 394 632 160 99 66 140 117 97
is_linear=0
shrinkage=0.1


Tree=28
num_leaves=31
num_cat=0
split_feature=12 1 12 11 3 3 4 6 5 5 15 15 11 11 15 10 16 12 14 6 18 12 21 10 1 9 19 14 17 10
split_gain=25.1529 31.2446 21.0022 7.75508 6.86113 14.3863 12.3592 17.5464 10.8628 7.98362 8.67415 12.8951 6.52689 7.13753 8.52661 12.3166 7.47297 7.31244 13.2031 7.27737 7.40126 11.0661 15.2764 6.89777 5.54001 5.11696 4.9639 5.58131 7.46434 7.13205
threshold=20.500000000000004 0.051939105615019805 21.500000000000004 -1.0000000180025095e-35 0.37956927716732031 0.40348936617374426 0.37705403566360479 42.469554901123054 0.76341876387596141 0.33234934508800512 -0.086145911365747438 0.059539018198847778 0.14466074109077456 0.32065585255622869 -0.013362447265535591 0.014545646961778404 0.061595009639859206 1.0000000180025095e-35 37.842094421386726 45.833333969116218 -0.093331564217805849 4.5000000000000009 0.0071021483745425948 0.014072142075747253 1.0000000180025095e-35 -0.024838905781507489 6.4387192726135263 25.296140670776371 24.108273506164554 -0.066543668508529649
decision_type=2 2 2 2 2 2 2 2 2 2 2 2 2 2 2 2 2 2 2 2 2 2 2 2 2 2 2 2 2 2
left_child=1 24 -2 -3 12 -6 7 -7 -9 10 -8 -12 -5 23 16 -16 17 25 -19 -17 -21 22 -22 -14 -1 -15 27 29 -29 -11
right_child=2 3 -4 4 5 6 9 8 -10 26 11 -13 13 14 15 19 -18 18 -20 20 21 -23 -24 -25 -26 -27 -28 28 -30 -31
leaf_value=0.12755393520238442 0.083868526313591693 -0.10699169497709055 -0.11487288013929214 0.050658890948796914 0.10222506232638746 -0.13088759828459756 0.046362840001867009 0.032970350824297889 -0.084733500451979582 0.13254040712685725 -0.12930775577427198 0.034963731736186075 -0.11100766950681101 0.030628304381407387 -0.10908339421848393 -0.12108099386256804 -0.07258106382001954 0.060963812872074911 -0.10398578130753987 0.14985567332167338 0.034230418872020753 0.10025607684965772 -0.15489812174441492 0.044428346446990535 -0.099607528752432464 0.11907632814758327 0.077950319576818042 -0.069795166445231746 0.020268213438783877 0.036649431745283255
leaf_weight=1.1142413020133997 69.276057254523039 5.3827593754976979 5.7593191787600508 17.672268263995647 20.16806648671627 12.844660997390745 10.726011954247953 30.741827316582203 10.525376737117766 8.8316383063793165 12.214062467217447 7.8496533073484889 12.635335590690376 13.883892565965654 15.343391204252837 4.3557967022061339 7.0993499755859366 11.601864341646435 8.3415389955043775 3.6894657649099818 10.160538861528048 7.4453071206808081 7.3675802648067465 3.6883984692394725 29.431554521434009 12.36724980548024 18.087265312671661 9.590526230633257 227.30643406510353 63.707102853804827
leaf_count=2 379 113 107 64 54 70 30 111 47 18 64 27 82 37 96 45 29 36 50 7 48 18 51 16 1761 26 46 45 759 207
internal_value=0.0140082 0.00722636 0.0686142 0.012474 0.0136057 0.0197589 0.0157262 -0.0288197 0.00294948 0.0224535 -0.0262305 -0.0650388 -0.0060169 -0.0145064 -0.00465012 -0.0350525 0.0229389 0.0376187 -0.0080281 -0.000651279 0.01765 -0.0018815 -0.0452658 -0.0758864 -0.0913212 0.0722973 0.0270302 0.0240538 0.0166221 0.0483242
internal_weight=679.209 604.173 75.0354 573.627 568.245 432.593 412.425 54.1119 41.2672 358.313 30.7897 20.0637 135.652 117.98 101.656 48.3621 53.2939 46.1945 19.9434 33.0187 28.6629 24.9734 17.5281 16.3237 30.5458 26.2511 327.523 309.436 236.897 72.5387
internal_count=4445 3959 486 2196 2083 1478 1424 228 158 1196 121 91 605 541 443 265 178 149 86 169 124 117 99 98 1763 63 1075 1029 804 225
is_linear=0
shrinkage=0.1


Tree=29
num_leaves=31
num_cat=0
split_feature=12 1 3 12 11 11 5 3 2 21 8 4 5 19 15 8 5 7 9 12 14 8 7 4 2 16 18 0 16 11
