tree
version=v4
num_class=1
num_tree_per_iteration=1
label_index=0
max_feature_idx=53
objective=binary sigmoid:1
feature_names=pre1_bb_width pre3_bb_width pre5_bb_width pre1_vol_ratio pre3_vol_ratio pre5_vol_ratio pre1_rsi pre3_rsi pre5_rsi pre3_momentum_5d pre5_momentum_5d pre5_bb_position pre5_compression_days pre3_adx pre5_adx pre3_macd_hist pre5_macd_hist pre1_adx pre1_macd_hist pre1_rsi_slope pre1_ema_align pre1_ema20_slope pre1_di_diff pre1_body_ratio pre1_lower_shadow pre1_bar_direction pre1_sector_ad_ratio pre1_sector_pct_ema20 pre1_turnover_ratio pre1_usdegp_chg pre1_vix_level pre1_oil_chg pre1_spread_bps w_rsi w_bb_position mo_trend w_vol_compression obv_slope_5d adl_divergence closing_strength vol_dryup_days dtw_similarity dtw_expected_gain net_accumulation_20d up_volume_ratio_10d range_compression_20d vcp_score base_tightness_10d higher_lows_streak breakout_proximity rs_vs_market_5d rs_vs_market_20d rs_vs_sector_10d rs_rank_pct
feature_infos=[7.9999998596133604e-14:12.208939552307129] [7.9999998596133604e-14:2.8289906978607178] [7.9999998596133604e-14:2.7035820484161377] [9.994767424359452e-06:19.752382278442383] [1.0964097782562021e-05:19.224010467529297] [1.1568885383894667e-05:17.950571060180664] [0:100] [0:100] [0:100] [-0.99208861589431763:2.5851914882659912] [-0.79113924503326416:13.851851463317871] [-0.56213229894638062:1.5621322393417358] [0:64] [0:100] [0:100] [-282.9532470703125:631.23040771484375] [-200.559814453125:581.78790283203125] [0:100] [-464.01742553710938:524.2950439453125] [-33.333332061767578:33.333332061767578] [0:3] [-0.26885074377059937:4.2548046112060547] [-65.7095947265625:100] [0:1] [0:1] [-1:1] none none [1:1512324480] none none none none [0:1] [0:1] [0:1] [1.7333082723780535e-05:1] [0.29126638174057007:0.70951581001281738] [0.1809958815574646:0.73496627807617188] [0:1] [0:1] none none [0.22499999403953552:0.82499998807907104] [0:1] [0:1] [0:1] [0:1] [0:0.89999997615814209] [0.5:0.5] [0:1] [0:1] none none
tree_sizes=3377 3385 3379 3386 3409 3400 3406 3416 3413 3416 3439 3420 3415 3435 3444 3411 3428 3429 3435 3430 3446 3445 3436 3434 3424 3450 3432 3441 3433 3441 3427 3440 3450 3454 3445 3466 3451 3449 3444 3444 3441 3453 3450 3449 3445 3441 3435 3460 3450 3452 3446 3432 3446 3433 3443 3466 3436 3435 3430 3434 3445 3448 3401 3428 3431 3440 3414 3416 3429 3433 3445 3416 3438 3444 3411 3398 3454 3409 3411 3439 3427 3429 3421 3426 3400 3408 3423 3446 3434

Tree=0
num_leaves=31
num_cat=0
split_feature=50 36 50 36 34 34 34 0 35 28 36 34 38 0 39 10 28 38 36 8 34 34 50 36 22 34 35 25 50 28
split_gain=5639.19 1781.46 855.791 455.89 423.047 414.602 232.319 209.328 186.602 164.13 160.313 142.807 130.027 94.6869 67.7855 68.0316 64.7769 64.3383 64.0927 64.0118 104.451 61.9205 57.461 62.2019 55.8288 54.6004 46.3317 44.8419 43.0574 42.11
threshold=0.58405885100364696 0.29219773411750799 0.74259057641029369 0.1915945038199425 0.49918039143085485 0.97755673527717601 0.80252927541732799 0.26878727972507482 0.54804882407188427 37.500000000000007 0.5532481074333192 0.9999084770679475 0.52391749620437633 0.23368881642818454 0.54720336198806774 -0.045766787603497498 9207.0000000000018 0.45114356279373174 0.12297292798757554 61.25563049316407 0.99636316299438488 0.90124884247779857 0.88595283031463634 0.17502474039793017 15.201122760772707 0.98612767457962047 0.52341952919960033 1.0000000180025095e-35 0.51600855588912975 431219.50000000006
decision_type=2 2 2 2 2 2 2 2 2 2 2 2 2 2 2 2 2 2 2 2 2 2 2 2 2 2 2 2 2 2
left_child=1 5 3 11 -3 7 9 17 24 -6 14 13 16 -2 15 -11 -9 21 -18 -8 27 -1 23 -4 -5 -10 29 -21 -16 -12
right_child=2 4 22 8 6 -7 19 12 25 10 26 -13 -14 -15 28 -17 18 -19 -20 20 -22 -23 -24 -25 -26 -27 -28 -29 -30 -31
leaf_value=-1.1125681159180634 -1.0583215361010554 -1.0966608385801973 -0.83871878354909279 -0.85683411758892047 -0.68041197609439463 -0.84550520324082212 -0.70394189479568292 -0.78820726459599344 -0.80680681628722284 -0.82757084084951826 -0.82630530019788129 -0.81069833514171008 -1.1275470641813206 -0.90061205456071947 -1.0056835692492518 -1.0799099384518571 -1.0995104134963793 -1.1568913021946277 -0.88907566297083074 -1.12559653663804 -0.72884470821897418 -0.91996201179870063 -0.69592914259664473 -0.72813764454324836 -0.98148370247710093 -0.73334068466027591 -0.77921994752027413 -0.87390359583481636 -0.83457166005166628 -1.0386936859354565
leaf_weight=267.4049239307642 136.94057719409466 84.183562740683556 62.376365572214127 89.109315499663353 28.624346181750298 55.922525078058243 93.780033007264137 23.440452620387077 248.59204177558422 12.236793413758276 21.13320404291153 42.005652621388435 54.920606598258018 52.727351501584053 26.878159135580063 84.207505479454994 26.603348582983017 700.0921166986227 31.743524104356766 11.711115047335626 42.531330987811089 17.80270890891552 537.87819497287273 275.69818787276745 60.21015876531601 170.57917410135269 60.845663174986839 17.894312426447868 32.472184807062149 16.721689224243164
leaf_count=1279 607 394 188 279 57 171 201 63 698 36 62 119 268 180 110 385 125 3549 106 57 98 63 1125 634 237 398 160 58 97 72
internal_value=-0.914898 -1.0426 -0.784528 -0.85929 -0.890945 -1.11125 -0.852378 -1.12449 -0.811105 -0.907441 -0.932976 -0.97753 -1.00853 -1.01448 -0.996149 -1.04789 -0.928616 -1.14058 -0.985024 -0.758418 -0.829239 -1.10055 -0.716234 -0.74854 -0.907097 -0.77691 -0.833261 -0.973467 -0.912064 -0.920124
internal_weight=3387.27 1711.15 1676.12 800.164 533.22 1177.93 449.036 1122.01 568.491 283.12 254.495 231.674 136.708 189.668 155.795 96.4443 81.7873 985.3 58.3469 165.917 72.1368 285.208 875.953 338.075 149.319 419.171 98.7006 29.6054 59.3503 37.8549
internal_count=11876 7411 4465 2518 1787 5624 1393 5453 1612 979 922 906 562 787 628 421 294 4891 231 414 213 1342 1947 822 516 1096 294 115 207 134
is_linear=0
shrinkage=1


Tree=1
num_leaves=31
num_cat=0
split_feature=50 36 50 34 34 36 47 35 35 38 34 47 36 50 50 36 47 20 36 2 8 34 34 40 10 23 5 8 28 21
split_gain=3871.3 1378.76 519.453 344.638 292.516 276.387 170.737 148.687 125.08 104.121 90.0449 86.5708 108.618 78.1904 75.2893 88.3696 67.8031 66.4874 51.2982 67.3238 50.3723 52.9443 50.0341 48.6049 43.4912 42.0875 41.9306 40.8014 40.5683 39.7418
threshold=0.5807207226753236 0.29219773411750799 0.68989232182502758 0.93724733591079723 0.46936836838722235 0.13783047348260882 0.40883769094944006 0.49877236783504492 0.53983259201049816 0.48161822557449346 0.90394815802574169 0.35174590349197393 0.5686660408973695 0.55409955978393566 0.87401777505874645 0.17502474039793017 0.39028517901897436 2.5000000000000004 0.20501077920198443 0.17424976825714114 64.323955535888686 0.99636316299438488 0.9999084770679475 0.15000000223517421 -0.040781194344162934 0.63636365532875072 1.3334261775016787 74.413959503173842 9207.0000000000018 -0.0017099563265219329
decision_type=2 2 2 2 2 2 2 2 2 2 2 2 2 2 2 2 2 2 2 2 2 2 2 2 2 2 2 2 2 2
left_child=1 3 5 6 -3 16 18 24 26 28 11 12 13 23 15 25 -2 -14 -1 -20 -5 -22 27 29 -6 -4 -7 -10 -8 -9
right_child=2 4 14 20 7 8 9 10 22 -11 -12 -13 17 -15 -16 -17 -18 -19 19 -21 21 -23 -24 -25 -26 -27 -28 -29 -30 -31
leaf_value=-0.11036533199554539 -0.035405831109819076 -0.063905323701967068 0.08554192499324792 0.24198298183735689 0.15522043217703049 0.10728637218009018 0.27258120454662554 0.066164076574832378 0.17798231764491515 -0.04683863323012364 0.2421996283022394 0.2316553516158385 0.27255956171545659 0.1680990810107397 0.26501667442403687 0.23433629582303506 0.13603421305363961 0.10479540680569538 -0.087796119698548392 0.05558311373955848 -0.048910310789855131 0.14484001332197638 0.23911141316275769 0.13451400972912467 -0.059466049267148074 0.2098560760396263 -0.033391581128774613 0.041957050693190633 0.073429288340261689 -0.089346877990324647
leaf_weight=765.94289410114288 103.70042610168457 73.167498081922531 67.198948964476585 25.073933273553848 12.358480766415594 102.85456782579422 17.69601172208786 24.969849616289139 235.52766916155815 61.565115347504616 123.11651682853699 78.643083080649376 49.40530027449131 41.018732279539108 638.10122784972191 474.03083373606205 29.6687912940979 45.268719747662544 121.21849200129509 44.871534138917923 22.330599829554558 38.282517850399017 141.7189424932003 21.619125291705132 39.904076099395752 45.792608067393303 26.684286892414093 24.329204559326172 24.239612832665443 48.068437308073044
leaf_count=4060 466 357 227 60 36 342 38 94 630 293 254 178 99 117 1166 1014 93 140 625 186 101 111 295 69 183 117 114 86 92 233
internal_value=0.104451 -0.00605511 0.202626 -0.0699612 0.122461 0.131433 -0.0859094 0.150613 0.163752 0.0359405 0.169881 0.141066 0.110139 0.0527774 0.24124 0.215394 0.00273205 0.192343 -0.0994406 -0.0490602 0.122774 0.0734601 0.191314 0.00280398 -0.00869933 0.135923 0.0783075 0.165247 0.157467 -0.0361818
internal_weight=3568.37 1678.76 1889.61 1121.22 557.54 664.484 1035.53 484.372 531.115 103.501 432.11 308.993 230.35 135.676 1225.12 587.022 133.369 94.674 932.033 166.09 85.6871 60.6131 401.576 94.6574 52.2626 112.992 129.539 259.857 41.9356 73.0383
internal_count=11876 7326 4550 5566 1760 2026 5294 1403 1467 423 1184 930 752 513 2524 1358 559 239 4871 811 272 212 1011 396 219 344 456 716 130 327
is_linear=0
shrinkage=0.1


Tree=2
num_leaves=31
num_cat=0
split_feature=50 36 50 36 34 34 47 35 35 17 38 34 36 34 20 5 5 35 50 36 2 17 37 47 8 34 34 8 2 36
split_gain=2843.35 1012.7 459.113 260.37 258.382 179.502 155.555 119.034 111.213 123.925 80.8645 62.0125 57.7904 50.9677 50.0263 49.5071 43.5365 43.3102 42.9638 41.7595 67.4029 47.5551 41.0111 40.5508 39.5824 39.5521 39.2987 45.6496 39.6414 41.914
threshold=0.56375241279602062 0.31156276166439062 0.68989232182502758 0.13783047348260882 0.93724733591079723 0.41978526115417486 0.41335359215736395 0.53983259201049816 0.54319593310356151 15.890111446380617 0.52391749620437633 0.9999084770679475 0.063033979386091246 0.49918039143085485 1.5000000000000002 1.3334261775016787 2.2709554433822636 0.50990658998489391 0.74865189194679271 0.17204942554235461 0.15254352986812594 26.574555397033695 0.52063050866127025 0.44203239679336553 67.402954101562514 0.9999084770679475 0.96489757299423229 58.335332870483406 0.11270665004849435 0.57895573973655712
decision_type=2 2 2 2 2 2 2 2 2 2 2 2 2 2 2 2 2 2 2 2 2 2 2 2 2 2 2 2 2 2
left_child=1 4 3 11 6 -3 19 15 9 -7 -8 23 -4 -9 17 -5 -15 -11 -14 -1 -21 -22 -12 -2 -6 -26 27 28 29 -10
right_child=2 5 12 7 24 8 10 13 26 14 22 -13 18 16 -16 -17 -18 -19 -20 20 21 -23 -24 -25 25 -27 -28 -29 -30 -31
leaf_value=-0.1121058987280595 -0.048892397557554368 -0.081687606860285839 0.10865628678602612 0.089118829080400905 0.18372320104653472 0.2265537948976796 0.10741065538247835 0.012946344048970182 0.0036249149347194263 0.033438309723350747 -0.10760143795044858 0.15219487002699539 0.16877166634752125 0.17600834265479365 -0.039896316632532215 -0.045661685920835998 0.078456358874822704 0.20718755405354081 0.21534190501157485 -0.10112105191169635 0.16412555696066711 -0.027162407758905972 0.23882876666414946 0.11323587525208156 -0.083857439148398327 0.10765811160696755 0.23012625536850551 0.067891053155086825 0.22768428904035332 0.19054639941649554
leaf_weight=612.26715196669102 126.55866381525993 45.521559119224548 63.899719074368477 138.31964319944382 33.790070861577988 38.103954613208771 59.746764287352562 22.879026219248772 21.083041533827782 53.399400308728218 36.845350250601768 21.700954675674438 246.78695526719093 432.5379194766283 66.241682082414627 33.94007833302021 51.160064682364464 19.616710498929024 1004.1545435488224 159.19007040560246 16.138214349746704 66.756101414561272 3.7665154933929434 17.56854073703289 16.349925085902214 31.673989117145538 76.366076052188873 54.118813097476959 68.943811312317848 27.832796856760979
leaf_count=3472 606 236 171 452 80 71 194 83 82 204 200 58 567 986 283 153 151 43 1786 878 56 316 11 54 80 89 130 182 140 62
internal_value=0.0908846 -0.0144951 0.16446 0.106932 -0.0697538 0.107053 -0.0843695 0.134373 0.127236 0.0667546 0.033404 -0.00540073 0.201416 0.158792 0.0230301 0.0625632 0.16569 0.0801183 0.206154 -0.0982041 -0.0630443 0.0100783 -0.075472 -0.0291296 0.100801 0.0424559 0.17043 0.143922 0.178834 0.109982
internal_weight=3667.26 1507.75 2159.51 844.665 1036.52 471.228 954.71 678.837 425.706 177.362 100.359 165.828 1314.84 506.577 139.258 172.26 483.698 73.0161 1250.94 854.352 242.084 82.8943 40.6119 144.127 81.814 48.0239 248.345 171.978 117.86 48.9158
internal_count=11876 6809 5067 2543 5376 1433 5127 1825 1197 601 405 718 2524 1220 530 605 1137 247 2353 4722 1250 372 211 660 249 169 596 466 284 144
is_linear=0
shrinkage=0.1


Tree=3
num_leaves=31
num_cat=0
split_feature=50 36 50 36 0 34 0 38 34 35 35 1 8 34 11 36 28 39 2 36 34 36 37 47 18 7 34 5 35 5
split_gain=2179.09 779.232 365.511 254.027 220.858 151.118 143.638 104.485 100.893 77.9569 71.6723 54.5088 52.6038 52.4407 47.5981 45.1259 46.2248 41.7612 41.218 40.6716 40.3934 39.8738 59.5459 39.2049 38.0068 37.8487 36.8355 32.9872 32.121 29.7576
threshold=0.55998155474662792 0.31156276166439062 0.74259057641029369 0.20501077920198443 0.24396804720163348 0.49250999093055731 0.19311413168907168 0.52484273910522472 0.90124884247779857 0.54804882407188427 0.49796919524669653 0.065866954624652876 60.905117034912116 0.9999084770679475 0.39430795609951025 0.11783910542726518 6294.5000000000009 0.34618617594242101 0.16498791426420215 0.038939505815505988 0.45909376442432409 0.5686660408973695 0.46713435649871832 0.33242242038249975 0.29795314371585851 66.966491699218764 0.9063834846019746 1.3334261775016787 0.62121158838272106 1.0086961984634402
decision_type=2 2 2 2 2 2 2 2 2 2 2 2 2 2 2 2 2 2 2 2 2 2 2 2 2 2 2 2 2 2
left_child=1 4 3 6 8 24 13 15 -1 14 18 -12 -10 -2 -5 16 -6 -16 -7 -8 -11 22 -13 26 -3 -22 29 -19 -27 -24
right_child=2 5 -4 9 7 10 19 -9 12 20 11 21 -14 -15 17 -17 -18 27 -20 -21 25 -23 23 -25 -26 28 -28 -29 -30 -31
leaf_value=-0.09891584440331469 -0.045573432982341372 -0.080492286659475748 0.18243921334623989 0.13212654339356528 0.14120454557752524 -0.071904957242223053 -0.074334850985495735 -0.069569336749066055 0.17867279586561066 -0.022100282951753276 0.033219089281682171 -0.049436420692334594 -0.037434356420441919 0.13238752533607009 -0.061841116536311913 0.13530744881817205 -0.057745834491314298 0.10810445602848213 0.16150676115753085 0.11674401131977113 0.17505425129272029 0.18648694858706108 0.094809752852666129 0.19664046455939971 0.17922009088634952 0.046330876213131318 0.17711340857557056 -0.036313357607124862 0.14174276095492463 -0.052566203302693751
leaf_weight=738.12305350601673 170.89109875261784 55.769870713353157 1113.7434533685446 100.42053414881229 18.067735478281975 30.095168814063072 12.088521361351011 68.233800917863846 19.425293743610382 13.123757630586622 52.40938001871109 19.969094231724739 26.808219090104103 18.334969148039818 30.709306567907333 72.517358884215355 33.024694472551346 66.492153450846672 10.106138244271277 141.89388461410999 363.63353204727173 127.11225412786007 45.666043162345886 61.294331416487694 6.2680647671222678 44.288891702890396 35.552113994956017 20.752624481916428 173.54994376003742 19.573132574558258
leaf_count=4354 796 293 1947 269 46 141 53 362 46 49 173 83 117 44 131 205 163 189 28 400 725 241 146 109 20 127 67 85 378 89
internal_value=0.0805116 -0.0157109 0.141554 0.10217 -0.0664162 0.0910092 0.0300281 0.0297605 -0.0899398 0.132625 0.113439 0.127522 0.0533644 -0.02833 0.0815279 0.0845916 0.0126087 0.0384506 -0.013228 0.101743 0.151392 0.143508 0.1135 0.133574 -0.054252 0.155307 0.0952211 0.0737523 0.122345 0.0505938
internal_weight=3709.94 1440.02 2269.92 1156.18 976.2 463.816 343.208 191.844 784.357 812.971 401.778 361.576 46.2335 189.226 218.375 123.61 51.0924 117.954 40.2013 153.982 594.596 309.167 182.055 162.086 62.0379 581.472 100.791 87.2448 217.839 65.2392
internal_count=11876 6683 5193 3246 5293 1390 1293 776 4517 1953 1077 908 163 840 674 414 209 405 169 453 1279 735 494 411 313 1230 302 274 505 235
is_linear=0
shrinkage=0.1


Tree=4
num_leaves=31
num_cat=0
split_feature=50 36 50 36 34 35 10 34 34 10 36 34 50 36 47 36 2 34 17 24 2 34 35 36 11 37 21 35 1 37
split_gain=1706.95 644.007 298.15 176.851 175.522 134.155 132.496 86.673 67.2698 54.7335 57.6131 49.3827 48.7979 51.8915 47.8783 47.2923 59.1001 45.6293 62.1014 44.5266 41.8757 39.4601 44.0989 36.9292 35.7542 35.7056 38.0905 34.8922 39.5346 34.5134
threshold=0.55998155474662792 0.29643194377422338 0.68989232182502758 0.13783047348260882 0.93724733591079723 0.49877236783504492 -0.070132244378328309 0.9899033010005952 0.41978526115417486 -0.023254195228219029 0.63251280784606945 0.44693304598331457 0.88595283031463634 0.19360372424125674 0.2461458891630173 0.16810076683759692 0.15254352986812594 0.96489757299423229 35.501123428344734 0.022091899067163471 0.1173662692308426 0.5001315474510194 0.49796919524669653 0.57895573973655712 0.95310083031654369 0.50082692503929149 -0.01231206953525543 0.62824511528015148 0.18307279050350192 0.49120581150054937
decision_type=2 2 2 2 2 2 2 2 2 2 2 2 2 2 2 2 2 2 2 2 2 2 2 2 2 2 2 2 2 2
left_child=1 4 3 14 6 25 19 9 -7 -5 11 -11 13 -4 -2 -8 -17 18 20 -1 23 22 -13 -10 27 -3 -27 28 -23 -18
right_child=2 5 12 7 -6 8 15 -9 17 10 -12 21 -14 -15 -16 16 29 -19 -20 -21 -22 24 -24 -25 -26 26 -28 -29 -30 -31
leaf_value=0.16307940174728794 -0.064630344400648007 -0.11623529006803784 0.082340605055935934 0.13579832957316837 0.07940994161775275 -0.083678008421627204 -0.10450839493624307 0.1586612097905504 0.029360272629010808 -0.10468220755089769 0.12746404157374827 -0.11415795984100192 0.17305440228593574 0.14964727630331395 0.040846808179720945 -0.091163506540759165 -0.073491496472165227 0.17448197829984802 0.038565727077518465 -0.012289225152344372 0.1769334036024531 -0.064405835861473526 0.1114809303707207 0.15786182446391656 -0.10288670136972394 0.13881624603299711 -0.065964228991109639 0.080697890129897101 0.13131889392611024 0.058679403336483804
leaf_weight=26.555294647812843 83.673193365335464 36.86840246617794 144.88560327887535 139.01461419463158 77.612661108374596 19.100680440664291 551.23226253688335 198.37281715869904 55.222400680184364 21.519627034664154 104.17704802751541 9.363725543022154 696.04186330735683 547.01078899204731 88.608029127120972 137.23704326152802 29.917399823665619 82.832471236586571 131.32581879198551 31.835144981741905 90.751689523458481 45.938298225402832 115.51923261582851 37.585788920521736 20.749388664960861 16.036700934171677 20.948471352458 80.417140513658524 13.310343384742735 58.172641664743423
leaf_count=83 430 203 378 333 231 107 3479 368 200 99 247 44 1125 1021 331 851 161 138 425 152 175 179 313 77 85 52 106 209 31 243
internal_value=0.0722209 -0.0147603 0.125091 0.0809664 -0.0644361 0.0776277 -0.0778073 0.101995 0.0996377 0.0815571 0.0632106 0.0413939 0.15436 0.135553 -0.0103811 -0.0887306 -0.0501322 0.108442 0.0910692 0.0674664 0.128632 0.0524122 0.0945625 0.0814013 0.0195983 -0.0465936 0.0228282 0.0377952 -0.0204358 0.0137911
internal_weight=3711.84 1403.23 2308.6 920.663 912.562 490.672 834.95 748.382 416.819 550.009 410.995 306.818 1387.94 691.896 172.281 776.559 225.327 397.718 314.886 58.3904 183.56 285.298 124.883 92.8082 160.415 73.8536 36.9852 139.666 59.2486 88.09
internal_count=11876 6683 5193 2669 5200 1483 4969 1908 1122 1540 1207 960 2524 1399 761 4734 1255 1015 877 235 452 861 357 277 504 361 158 419 210 404
is_linear=0
shrinkage=0.1


Tree=5
num_leaves=31
num_cat=0
split_feature=50 36 50 0 36 34 34 35 38 34 37 12 5 14 8 36 28 8 34 36 5 1 36 2 21 44 51 35 22 14
split_gain=1365.46 617.366 194.162 186.733 121.314 120.542 92.9631 83.0077 77.3942 57.1697 55.4971 44.3862 44.1228 43.007 42.7269 40.3402 40.2176 38.4579 46.9313 37.0239 35.6676 34.7437 33.0908 38.322 36.552 31.9058 40.6129 30.9974 42.6811 30.5052
threshold=0.5807207226753236 0.29219773411750799 0.74259057641029369 0.24396804720163348 0.35515724122524267 0.49918039143085485 0.90124884247779857 0.57462775707244884 0.52484273910522472 0.80252927541732799 0.46713435649871832 1.5000000000000002 1.5598108768463137 16.479097366333011 60.905117034912116 0.101559616625309 6294.5000000000009 67.402954101562514 0.99374812841415416 0.5386541783809663 0.55559110641479503 0.1441391855478287 0.16810076683759692 0.15254352986812594 0.025700404308736328 0.054224614053964622 0.45519632101058966 0.54804882407188427 14.324645042419435 20.000885963439945
decision_type=2 2 2 2 2 2 2 2 2 2 2 2 2 2 2 2 2 2 2 2 2 2 2 2 2 2 2 2 2 2
left_child=1 3 4 6 7 -3 22 11 15 10 -7 20 -9 -12 -8 16 -5 -11 -19 21 -2 -15 25 24 -24 26 -1 28 -6 -25
right_child=2 5 -4 8 27 9 14 12 -10 17 13 -13 -14 19 -16 -17 -18 18 -20 -21 -22 -23 23 29 -26 -27 -28 -29 -30 -31
leaf_value=0.27879767910876718 0.10043024576557061 -0.044993835543424496 0.14584758129395897 0.11984357209912298 0.12810030996086294 -0.039023883442892475 0.14995220888000449 0.10015532275427697 -0.059662801833400926 0.16112986760776407 0.16926022483434577 -0.074715705680045999 0.0083231909850383697 -0.013689496258317857 -0.027358418943309322 0.11225135007209015 -0.074497051577532544 -0.053159336272617388 0.12846237640795952 0.10823896283079648 -0.0092011249593731588 0.092768861978185513 -0.092956649299256164 0.1775229866187289 0.20853904885787933 -0.10668123345608985 -0.086064490474341782 0.13577769126518485 0.0082687337636277343 -0.019488943949722566
leaf_weight=4.9156464189290991 46.757561013102531 74.968609690666199 1129.353544101119 16.834240019321442 70.372032940387726 44.765426367521286 23.077192142605782 260.81135305762291 64.733098790049553 140.58137206733227 46.016935780644417 57.823785215616226 65.45067186653614 78.762198358774185 33.05945785343647 89.69162991642952 28.979608908295631 21.411526203155518 42.403654828667641 102.61775858700275 81.231761932373047 50.191887676715851 139.93116590380669 9.0802179425954801 4.1401059329509726 477.02000631392002 8.0413898080587369 363.19566941261292 51.456887647509575 58.456303507089615
leaf_count=20 130 389 1947 42 160 184 53 667 364 246 79 255 210 315 139 244 154 81 79 245 306 142 904 31 15 3254 54 702 173 292
internal_value=0.0653301 -0.00573626 0.117455 -0.0555991 0.0852959 0.0736472 -0.0782954 0.0513489 0.030286 0.0905326 0.0642994 -0.00200145 0.0817331 0.0809619 0.0455321 0.073256 -0.00308684 0.131905 0.0675239 0.0634156 0.0308498 0.0277465 -0.0882034 -0.0551561 -0.0842927 -0.102476 0.0523571 0.121136 0.077487 0.00699911
internal_weight=3686.13 1559.68 2126.45 957.96 997.1 601.719 757.721 512.075 200.239 526.751 322.354 185.813 326.262 277.589 56.1366 135.505 45.8138 204.397 63.8152 231.572 127.989 128.954 701.585 211.608 144.071 489.977 12.957 485.025 121.829 67.5365
internal_count=11876 7326 4550 5566 2603 1760 4762 1568 804 1371 965 691 877 781 192 440 196 406 160 702 436 457 4570 1242 919 3328 74 1035 333 323
is_linear=0
shrinkage=0.1


Tree=6
num_leaves=31
num_cat=0
split_feature=50 36 50 36 0 35 34 38 34 34 21 20 35 35 34 35 11 34 35 7 0 47 47 2 4 24 37 36 38 35
split_gain=1114.04 428.575 234.416 168.161 156.343 87.7809 81.9013 60.8446 58.0243 54.4592 62.57 50.5397 62.6303 85.1472 57.2301 55.0452 51.7622 48.3013 46.3974 42.5635 38.7329 38.2946 36.7292 31.4637 30.8639 29.6766 28.9782 27.9722 44.5745 27.9149
threshold=0.54984381794929515 0.31156276166439062 0.74259057641029369 0.11375064030289651 0.24396804720163348 0.49625267088413244 0.9999084770679475 0.52484273910522472 0.90124884247779857 0.4659277349710465 -0.01231206953525543 2.5000000000000004 0.54804882407188427 0.50001952052116405 0.5001315474510194 0.51422083377838146 0.96485367417335521 0.41978526115417486 0.49970331788063055 64.630905151367202 0.2496270835399628 0.39028517901897436 0.11639071628451349 0.16498791426420215 0.72467893362045299 0.39999999105930334 0.44544053077697759 0.83363327383995067 0.51847460865974437 0.63041242957115184
decision_type=2 2 2 2 2 2 2 2 2 2 2 2 2 2 2 2 2 2 2 2 2 2 2 2 2 2 2 2 2 2
left_child=1 4 3 20 8 23 9 21 -1 10 -5 15 13 18 -14 -11 29 -7 -13 -10 -2 -6 -19 -3 26 -22 -24 28 -26 -16
right_child=2 5 -4 6 7 17 -8 -9 19 11 -12 12 14 -15 16 -17 -18 22 -20 -21 25 -23 24 -25 27 -27 -28 -29 -30 -31
leaf_value=-0.091378218011146373 -0.046516220728768327 -0.10084810535589428 0.13281852511123257 0.10285566332870276 -0.0082662252095117694 -0.088993176603840624 0.13071243687983305 -0.059453930718291692 0.11920963524814042 0.059950374330931679 -0.086355740632224454 -0.11269403068021758 0.13948632574352374 -0.05616176480322254 0.022567812526220754 0.18082396337856366 -0.061292991217913956 -0.0055963626092862765 0.13639896281887484 -0.090787575856058178 0.081983567172284222 0.1073029410887338 -0.073700257862547081 0.059647514520947235 0.077019695064272142 -0.15240691579695922 0.1434362077838531 0.14565703525705936 -0.071552856865162898 0.093372091506060642
leaf_weight=591.72040985524654 133.22391474246979 39.791183367371559 1116.7129061669111 28.478605359792709 46.671289414167404 15.948841869831083 289.11038091778755 61.450155571103096 23.564271003007889 66.92727655172348 45.241924792528152 8.7827025204896909 125.23605129122734 86.967096492648125 77.753967553377151 86.19946700334549 31.915972352027893 36.883036717772484 50.326952919363976 16.347893252968788 46.552698582410812 74.343183174729347 6.4308340698480597 17.625125393271446 109.99508148431778 6.1108258664607993 138.85950218141079 39.269696801900864 24.734186142683029 196.15628987550735
leaf_count=4167 667 227 1947 76 197 98 534 359 62 212 206 42 253 343 228 165 117 127 127 80 132 195 26 66 291 28 273 73 99 459
internal_value=0.0594791 -0.0173116 0.0993421 0.0701129 -0.0599529 0.0635058 0.0850658 0.0215822 -0.0835065 0.0686515 -0.0132624 0.0769207 0.06337 0.0067811 0.0825467 0.127994 0.0592298 0.081263 0.0993879 0.0331955 -0.0178164 0.0627317 0.0888868 -0.0515807 0.0998011 0.054786 0.133825 0.0713906 0.0497441 0.0732731
internal_weight=3639.33 1243.63 2395.7 1278.98 814.097 429.537 1093.1 182.465 631.633 803.986 73.7205 730.266 577.139 146.077 431.062 153.127 305.826 372.121 59.1097 39.9122 185.887 121.014 356.172 57.4163 319.289 52.6635 145.29 173.999 134.729 273.91
internal_count=11876 6340 5536 3589 5060 1280 2762 751 4309 2228 282 1946 1569 512 1057 377 804 987 169 142 827 392 889 293 762 160 299 463 390 687
is_linear=0
shrinkage=0.1


Tree=7
num_leaves=31
num_cat=0
split_feature=50 36 50 36 34 47 34 47 36 38 47 40 2 50 28 36 34 38 21 44 35 34 36 47 3 36 3 7 2 44
split_gain=907.188 373.271 205.221 128.906 107.691 106.216 82.5563 81.2427 75.8255 55.3839 53.5569 49.0423 59.0728 43.5562 42.1201 40.8317 40.405 38.5167 37.0702 36.4569 33.0542 32.7767 31.8742 31.5873 34.7044 29.09 28.7105 28.3981 26.9572 25.2828
threshold=0.54984381794929515 0.21849443018436435 0.68989232182502758 0.23709060251712802 0.7985006868839265 0.38227577507495886 0.9999084770679475 0.43801319599151617 0.5686660408973695 0.53547254204750072 0.24452438205480578 1.0000000180025095e-35 0.1675505414605141 0.88595283031463634 10698.000000000002 0.17502474039793017 0.49918039143085485 0.42794917523860937 -0.011263188906013964 0.11578256636857988 0.56162425875663768 0.94608536362648021 0.63251280784606945 0.21003476530313495 0.32548549771308904 0.040096076205372817 1.0385747551918032 66.966491699218764 0.29874975979328161 0.26722006499767309
decision_type=2 2 2 2 2 2 2 2 2 2 2 2 2 2 2 2 2 2 2 2 2 2 2 2 2 2 2 2 2 2
left_child=1 5 3 6 7 19 10 8 11 28 -2 -3 17 15 -9 -4 18 26 -5 23 -6 -21 -18 -1 -25 -12 -13 -23 -7 -10
right_child=2 4 13 16 20 9 -8 14 29 -11 25 12 -14 -15 -16 -17 22 -19 -20 21 -22 27 -24 24 -26 -27 -28 -29 -30 -31
leaf_value=-0.085532067829570207 -0.054010252288014052 -0.079133501174489473 0.049316600130100023 0.11152994524677072 -0.040711245041042933 -0.019616770101535373 0.10925426563987202 0.16059014295898477 -0.080807958980609607 -0.083727383784383214 -0.11209930998312029 0.21822902183481327 0.12308082580425583 0.13395706335458679 -0.00034575433580223886 0.11025700010070157 0.074011126941650671 -0.078641344117980544 -0.057449561470031642 -0.099558206059354601 0.1204318996255708 0.11739136636181238 0.12284430923123985 0.30731719215584385 -0.11825257717519436 0.045274833624220072 -0.12677753879782119 -0.080305204422773002 0.10834377971818353 0.084446570519166764
leaf_weight=8.5725954696536082 156.82176066935062 131.61286571621895 137.30672144889832 20.095797151327133 13.823703646659849 24.151729762554169 66.751830756664276 49.831131488084793 10.381586223840712 35.495231851935387 12.928615763783453 8.5387291163206083 33.07102932035923 667.39935076236725 24.140604138374329 551.80066759884357 392.03152431547642 52.055690869688988 36.676657512784004 473.37781864404678 160.78033997118473 13.302503034472467 202.80971369147301 6.4716213420033437 2.7222583815455437 128.36810578405857 3.3616679906845084 16.011614456772804 51.718427188694477 85.542866781353951
leaf_count=64 791 739 353 50 52 107 141 91 46 235 70 25 108 1125 87 1046 961 304 158 3609 345 31 398 23 21 443 22 69 136 226
internal_value=0.0544108 -0.0162522 0.0902923 0.0563201 0.0421854 -0.0692622 0.00873049 0.013494 -0.00806067 0.0193747 -0.0137778 -0.039368 0.0145722 0.115749 0.108069 0.0981144 0.0829678 -0.0415365 0.00236427 -0.0882283 0.107674 -0.0932039 0.0906607 0.0525537 0.181308 0.0308751 0.12077 0.00940786 0.0676101 0.0665616
internal_weight=3577.95 1204.96 2372.99 1016.48 573.14 631.824 364.87 398.536 324.564 111.365 298.118 228.64 97.0271 1356.51 73.9717 689.107 651.614 63.9561 56.7725 520.458 174.604 502.692 594.841 17.7665 9.19388 141.297 11.9004 29.3141 75.8702 95.9245
internal_count=11876 6340 5536 3012 2045 4295 1445 1648 1470 478 1304 1198 459 2524 178 1399 1567 351 208 3817 397 3709 1359 108 44 513 47 100 243 272
is_linear=0
shrinkage=0.1


Tree=8
num_leaves=31
num_cat=0
split_feature=50 36 50 34 36 34 47 10 14 36 10 38 2 35 34 8 34 7 47 23 35 5 0 36 10 47 5 2 35 18
split_gain=744.988 388.552 136.332 126.882 92.9278 81.308 70.6491 67.1773 55.4409 60.2976 54.7656 54.7002 46.5297 42.2023 64.5675 40.0883 38.8454 38.732 32.4755 31.8668 31.0869 28.4845 28.1068 30.9387 31.5369 26.6695 29.2525 26.3056 25.7491 24.9688
threshold=0.5807207226753236 0.16810076683759692 0.79109546542167675 0.49918039143085485 0.19524604827165606 0.9899033010005952 0.27198326587677008 -0.021767866797745224 21.432258605957035 0.71691909432411205 -0.10219854488968848 0.52391749620437633 0.17968758195638659 0.55275496840477001 0.5001315474510194 67.402954101562514 0.9125538468360902 66.966491699218764 0.10277010872960092 0.64333441853523265 0.81935444474220287 1.3334261775016787 0.17198888212442401 0.5686660408973695 0.010401978623121979 0.32484407722949987 1.8885833621025088 0.1246030628681183 0.49625267088413244 -0.0083466800861060602
decision_type=2 2 2 2 2 2 2 2 2 2 2 2 2 2 2 2 2 2 2 2 2 2 2 2 2 2 2 2 2 2
left_child=1 6 4 10 12 7 -1 28 18 13 -3 19 21 -10 -15 20 22 -18 -9 -8 27 -2 23 24 -6 -14 -27 -16 29 -5
right_child=2 3 -4 5 16 -7 11 8 9 -11 -12 -13 25 14 15 -17 17 -19 -20 -21 -22 -23 -24 -25 -26 26 -28 -29 -30 -31
leaf_value=-0.095935120240663516 0.0034147116111305866 0.18123632563495595 0.11757661941448337 -0.096054998475570752 0.049377886490024697 0.12580135315871407 -0.015266011544509853 -0.074213107477064888 -0.069090701095466112 0.082284068892992113 -0.073192983038241399 -0.088946948217692945 -6.8449730640828121e-05 0.14270768336370415 -0.085048180320362335 -0.1037908244422229 0.1427246878178684 0.076042611840535415 0.093575428487703324 0.09606405032143138 0.11473591457928899 -0.0980998583222676 0.09519745887266981 0.081713202229881529 -0.039817793755333855 0.10563170214724792 -0.0507426087542324 0.042697797764052595 0.10880801948530312 0.099580482800250475
leaf_weight=370.33903439342976 107.09278281033039 9.0982692092657071 903.02828504145145 13.204317428171636 115.5171697884798 123.85540774464607 76.423584528267384 12.909656748175619 117.30662108957767 66.760695591568947 120.60506968945265 71.960453912615776 56.488641321659088 29.787905603647232 31.219528995454311 39.985868290066719 169.12020379304886 179.62296898663044 108.3583806976676 38.745565265417099 23.743165381252766 37.257043674588203 192.30841140449047 140.46609432995319 60.348355814814568 91.278352782130241 13.767047822475432 33.327716745436192 139.74445953220129 12.894652038812636
leaf_count=2974 422 22 1618 74 298 227 380 71 639 152 763 537 193 79 158 197 282 381 318 130 64 177 410 312 203 206 48 115 385 41
internal_value=0.0499409 -0.00526783 0.088423 0.0360066 0.0657915 0.0517399 -0.0706296 0.0371622 0.0176155 -0.00297724 -0.0553456 -0.0205488 0.0184718 -0.0236479 0.0100772 -0.0207218 0.0826735 0.10838 0.0757134 0.022188 0.0168993 -0.0227864 0.0650485 0.0467199 0.0187703 0.0553409 0.0851376 -0.019089 0.0917795 0.00060213
internal_weight=3506.57 1440.27 2066.3 882.802 1163.27 753.098 557.469 629.243 463.4 342.132 129.703 187.13 305.884 275.371 158.064 128.276 857.383 348.743 121.268 115.169 88.2904 144.35 508.64 316.332 175.866 161.534 105.045 64.5472 165.843 26.099
internal_count=11876 7326 4550 3305 2932 2520 4021 2293 1793 1404 785 1047 1046 1252 613 534 1886 663 389 510 337 599 1223 813 501 447 254 273 500 115
is_linear=0
shrinkage=0.1


Tree=9
num_leaves=31
num_cat=0
split_feature=50 36 50 34 36 47 35 47 36 0 38 40 13 1 44 3 47 10 10 34 35 34 20 35 36 37 45 8 20 11
split_gain=622.038 269.443 171.985 112.891 102.258 84.867 83.1627 67.9713 45.8591 57.8298 37.9794 37.8282 36.9008 35.3753 34.9694 33.5089 32.1605 30.7454 29.9909 30.0359 29.8696 27.8842 35.3861 43.8447 27.8456 27.416 24.0379 23.0963 22.5141 22.3806
threshold=0.54260432720184337 0.21849443018436435 0.74865189194679271 0.9999084770679475 0.25511172413825994 0.38227577507495886 0.49877236783504492 0.2370523735880852 0.5686660408973695 0.23959413170814517 0.53547254204750072 1.0000000180025095e-35 23.708801269531254 0.14047379046678546 0.054224614053964622 0.63279882073402416 0.21706707775592807 -0.094928584992885576 -0.023254195228219029 0.49918039143085485 0.49970331788063055 0.5001315474510194 2.5000000000000004 0.54319593310356151 0.064221229404211058 0.48988345265388494 0.65442302823066723 71.626800537109389 1.5000000000000002 0.96485367417335521
decision_type=2 2 2 2 2 2 2 2 2 2 2 2 2 2 2 2 2 2 2 2 2 2 2 2 2 2 2 2 2 2
left_child=1 5 3 4 7 14 13 -2 9 11 -7 12 -8 -3 16 -13 -1 -9 -6 -20 -19 -21 -23 -24 -4 -22 -10 -5 -27 -25
right_child=2 6 24 27 18 10 8 17 26 -11 -12 15 -14 -15 -16 -17 -18 20 19 21 25 22 23 29 -26 28 -28 -29 -30 -31
leaf_value=-0.072020679561981368 -0.051484702161821119 -0.10723204002233451 0.034466790129475983 0.12308853884462145 0.09972929141219318 0.054937638174974268 0.042123543209259651 0.12558984158498412 0.11385595050018969 0.096695376576517833 -0.076032928699112712 0.11922499451959517 -0.077684289319550112 0.024911078964933719 -0.089940623350057439 -0.0015870764661468637 0.25353463794199638 -0.094567796439463891 -0.035028227767734663 0.087159722056118508 -0.10505760865010856 0.13264003372399238 -0.092983875173281993 0.051255073540193763 0.10955599527212388 0.18860074396553747 -0.016015341969273827 0.068406191932317117 0.0322927521696416 -0.052982992919680588
leaf_weight=6.4172691106796247 173.42840269953012 52.4925507158041 52.052573084831238 202.4141518175602 148.88636919856071 72.542772799730301 38.637982025742531 30.011273324489594 123.61855147778988 89.876854807138443 31.867648705840111 38.709704399108887 76.820091105997562 32.990978732705116 432.00931058079004 56.420894533395767 5.756226509809494 21.407147973775864 39.734963744878769 169.80199197679758 13.84220916777849 31.992876306176186 29.653051868081093 161.73645021021366 963.93863424658775 9.7790415808558446 16.109020859003067 124.90433847904205 159.74533531069756 23.603725641965866
leaf_count=53 927 367 123 366 316 230 149 65 252 214 234 122 402 145 3608 239 18 103 167 392 69 62 121 386 1782 26 48 273 539 78
internal_value=0.04593 -0.017137 0.0746754 0.0511622 0.034674 -0.0661613 0.0340244 -0.00400649 0.0515521 0.0295413 0.0149634 0.000880743 -0.0375907 -0.0562336 -0.0852306 0.0475727 0.0819179 0.0310642 0.0607554 0.0480448 0.0172107 0.0559646 0.0345181 0.0199167 0.105709 0.0302603 0.0988832 0.102222 0.0413094 0.03798
internal_weight=3431.2 1074.27 2356.93 1340.94 1013.62 548.593 525.677 408.213 440.193 300.466 104.41 210.589 115.458 85.4835 444.183 95.1306 12.1735 234.785 605.409 456.523 204.774 416.788 246.986 214.993 1015.99 183.367 139.728 327.318 169.524 185.34
internal_count=11876 6081 5795 3890 3251 4143 1938 1729 1426 1126 464 912 551 512 3679 361 71 802 1522 1206 737 1039 647 585 1905 634 300 639 565 464
is_linear=0
shrinkage=0.1


Tree=10
num_leaves=31
num_cat=0
split_feature=50 36 34 50 0 47 36 35 8 34 38 36 38 23 47 34 4 10 36 34 35 28 38 36 37 14 5 50 20 35
split_gain=517.971 318.733 110.562 90.6499 78.7761 73.4704 70.063 65.2537 58.5978 52.9524 49.0503 47.3828 46.2064 45.5123 37.8523 37.1504 36.5592 36.4148 37.021 35.9038 45.5681 34.0188 33.1492 30.6663 30.3986 25.8275 31.2087 28.4909 25.1866 25.5532
threshold=0.60523059964180004 0.17040929198265078 0.82683545351028453 0.88595283031463634 0.22005184739828113 0.23961737006902697 0.5686660408973695 0.62121158838272106 67.402954101562514 0.98142546415328991 0.43847754597663885 0.46523219347000128 0.51725381612777721 0.89401987195014965 0.11345385387539865 0.44253386557102209 0.047479791566729553 -0.094928584992885576 0.069053672254085555 0.5001315474510194 0.53493407368659984 9997.5000000000018 0.49793758988380438 0.063033979386091246 0.52751907706260692 20.633103370666507 0.93726909160614025 0.52163589000701915 2.5000000000000004 0.49970331788063055
decision_type=2 2 2 2 2 2 2 2 2 2 2 2 2 2 2 2 2 2 2 2 2 2 2 2 2 2 2 2 2 2
left_child=1 5 4 7 6 -1 12 11 -4 -10 -7 13 14 17 -3 -16 -12 -2 -19 20 25 -6 -23 -9 -18 -17 27 -27 29 -8
right_child=3 2 8 -5 21 10 28 23 9 -11 16 -13 -14 -15 15 19 24 18 -20 -21 -22 22 -24 -25 -26 26 -28 -29 -30 -31
leaf_value=-0.091819974255133829 0.10672889349054444 -0.090814788777266786 0.11628453612058019 0.11064829224591684 0.13900734178126276 0.047291616731953569 -0.0078738330758975749 -0.0055138133611370033 -0.080215350412790806 0.07226100582150019 0.16138667318575337 0.072481451110220432 -0.080042375273503774 0.10468938704705427 -0.086002842256934109 0.083838483271328479 -0.074554782472004921 -0.1332678077525635 -0.003960106234634898 -0.024317230540915183 0.15211159376340788 0.083537146046342395 -0.05786876047772635 0.088656487101119785 0.061280995864890012 -0.10572867453174731 -0.13356909304611117 0.08478549791654022 0.0027032205758038721 0.11628763753478105
leaf_weight=316.05110447853804 26.148879215121269 43.783245988190174 199.35334437340498 602.31174759566784 57.815957836806774 76.807463563978672 21.719361796975136 36.569382980465889 33.294129632413387 72.097116589546204 7.8857386708259574 212.11747848987579 113.13911855220795 44.153904139995575 34.856374643743038 38.679229684174061 144.54296519607306 24.781114503741264 207.8345895409584 87.781935080885887 37.127187237143517 50.309415087103844 24.726073525846004 635.89822746813297 18.594403177499771 11.151162542402743 17.394530221819878 26.513156980276108 58.034126579761505 69.991415947675705
leaf_count=2813 53 294 410 1125 118 317 95 117 151 159 28 465 759 104 234 118 1040 124 652 380 97 129 109 1319 84 71 107 88 167 149
internal_value=0.0423266 0.000239624 0.0342023 0.0790483 0.0121281 -0.059856 -0.00429084 0.0630206 0.0844012 0.0240922 -0.0190932 0.0362349 -0.0256529 0.0108535 -0.00495374 0.00987554 -0.048907 -0.00515809 -0.0177356 0.0251603 0.0583489 0.0813591 0.0369404 0.0835354 -0.0590722 0.021212 -0.0227836 0.0283805 0.0542589 0.0868832
internal_weight=3351.46 1561.65 997.767 1789.82 693.022 563.882 560.171 1187.5 304.745 105.391 247.831 515.036 410.426 302.918 297.287 253.504 171.023 258.765 232.616 218.647 130.865 132.851 75.0355 672.468 163.137 93.7381 55.0588 37.6643 149.745 91.7108
internal_count=11876 7917 3635 3959 2915 4282 2559 2834 720 310 1469 1398 2148 933 1389 1095 1152 829 776 861 481 356 238 1436 1124 384 266 159 411 244
is_linear=0
shrinkage=0.1


Tree=11
num_leaves=31
num_cat=0
split_feature=50 36 50 36 35 35 10 47 11 34 1 18 34 36 1 34 33 37 4 20 35 23 13 34 23 34 35 35 40 10
split_gain=432.773 200.197 138.474 97.4521 63.8371 60.7233 54.421 42.7449 42.5269 46.7607 39.0539 35.9843 35.3771 33.326 34.5071 31.8557 31.1452 28.6933 27.5838 26.8976 34.9667 26.4206 26.3982 26.0174 31.4367 25.7171 39.7924 25.6688 25.5227 25.1146
threshold=0.54260432720184337 0.17204942554235461 0.79109546542167675 0.11375064030289651 0.49877236783504492 0.62824511528015148 -0.048403097316622727 0.11639071628451349 0.80625516176223766 0.41978526115417486 0.14047379046678546 -0.0078584202565252764 0.89036291837692272 0.37037479877471929 0.16873791068792346 0.94844502210617077 0.81504869461059581 0.49071760475635534 0.25842821598052984 2.5000000000000004 0.54908114671707164 0.84366270899772655 42.555770874023445 0.9999084770679475 0.79253977537155162 0.5001315474510194 0.49970331788063055 0.51679691672325145 0.15000000223517421 -0.020047506317496296
decision_type=2 2 2 2 2 2 2 2 2 2 2 2 2 2 2 2 2 2 2 2 2 2 2 2 2 2 2 2 2 2
left_child=1 6 3 23 10 13 21 -6 9 -9 -3 12 18 14 25 -8 -10 -12 -11 27 28 -1 -16 24 -2 26 -5 -15 -21 -26
right_child=2 4 -4 5 7 -7 15 8 16 11 17 -13 -14 19 22 -17 -18 -19 -20 20 -22 -23 -24 -25 29 -27 -28 -29 -30 -31
leaf_value=-0.011875728453452406 -0.055983897386497519 -0.10431916391803581 0.096335771415710661 -0.10216451150581454 -0.045973870220044573 0.078267312802204461 -0.092733580688881559 -0.091053887234690989 -0.029538362939297114 0.12520617374686185 -0.10392094856009788 0.1038714519147439 0.13660761380302866 0.051152821441529807 0.086686848234316272 0.019894868886846127 0.12236008950553996 0.077738283910630687 -0.0096297679470743434 -0.03477379180070491 0.065051680983349944 0.16095869616482517 -0.0091428723247926873 0.06152197123428832 0.13453829350270377 -0.075273198736870287 0.043479264135456476 0.14300192848143586 0.11802953550328095 -0.032652363485875267
leaf_weight=43.703592538833618 137.78241381794214 58.509316883981228 814.19441495835781 24.793108291924 56.644981883466244 599.79010469466448 324.978764757514 18.370560243725777 93.98785375058651 17.983249641954899 12.466940172016619 172.18739425390959 28.100626118481159 68.405031003057957 72.414712093770504 27.215624660253525 15.762251831591128 28.73749702423811 97.052735306322575 79.464878641068935 144.76324614882469 11.088848300278185 47.668101996183395 33.896934106945992 17.563761860132217 58.239264480769634 77.082207076251507 54.803559988737106 12.67449529469013 18.39410724490881
leaf_count=290 749 480 1618 138 312 1323 3133 139 388 51 83 464 53 186 176 97 38 108 404 262 319 41 150 82 51 258 269 99 25 90
internal_value=0.0390668 -0.0154727 0.0633425 0.0447874 0.0212594 0.0554037 -0.0696071 0.0358269 0.046276 0.0640359 -0.0518004 0.0730713 0.03602 0.0339869 0.00812365 -0.0840303 -0.00772279 0.0227749 0.0114488 0.0541107 0.0344013 0.0231024 0.0486463 -0.0186181 -0.0342535 -0.0222675 0.00803435 0.0920076 -0.0137545 0.0490126
internal_weight=3268.72 1006.79 2261.93 1447.74 599.803 1240.1 406.987 500.09 443.445 333.695 99.7138 315.324 143.137 640.309 280.197 352.194 109.75 41.2044 115.036 360.111 236.903 54.7924 120.083 207.637 173.74 160.115 101.875 123.209 92.1394 35.9579
internal_count=11876 6081 5795 4177 2520 3205 3561 1849 1537 1111 671 972 508 1882 991 3230 426 191 455 891 606 331 326 972 890 665 407 285 287 141
is_linear=0
shrinkage=0.1


Tree=12
num_leaves=31
num_cat=0
split_feature=50 36 38 0 34 34 17 9 1 23 36 50 10 36 2 36 38 3 10 28 33 50 4 35 4 7 37 33 34 4
split_gain=364.368 250.865 104.63 88.6989 85.7218 60.073 52.0978 49.7494 47.1802 39.9177 48.8408 38.5961 36.9798 33.5484 31.3438 31.2056 30.913 30.1219 29.1845 28.5305 27.5793 25.6636 25.3597 24.7708 24.4772 22.2121 21.8929 21.5304 29.8343 21.2668
threshold=0.68989232182502758 0.20501077920198443 0.48161822557449346 0.10187801346182825 0.45909376442432409 0.99374812841415416 30.973774909973148 0.076600816100835814 0.05787292309105397 0.82782790064811718 0.053800797089934356 0.957820624113083 -0.020047506317496296 0.94011354446411144 0.19480566680431369 0.17502474039793017 0.47595056891441351 0.24253447353839877 -0.088617194443941102 36614.500000000007 0.75123271346092235 0.45323458313941961 0.42140702903270727 0.82659512758255016 0.0068531192373484382 68.740703582763686 0.64104443788528453 0.45781210064888006 0.27058102190494543 0.18801440298557284
decision_type=2 2 2 2 2 2 2 2 2 2 2 2 2 2 2 2 2 2 2 2 2 2 2 2 2 2 2 2 2 2
left_child=1 2 3 -1 14 6 8 18 -6 10 29 15 -8 16 -3 23 22 -12 -4 -10 -19 -21 -14 -2 -20 -11 -26 28 -16 -5
right_child=11 4 7 9 5 -7 12 -9 19 25 17 -13 13 -15 27 -17 -18 20 24 21 -22 -23 -24 -25 26 -27 -28 -29 -30 -31
leaf_value=-0.083519983888012447 0.0024609728393183675 -0.076397595833566589 0.059202164012916364 0.063803475447454044 -0.034727667379360685 0.091988864708017454 0.059830113837038248 0.041875657765780998 0.12416502133481805 0.12680099360335609 0.13823144781893229 0.10355186239014512 0.089351871287827789 0.06479646681663849 -0.087570063756480798 0.076726868371452983 -0.054873682063373556 -0.0070729038083909516 0.18583555680985753 -0.057518025197863948 0.075964213412439086 0.066874953447345814 -0.0069026885487786412 0.09298867738154408 -0.099814020910207468 -0.062945600720775 0.12857584336546934 -0.093096566452627913 0.16797194117602898 -0.11541676923127564
leaf_weight=100.18634028732777 114.52640770375729 83.276628643274307 13.025162220001219 7.9894434288144103 44.111968114972115 230.34862729907036 129.5409250408411 32.889071173965931 88.115296982228756 47.459756150841713 22.231149062514305 439.7986191213131 32.95762811601162 62.627883091568947 6.4383546039462152 586.69480781257153 121.56941740959883 146.61866730451584 3.1009815856814376 17.85722741484642 55.002973824739456 232.86968401819468 161.49432992190123 41.063161909580231 295.2174968123436 7.0911810249090186 4.2576250284910193 8.541877865791319 15.732624560594557 38.6576843932271
leaf_count=857 318 553 54 38 175 461 356 146 187 143 78 881 85 146 37 1240 550 741 11 100 160 640 553 85 2877 29 20 42 39 274
internal_value=0.0360238 0.010106 -0.0345451 -0.00125503 0.038069 0.0464667 0.0346999 -0.0751664 0.0625531 0.0241005 0.00836337 0.0800768 0.0137107 -0.00206739 -0.0445525 0.0661681 -0.0153182 0.0277606 -0.0873635 0.0752175 0.0155799 0.0580155 0.00941148 0.026353 -0.0936728 0.102135 -0.096567 0.041794 0.0937637 -0.084721
internal_weight=3191.29 2009.21 773.728 425.237 1235.48 1121.49 891.144 348.49 382.954 325.051 270.5 1182.08 508.19 378.649 113.989 742.284 316.021 223.853 315.601 338.842 201.622 250.727 194.452 155.59 302.576 54.5509 299.475 30.7129 22.171 46.6471
internal_count=11876 9352 5428 2320 3924 3253 2792 3108 1102 1463 1291 2524 1690 1334 671 1643 1188 979 2962 927 901 740 638 403 2908 172 2897 118 76 312
is_linear=0
shrinkage=0.1


Tree=13
num_leaves=31
num_cat=0
split_feature=37 47 36 36 38 35 47 35 36 35 23 20 35 34 3 34 34 34 7 33 34 35 35 38 36 38 2 34 12 8
split_gain=313.979 189.03 127.081 115.206 70.7967 51.8446 49.1663 37.3311 35.6315 34.8896 34.4327 30.2598 55.9426 36.5336 29.9572 28.751 36.5095 51.2011 35.9022 31.9607 30.2086 27.7983 26.0047 25.8976 24.9152 29.35 24.7948 24.656 24.5439 24.4035
threshold=0.49895250797271734 0.33373096585273748 0.20501077920198443 0.41119302809238439 0.45757026970386511 0.53983259201049816 0.15239208936691287 0.53592446446418773 0.063033979386091246 0.81469058990478527 0.79887479543685924 2.5000000000000004 0.50001952052116405 0.52859312295913707 0.21351511031389239 0.45909376442432409 0.5001315474510194 0.90124884247779857 74.531234741210952 0.63550370931625377 0.69638726115226757 0.49970331788063055 0.69120460748672496 0.49209170043468481 0.076152760535478606 0.50296181440353405 0.19988914579153064 0.49250999093055731 5.5000000000000009 70.640487670898452
decision_type=2 2 2 2 2 2 2 2 2 2 2 2 2 2 2 2 2 2 2 2 2 2 2 2 2 2 2 2 2 2
left_child=3 2 6 4 26 11 -2 -5 10 -6 -3 13 21 -4 23 -7 -17 19 -19 20 -18 -13 -10 -8 -16 27 -1 -26 -21 -29
right_child=1 8 5 7 9 15 14 -9 22 -11 -12 12 -14 -15 24 16 17 18 -20 28 -22 -23 -24 -25 25 -27 -28 29 -30 -31
leaf_value=-0.030433883382386895 -0.090236050900852446 -0.029306290094202506 0.008398528806185428 -0.038909320349971875 -0.092910372052528833 -0.052914513002011512 0.14747403211810495 0.075848945781940971 0.065663649550593714 0.0036245856761916852 0.10889507393241614 -0.11926783426530783 -0.089928907598362792 0.12384927296963995 -0.065119515113006995 0.10867510008383184 -0.013311177400516183 0.096336810259285616 0.0093801297277449937 -0.12517300357077024 0.076366466807515951 0.086751117941813075 0.096381126979570422 -0.055434676641878726 -0.10516163699956149 -0.090737815321283444 0.06485511646025037 0.047821321430981112 0.00022248503215746343 -0.056417040453064851
leaf_weight=61.708186008036137 89.056427277624607 56.941027574241161 119.98758561164141 38.706630736589432 291.74947647750378 22.62372612208128 21.571251854300503 105.90836101025343 510.26624773442745 42.951028078794479 26.380116455256939 7.8834002688527098 69.023680582642555 35.524430729448795 75.611288361251354 131.87635984271765 64.100110203027725 223.42668209969997 60.293537676334381 23.62909109890461 90.733682319521904 38.705263234674931 599.27936144918203 8.8792999088764173 14.842085570096968 29.021653927862644 48.982894271612167 129.21770208328962 45.989222407341003 27.184298612177372
leaf_count=374 867 227 493 183 2679 116 93 254 1254 224 63 43 295 85 545 270 205 450 155 98 214 94 1256 72 122 217 137 537 139 115
internal_value=0.0332561 0.0486192 0.0226838 -0.0324151 -0.0575945 0.042804 -0.024835 0.0451336 0.0775184 -0.0805224 0.0144493 0.00596648 -0.0327797 0.0347716 -0.00582144 0.0578757 0.0617917 0.049625 0.0778576 0.0139374 0.0392405 0.0518901 0.0822545 0.0883064 -0.016211 0.00225462 0.0117333 0.0180146 -0.0423379 0.0297036
internal_weight=3112.05 2522.05 1329.18 590.007 445.392 933.797 395.384 144.615 1192.87 334.701 83.3211 271.124 115.612 155.512 306.328 662.672 640.049 508.172 283.72 224.452 154.834 46.5887 1109.55 30.4506 275.877 200.266 110.691 171.244 69.6183 156.402
internal_count=11876 8025 5225 3851 3414 2657 2568 437 2800 2903 290 1010 432 578 1701 1647 1531 1261 605 656 419 137 2510 165 1536 991 511 774 237 652
is_linear=0
shrinkage=0.1


Tree=14
num_leaves=31
num_cat=0
split_feature=50 36 34 10 36 37 34 28 47 50 47 38 28 28 36 4 36 37 11 35 36 23 1 3 35 11 45 15 47 23
split_gain=267.226 187.515 90.8188 61.1375 53.1151 48.6671 46.6586 42.6019 42.1783 36.4603 34.5779 36.7649 28.8381 27.0755 30.5367 26.3538 26.6518 25.9809 25.1366 30.8862 24.8126 22.7968 22.5992 26.9791 22.4937 21.5413 20.3939 20.4957 20.3827 20.3561
threshold=0.68989232182502758 0.13966483622789386 0.9899033010005952 -0.022232739254832264 0.56102174520492565 0.49895250797271734 0.44253386557102209 96.000000000000014 0.19710213690996173 0.957820624113083 0.11345385387539865 0.47960990667343145 7008.5000000000009 9997.5000000000018 0.37037479877471929 0.047479791566729553 0.042797386646270759 0.63501638174057018 0.73295965790748607 0.63041242957115184 0.17502474039793017 0.82124060392379772 0.17144569754600528 0.341172605752945 0.99225586652755748 0.41881552338600164 0.49940598011016851 0.00019541606161510575 0.2338112220168114 0.64333441853523265
decision_type=2 2 2 2 2 2 2 2 2 2 2 2 2 2 2 2 2 2 2 2 2 2 2 2 2 2 2 2 2 2
left_child=1 5 3 13 6 12 -5 -8 24 20 -9 -12 28 -3 22 -10 21 26 -4 -20 29 -17 23 -15 -7 -13 -6 -28 -1 -2
right_child=9 2 18 4 17 8 7 10 15 -11 11 25 -14 14 -16 16 -18 -19 19 -21 -22 -23 -24 -25 -26 -27 27 -29 -30 -31
leaf_value=-0.11029780710131112 -0.0087461839491119239 0.12044899952490616 0.12032228191839714 -0.096112789543320212 0.084651921599249016 -0.080427810854799359 0.12061186089621567 -0.086537739173759745 0.15790682576833792 0.093903142443050411 0.018681688011143307 0.026109298561120514 -0.10438035293738071 0.15281955177264028 0.079069818617851381 -0.10952376207527025 0.016983560972525638 -0.080291270805266338 -0.040278944788875115 0.075309480018860175 0.066016049022463913 0.067405182092131574 0.04878520868981881 -0.04716489314249192 0.23264874366680016 -0.056226957570138937 -0.056069928598501462 0.044652396052347915 0.062447745690516122 0.065904124124406493
leaf_weight=10.443132974207403 93.095149338245392 48.972794413566589 95.893319204449654 62.89947471767664 97.190445743501186 100.51540035009384 25.643070600926876 54.887701414525509 10.72231215238571 401.22939762473106 301.86847433447838 40.811154372990131 150.92564820498228 7.4716105014085761 113.00258711725473 34.311336934566498 148.562534943223 16.298382267355919 27.740344688296318 138.71217851340771 553.68546803295612 9.2445586025714857 77.453255996108055 69.445644155144691 2.3484999537467948 143.51417991518974 25.739653624594212 93.917840123176575 19.744577527046204 60.116894945502281
leaf_count=130 267 126 182 541 233 1016 58 410 32 881 1025 197 1713 32 274 269 749 57 81 300 1240 40 234 402 11 812 91 243 94 136
internal_value=0.0306928 0.00820385 0.0263262 0.0144864 0.000698136 -0.0454562 -0.0144004 -0.00533134 -0.0211197 0.0698264 -0.0113001 -0.00280629 -0.0865343 0.0520911 0.0395705 0.00533163 -0.00318374 0.0414726 0.0795404 0.056046 0.0561607 -0.0719713 0.0106561 -0.0277387 -0.0732799 -0.037997 0.0506244 0.0229859 0.00268817 0.0205449
internal_weight=3036.41 1928.28 1441.46 1179.12 862.77 486.818 629.624 566.725 305.705 1108.13 541.082 486.194 181.113 316.346 267.373 202.841 192.118 233.146 262.346 166.453 706.898 43.5559 154.371 76.9173 102.864 184.325 216.848 119.657 30.1877 153.212
internal_count=11876 9352 5298 4735 3667 4054 3043 2502 2117 2524 2444 2034 1937 1068 942 1090 1058 624 563 381 1643 309 668 434 1027 1009 567 334 224 403
is_linear=0
shrinkage=0.1


Tree=15
num_leaves=31
num_cat=0
split_feature=37 47 36 36 35 0 34 8 5 47 39 10 36 11 51 36 28 38 8 18 33 19 39 22 1 23 1 24 24 0
split_gain=227.054 143.286 91.616 84.3515 42.78 40.54 40.2695 45.374 37.1238 34.5278 30.7065 30.3712 30.314 25.5263 31.3246 24.7009 24.5005 23.3417 23.1798 22.9545 23.0761 27.9586 21.0111 19.7599 20.8773 19.2634 19.2216 19.0485 25.9636 20.2898
threshold=0.49895250797271734 0.33373096585273748 0.20501077920198443 0.18550148606300357 0.58441361784935009 0.10052197799086572 0.8385395109653474 61.090953826904304 0.90503334999084484 0.49369736015796667 0.98852291703224193 -0.019600455649197098 0.101559616625309 0.48277269303798681 0.58984541893005382 0.57895573973655712 13516.000000000002 0.42014102637767797 70.937423706054702 -0.41906858980655665 0.68855753540992748 -2.5059751272201534 0.555555820465088 11.769364356994631 0.31519328057765966 0.79253977537155162 0.051041476428508765 0.29288546741008764 0.33333337306976324 0.1151472255587578
decision_type=2 2 2 2 2 2 2 2 2 2 2 2 2 2 2 2 2 2 2 2 2 2 2 2 2 2 2 2 2 2
left_child=3 2 5 9 13 -2 11 -8 18 17 12 -5 23 26 -15 -6 -11 -1 19 -7 21 -21 -13 24 -3 27 -4 -23 -29 -30
right_child=1 10 4 6 15 8 7 -9 -10 16 -12 22 -14 14 -16 -17 -18 -19 -20 20 -22 25 -24 -25 -26 -27 -28 28 29 -31
leaf_value=0.012103609924727188 -0.075815339088092557 -0.14945151271992851 -0.064707339462123731 0.036347204469991047 0.038055688835031527 -0.1230065571107804 0.1322704340267912 -0.0050772339622253944 -0.057840367344422633 0.082373357895024757 0.10259379097989177 -0.070016000591068078 0.06703978683690065 -0.053072360023860232 0.027516121662603976 0.083834711801555648 -0.076555385293545983 -0.10412280342935841 -0.061068182844040968 0.1306560393180147 0.10234318411869384 -0.068513014250455695 0.0091370176753231263 0.03710697409820847 0.015373872426650743 0.082145911278037706 0.044646536258800287 0.18466110332857361 0.16084345632452313 -0.10302667587803641
leaf_weight=19.176700688898563 103.59953577816486 13.326463006436827 17.496408544480801 67.15394888818264 304.94567632675171 8.5616746470332128 44.264640621840954 52.676268234848976 84.151545122265816 21.403129920363426 205.28228685259819 103.323391251266 794.6313122138381 100.29549778997898 92.916365392506123 192.11830976605415 17.739571772515774 174.62766388058662 28.697851449251175 18.544468842446804 48.515419989824295 44.266076259315014 49.652062103152275 94.219282925128937 18.152010068297386 19.851339340209961 197.70758847892284 8.3355685174465197 3.9280913621187201 11.288234785199164
leaf_count=109 1043 85 76 289 826 75 86 169 491 66 451 667 1915 448 271 415 94 2136 170 104 168 308 235 290 59 74 621 37 25 73
internal_value=0.0283448 0.0415718 0.0187566 -0.0296317 0.0360468 -0.0224715 0.00393507 0.0576377 -0.00245845 -0.0753202 0.0676221 -0.0197146 0.0598216 0.0120676 -0.014317 0.0557496 0.0103464 -0.0926223 0.0218163 0.036383 0.0452025 0.0191023 -0.0443249 0.0141896 -0.0544052 -0.00449441 0.0357559 -0.0298553 0.0428022 -0.0349087
internal_weight=2960.85 2410.83 1285.22 550.017 905.48 379.74 317.07 96.9409 276.14 232.947 1125.61 220.129 920.329 408.416 193.212 497.064 39.1427 193.804 191.989 163.291 154.729 106.214 152.975 125.698 31.4785 87.6693 215.204 67.818 23.5519 15.2163
internal_count=11876 8025 5225 3851 2657 2568 1446 255 1525 2405 2800 1191 2349 1416 719 1241 160 2245 1034 864 789 621 902 434 144 517 697 443 135 98
is_linear=0
shrinkage=0.1


Tree=16
num_leaves=31
num_cat=0
split_feature=34 36 47 50 34 11 0 37 5 34 2 39 35 21 38 38 35 43 39 8 0 10 45 5 36 0 33 34 35 3
split_gain=202.593 146.757 100.904 59.5152 47.0942 40.9848 39.5851 39.2169 36.3872 35.3046 34.0786 27.7884 26.8814 29.4855 26.644 25.6277 24.3316 23.9198 23.4222 23.0784 22.6463 22.0605 26.9144 22.5309 26.9971 21.545 21.1302 24.1516 20.9724 24.2188
threshold=0.9999084770679475 0.20501077920198443 0.26986873149871832 0.74865189194679271 0.49918039143085485 0.72089797258377086 0.070405162870883956 0.49579913914203649 0.056089108809828765 0.5001315474510194 0.19325228780508044 0.83981129527091991 0.67761144042015087 0.01590494625270367 0.48725850880146032 0.48074939846992498 0.56403222680091869 0.51249998807907116 0.49999998509883886 80.176959991455092 0.088622443377971663 -0.094928584992885576 0.49940598011016851 1.3831843137741091 0.1190585605800152 0.11660895869135858 0.46666871011257177 0.27058102190494543 0.49456705152988439 0.6100853979587556
decision_type=2 2 2 2 2 2 2 2 2 2 2 2 2 2 2 2 2 2 2 2 2 2 2 2 2 2 2 2 2 2
left_child=1 2 8 4 10 6 -6 14 -1 16 -3 21 13 -2 17 20 18 -4 -7 -14 -10 -9 -23 -24 -25 -20 27 -12 29 -8
right_child=12 3 7 -5 5 9 28 11 15 -11 26 -13 19 -15 -16 -17 -18 -19 25 -21 -22 22 23 24 -26 -27 -28 -29 -30 -31
leaf_value=0.14952731512056097 0.10136074072604029 -0.066034744999921333 0.094277245016912231 0.0682604109207256 -0.017248920927494842 -0.071090148747025253 0.079283152006099034 0.085363319528874382 -0.097057282801332634 -0.034156082162411054 -0.080028526372535144 0.078367167738553956 0.094931146871326755 0.01118715550642542 -0.10296283521305981 -0.094885537055130975 0.087341621735567532 -0.095354802099771693 -0.083904360721709689 0.046260263125819039 -0.021009459483135193 -0.04987009575608746 0.050489142595323111 -0.1098718827165488 0.046256832537184767 0.095776841593630049 -0.072602183681015939 0.12597898152428455 0.057514277090551486 -0.061181669716797886
leaf_weight=8.0004551410675031 51.703807413578033 100.95011191815138 17.24025692045689 318.28626619279385 99.199182003736496 28.750495702028275 19.559374213218689 33.296326018869877 53.790179681032896 166.14271260797977 7.3151804730296126 76.432792328298092 411.57121834158897 121.41394950449467 45.136998265981674 167.15828552469611 53.377134934067726 10.83031541854143 8.9255999103188497 127.63775581121445 143.954489775002 76.43933828920126 97.919281251728535 23.217420823872089 21.177088715136051 26.445534564554691 12.469332806766031 25.629510037600994 507.45801120251417 32.958851382136345
leaf_count=50 110 655 54 768 408 145 61 87 630 608 41 215 909 327 483 2217 115 60 40 321 976 421 315 114 62 63 55 60 1337 169
internal_value=0.0260979 0.0109817 -0.0239764 0.0302208 0.0191047 0.0272976 0.0409743 0.0107988 -0.0614362 -0.0044868 -0.0336705 0.0255495 0.0724029 0.0381186 -0.0553876 -0.0660615 0.0374654 0.0211125 -0.0040533 0.0834101 -0.0416959 0.00953286 -0.00200927 0.0236977 -0.0353953 0.0504358 0.0382713 0.0802362 0.0512885 -0.00886833
internal_weight=2894.39 2182.06 774.593 1407.47 1089.18 942.817 659.175 401.69 372.903 283.641 146.364 328.482 712.327 173.118 73.2076 364.903 117.499 28.0706 64.1216 539.209 197.745 252.049 218.753 142.314 44.3945 35.3711 45.414 32.9447 559.976 52.5182
internal_count=11876 10209 5684 4525 3757 2946 1975 1811 3873 971 811 1214 1667 437 597 3823 363 114 248 1230 1606 999 912 491 176 103 156 101 1567 230
is_linear=0
shrinkage=0.1


Tree=17
num_leaves=31
num_cat=0
split_feature=34 37 47 36 36 36 0 38 14 4 3 35 34 34 40 35 21 4 45 23 8 21 18 11 8 10 0 0 35 10
split_gain=172.249 127.17 89.1738 75.3698 49.6011 40.6463 42.1064 39.0799 31.9436 26.5932 25.101 24.8156 29.0673 39.1825 24.8644 24.1503 28.3679 22.4395 22.3703 22.2232 21.5993 21.3271 20.4712 20.3556 20.3286 19.8356 29.0333 22.798 19.3246 17.6946
threshold=0.9999084770679475 0.49672213196754461 0.37748275697231298 0.12698615342378619 0.3360974937677384 0.56102174520492565 0.055639605969190604 0.42248708009719854 20.162184715271 1.7719793319702151 0.341172605752945 0.55153343081474315 0.5001315474510194 0.45909376442432409 0.15000000223517421 0.68442252278327953 0.011262758169323208 0.47385908663272863 0.44673183560371404 0.82124060392379772 66.993492126464858 -0.0099038123153150064 -0.070085749030113206 0.72089797258377086 80.176959991455092 0.033823633566498763 0.17198888212442401 0.58094203472137462 0.98175966739654552 -1.0000000180025095e-35
decision_type=2 2 2 2 2 2 2 2 2 2 2 2 2 2 2 2 2 2 2 2 2 2 2 2 2 2 2 2 2 2
left_child=1 4 3 19 7 6 -5 21 10 -7 -8 14 13 -13 -10 16 -2 -16 23 28 22 -1 -14 -6 -17 26 -4 -27 -3 -24
right_child=15 2 25 5 18 9 8 -9 11 -11 -12 12 20 -15 17 24 -18 -19 -20 -21 -22 -23 29 -25 -26 27 -28 -29 -30 -31
leaf_value=0.14778119834590145 0.11482658480133848 -0.067026158369864738 -0.011430493437766679 -0.10415341865809194 0.086688844145648106 0.067310642650134811 0.22565210791772974 -0.079279222293352755 -0.046118375221001116 0.0017936391851454967 0.047084612192599955 -0.089696167248896425 -0.062972842829726955 0.088443973432900391 0.086974607533855317 0.090200301796574109 0.016401774416009162 -0.082547721346987568 -0.021850132952732707 0.021413971616686553 -0.056141561453899681 -0.016630846580897807 0.065308593982622995 -0.092205561697374525 0.043590543616498362 0.016975958118199293 0.083633700332066796 0.092289155547364346 0.10597879002926443 -0.0056939447253467916
leaf_weight=10.744978025555609 36.70399484038353 175.36886503174901 36.442711967974901 33.696766849607229 44.662479266524315 220.18006613105536 8.6198981739580613 237.85978178679943 152.85585692897439 86.210556715726852 90.731162842363119 14.44467958062887 27.738175366073847 85.030796438455582 29.602335516363382 382.87001232802868 144.83766427636147 10.605899147689341 85.910907037556171 40.295661181211472 56.037560202181339 29.691789120435715 72.701341897249222 7.4167393296957007 123.84012544155121 181.14306624978781 271.24841636419296 51.654857605695724 6.7032386511564246 67.86050496250391
leaf_count=26 77 1656 122 267 140 525 24 2688 766 250 317 99 125 205 123 885 388 64 355 244 240 152 192 40 317 536 663 125 34 231
internal_value=0.0240914 0.0100698 0.0220782 0.00665569 -0.0395221 0.0188494 0.00469419 -0.0638284 0.0106462 0.0488758 0.0625775 0.000664306 0.0175832 0.0625765 -0.0277126 0.0675965 0.0363012 0.042259 0.00949857 -0.0457846 -0.00236768 0.0270572 0.015537 0.061212 0.0788089 0.055711 0.0723744 0.033687 -0.0606567 0.03103
internal_weight=2823.71 2135.46 1719.17 1178.68 416.287 956.316 649.925 278.297 616.228 306.391 99.3511 516.877 323.813 99.4755 193.064 688.252 181.542 40.2082 137.99 222.368 224.338 40.4368 168.3 52.0792 506.71 540.489 307.691 232.798 182.072 140.562
internal_count=11876 10209 6808 5362 3401 3428 2653 2866 2386 775 341 2045 1092 304 953 1667 465 187 535 1934 788 178 548 180 1202 1446 785 661 1690 423
is_linear=0
shrinkage=0.1


Tree=18
num_leaves=31
num_cat=0
split_feature=50 36 35 2 36 37 50 8 35 34 34 34 33 47 28 28 35 21 35 4 4 23 35 36 45 17 40 5 5 17
split_gain=146.525 101.765 55.4142 39.0436 38.1147 34.7309 32.4568 30.4725 37.4442 30.7443 37.8699 60.2547 33.4397 28.6415 28.484 25.1788 24.796 24.506 27.324 22.2562 21.8507 21.7667 23.0503 23.1756 21.6952 21.6068 22.6036 20.8299 20.4318 21.1982
threshold=0.68989232182502758 0.13966483622789386 0.53983259201049816 0.1895265728235245 0.68782439827919017 0.49895250797271734 0.957820624113083 74.413959503173842 0.69345274567604076 0.86994129419326793 0.5001315474510194 0.49918039143085485 0.62233126163482677 0.15239208936691287 37.500000000000007 7008.5000000000009 0.69345274567604076 0.011476329527795317 0.63041242957115184 0.047479791566729553 0.33844368159770971 0.93771553039550792 0.62121158838272106 0.37037479877471929 0.54701095819473278 28.403269767761234 0.65000000596046459 0.55559110641479503 0.92257139086723339 33.737007141113288
decision_type=2 2 2 2 2 2 2 2 2 2 2 2 2 2 2 2 2 2 2 2 2 2 2 2 2 2 2 2 2 2
left_child=1 5 3 4 14 15 21 9 -9 10 11 -4 -12 -7 -3 -1 -14 -11 -19 -15 -18 22 23 27 -24 -5 -27 -2 29 -16
right_child=6 2 7 25 -6 13 -8 8 -10 17 12 -13 16 19 28 -17 20 18 -20 -21 -22 -23 24 -25 -26 26 -28 -29 -30 -31
leaf_value=0.0090030983497159361 0.029456568995948808 0.11219593705028559 -0.022734996061037478 0.10535665239696995 0.038688234530009337 -0.088631286672710141 0.078499555312424765 -0.0781306262284161 0.02984944924355399 0.11208543776655185 0.029395754719673158 0.098580385768078385 -0.10619127681440242 0.13127945645937433 0.004275800497207459 -0.09853364069170284 0.11603724737745072 -0.028477283577258886 0.066393346747616808 -0.0101764223650704 -0.032248987060782261 0.089003448465823906 0.089868581814863624 0.036318765035830376 0.033743737570262833 -0.0039974049743814353 0.19508079300775327 -0.066121685210471223 -0.083238258317187216 -0.066304273751332382
leaf_weight=26.88148732855916 37.334001913666725 11.554543003439901 59.963950622826815 36.598686713725328 74.394927643239498 47.017858359962702 335.81829220056534 50.756648082286119 87.435328152030706 85.723167903721333 170.69014122709632 129.05440982803702 38.478471376001835 11.705487139523028 96.029167614877224 114.57561327889562 12.118513077497481 37.746470179408789 155.10657554864883 223.38383178040385 55.207003984600306 79.818108022212982 95.853619083762169 125.98623122274876 244.69437129795551 70.820253498852253 6.2028804868459693 58.579289928078651 103.30247442796826 76.415633250027895
leaf_count=224 97 29 352 100 210 631 881 215 252 187 575 299 216 35 563 1713 32 117 382 1451 221 180 212 318 640 284 14 196 727 523
internal_value=0.0222097 0.00513332 0.0184846 -0.00904096 -0.0251045 -0.0376598 0.0533071 0.0333136 -0.00981064 0.0413226 0.0255982 0.0600944 0.00201565 -0.0173828 -0.0416232 -0.0780981 -0.0421558 0.0675989 0.0478246 -0.0031331 -0.00555764 0.0401349 0.0331998 0.00812095 0.0495411 0.0420947 0.0120349 -0.0289181 -0.0480687 -0.0270004
internal_weight=2759.25 1781.16 1357.6 475.319 361.697 423.564 978.084 882.281 138.192 744.089 465.512 189.018 276.494 282.107 287.302 141.457 105.804 278.576 192.853 235.089 67.3255 642.266 562.448 221.9 340.548 113.622 77.0231 95.9133 275.747 172.445
internal_count=11876 9352 5298 2450 2052 4054 2524 2848 467 2381 1695 651 1044 2117 1842 1937 469 686 499 1486 253 1643 1463 611 852 398 298 293 1813 1086
is_linear=0
shrinkage=0.1


Tree=19
num_leaves=31
num_cat=0
split_feature=34 47 36 36 39 3 10 11 37 23 45 44 34 19 33 0 34 39 37 11 14 23 8 8 37 19 28 18 35 0
split_gain=131.604 95.973 81.833 46.3984 38.9627 38.1623 36.7201 31.3081 32.6177 26.424 24.0368 23.7429 23.7337 22.3145 21.4217 21.2643 21.183 22.9305 20.8032 20.5769 19.8599 19.5638 21.5773 20.0712 19.4939 19.0746 17.8292 18.5094 17.9011 17.8023
threshold=0.9999084770679475 0.27198326587677008 0.25120230019092565 0.101559616625309 0.5770450532436372 1.917364835739136 -0.016242955811321732 0.72089797258377086 0.49579913914203649 0.62981480360031139 0.48278617858886724 0.89110493659973156 0.48781652748584753 0.55220580101013195 0.51111111044883739 0.10261068493127824 0.5001315474510194 0.77613618969917308 0.51959988474845897 0.33730742335319525 16.479097366333011 0.38461540639400488 81.064285278320327 89.987468719482436 0.61587640643119823 -2.2598526477813716 1819714.5000000002 0.04841019585728646 0.81935444474220287 0.071988705545663847
decision_type=2 2 2 2 2 2 2 2 2 2 2 2 2 2 2 2 2 2 2 2 2 2 2 2 2 2 2 2 2 2
left_child=1 2 6 9 5 10 11 12 -9 -3 25 15 14 21 19 -1 -10 -18 -12 -5 -17 22 -2 -24 -22 -4 -23 -28 -29 -14
right_child=13 3 4 7 -6 -7 -8 8 16 -11 18 -13 29 -15 -16 20 17 -19 -20 -21 24 26 23 -25 -26 -27 27 28 -30 -31
leaf_value=-0.071807634920001501 0.031159703722642196 -0.047935875206827426 -0.043026474546829174 0.054798604026113501 0.036452745710203946 -0.080303828067160299 -0.068619009842857501 -0.062516440121692912 0.051840655551778941 0.033112727465736222 -0.09285189381135503 0.2438522666298697 -0.052362182734244624 0.074024703969948771 -0.14480250767124414 0.17944165124792455 -0.027166039162255642 0.070001031501288377 0.0008306494123996854 -0.076328550462138198 -0.0088282258156381199 0.082017171239320896 -0.026250970300592587 -0.22451362119017648 0.22917477770244155 0.052656455451387141 0.057271646755118512 -0.17527229882924261 0.020396018828347611 0.065894538170918629
leaf_weight=42.779937315732241 61.564431950449944 108.45216261968017 26.115520406514406 46.651681832969189 289.40429816767573 68.83289659768343 278.24919015914202 46.66416983678937 160.32816906273365 63.943302907049656 35.904654782265425 3.6930934563279143 13.105841010808943 408.54416044056416 8.8776036165654642 6.6590506546199313 96.192378729581833 32.490413725376129 69.752945490181446 16.096339579671621 87.433525368571281 99.231066688895226 20.485455974936489 6.8014088422060004 3.5823936238884917 103.03326714783907 29.640158832073212 8.6512311100959796 10.174481406807898 443.80165458843112
leaf_count=552 167 718 145 144 872 306 3102 265 438 271 222 18 49 1036 52 36 324 82 239 86 683 234 63 30 9 379 74 34 29 1217
internal_value=0.0204754 0.00809026 -0.0137602 0.0294946 0.010198 -0.0148259 -0.0473974 0.0389439 0.0150605 -0.0178741 0.00436885 -0.00643321 0.0541124 0.0598725 0.000591094 -0.0130142 0.0275862 -0.00263286 -0.0310046 0.0211614 0.0127363 0.0354302 -0.00164818 -0.0756691 0.000539591 0.0333082 0.0577357 0.00802087 -0.0695221 0.0625025
internal_weight=2697.14 2052.04 1015.44 1036.6 593.044 303.639 422.397 864.208 335.675 172.395 234.806 144.148 528.533 645.092 71.6256 140.455 289.011 128.683 105.658 62.748 97.675 236.548 88.8513 27.2869 91.0159 129.149 147.697 48.4659 18.8257 456.907
internal_count=11876 10209 6563 3646 2163 1291 4400 2657 1109 989 985 1298 1548 1667 282 1280 844 406 461 230 728 631 260 93 692 524 371 137 63 1266
is_linear=0
shrinkage=0.1


Tree=20
num_leaves=31
num_cat=0
split_feature=36 0 34 50 23 7 37 35 0 28 36 35 36 3 5 39 2 15 10 16 19 13 39 20 34 34 19 33 28 35
split_gain=120.607 99.2779 58.3902 38.956 37.7851 33.7841 33.055 29.3563 28.6211 26.583 26.4897 24.3928 23.7632 35.1838 34.8185 21.7107 21.6496 24.452 20.4313 25.7161 19.7894 19.5248 22.6499 19.4278 43.9029 22.4396 21.3255 18.5597 18.3897 17.6863
threshold=0.50541669130325328 0.19311413168907168 0.90124884247779857 0.54260432720184337 0.64333441853523265 55.538970947265632 0.49285945296287542 0.57611995935440075 0.49303877353668218 426.00000000000006 0.046392381191253669 0.63041242957115184 0.16810076683759692 0.63279882073402416 0.96790879964828502 0.98852291703224193 0.10283335670828821 0.016675403341650966 -0.006623887922614812 -0.0059576435014605513 0.27788791060447698 59.144929885864265 0.31057780981063848 2.5000000000000004 0.5001315474510194 0.48781652748584753 3.8884077072143559 0.37060090899467474 1520135.5000000002 0.71868604421615612
decision_type=2 2 2 2 2 2 2 2 2 2 2 2 2 2 2 2 2 2 2 2 2 2 2 2 2 2 2 2 2 2
left_child=1 2 3 9 6 -4 29 23 10 -1 -8 -7 -11 14 16 -6 -14 -18 19 -5 -15 -12 -23 25 -25 27 -26 -2 -20 -3
right_child=7 4 5 18 15 11 8 -9 -10 12 21 -13 13 20 -16 -17 17 -19 28 -21 -22 22 -24 24 26 -27 -28 -29 -30 -31
leaf_value=0.059545154422660777 0.062236138356969894 -0.096443235803932562 0.10202409659029942 -0.015027666882624699 0.037607145809158526 -0.06360483651553539 -0.083159152059777933 0.06512495159233754 0.064538451717968653 -0.090675676291454593 0.028976113233285417 0.037012365598603859 -0.033267700351473847 -0.10858200005134594 -0.10470090796168452 0.093493465487406932 0.13591228818097392 -0.096324619449691951 -0.0055279289175886401 0.062318598443788037 -0.029935425351720665 -0.10380953953921862 0.0073560089619711527 0.041010498882954417 -0.13024818547550718 0.070983504984853743 -0.00045107016383379866 -0.11457831459797677 -0.064069807850325178 0.0049908136737393458
leaf_weight=19.680250607430935 10.728966556489469 38.587552193552256 52.629311487078667 103.62248009443283 205.46163163334131 35.507363066077232 28.771618399769068 524.09263921529055 122.04962848126888 145.46716352924705 290.12151853367686 74.962014574557543 17.439346514642239 63.351636789739132 17.28388874232769 105.05524096637964 31.205996073782444 5.3043257482349864 137.83328099176288 73.458954997360706 64.638433717191219 25.647068254649639 64.229054946452379 90.789567030966282 29.454928733408451 111.22433266788721 22.19738033413887 13.290393106639383 87.865063395351171 30.998900603502989
leaf_count=128 45 325 122 447 665 142 201 1378 334 2541 931 215 149 580 167 273 122 46 657 276 448 114 206 248 114 275 67 77 444 139
internal_value=0.0188253 0.00472847 -0.0182499 -0.0298019 0.0281944 0.0360858 0.0135477 0.0511967 0.0220432 -0.0534943 0.00935498 0.00467172 -0.0599483 -0.0375121 0.0188189 0.0565148 0.058391 0.102172 -0.00836878 0.017058 -0.0688634 0.0163597 -0.0243662 0.0249091 -0.00086448 0.0520544 -0.0744684 -0.0355988 -0.0283185 -0.0512571
internal_weight=2642.95 1841.17 930.25 767.151 910.922 163.099 600.405 801.778 530.819 364.371 408.769 110.469 344.691 199.224 71.2336 310.517 53.9497 36.5103 402.78 177.081 127.99 379.998 89.8761 277.686 142.442 135.244 51.6523 24.0194 225.698 69.5865
internal_count=11876 9672 6484 6005 3188 479 2250 2204 1786 4181 1452 357 4053 1512 484 938 317 168 1824 723 1028 1251 320 826 429 397 181 122 1101 464
is_linear=0
shrinkage=0.1


Tree=21
num_leaves=31
num_cat=0
split_feature=36 37 47 0 38 36 3 7 35 19 39 35 2 8 18 10 5 28 34 39 6 35 12 0 50 35 10 14 18 36
split_gain=101.243 84.8885 66.1093 32.9096 32.7125 30.5663 30.9474 27.8121 26.792 24.6543 23.4468 22.4362 23.2569 22.0064 19.2646 22.1486 18.4862 18.2671 17.7899 16.1364 20.267 19.4287 15.8059 16.3383 15.6726 15.0403 24.8992 26.5473 17.1961 19.171
threshold=0.50541669130325328 0.49672213196754461 0.39697729051113134 0.055639605969190604 0.52587392926216137 0.076152760535478606 0.35948809981346136 54.767316818237312 0.62824511528015148 -0.95361828804016102 0.98852291703224193 0.53983259201049816 0.18075335025787356 67.243877410888686 -0.10981717705726622 -0.016242955811321732 1.0564818978309634 7008.5000000000009 0.49918039143085485 0.49999998509883886 67.229263305664077 0.69345274567604076 4.5000000000000009 0.034426189959049232 0.57144618034362804 0.68657207489013683 -0.073014680296182619 11.484142303466799 0.027893709018826488 0.17673204839229587
decision_type=2 2 2 2 2 2 2 2 2 2 2 2 2 2 2 2 2 2 2 2 2 2 2 2 2 2 2 2 2 2
left_child=1 4 3 -3 17 -5 7 9 13 -7 25 12 16 22 -13 -16 18 -1 -8 21 -21 -19 -2 -24 -9 26 -4 -28 29 -29
right_child=8 2 10 5 -6 6 11 24 -10 -11 -12 14 -14 -15 15 -17 -18 19 -20 20 -22 -23 23 -25 -26 -27 27 28 -30 -31
leaf_value=0.054506176877781712 0.053783794426138745 -0.086241158093461417 0.075321695900500085 -0.043701575079698296 -0.077701724014397983 0.19584319820642127 -0.11080629551128368 -0.05691444478745307 0.065363483787366811 0.054458442493460373 0.095873369037111689 -0.058893761408466277 0.028541134677267346 -0.035494136189814222 0.056385767596911177 0.0069456636503640555 -0.10207409546396913 -0.088620254539374083 -0.0047529747857483606 0.041775139151509127 -0.096177543596245765 0.0083588343338829932 -0.17456970593142421 0.015767985264264733 0.061857205698917478 0.052628268216618396 0.12165813284144339 -0.1565750516356077 0.0045715925557254155 -0.018176707013372852
leaf_weight=32.165077213197947 212.11102320253849 42.971066366881132 51.270664572715759 120.64495573937893 142.75767897069454 21.501972179859877 19.243286967277527 20.853812649846077 402.26877147704363 28.924865294247866 74.140873923897743 33.427452601492405 59.331105817109346 47.315865561366081 121.94665206596255 352.64436832070351 41.615372877568007 59.739858988672495 88.835174739360809 47.947014775127172 13.690208937972782 31.577317621558905 4.6947750225663176 114.46693191677332 23.778025515377522 227.14283991605043 14.837121516466139 16.457119420170784 93.909022584557533 25.544017255306244
leaf_count=153 568 489 125 1063 2016 79 174 146 1099 145 197 187 222 161 390 1234 313 567 480 282 82 143 24 352 62 631 38 83 289 82
internal_value=0.0173052 0.00430229 0.0145076 -0.000676752 -0.0417328 0.00326515 0.0102425 0.0638572 0.0473937 0.114745 0.0439445 0.00313475 -0.024442 0.0283 0.0144812 0.0196493 -0.0454418 -0.0139948 -0.0236357 -0.0284 0.0111345 -0.0550851 0.0374117 0.00826899 0.00636225 0.0349734 0.0151228 -0.00535141 -0.0192169 -0.0724047
internal_weight=2587.75 1806.9 1479.02 975.718 327.877 932.747 812.102 95.0587 780.857 50.4268 503.302 717.043 209.025 378.589 508.018 474.591 149.694 185.119 108.078 152.954 61.6372 91.3172 331.273 119.162 44.6318 429.161 202.018 150.747 135.91 42.0011
internal_count=11876 9672 6429 4984 3243 4495 3432 432 2204 224 1445 3000 1189 1105 1811 1624 967 1227 654 1074 364 710 944 376 208 1248 617 492 454 165
is_linear=0
shrinkage=0.1


Tree=22
num_leaves=31
num_cat=0
split_feature=34 36 50 35 11 34 34 47 8 35 35 0 20 36 23 1 16 34 1 34 34 34 35 35 8 28 15 34 37 8
split_gain=91.6528 63.1048 44.8286 37.1592 44.2674 38.4527 43.0317 34.4942 34.2656 32.7358 27.7487 27.7303 24.3103 23.4836 23.0182 22.6706 24.9418 25.9789 23.8744 23.5969 24.6624 21.8931 21.3272 20.6086 28.4068 20.5936 21.8327 17.731 17.4608 17.1529
threshold=0.9999084770679475 0.12297292798757554 0.88595283031463634 0.49970331788063055 0.46526682376861578 0.5001315474510194 0.49250999093055731 0.19710213690996173 66.993492126464858 0.60033813118934642 0.62824511528015148 0.12889318913221362 2.5000000000000004 0.38017268478870397 0.64333441853523265 0.050022697076201446 -0.018397175706923004 0.78858986496925365 0.15843284875154498 0.5001315474510194 0.49918039143085485 0.30756849050521856 0.98175966739654552 0.83284932374954235 72.419555664062514 5215.0000000000009 -0.032851314172148698 0.65060600638389599 0.49071760475635534 89.987468719482436
decision_type=2 2 2 2 2 2 2 2 2 2 2 2 2 2 2 2 2 2 2 2 2 2 2 2 2 2 2 2 2 2
left_child=1 7 3 11 15 6 -6 22 10 25 12 27 13 -7 -9 -5 17 18 19 20 -17 -18 -1 24 -2 -8 -27 -3 -13 -26
right_child=23 2 -4 4 5 8 9 14 -10 -11 -12 28 -14 -15 -16 16 21 -19 -20 -21 -22 -23 -24 -25 29 26 -28 -29 -30 -31
leaf_value=-0.088420954302829105 0.054037811054286095 -0.088615826396104255 0.064493955089921992 -0.050605506642485323 -0.09795452002200683 -0.10000581648807468 0.086321598388849397 -0.033389714303073727 -0.06057738797192587 0.092639554787327522 0.025801781865544649 -0.089415858163424233 -0.062263348196799177 0.10620110790232185 0.025932686332016244 -0.14627214663091687 -0.1024032341353831 0.077027390891241554 0.045160599995703682 -0.081378600980910765 0.042972153894006097 0.079434828662500678 0.20491169001028237 0.072931970298501181 0.0038906010988758923 -0.1726470047486845 0.0099111660811549707 0.07754173800975267 0.018488601734687856 -0.14677466236838962
leaf_weight=97.996398314833641 242.12840740382671 77.607092667371035 160.4056855738163 26.318937990814447 25.438883986324072 7.7870351411402252 35.506929993629456 190.62233228608966 137.48924233391881 78.808131977915764 170.8356053121388 17.872521132230759 90.17848713696003 18.993520401418209 99.576203938573599 8.0440727248787862 6.8755161873996249 68.111906733363867 80.800765171647072 45.297242574393749 47.848098248243332 179.00858112424612 2.5429559685289851 240.09808347374201 101.30365742743015 6.8204485252499572 165.80005499720573 7.001774661242961 93.186583139002323 8.1654116511344892
leaf_count=1768 666 797 481 136 220 77 108 1536 648 189 554 161 414 44 503 70 71 175 251 236 168 540 15 675 294 52 629 29 337 32
internal_value=0.0158814 0.00540586 0.0144279 0.00867364 0.0152627 5.74071e-05 0.0266976 -0.0305228 -0.01951 0.0377489 0.000109219 -0.0317348 -0.0374185 0.0462419 -0.0130343 0.0395244 0.0449652 0.0243452 0.00462825 -0.0277372 0.0157359 0.072709 -0.0810017 0.0503478 0.0349256 0.0169644 0.00269807 -0.0748655 0.00112375 -0.00734768
internal_weight=2538.47 1946.78 1556.04 1395.63 1199.96 737.658 312.374 390.738 425.284 286.936 287.795 195.668 116.959 26.7806 290.199 462.305 435.986 250.102 181.99 101.189 55.8922 185.884 100.539 591.696 351.597 208.127 172.621 84.6089 111.059 109.469
internal_count=11876 10209 6387 5906 4582 2935 1198 3822 1737 978 1089 1324 535 121 2039 1647 1511 900 725 474 238 611 1783 1667 992 789 681 826 498 326
is_linear=0
shrinkage=0.1


Tree=23
num_leaves=31
num_cat=0
split_feature=35 36 37 38 0 10 34 51 18 0 36 44 47 39 44 28 33 50 8 37 4 47 14 50 5 23 34 6 36 5
split_gain=81.5296 71.3164 59.4427 40.5889 38.1314 25.7229 22.5072 20.9354 20.7261 20.8872 20.7729 20.2415 19.5699 22.6664 18.3059 17.688 17.32 17.7473 17.8091 18.9626 17.2102 19.0784 16.0869 18.2129 17.8912 15.6329 15.4616 16.6196 15.4296 22.6882
threshold=0.82375431060791027 0.50541669130325328 0.49805518984794622 0.43766115605831152 0.5670301914215089 -0.0046003465540707103 0.86755657196044933 0.64768972992897045 -0.10981717705726622 0.076065793633461012 0.087878093123435988 0.7033803164958955 0.2755866944789887 0.77952405810356151 0.33236269652843481 3167744.7500000005 0.55988213419914257 0.73372888565063488 60.739250183105476 0.58795785903930675 1.7719793319702151 0.37748275697231298 20.162184715271 0.56122881174087536 0.18253994733095172 0.90909099578857433 0.9899033010005952 69.449768066406264 0.20318181812763217 0.93112492561340343
decision_type=2 2 2 2 2 2 2 2 2 2 2 2 2 2 2 2 2 2 2 2 2 2 2 2 2 2 2 2 2 2
left_child=1 2 3 -1 5 8 16 -8 11 -10 25 -4 13 26 -3 -14 -2 18 19 -18 -16 -22 23 -12 -24 -11 -7 -28 -5 -30
right_child=6 14 4 28 -6 12 7 -9 9 10 22 -13 15 -15 20 -17 17 -19 -20 -21 21 -23 24 -25 -26 -27 27 -29 29 -31
leaf_value=0.022716852132731589 0.083215498537797666 -0.041094925798258755 -0.070136515610089253 -0.093150711147348436 0.084144709348818458 -0.062948792264625797 0.12023451704773053 0.053783393164236817 -0.048041708007682225 -0.048579017974782777 0.17607476143834785 0.10499432571727806 0.018147207826773051 0.011614143730686389 0.051755178944243196 -0.030682900888986699 0.018428350958266278 0.065194276791865902 -0.11610560891146003 -0.20668412332375163 -0.010773710671744921 0.051114549133602721 0.12977083553248533 0.045926663107937242 0.026630375217254993 0.078785381334740959 0.076414846842302445 -0.058401615442304725 -0.00077610670980018189 -0.097964869753075376
leaf_weight=63.19652746245265 27.557631596922874 30.257344372570515 42.010694265365601 116.30322069302201 56.016088247299194 170.0749497897923 56.176637783646584 303.83395522087812 34.826692562550306 45.659385494887829 18.218133460730314 7.8295870572328559 235.26403344795108 82.965086828917265 364.21489202976227 108.34636003151536 42.718674056231976 24.559820376336575 18.988688990473747 4.1012018695473662 117.45183499902487 86.492300152778625 18.117750592529774 26.237940441817045 234.49312963709235 12.215248961001633 18.210285171866417 18.366228714585304 60.12902269884944 39.997424434870481
leaf_count=314 90 121 290 2088 152 1381 137 924 356 382 64 27 802 405 1012 378 210 72 130 18 378 259 45 75 853 47 45 59 427 335
internal_value=0.0146144 0.00577477 -0.00651261 -0.0477892 0.00371196 -0.00048769 0.0517325 0.0641525 0.0180963 0.0258608 0.0331121 -0.0426246 -0.0133894 -0.0325379 0.0346953 0.00275022 0.013816 -0.00734717 -0.0344197 -0.00129045 0.0387315 0.015473 0.04379 0.0992615 0.0340278 -0.021697 -0.0502638 0.00871922 -0.0683767 -0.0396
internal_weight=2484.83 2006.89 1408.48 279.626 1128.85 1072.84 477.937 360.011 439.609 389.768 354.942 49.8403 633.227 289.617 598.416 343.61 117.926 90.3684 65.8086 46.8199 568.159 203.944 297.067 44.4561 252.611 57.8746 206.651 36.5765 216.43 100.126
internal_count=11876 10295 8525 3164 5361 5209 1581 1061 2139 1822 1466 317 3070 1890 1770 1180 520 430 358 228 1649 637 1037 139 898 429 1485 104 2850 762
is_linear=0
shrinkage=0.1


Tree=24
num_leaves=31
num_cat=0
split_feature=35 36 37 38 39 0 11 23 51 1 36 34 34 8 35 50 15 47 8 34 5 36 28 50 50 14 7 50 20 34
split_gain=69.6414 54.6314 45.9341 30.7652 30.7006 27.1779 22.851 25.8841 31.0585 25.4621 26.2837 25.2005 34.2351 22.1927 20.163 19.155 18.813 19.6568 19.2046 21.6769 21.4056 17.3995 16.9602 25.9835 18.1532 16.9556 16.6211 15.6409 15.5549 15.3901
threshold=0.74303561449050914 0.3748611062765122 0.49672213196754461 0.42448963224887853 0.49999998509883886 0.070405162870883956 0.45132805407047277 0.82782790064811718 0.49999962747097021 0.25987614691257482 0.23709060251712802 0.47717317938804632 0.5001315474510194 72.220146179199233 0.53855445981025707 0.62138602137565624 2.8946576118469243 0.50012505054473888 81.598030090332045 0.98142546415328991 1.4143016338348391 0.34645704925060278 4013559.5000000005 0.81875851750373851 0.69565528631210338 49.229925155639656 38.153879165649421 0.45457047224044805 2.5000000000000004 0.85117143392562877
decision_type=2 2 2 2 2 2 2 2 2 2 2 2 2 2 2 2 2 2 2 2 2 2 2 2 2 2 2 2 2 2
left_child=1 2 3 -1 16 -4 7 8 9 10 29 -8 27 14 -3 -15 17 18 19 20 25 -6 24 -24 -14 -2 -10 -13 -16 -7
right_child=4 13 5 -5 21 6 11 -9 26 -11 -12 12 22 15 28 -17 -18 -19 -20 -21 -22 -23 23 -25 -26 -27 -28 -29 -30 -31
leaf_value=0.024428351939574398 0.029013629732588059 0.0068695899655788406 -0.064669082134666697 -0.075211475920688678 0.038052839756254488 -0.10459157184890261 -0.11322460879154789 0.079702499976866514 -0.07872610843408287 0.047679899820071259 0.013070067400117109 -0.093624125167626041 -0.035006206044963614 -0.093819356588409564 0.08209746722160792 0.009698426252356309 -0.07699064054970102 0.056070218812272934 -0.12146604213019414 0.065133370891566456 -0.11499882811444272 0.080793282501172764 -0.051864133665030537 -0.25367934655411073 0.035104670461991026 -0.06778200135348475 0.071006378639515019 0.031677858215463608 0.033384663435421486 0.17214325174415712
leaf_weight=38.544231664389372 74.226114880293608 245.38996635004878 63.499492648988962 158.06942160613835 191.86518768593669 52.661643136292696 22.558342263102531 67.878453902900219 8.2150017991662008 38.099514760077 39.405462011694908 10.501442342996596 126.77164679765701 27.596876639872789 81.890514455735683 50.742655768990517 19.95092948153615 112.8272816054523 11.632870707660912 51.843747869133949 17.376647807657719 189.14942073822021 56.146775718778372 7.197320044040679 52.110746867954731 23.931369438767433 75.992402102798223 193.93376184254885 328.53676464408636 2.0893493294715872
leaf_count=186 366 891 754 2461 662 561 228 223 52 120 152 97 730 121 235 152 83 339 57 142 103 550 277 33 141 163 289 757 946 5
internal_value=0.0133977 0.00276268 -0.0122832 -0.055678 0.0402281 -0.00184082 0.00345345 0.0258232 0.00892773 -0.0212972 -0.0492081 -0.0101023 -0.00489422 0.023537 0.0295461 -0.0267681 0.0169574 0.02338 0.00277591 0.0114108 -0.0126962 0.0592707 -0.0303281 -0.0747949 -0.014582 0.00541429 0.056399 0.0252413 0.0431041 -0.0940311
internal_weight=2440.64 1747.83 1013.68 196.614 692.804 817.061 753.562 284.342 216.463 132.256 94.1565 469.22 446.662 734.157 655.817 78.3395 311.789 291.838 179.011 167.378 115.534 381.015 242.226 63.3441 178.882 98.1575 84.2074 204.435 410.427 54.751
internal_count=11876 9411 7066 2647 2465 4419 3665 1402 1179 838 718 2263 2035 2345 2072 273 1253 1170 831 774 632 1212 1181 310 871 529 341 854 1181 566
is_linear=0
shrinkage=0.1


Tree=25
num_leaves=31
num_cat=0
split_feature=34 50 36 10 34 34 20 35 35 34 8 35 35 21 35 20 50 23 0 11 15 10 5 33 21 22 35 21 34 34
split_gain=63.6253 43.7899 39.608 27.3108 27.2694 32.3076 54.8885 58.418 53.9641 34.5661 29.3481 27.3455 50.0135 41.9316 38.5456 26.9663 28.9829 25.6123 24.1791 22.7696 25.4957 24.3828 20.7093 20.3025 19.403 19.1738 26.5752 18.6134 21.2591 16.779
threshold=0.9999084770679475 0.88595283031463634 0.12572503089904788 -0.094928584992885576 0.49250999093055731 0.5001315474510194 2.5000000000000004 0.5668560564517976 0.49456705152988439 0.6781996786594392 66.993492126464858 0.53983259201049816 0.50085005164146434 0.0036003747954964642 0.51509773731231701 1.0000000180025095e-35 0.55409955978393566 0.82124060392379772 0.062844209372997298 0.44676165282726293 0.00030030631751287734 -0.10219854488968848 2.1431430578231816 0.75996580719947826 -0.017220872454345223 17.101099967956547 0.69120460748672496 -0.013203215319663284 0.36000555753707891 0.69902843236923229
decision_type=2 2 2 2 2 2 2 2 2 2 2 2 2 2 2 2 2 2 2 2 2 2 2 2 2 2 2 2 2 2
left_child=1 2 3 -1 19 8 9 -8 24 15 18 12 -10 14 -14 -7 -17 23 -9 20 21 -4 -3 -5 -6 -2 -27 -22 -29 -20
right_child=25 22 4 17 5 6 7 10 11 -11 -12 -13 13 -15 -16 16 -18 -19 29 -21 27 -23 -24 -25 -26 26 -28 28 -30 -31
leaf_value=0.065324203767077926 0.080318949088216546 0.06884430467250871 0.042050616244975435 -0.066372245842637193 0.013423074384295172 0.12785741338122419 -0.093327351362316679 -0.11519972368106675 0.055154841394441871 0.090792400240206406 -0.047904756777727271 0.068665542901777926 -0.09726387820132025 -0.11218768934636991 0.092202043268969233 -0.083548997623998075 0.046911234704981181 0.016929909125360812 -0.032389144002219032 -0.09016266623404702 0.1368136602846875 -0.0930070050814404 -0.014809843130107629 0.013508634523333826 -0.11134970731181673 -0.0083632212465752469 0.047550182129054319 -0.074505969625472318 0.077860322687122493 0.029628518268148208
leaf_weight=26.583450354635715 106.3431858047843 138.01421596109867 19.390183173120022 214.04593590274453 19.991788513958454 13.820049177855251 87.839233607053757 14.205199360847471 144.86966564506292 86.50633081048727 110.2217193134129 208.58150071650743 16.629245351999998 42.320937909185886 30.308033615350723 38.075732262805104 30.806841462850571 62.725055752322078 53.288229819387197 47.830772561952472 15.207733446732162 43.035385632887483 37.670345149934292 37.372742896899581 33.095384249463677 114.83861187845469 327.2107018455863 17.494834266602993 19.214888993650675 240.57089716941118
leaf_count=88 300 439 51 3002 105 45 475 83 551 299 490 555 87 246 88 299 85 424 191 491 62 366 135 286 311 349 1018 144 67 744
internal_value=0.0122809 0.00341197 -0.00157251 -0.0320003 0.00620335 0.0115252 -0.00270603 -0.0191901 0.0309098 0.0465998 -0.0036214 0.0423343 0.0188761 -0.0400058 0.0250768 0.000374758 -0.0252023 -0.0402361 0.0122227 -0.032228 -0.0079934 -0.0510564 0.0509072 -0.0544982 -0.0643623 0.0421958 0.0330246 0.0437855 0.00524678 0.0183823
internal_weight=2398.11 1849.72 1674.03 340.727 1333.3 1171.13 675.334 506.125 495.797 169.209 418.286 442.709 234.128 89.2582 46.9373 82.7026 68.8826 314.144 308.064 162.174 114.343 62.4256 175.685 251.419 53.0872 548.392 442.049 51.9175 36.7097 293.859
internal_count=11876 10209 9635 3800 5835 4654 2711 1983 1943 728 1508 1527 972 421 175 429 384 3712 1018 1181 690 417 574 3288 416 1667 1367 273 211 935
is_linear=0
shrinkage=0.1


Tree=26
num_leaves=31
num_cat=0
split_feature=35 36 38 37 47 39 51 3 28 5 3 23 17 50 5 34 15 19 36 15 35 20 1 47 38 51 51 1 8 43
split_gain=56.058 47.8812 42.0246 34.0242 32.6372 24.2773 23.8792 21.913 21.5064 19.9878 19.863 28.5584 20.1529 17.5828 18.6874 16.8228 19.3569 19.9058 15.8384 20.9127 15.7358 22.313 17.9486 15.4666 15.548 15.4344 14.7434 19.6902 14.6192 15.8292
threshold=0.83284932374954235 0.50541669130325328 0.52484273910522472 0.5408688783645631 0.10434401407837869 0.99350622296333324 0.32363416254520422 0.44779315590858465 2465.5012207031255 0.38405565917491918 1.5655343532562258 0.95738193392753612 53.489477157592781 0.50481790304183971 1.5318776965141299 0.86755657196044933 3.4550718069076543 -0.11585881561040877 0.072223760187625899 0.010504896286875011 0.49538886547088629 1.5000000000000002 0.17144569754600528 0.064563535153865828 0.35185095667839056 0.64768972992897045 0.95667651295661937 0.32399022579193121 67.402954101562514 0.48749999701976782
decision_type=2 2 2 2 2 2 2 2 2 2 2 2 2 2 2 2 2 2 2 2 2 2 2 2 2 2 2 2 2 2
left_child=1 2 4 6 -1 7 9 18 -9 -4 11 28 -13 -10 20 -2 25 -18 -6 -20 22 -22 -15 -3 -25 -17 27 -16 29 -7
right_child=15 23 3 -5 5 10 -8 8 13 -11 -12 12 -14 14 26 16 17 -19 19 -21 21 -23 -24 24 -26 -27 -28 -29 -30 -31
leaf_value=-0.087004270882882595 0.0097760412293439753 -0.12489028721625313 0.20824552852070083 0.020462784686288125 -0.0212774346854421 0.019796496260030307 -0.07911455845709732 0.064719045740691122 -0.051162006830402743 -0.074155157447732156 0.10071847389976472 0.095163416865028078 -0.089831945503348581 -0.11841273512339859 -0.036192681220241517 0.11597687967528753 -0.12031784558799041 0.051903284378905901 0.077032715743626301 0.00013074538545514519 0.081054373183887071 0.0024561615115108459 0.00065909743888328137 -0.038311308151868707 0.034052295706948475 0.053327486336710805 0.049294264633826801 -0.1663635133881709 0.050277679169087888 -0.15109315763811149
leaf_weight=40.116487845778465 105.33371761068702 6.5172522515058509 5.5014048814773542 56.91317473910749 46.386398654431105 8.142436485737564 153.43050814792514 38.641384836286306 98.411852153018117 4.6035641003400087 43.681977592408657 39.876286000013351 6.9088970199227324 21.586436919867992 111.65385419502854 46.993623167276382 12.093112990260126 15.080450817942618 86.979430681094527 59.587515890598297 39.646379390731454 405.92418364435434 30.611574277281761 31.433195367455482 535.9275561273098 240.93732118979096 17.094124652445316 12.970341965556143 9.8756932355463487 16.213587310165167
leaf_count=593 488 31 23 222 405 44 2510 146 849 57 121 123 32 198 515 127 49 51 388 266 164 1564 113 108 1651 786 50 54 42 106
internal_value=0.0112872 0.00407457 -0.00618045 -0.0461319 0.00158396 0.00483188 -0.069308 -0.000510217 -0.00800438 0.079591 0.046365 0.0170592 0.0678446 -0.0118127 -0.00575713 0.0443732 0.0559385 -0.0247407 0.02965 0.0457678 0.0033642 0.00944974 -0.0485829 0.0282837 0.0300432 0.0635526 -0.0377947 -0.0497403 -0.0523504 -0.0939632
internal_weight=2349.07 1928.64 1354.76 220.449 1134.31 1094.19 163.535 969.493 776.54 10.105 124.699 81.0169 46.7852 737.899 639.487 420.438 315.105 27.1736 192.953 146.567 497.769 445.571 52.198 573.878 567.361 287.931 141.718 124.624 34.2317 24.356
internal_count=11876 10375 8585 2812 5773 5180 2590 4712 3653 80 468 347 155 3507 2658 1501 1013 100 1059 654 2039 1728 311 1790 1759 913 619 569 192 150
is_linear=0
shrinkage=0.1


Tree=27
num_leaves=31
num_cat=0
split_feature=50 34 38 7 38 36 37 51 0 19 4 4 36 3 18 14 40 17 11 39 9 24 5 24 23 50 21 35 34 11
split_gain=50.1265 36.7609 33.475 27.8745 27.5528 26.9307 21.707 22.265 21.38 21.146 20.7077 20.4431 20.1069 23.9636 20.0969 19.4242 19.7327 18.0557 21.8316 21.2203 17.6187 16.7447 16.521 14.8635 16.6951 20.2792 14.3445 19.2857 21.3363 20.7947
threshold=0.88595283031463634 0.9999084770679475 0.48074939846992498 67.387958526611342 0.36285549402236944 0.20501077920198443 0.49490024149417883 0.33423285186290747 0.070405162870883956 -0.67658612132072438 0.074248395860195174 0.46432398259639746 0.46523219347000128 0.44260875880718237 -0.030362416058778759 21.432258605957035 0.15000000223517421 21.059994697570804 1.1677456498146059 0.39643660187721258 0.090347118675708785 0.056089889258146293 3.6143749952316289 0.1965749338269234 0.38245484232902532 0.54386523365974437 -0.022528666071593758 0.62121158838272106 0.50810661911964428 0.88134852051734935
decision_type=2 2 2 2 2 2 2 2 2 2 2 2 2 2 2 2 2 2 2 2 2 2 2 2 2 2 2 2 2 2
left_child=1 2 4 -3 -1 6 -4 -8 -6 -2 -11 -5 13 -10 -15 -7 21 19 26 -16 -9 -17 -14 -23 -25 -26 -19 29 -29 -28
right_child=9 3 5 11 8 15 7 20 12 10 -12 -13 22 14 17 16 -18 18 -20 -21 -22 23 -24 24 25 -27 27 28 -30 -31
leaf_value=-0.04772253768006942 -0.019091486066280621 0.066962109172619091 -0.09539799804912244 0.069646087735219728 -0.034962358384220453 0.035947289873815576 0.11056349368440249 -0.056594160722375803 0.043820304544375771 -0.19385978462083636 0.060663065546267339 -0.0039520114427853857 0.047712641833678966 -0.050458368630218464 -0.040746111890329506 0.002498747098204994 0.03490853980241012 0.079773767477133453 -0.19859962615196722 0.098012691490033277 0.047900946045796575 -0.10796354882084845 -0.10604506833336746 -0.070559254977252309 -0.084790850183573407 0.058779033869383573 -0.011349746835493422 0.089808249932079157 0.0025984249768238078 -0.10784921143152404
leaf_weight=80.70648504793644 41.384770311415195 145.26223137974739 71.519672760739923 47.444647319614887 84.662398410961032 86.079979324713349 10.832805871963499 97.494553834199905 150.42650466226041 3.234998755156993 268.75062803924084 184.53162787854671 224.96396473422647 72.24893763102591 15.198127649724482 87.422658016905189 55.624782029539347 22.124171506613493 5.5242325067520133 40.10215825214982 19.335556168109179 36.710670385509729 7.2122062072157851 54.686315055936575 14.619406621903179 30.084028035402298 175.99364553391933 36.809159010648727 117.93905180692673 25.575895288959146
leaf_count=367 155 426 1758 121 714 351 43 1269 729 17 953 569 626 367 94 409 244 67 34 135 76 230 28 298 113 81 903 102 436 161
internal_value=0.010314 0.00449033 -0.00204223 0.032611 0.00843704 -0.0217135 -0.0512924 -0.0265834 0.0130677 0.0475029 0.0576358 0.0111005 0.0176156 0.00873437 -0.00158371 -0.00558214 -0.0183884 0.00645502 -0.00123913 0.0598777 -0.0393001 -0.0316517 0.0429364 -0.0535878 -0.0335035 0.0118272 0.0016418 -0.0032095 0.0233426 -0.023594
internal_weight=2314.51 2001.14 1623.9 377.239 1059.49 564.41 199.183 127.663 978.78 313.37 271.986 231.976 894.118 661.942 511.515 365.228 279.148 439.266 383.966 55.3003 116.83 223.523 232.176 136.1 99.3897 44.7034 378.442 356.318 154.748 201.57
internal_count=11876 10751 9635 1116 4763 4872 3146 1388 4396 1125 970 690 3682 3028 2299 1726 1375 1932 1703 229 1345 1131 654 722 492 194 1669 1602 538 1064
is_linear=0
shrinkage=0.1


Tree=28
num_leaves=31
num_cat=0
split_feature=39 28 37 35 36 36 34 34 8 5 14 51 0 35 36 8 14 24 28 48 47 34 16 17 33 2 15 34 13 4
split_gain=45.0178 34.8462 47.3812 30.3734 26.9789 22.7741 19.9617 18.5015 34.4204 18.4761 20.4873 21.6307 21.2588 20.1824 17.1882 16.239 16.2194 16.2211 19.7522 15.5439 14.9331 14.6312 19.573 13.9573 13.6074 14.0611 13.5778 13.3287 12.9433 12.6426
threshold=0.5669645667076112 10698.000000000002 0.50082692503929149 0.75931480526924144 0.041833955794572837 0.21414640545845035 0.45530425012111669 0.81106662750244152 61.724147796630866 1.6794188022613528 48.277103424072273 0.91058102250099193 0.29170873761177069 0.56834140419960033 0.77178782224655162 67.402954101562514 22.304629325866703 0.49111624062061315 2238614.0000000005 0.35000000894069677 0.67149654030799877 0.8385395109653474 -0.011640624608844517 32.756710052490241 0.43106338381767279 0.11883481964468957 -0.24417479336261746 0.87216845154762279 44.597055435180671 1.0865872502326968
decision_type=2 2 2 2 2 2 2 2 2 2 2 2 2 2 2 2 2 2 2 2 2 2 2 2 2 2 2 2 2 2
left_child=1 -1 7 5 -4 20 24 -3 -9 10 12 -12 15 14 -11 21 -7 18 26 -20 -2 22 -8 -19 25 -6 -18 -5 -25 -21
right_child=3 2 4 27 6 16 9 8 -10 13 11 -13 -14 -15 -16 -17 17 23 19 29 -22 -23 -24 28 -26 -27 -28 -29 -30 -31
