tree
version=v4
num_class=1
num_tree_per_iteration=1
label_index=0
max_feature_idx=4
objective=binary sigmoid:1
feature_names=vol_ratio bb_width rsi price_rank10d atr_pct
feature_infos=[3.0304692700156011e-05:1189.716064453125] [0.00024330899759661406:428.61947631835938] none [0.0020181406289339066:1] [6.0827249399153516e-05:107.15486907958984]
tree_sizes=2650 2680 2697 2692 2680 2688 2681 2690 2673 2670 2671 2674

Tree=0
num_leaves=24
num_cat=0
split_feature=3 1 3 0 3 0 3 1 3 0 0 3 1 1 0 0 0 1 3 0 3 1 1
split_gain=31.4632 16.9722 14.1993 13.8227 10.2675 11.0284 10.5341 44.5856 13.8998 12.743 11.2151 10.0502 9.62442 9.93136 9.03171 8.78806 8.40419 8.23604 7.89222 7.13113 7.05653 10.4595 7.75965
threshold=0.20782129466533664 0.30845227837562567 0.90512505173683178 1.9318649768829348 0.86084845662117015 0.83407214283943187 0.98049288988113414 0.26278783380985266 0.95652177929878246 0.16689746826887134 1.1796656250953677 0.95520472526550304 0.21628672629594806 0.13687541335821155 14.697119235992433 0.24128686636686328 0.33368010818958288 0.056557623669505126 0.9886586368083955 1.4799149632453921 0.99999433755874645 0.12437270954251291 0.18435449898242953
decision_type=2 2 2 2 2 2 2 2 2 2 2 2 2 2 2 2 2 2 2 2 2 2 2
left_child=16 4 3 -3 5 -2 8 9 11 20 17 12 13 -6 19 -9 -1 18 -11 -12 21 -8 -23
right_child=1 2 -4 -5 6 -7 7 15 -10 10 14 -13 -14 -15 -16 -17 -18 -19 -20 -21 -22 22 -24
leaf_value=-0.15254178544904984 -0.10252624233689897 -0.12908599703463541 -0.15781998911922981 -0.192105069217231 -0.12921754048444095 -0.14125180671722878 -0.19489259293983716 -0.22747958822832143 -0.13997689168554073 -0.201137800448972 -0.14390243927874366 -0.11396284840853697 -0.12656022086765858 -0.13945616373973563 -0.093227783188078089 -0.16984061721387755 -0.077070331507702872 -0.12534000164507503 -0.13513853699652756 -0.1321346251704098 -0.12513507383858652 -0.11500200721308165 -0.18596119076468229
leaf_weight=4.2065760791301718 52.290642142295837 107.43590055406094 139.35910579562187 9.4682147204875928 352.74192461371422 28.353225633502007 17.368399500846863 7.9979642182588568 1262.9752498716116 6.8674129396677044 162.39927425980568 67.262415289878845 351.52904753386974 720.86369244754314 13.434650480747221 38.190267384052277 29.960779398679733 1007.5307907611132 13.30596376955509 621.10001184046268 13.667953714728354 11.067151933908464 5.9101298153400412
leaf_count=16 192 402 532 37 1320 107 68 32 4762 27 614 249 1313 2717 49 147 108 3760 50 2329 51 41 23
internal_value=-0.13418 -0.134506 -0.14704 -0.13419 -0.133831 -0.116142 -0.134136 -0.131291 -0.136117 -0.130094 -0.129425 -0.13285 -0.133741 -0.136092 -0.133877 -0.179821 -0.0863621 -0.125973 -0.157606 -0.134574 -0.155521 -0.167613 -0.139704
internal_weight=5045.29 5011.12 256.263 116.904 4754.86 80.6439 4674.21 1918.84 2755.37 1872.65 1824.64 1492.4 1425.13 1073.61 796.934 46.1882 34.1674 1027.7 20.1734 783.499 48.0136 34.3457 16.9773
internal_count=18946 18822 971 439 17851 299 17552 7191 10361 7012 6829 5599 5350 4037 2992 179 124 3837 77 2943 183 132 64
is_linear=0
shrinkage=1


Tree=1
num_leaves=24
num_cat=0
split_feature=3 1 3 0 3 0 3 1 3 0 0 3 0 1 1 0 0 1 3 1 0 1 1
split_gain=28.2844 15.3096 12.8294 12.5105 9.24284 10.3763 9.49246 40.3064 12.5519 11.4969 10.0979 8.7962 8.12024 8.07096 13.8937 8.05158 7.53816 7.42677 7.16699 7.02355 11.341 6.81454 10.7763
threshold=0.20782129466533664 0.30845227837562567 0.90512505173683178 1.9318649768829348 0.86084845662117015 1.8086860179901125 0.98049288988113414 0.26278783380985266 0.95881757140159618 0.16689746826887134 1.1796656250953677 0.96028247475624096 14.697119235992433 0.1657836586236954 0.15856008231639865 0.24128686636686328 0.33368010818958288 0.056557623669505126 0.9886586368083955 0.077675826847553267 0.77116540074348461 0.083906617015600218 0.12437270954251291
decision_type=2 2 2 2 2 2 2 2 2 2 2 2 2 2 2 2 2 2 2 2 2 2 2
left_child=16 4 3 -3 5 -2 8 9 19 21 17 13 -12 14 -10 -9 -1 18 -11 20 -6 -8 -23
right_child=1 2 -4 -5 6 -7 7 15 11 10 12 -13 -14 -15 -16 -17 -18 -19 -20 -21 -22 22 -24
leaf_value=-0.01072025798965448 0.029571554149405096 0.01156206808891061 -0.015745403772333601 -0.048505988628914608 0.091440226799006458 -0.032117872565677621 0.04063840091708891 -0.082569492738051795 -0.014939737825106911 -0.057176127925475717 0.0063554178366469613 0.0019732704659238746 0.045505339766641249 -0.042259021765768984 0.075984640836765385 -0.027206870710187736 0.060767463496299717 0.015114064806077973 0.0058193905711943538 0.0074460130204282819 0.0043956903901107994 -0.050940051345944141 0.00031652956452719129
leaf_weight=4.2030999660491934 73.251441478729248 107.52425257861614 139.18704694509506 9.4282769262790662 6.520161733031272 7.5159118175506583 5.173389568924903 7.9348387420177451 35.932418137788773 6.8323950320482281 783.85602352023125 1100.5401027500629 13.472494184970854 21.36589726805687 4.7577187716960898 38.105660408735275 30.065835744142532 1008.5993408709764 13.311590880155562 1578.4294233471155 8.7824592590332013 17.052947357296944 25.721149429678917
leaf_count=16 270 402 532 37 23 29 19 32 137 27 2943 4147 49 83 17 147 108 3760 50 5921 33 67 97
internal_value=0.00672914 0.00641969 -0.00548795 0.00671961 0.00706083 0.023831 0.00677119 0.00947025 0.00489103 0.0106057 0.0112403 0.000940528 0.00701694 -0.0173748 -0.00430835 -0.0367483 0.0519995 0.0145137 -0.0155473 0.00777283 0.0414837 -0.0135627 -0.0201182
internal_weight=5047.56 5013.29 256.14 116.953 4757.16 80.7674 4676.39 1920.06 2756.33 1874.02 1826.07 1162.6 797.329 62.056 40.6901 46.0405 34.2689 1028.74 20.144 1593.73 15.3026 47.9475 42.7741
internal_count=18946 18822 971 439 17851 299 17552 7191 10361 7012 6829 4384 2992 237 154 179 124 3837 77 5977 56 183 164
is_linear=0
shrinkage=0.05


Tree=2
num_leaves=24
num_cat=0
split_feature=3 1 3 3 3 0 3 1 3 0 0 0 3 1 0 0 3 1 3 1 0 0 1
split_gain=25.4893 13.8112 12.3118 11.1329 8.32683 9.46097 8.55741 36.458 11.381 10.374 9.17462 9.40825 9.99933 18.0681 18.2713 10.9964 8.98966 8.70287 9.20954 9.74943 7.42512 7.22896 7.20643
threshold=0.20782129466533664 0.30845227837562567 0.96803990006446849 0.98113620281219494 0.86084845662117015 0.83407214283943187 0.98049288988113414 0.26278783380985266 0.95652177929878246 0.16689746826887134 0.91796016693115245 0.88383015990257274 0.99999433755874645 0.1197543889284134 0.31386981904506689 0.29993247985839849 0.95520472526550304 0.21628672629594806 0.95476657152175914 0.13687541335821155 0.24128686636686328 3.655628085136414 0.056557623669505126
decision_type=2 2 2 2 2 2 2 2 2 2 2 2 2 2 2 2 2 2 2 2 2 2 2
left_child=21 4 -3 -4 5 -2 8 9 16 -8 11 12 15 -14 -15 -11 17 18 19 -6 -9 -1 -17
right_child=1 2 3 -5 6 -7 7 20 -10 10 -12 -13 13 14 -16 22 -18 -19 -20 -21 -22 -23 -24
leaf_value=0.036105739623402841 0.035189267672789237 -0.00053026237800400449 -0.064984466438429533 -0.010239297316734978 0.01188965072237165 -0.00064774977182536044 -0.012908071226359881 -0.079332632672272752 0.0011513938347081304 0.033141691482496093 0.0074507219889328891 0.039735770562961674 -0.017151697475568724 -0.038156689255126497 0.022156394362624635 -0.025526414059786007 0.025441214943188285 0.013578628602223336 -0.038312193328620701 0.0016798343677313398 -0.025912579422107021 0.089141705886124453 0.014715862874642941
leaf_weight=25.746501207351685 52.482095718383789 216.4413575977087 14.903011113405226 24.641606733202934 347.54106940329075 28.373279392719269 47.870093911886215 7.8478139191865912 1263.1986385732889 85.983436539769173 1000.6126564592123 35.539108872413635 68.278832331299782 14.237771436572073 106.37010356783867 11.375533908605574 67.410045757889748 352.03560547530651 12.404719337821005 714.58286002278328 38.010954111814499 8.5615548193454725 504.88056242465973
leaf_count=94 192 818 59 94 1298 107 183 32 4762 316 3750 130 260 55 394 44 249 1313 48 2691 147 30 1880
internal_value=0.00639015 0.00609632 -0.00521727 -0.0308709 0.00670487 0.0226136 0.00642991 0.00899186 0.00464493 0.0100691 0.010671 0.0145689 0.0134383 0.00340105 0.0150364 0.0165864 0.00759881 0.00675569 0.00452037 0.00502062 -0.0350544 0.0493408 0.0138291
internal_weight=5049.33 5015.02 255.986 39.5446 4759.04 80.8554 4678.18 1921.01 2757.17 1875.15 1827.28 826.665 791.126 188.887 120.608 602.24 1493.97 1426.56 1074.53 1062.12 45.8588 34.3081 516.256
internal_count=18946 18822 971 153 17851 299 17552 7191 10361 7012 6829 3079 2949 709 449 2240 5599 5350 4037 3989 179 124 1924
is_linear=0
shrinkage=0.05


Tree=3
num_leaves=24
num_cat=0
split_feature=3 1 3 3 3 0 0 3 1 3 0 0 3 0 1 1 0 3 1 0 0 0 1
split_gain=23.0066 12.4607 11.1551 10.1623 7.50811 9.05529 8.35347 7.02888 31.9815 10.2929 9.15587 9.88615 7.902 7.70962 7.32085 12.5009 6.9924 6.99534 6.79709 9.32866 6.64765 6.42449 6.15609
threshold=0.20782129466533664 0.30845227837562567 0.96803990006446849 0.98113620281219494 0.86084845662117015 2.3609379529953007 14.697119235992433 0.98049288988113414 0.26278783380985266 0.95881757140159618 0.16689746826887134 1.1796656250953677 0.96028247475624096 3.0459734201431279 0.1657836586236954 0.15856008231639865 0.24128686636686328 0.99497064948081981 0.077675826847553267 0.77116540074348461 0.33368010818958288 1.4799149632453921 0.083906617015600218
decision_type=2 2 2 2 2 2 2 2 2 2 2 2 2 2 2 2 2 2 2 2 2 2 2
left_child=20 4 -3 -4 5 -2 7 9 10 13 22 -12 14 18 15 -11 -10 -18 19 -6 -1 -13 -9
right_child=1 2 3 -5 6 -7 -8 8 16 12 11 21 -14 -15 -16 -17 17 -19 -20 -21 -22 -23 -24
leaf_value=-0.011969464221367656 0.02570000120595899 -0.00050376662654258875 -0.062158785690761775 -0.0097364412323095589 0.085834869038795808 -0.044664596240150095 0.040516672481560628 0.039175077570129981 -0.07643441458986322 -0.014265072290818704 0.013109151243579293 -0.0031918969450106895 0.0017616564476677626 -0.014939634692503635 -0.040339467694791492 0.071838098344805187 -0.049714123981927837 -0.0060161662905389972 0.0071972353231364783 0.0065030503461984239 0.055106610104731793 0.0079725880408531204 -0.018532450499187759
leaf_weight=4.2105552554130545 76.04051798582077 216.43283073604107 14.803921908140181 24.619133934378624 6.5455667227506629 4.8648098409175864 17.570877939462662 5.1833507269620887 7.7407958358526221 35.896117687225342 1030.2442997246981 162.52220156788826 1100.2045633345842 39.15555576980114 21.295668989419937 4.7763448953628531 15.721074342727659 21.940058469772339 1537.6588482707739 8.540950194001196 30.097046762704849 622.0240213572979 42.632808029651642
leaf_count=16 280 818 59 94 23 19 64 19 32 137 3837 614 4145 149 83 17 62 84 5761 32 108 2329 164
internal_value=0.00606871 0.00578963 -0.00495954 -0.0294218 0.00636735 0.021469 0.00610626 0.00597657 0.00830906 0.00436063 0.00931973 0.00988875 0.000783179 0.00697236 -0.0165891 -0.0041536 -0.0331532 -0.0242572 0.00752491 0.0409226 0.0468744 0.00565982 -0.0122769
internal_weight=5050.72 5016.41 255.856 39.4231 4760.56 80.9053 4679.65 4662.08 1908.01 2754.07 1862.61 1814.79 1162.17 1591.9 61.9681 40.6725 45.4019 37.6611 1552.75 15.0865 34.3076 784.546 47.8162
internal_count=18946 18822 971 153 17851 299 17552 17488 7141 10347 6963 6780 4382 5965 237 154 178 146 5816 55 124 2943 183
is_linear=0
shrinkage=0.05


Tree=4
num_leaves=24
num_cat=0
split_feature=3 1 3 0 0 0 0 3 0 3 1 0 0 3 1 0 1 1 1 0 3 1 1
split_gain=20.8098 11.263 17.1533 8.33041 7.93943 6.69723 6.44239 5.27451 18.8935 7.82562 22.5888 8.85615 8.91131 7.85455 6.97236 8.11385 6.25248 9.4408 6.72866 6.2941 6.21463 7.44885 6.0992
threshold=0.20782129466533664 0.32957287132740026 0.90512505173683178 1.9318649768829348 0.026388191618025306 14.697119235992433 3.655628085136414 0.89769944548606884 2.0655893087387089 0.98049288988113414 0.26278783380985266 0.16689746826887134 1.1796656250953677 0.95881757140159618 0.12437270954251291 0.10306730866432191 0.13687541335821155 0.21628672629594806 0.13553109019994738 0.20306562632322314 0.96130904555320751 0.22911452502012256 0.056557623669505126
decision_type=2 2 2 2 2 2 2 2 2 2 2 2 2 2 2 2 2 2 2 2 2 2 2
left_child=6 4 3 -3 -2 7 -1 8 -6 13 11 14 22 16 15 -11 18 -18 19 -9 21 -15 -13
right_child=1 2 -4 -5 5 -7 -8 9 -10 10 -12 12 -14 20 -16 -17 17 -19 -20 -21 -22 -23 -24
leaf_value=0.03211955074496553 -0.030421393541583366 0.013018225381546695 -0.020805561099413578 -0.039781785334015968 0.015874231182495285 0.036677027288307663 0.082267862784130119 0.038216303151178022 -0.035576268324126047 0.010749377855654024 -0.026153726544522689 -0.01482660303497897 0.0053750403762978377 -0.0062807717227709812 0.0044154392365528634 -0.05827880129753691 0.00087032502592141446 0.011082896586844443 0.04917428658138439 0.0089921692603370292 0.0018921069332997502 -0.04975249171214513 0.012988370507896278
leaf_weight=25.72538685798645 14.93396647274494 90.055915474891663 99.668552160263062 8.1460347622632963 272.06022608280182 17.831976175308228 8.5271784663200361 19.407376632094383 19.09563373029232 6.3172551840543774 47.250287055969238 20.100517407059669 784.79535888135433 97.69397908449173 24.384120911359787 13.053969174623488 693.08194814622402 336.00522342324257 11.569880574941633 363.71512608230114 1056.585192039609 10.959512323141096 1010.7628138661385
leaf_count=94 58 336 384 32 1011 65 30 71 74 24 185 77 2943 371 92 52 2609 1254 42 1359 3980 43 3760
internal_value=0.0057639 0.00549876 -0.00619272 0.00863837 0.00597875 0.00609189 0.044604 0.00597796 0.0124998 0.00555558 0.00798645 0.008854 0.00938968 0.00376538 -0.0133743 -0.0357676 0.00625681 0.00420481 0.011607 0.0104725 0.000721153 -0.0106656 0.012446
internal_weight=5051.73 5017.47 197.871 98.202 4819.6 4804.67 34.2526 4786.84 291.156 4495.68 1906.66 1859.41 1815.66 2589.02 43.7553 19.3712 1423.78 1029.09 394.692 383.123 1165.24 108.653 1030.86
internal_count=18946 18822 752 368 18070 18012 124 17947 1085 16862 7133 6948 6780 9729 168 76 5335 3863 1472 1430 4394 414 3837
is_linear=0
shrinkage=0.05


Tree=5
num_leaves=24
num_cat=0
split_feature=1 1 3 0 3 0 0 3 0 1 0 0 3 0 3 1 0 3 1 1 1 3 0
split_gain=18.8768 11.473 13.1398 9.42883 7.50212 7.64118 7.17965 6.80338 6.0442 5.5336 5.39278 5.16979 4.75618 17.0703 7.05944 20.4246 7.99576 8.31912 12.995 12.3272 12.0684 7.0849 6.58858
threshold=1.4096931815147402 0.32957287132740026 0.90512505173683178 0.25140556693077093 0.86084845662117015 0.5470518469810487 0.026388191618025306 0.75325968861579906 14.697119235992433 0.41784721612930303 0.74928107857704174 0.049994491040706641 0.89769944548606884 2.0655893087387089 0.98049288988113414 0.26278783380985266 0.16689746826887134 0.9886586368083955 0.056557623669505126 0.091561581939458861 0.10694036260247232 0.95881757140159618 0.99116441607475292
decision_type=2 2 2 2 2 2 2 2 2 2 2 2 2 2 2 2 2 2 2 2 2 2 2
left_child=1 6 4 -2 5 -3 -1 -7 12 10 -6 -4 13 -8 21 16 -16 18 -18 -20 -19 -14 -22
right_child=3 2 11 -5 9 7 8 -9 -10 -11 -12 -13 14 -15 15 -17 17 20 19 -21 22 -23 -24
leaf_value=-0.02898689661801029 -0.021206081394006888 0.015383145670390922 0.023129183591546226 0.04930153794563287 -0.0047317350260536843 -0.00017169283824233775 0.01507028202128834 -0.047618257861738192 0.034840644502112175 0.048970317574203857 0.052109579565578573 -0.022531731568001773 0.0059420648823185693 -0.033903685827118876 -0.012734296481975658 -0.024939489598767441 -0.050406861814235697 -0.00031367029515308838 0.03253691338602057 0.011746721262506345 0.015105629033549645 0.00068500911347943807 0.0065826099708474906
leaf_weight=14.890476077795027 5.494344398379325 25.537492215633392 6.6452168226242057 34.609902769327164 17.22617727518082 16.656252875924114 272.24017414450645 13.827657237648962 17.833187013864517 14.028873026371 5.5066712945699683 92.323226138949394 1424.2121459543705 19.037279933691025 43.66834956407547 47.077697679400444 7.5537720471620551 403.90408577024937 88.079129010438919 374.27112327516079 379.73005913197994 1165.2698618322611 562.8355937153101
leaf_count=58 21 95 25 125 65 63 1011 54 65 51 20 357 5335 74 168 185 30 1518 323 1393 1409 4394 2107
internal_value=0.00547474 0.00520136 -0.00679278 0.0396419 0.00672512 -0.00479213 0.00567846 -0.0216937 0.00578587 0.0242763 0.00903717 -0.0194658 0.00567765 0.0118694 0.00527657 0.00758507 0.00840827 0.00891657 0.0146445 0.0157073 0.00691757 0.00357638 0.0100163
internal_weight=5052.46 5012.35 191.752 40.1042 92.7831 56.0214 4820.6 30.4839 4805.71 36.7617 22.7328 98.9684 4787.88 291.277 4496.6 1907.12 1860.04 1816.37 469.904 462.35 1346.47 2589.48 942.566
internal_count=18946 18800 730 146 348 212 18070 117 18012 136 85 382 17947 1085 16862 7133 6948 6780 1746 1716 5034 9729 3516
is_linear=0
shrinkage=0.05


Tree=6
num_leaves=24
num_cat=0
split_feature=1 1 0 3 3 3 0 0 0 0 1 0 3 1 3 3 0 1 3 1 0 0 3
split_gain=17.1027 10.3772 8.54016 8.17695 9.348 6.2055 7.74483 6.60728 6.48079 6.21602 5.87665 5.86148 5.17979 24.3862 7.546 7.83698 9.0866 7.32971 8.2659 7.98238 6.61001 6.51689 7.50205
threshold=1.4096931815147402 0.30845227837562567 0.25140556693077093 0.96803990006446849 0.98113620281219494 0.86084845662117015 0.83407214283943187 1.017862915992737 1.8086860179901125 14.697119235992433 0.41784721612930303 1.436156213283539 0.98049288988113414 0.26278783380985266 0.95652177929878246 0.95520472526550304 2.0115534067153935 0.21628672629594806 0.95476657152175914 0.13687541335821155 0.24128686636686328 0.16689746826887134 0.9886586368083955
decision_type=2 2 2 2 2 2 2 2 2 2 2 2 2 2 2 2 2 2 2 2 2 2 2
left_child=1 5 -2 -3 -5 6 -1 -8 11 12 -6 -9 14 21 15 17 -17 18 19 -7 -15 -14 -23
right_child=2 3 -4 4 10 9 7 8 -10 -11 -12 -13 13 20 -16 16 -18 -19 -20 -21 -22 22 -24
leaf_value=0.030555165297874578 -0.020173431064506454 -0.0011115314590208712 0.046981933628811985 -0.058073097127806776 -0.023964482063360267 0.0099810429402935677 -0.048778033197946845 0.0071462151524041831 -0.027604891864770126 0.034904043973767639 0.028679527493429537 0.073248541829827055 -0.010276702004164681 -0.072098994207621558 0.00087941713605146237 0.027454404307164011 -0.051597909350217325 0.011601278549043569 -0.037315077822697176 0.00074220277896885846 -0.020712331552490623 0.013906192183030047 0.0065698625025293585
leaf_weight=52.547275900840759 5.4870012402534476 210.52846027910709 34.505301967263222 14.378764703869818 16.730230331420902 347.63291072845459 5.9350632727146175 9.9250985682010668 7.4387958496808997 17.574598416686058 7.7600219994783393 5.0650677680969229 47.582803145051003 7.5200825035572043 1262.3642656654119 62.845840305089951 3.8582297414541236 352.70928430557251 12.386578366160391 713.96369400620461 37.291191577911377 470.09641635417938 1346.8291037678719
leaf_count=192 21 797 125 58 65 1296 23 37 29 64 29 18 183 32 4758 231 15 1313 48 2686 146 1746 5034
internal_value=0.00520034 0.00494052 0.0377681 -0.00500168 -0.0260721 0.00546104 0.0191899 -0.00186547 0.0105484 0.00522382 -0.00728361 0.0294817 0.00511201 0.00711361 0.00372521 0.00613075 0.0228819 0.00534756 0.00329376 0.00376758 -0.0293359 0.00798963 0.008468
internal_weight=5052.96 5012.96 39.9923 249.397 38.869 4763.57 80.9113 28.364 22.429 4682.65 24.4903 14.9902 4665.08 1909.32 2755.76 1493.4 66.7041 1426.69 1073.98 1061.6 44.8113 1864.51 1816.93
internal_count=18946 18800 146 949 152 17851 299 107 84 17552 94 55 17488 7141 10347 5589 246 5343 4030 3982 178 6963 6780
is_linear=0
shrinkage=0.05


Tree=7
num_leaves=24
num_cat=0
split_feature=1 1 3 0 3 0 3 0 0 0 3 1 1 0 3 0 3 1 0 3 1 0 0
split_gain=15.5134 9.52083 11.5925 7.74478 6.76445 6.85764 7.68995 6.18689 4.91683 4.88973 9.03445 6.38341 10.5675 4.24496 4.02143 14.9394 5.76554 18.0868 7.32412 6.98162 17.1922 12.9666 11.6279
threshold=1.4096931815147402 0.32957287132740026 0.90512505173683178 0.25140556693077093 0.85065445303916942 0.52405834197998058 0.75325968861579906 0.026388191618025306 14.697119235992433 0.75586131215095531 0.92858007550239574 0.61894550919532787 0.4567368775606156 0.1808520779013634 0.89769944548606884 2.0655893087387089 0.98026013374328624 0.26278783380985266 0.16689746826887134 0.99830231070518505 0.11604280769824983 0.33796696364879614 0.29993247985839849
decision_type=2 2 2 2 2 2 2 2 2 2 2 2 2 2 2 2 2 2 2 2 2 2 2
left_child=1 7 4 -2 5 -3 -7 -1 14 10 13 12 -12 -4 15 -9 -16 18 -18 22 -21 -22 -20
right_child=3 2 9 -5 -6 6 -8 8 -10 -11 11 -13 -14 -15 16 -17 17 -19 19 20 21 -23 -24
leaf_value=-0.027148126260857372 -0.019193867051790089 0.015180447886811395 0.0066397903251358501 0.044816272103635854 0.021158512875052004 -0.00010754646058766927 -0.052704912885117007 0.013808812731553811 0.031455409414486067 -0.035754068230885554 -0.0051519783802833246 -0.05281147413340366 0.056064196437383487 -0.04605483403123134 0.0032130199155815456 -0.032100240264665715 -0.012544093383002339 -0.023669414637933948 0.028514816318165589 -0.0051887142128058802 -0.029101606427854917 0.011284434164576609 0.0092791705262644571
leaf_weight=14.802598297595976 5.4788881093263617 21.797283262014389 4.7486803233623531 34.367521122097969 42.403927147388458 16.65472595393658 11.924901396036146 272.37552289664745 17.801372468471527 28.241091206669807 32.251773625612259 4.7790005952119818 9.0219282358884794 19.583144128322601 2574.5675740391016 18.953647240996361 44.054231435060501 47.406983748078346 86.175106361508369 286.91255928575993 20.621862530708313 548.64471293985844 889.5853580981493
leaf_count=58 21 81 18 125 157 63 47 1011 65 111 124 19 33 77 9670 74 170 188 316 1082 79 2043 3314
internal_value=0.00493998 0.00469299 -0.00624345 0.0360149 0.00644319 -0.00594319 -0.0220539 0.00512712 0.0052265 -0.0181783 -0.0111261 0.0018948 0.00822913 -0.0357708 0.00512901 0.010822 0.00476028 0.00683138 0.00760214 0.00808661 0.00479141 0.00982144 0.010978
internal_weight=5053.15 5013.31 191.406 39.8464 92.7808 50.3769 28.5796 4821.9 4807.1 98.6256 70.3845 46.0527 41.2737 24.3318 4789.3 291.329 4497.97 1923.4 1875.99 1831.94 856.179 569.267 975.76
internal_count=18946 18800 730 146 348 191 110 18070 18012 382 271 176 157 95 17947 1085 16862 7192 7004 6834 3204 2122 3630
is_linear=0
shrinkage=0.05


Tree=8
num_leaves=24
num_cat=0
split_feature=1 1 3 0 3 0 3 0 1 0 3 1 1 0 0 0 0 0 3 0 3 1 0
split_gain=14.0858 8.59716 10.4911 7.03085 6.17306 6.26122 5.666 5.59759 5.05859 4.45184 8.19832 5.79725 9.48488 4.44774 3.96387 3.88819 3.86665 3.76486 3.62958 13.507 5.21103 15.1417 6.49185
threshold=1.4096931815147402 0.32957287132740026 0.90512505173683178 0.25140556693077093 0.86084845662117015 0.5470518469810487 0.75325968861579906 0.026388191618025306 0.38964344561100012 0.75586131215095531 0.92858007550239574 0.61894550919532787 0.4567368775606156 14.697119235992433 6.3467726707458505 0.74928107857704174 0.1808520779013634 2.3054860830307011 0.89769944548606884 2.0655893087387089 0.98049288988113414 0.25430083274841314 0.24128686636686328
decision_type=2 2 2 2 2 2 2 2 2 2 2 2 2 2 2 2 2 2 2 2 2 2 2
left_child=1 7 4 -2 5 -3 17 -1 15 10 16 12 -12 18 -5 -6 -4 -7 19 -9 -20 -22 -23
right_child=3 2 9 14 8 6 -8 13 -10 -11 11 -13 -14 -15 -16 -17 -18 -19 20 -21 21 22 -24
leaf_value=-0.025883464401341174 -0.018264039015815199 0.013883568918574811 0.0063032890396869743 0.035953494490116221 -0.0094175999897884097 0.012801329973842222 -0.043505938135204654 0.013114326946780185 0.041110186968978196 -0.03413625671795114 -0.0048976102439538989 -0.050548196796582207 0.052989894542642295 0.029930369240941945 0.085188170490820669 0.042137276840062098 -0.044001677417587003 -0.043899408140765282 0.0030612709410825375 -0.03061785666155081 0.0073072466262684294 -0.063396722074195555 -0.01222937026849364
leaf_weight=14.750892043113707 5.470154494047164 25.570588201284409 4.7519891113042858 29.455105662345886 14.018045574426653 12.864477008581167 13.707569211721419 272.45728662610054 17.863450586795807 28.104053914546967 32.231059968471527 4.7442114204168311 9.0668348819017393 17.773675054311752 4.7468821108341208 4.9481187164783469 19.474815756082535 3.7901205122470847 2590.7436179667711 18.879634723067284 1847.8280623406172 7.0207169055938712 52.965187430381775
leaf_count=58 21 95 18 108 53 48 54 1011 65 111 124 19 33 65 17 18 77 15 9729 74 6897 30 206
internal_value=0.00469277 0.00445794 -0.00594214 0.0343688 0.00612104 -0.00434542 -0.0196976 0.00487015 0.0220164 -0.0173173 -0.0105906 0.00179801 0.00781143 0.00496451 0.0427868 0.00403265 -0.0341346 -0.000102172 0.00487187 0.0102803 0.0045216 0.00650468 -0.018218
internal_weight=5053.23 5013.55 191.135 39.6721 92.7624 55.9328 30.3622 4822.42 36.8296 98.373 70.2689 46.0421 41.2979 4807.67 34.202 18.9662 24.2268 16.6546 4789.89 291.337 4498.56 1907.81 59.9859
internal_count=18946 18800 730 146 348 212 117 18070 136 382 271 176 157 18012 125 71 95 63 17947 1085 16862 7133 236
is_linear=0
shrinkage=0.05


Tree=9
num_leaves=24
num_cat=0
split_feature=1 1 3 0 0 0 3 3 0 1 3 0 3 1 1 0 0 0 3 0 3 0 0
split_gain=12.8082 7.76387 9.49831 6.39243 5.62352 7.71641 6.89051 5.15428 5.06506 4.36504 4.56184 4.05418 7.44468 5.26981 8.52918 4.02563 3.71338 3.52605 3.59898 3.51614 3.40648 7.27143 5.16569
threshold=1.4096931815147402 0.32957287132740026 0.90512505173683178 0.25140556693077093 0.57081896066665661 0.12446789816021921 0.86803549528121959 0.75325968861579906 0.026388191618025306 0.38964344561100012 0.58790868520736705 0.75586131215095531 0.92858007550239574 0.61894550919532787 0.4567368775606156 14.697119235992433 6.3467726707458505 0.1808520779013634 0.92289358377456676 0.35004848241806036 0.86084845662117015 0.84852609038352977 1.017862915992737
decision_type=2 2 2 2 2 2 2 2 2 2 2 2 2 2 2 2 2 2 2 2 2 2 2
left_child=1 8 4 -2 5 -3 7 -6 -1 -7 -11 12 17 14 -14 20 -5 -4 19 -19 21 -10 -23
right_child=3 2 11 16 6 9 -8 -9 15 10 -12 -13 13 -15 -16 -17 -18 18 -20 -21 -22 22 -24
leaf_value=-0.024682006082467775 -0.017380899445114555 -0.051664669902233909 0.0059841881744480694 0.03430557020148222 -0.00091786922751429601 0.0027087740519463207 0.027232900378204052 -0.042817231847676954 0.024529186045390314 -0.014877112930415987 0.041093095842957394 -0.032603773514550675 -0.0046557030103942226 -0.048429482472670024 0.050172006509449307 0.028490422703222634 0.082314685412575028 -0.059955159146424623 -0.08670519821929927 -0.011859840947690325 0.0044456502091188271 -0.051532331157110492 0.0037175556026612642
leaf_weight=14.696878179907797 5.4609314054250708 3.8576695024967185 4.7550363689661053 29.329735472798347 15.567949593067171 18.671246364712715 10.073222801089285 13.88768884539604 58.598324984312057 4.2225167155265835 26.413890331983566 27.957553893327713 32.210993275046349 4.7051696479320517 9.0964291244745237 17.73925156891346 4.6689113080501548 6.4583008587360409 3.6618331074714652 9.2328933477401716 4702.9531226754189 5.1441539525985744 23.823222160339355
leaf_count=58 21 15 18 108 59 70 37 55 215 16 96 111 124 19 33 65 17 26 15 36 17622 20 90
internal_value=0.00445804 0.00423472 -0.00565827 0.032833 0.00581786 0.016437 -0.00846467 -0.0206725 0.00462604 0.0217651 0.0333789 -0.0165044 -0.0100855 0.00170719 0.00741807 0.00471562 0.0408985 -0.032593 -0.0420714 -0.0316553 0.00462758 0.0143988 -0.00609396
internal_weight=5053.19 5013.73 190.772 39.4596 92.6942 53.1653 39.5289 29.4556 4822.95 49.3077 30.6364 98.0782 70.1207 46.0126 41.3074 4808.26 33.9986 24.1081 19.353 15.6912 4790.52 87.5657 28.9674
internal_count=18946 18800 730 146 348 197 151 114 18070 182 112 382 271 176 157 18012 125 95 77 62 17947 325 110
is_linear=0
shrinkage=0.05


Tree=10
num_leaves=24
num_cat=0
split_feature=1 1 3 3 0 3 0 0 0 0 3 0 3 1 0 1 3 3 1 3 0 3 1
split_gain=11.6564 7.11443 6.87321 8.34932 5.81723 4.7819 5.9873 5.7721 5.17896 5.28995 4.85176 4.75888 4.28971 19.8708 6.30154 7.27555 6.6535 9.18291 5.66578 15.4544 9.89506 5.43036 10.745
threshold=1.4096931815147402 0.30845227837562567 0.96803990006446849 0.98113620281219494 0.25140556693077093 0.86084845662117015 0.83407214283943187 1.017862915992737 1.8086860179901125 1.436156213283539 0.842422515153885 0.13378990441560748 0.98136374354362499 0.2652383446693421 3.0459734201431279 0.27417823672294622 0.95652177929878246 0.95520472526550304 0.22629285603761676 0.96850889921188366 0.29510290920734411 0.9886586368083955 0.056557623669505126
decision_type=2 2 2 2 2 2 2 2 2 2 2 2 2 2 2 2 2 2 2 2 2 2 2
left_child=1 5 11 -4 -2 6 -1 -8 9 10 -9 -3 14 21 15 16 17 -7 -18 20 -20 22 -14
right_child=4 2 3 -5 -6 12 7 8 -10 -11 -12 -13 13 -15 -16 -17 18 -19 19 -21 -22 -23 -24
leaf_value=0.026523693839916415 -0.016541680830810826 -0.030083007480525475 -0.054285371576364906 -0.0059217343158025374 0.039121712506478348 0.0043649579356716149 -0.045928502177365847 -0.026021625306531366 -0.024740741367901969 0.068038029133441577 0.044302220012038374 0.00125801520253491 -0.048488434413120007 -0.028818700893128768 -0.011861828383312491 0.015892052301275609 0.0011233337825992673 0.023856962041114631 0.0061605740530012 0.0076628297527161042 -0.050952416043693653 0.0053268007961968173 0.01270739253645229
leaf_weight=52.418465852737427 5.4513333290815345 12.906172364950178 14.100341469049452 24.307978928089142 33.773118361830711 1308.6877084970474 5.9187088906765011 5.515089303255083 7.3637463003396979 5.066051021218299 4.4169091135263443 196.84906758368015 7.2937038242816916 39.877840101718903 69.471031218767166 111.57470744848251 1176.0851865708828 63.348597079515457 10.378883168101309 44.576515287160873 28.161087617278099 1392.2554318457842 433.48349019885063
leaf_count=192 21 50 58 94 125 4898 23 21 29 18 16 747 29 161 264 414 4426 233 39 167 110 5202 1609
internal_value=0.004235 0.0040226 -0.0042311 -0.0236768 0.0313857 0.00445237 0.0165202 -0.00202155 0.00959972 0.0264602 0.00525245 -0.000670388 0.00424451 0.00609844 0.00300985 0.00338653 0.00285624 0.00526493 0.000231721 -0.0123845 -0.0355718 0.00685806 0.0116948
internal_weight=5053.28 5014.06 248.164 38.4083 39.2245 4765.89 80.699 28.2805 22.3618 14.998 9.932 209.755 4685.19 1872.91 2812.28 2742.81 2631.24 1372.04 1259.2 83.1165 38.54 1833.03 440.777
internal_count=18946 18800 949 152 146 17851 299 107 84 55 37 797 17552 7001 10551 10287 9873 5131 4742 316 149 6840 1638
is_linear=0
shrinkage=0.05


Tree=11
num_leaves=24
num_cat=0
split_feature=1 1 3 3 0 3 0 0 0 0 0 1 3 0 3 1 0 1 3 3 1 3 0
split_gain=10.6057 6.42221 6.24307 7.68368 5.29293 4.32926 5.42373 6.77264 4.77725 4.30752 4.30692 4.057 3.59758 3.55875 3.51801 17.2298 7.30499 6.56145 6.00334 8.2865 5.11954 13.994 8.98775
threshold=1.4096931815147402 0.30845227837562567 0.96803990006446849 0.98113620281219494 0.25140556693077093 0.86084845662117015 0.84852609038352977 1.017862915992737 3.2709236145019536 14.697119235992433 0.13378990441560748 0.41784721612930303 0.842422515153885 6.3467726707458505 0.98136374354362499 0.2652383446693421 3.0459734201431279 0.27417823672294622 0.95652177929878246 0.95520472526550304 0.22629285603761676 0.96850889921188366 0.29510290920734411
decision_type=2 2 2 2 2 2 2 2 2 2 2 2 2 2 2 2 2 2 2 2 2 2 2
left_child=1 5 10 -4 -2 6 -1 -8 12 14 -3 -5 -9 -6 16 -16 17 18 19 -7 -20 22 -22
right_child=4 2 3 11 13 9 7 8 -10 -11 -12 -13 -14 -15 15 -17 -18 -19 20 -21 21 -23 -24
leaf_value=0.024971114635954306 -0.015743849929935418 -0.028658600033931309 -0.052209153856306416 -0.019659681032715939 0.030981739751502466 0.0041459815574511512 -0.056180728470701539 0.0016240898085215284 -0.040647260687347496 0.028831392207311957 0.0011949915585584593 0.024133726013000317 0.046718450621661051 0.07861941967142351 0.0063345021040560681 -0.027088698080819897 -0.013667620213505677 0.015089704182941114 0.0010670944883527315 0.022660893820017236 0.0058500989810965579 0.0072763850831989068 -0.048602625879447255
leaf_weight=53.412496566772461 5.4414604604244223 12.871155023574827 13.93231216073036 16.507928818464283 29.018452823162079 1308.9122198969126 4.8267499804496792 10.920636042952543 3.96288739144802 17.444740280508995 196.8687389343977 7.7812147736549369 7.4334655702114096 4.5328512489795676 1819.9110892266035 39.393564432859421 65.591861397027969 111.63044084608555 1176.1633718162775 63.357290491461754 10.38310983777046 44.596229672431946 28.049238353967667
leaf_count=196 21 50 58 65 108 4898 19 41 16 64 747 29 27 17 6791 160 250 414 4426 233 39 167 110
internal_value=0.00402341 0.00382141 -0.00402384 -0.0226089 0.029999 0.00422957 0.0157224 -0.00247699 0.00913813 0.00403198 -0.00063704 -0.00563012 0.0198874 0.0374177 0.0039393 0.00562636 0.0028225 0.0032168 0.00271314 0.00500081 0.000220024 -0.0117794 -0.0338914
internal_weight=5052.94 5013.95 247.961 38.2215 38.9928 4765.99 80.5562 27.1437 22.317 4685.43 209.74 24.2891 18.3541 33.5513 4667.99 1859.3 2808.68 2743.09 2631.46 1372.27 1259.19 83.0286 38.4323
internal_count=18946 18800 949 152 146 17851 299 103 84 17552 797 94 68 125 17488 6951 10537 10287 9873 5131 4742 316 149
is_linear=0
shrinkage=0.05


end of trees

feature_importances:
vol_ratio=109
price_rank10d=90
bb_width=77

parameters:
[boosting: gbdt]
[objective: binary]
[metric: auc]
[tree_learner: serial]
[device_type: cpu]
[data_sample_strategy: bagging]
[data: ]
[valid: ]
[num_iterations: 300]
[learning_rate: 0.05]
[num_leaves: 24]
[num_threads: 14]
[seed: 0]
[deterministic: 0]
[force_col_wise: 0]
[force_row_wise: 0]
[histogram_pool_size: -1]
[max_depth: -1]
[min_data_in_leaf: 15]
[min_sum_hessian_in_leaf: 0.001]
[bagging_fraction: 1]
[pos_bagging_fraction: 1]
[neg_bagging_fraction: 1]
[bagging_freq: 0]
[bagging_seed: 3]
[bagging_by_query: 0]
[feature_fraction: 1]
[feature_fraction_bynode: 1]
[feature_fraction_seed: 2]
[extra_trees: 0]
[extra_seed: 6]
[early_stopping_round: 0]
[early_stopping_min_delta: 0]
[first_metric_only: 0]
[max_delta_step: 0]
[lambda_l1: 0]
[lambda_l2: 0]
[linear_lambda: 0]
[min_gain_to_split: 0]
[drop_rate: 0.1]
[max_drop: 50]
[skip_drop: 0.5]
[xgboost_dart_mode: 0]
[uniform_drop: 0]
[drop_seed: 4]
[top_rate: 0.2]
[other_rate: 0.1]
[min_data_per_group: 100]
[max_cat_threshold: 32]
[cat_l2: 10]
[cat_smooth: 10]
[max_cat_to_onehot: 4]
[top_k: 20]
[monotone_constraints: ]
[monotone_constraints_method: basic]
[monotone_penalty: 0]
[feature_contri: ]
[forcedsplits_filename: ]
[refit_decay_rate: 0.9]
[cegb_tradeoff: 1]
[cegb_penalty_split: 0]
[cegb_penalty_feature_lazy: ]
[cegb_penalty_feature_coupled: ]
[path_smooth: 0]
[interaction_constraints: ]
[verbosity: -1]
[saved_feature_importance_type: 0]
[use_quantized_grad: 0]
[num_grad_quant_bins: 4]
[quant_train_renew_leaf: 0]
[stochastic_rounding: 1]
[linear_tree: 0]
[max_bin: 255]
[max_bin_by_feature: ]
[min_data_in_bin: 3]
[bin_construct_sample_cnt: 200000]
[data_random_seed: 1]
[is_enable_sparse: 1]
[enable_bundle: 1]
[use_missing: 1]
[zero_as_missing: 0]
[feature_pre_filter: 1]
[pre_partition: 0]
[two_round: 0]
[header: 0]
[label_column: ]
[weight_column: ]
[group_column: ]
[ignore_column: ]
[categorical_feature: ]
[forcedbins_filename: ]
[precise_float_parser: 0]
[parser_config_file: ]
[objective_seed: 5]
[num_class: 1]
[is_unbalance: 0]
[scale_pos_weight: 1.15173]
[sigmoid: 1]
[boost_from_average: 1]
[reg_sqrt: 0]
[alpha: 0.9]
[fair_c: 1]
[poisson_max_delta_step: 0.7]
[tweedie_variance_power: 1.5]
[lambdarank_truncation_level: 30]
[lambdarank_norm: 1]
[label_gain: ]
[lambdarank_position_bias_regularization: 0]
[eval_at: ]
[multi_error_top_k: 1]
[auc_mu_weights: ]
[num_machines: 1]
[local_listen_port: 12400]
[time_out: 120]
[machine_list_filename: ]
[machines: ]
[gpu_platform_id: -1]
[gpu_device_id: -1]
[gpu_use_dp: 0]
[num_gpu: 1]

end of parameters

pandas_categorical:null
